
\data\
ngram 1=8345
ngram 2=56946

\1-grams:
-2.74471673075 <UNK>
-3.19869671052 <s>
-3.19869671052 </s>
-5.06358641751 да
-5.16728993196 менен
-5.5932449896 бир
-5.67233757844 эле
-5.81354088831 деп
-5.85878285242 атай
-5.98924928921 ал
-6.03747464116 жок
-6.04342114035 жана
-6.15921807804 анын
-6.19096677635 үчүн
-6.26755922183 гана
-6.3586494624 аны
-6.44096541497 эмне
-6.48018612812 бирок
-6.62565664112 болуп
-6.63639019676 бул
-6.64361044473 турган
-6.64724021278 экен
-6.69185727827 эмес
-6.74255039259 кийин
-6.75867977452 өз
-6.80017950543 деген
-6.8346656815 калды
-6.84791090825 алып
-6.8523652586 өзү
-6.87493958063 чоң
-6.87951624766 бар
-6.88411395691 эки
-6.89337328232 султаналы
-6.93613514166 башка
-6.95574361305 мен
-6.98080758171 эч
-6.99101175189 болсо
-7.00132112155 эл
-7.0117378824 же
-7.04365548537 киши
-7.06551427918 ким
-7.08786157788 жакшы
-7.10495601124 ушул
-7.11071971595 деди
-7.1282128734 келип
-7.15202352209 баштады
-7.2141553032 ага
-7.24673147364 бери
-7.25337601635 кара
-7.25337601635 эми
-7.26006500451 калган
-7.28727756803 албай
-7.28727756803 керек
-7.31525142007 отурган
-7.34403038462 көз
-7.3661715105 келген
-7.38120938786 токтогул
-7.38120938786 бала
-7.38120938786 берди
-7.38881398725 сөз
-7.38881398725 атайдын
-7.40419890609 мамат
-7.4277294035 тыныбек
-7.4277294035 болду
-7.43569757315 алар
-7.47651956767 жаңы
-7.48488781734 жигит
-7.49332668598 жаш
-7.50183737565 күү
-7.51907918209 башын
-7.52781286206 кандай
-7.52781286206 ак
-7.53662349174 баары
-7.54551243916 жолу
-7.55448110914 азыр
-7.55448110914 го
-7.55448110914 сен
-7.56353094466 дагы
-7.56353094466 жалгыз
-7.59118247599 көп
-7.59118247599 ушу
-7.60057221634 алды
-7.62928232222 ар
-7.63903849717 келди
-7.63903849717 чыгып
-7.63903849717 кишилер
-7.68930033195 үйүнө
-7.68930033195 барып
-7.69966311898 болуш
-7.71013441885 экенин
-7.71013441885 субан
-7.72071652818 болгон
-7.72071652818 ошол
-7.7314118173 дегенсип
-7.7314118173 отуруп
-7.7422227334 жөнүндө
-7.77537494072 жүргөн
-7.77537494072 чыкты
-7.78667449597 кызылбаш
-7.78667449597 койду
-7.78667449597 жер
-7.78667449597 жаткан
-7.7981031918 нерсе
-7.7981031918 кыз
-7.7981031918 көзү
-7.8096640142 туруп
-7.8096640142 жооп
-7.83319451161 үйгө
-7.83319451161 көрүп
-7.83319451161 бай
-7.86956215578 кетти
-7.86956215578 турду
-7.86956215578 седеп
-7.88198467578 ушундай
-7.89456345798 элдин
-7.89456345798 мындай
-7.89456345798 калышты
-7.89456345798 боз
-7.90730248376 болот
-7.90730248376 келин
-7.9202058886 карап
-7.9202058886 үй
-7.9202058886 бири
-7.93327797016 абышка
-7.94652319691 түштү
-7.94652319691 андан
-7.94652319691 жүрүп
-7.95994621725 баш
-7.95994621725 чыккан
-7.95994621725 тыныбектин
-7.9735518693 айтып
-7.9735518693 тоймат
-7.9735518693 мени
-7.98734519143 мындан
-8.00133143341 чейин
-8.00133143341 аялы
-8.0155160684 алардын
-8.0155160684 эшикке
-8.0155160684 коюп
-8.0155160684 комуз
-8.02990480585 үйдүн
-8.02990480585 күн
-8.04450360527 сөзүн
-8.04450360527 мага
-8.05931869106 болбосо
-8.05931869106 басып
-8.05931869106 комузчу
-8.05931869106 менин
-8.05931869106 элге
-8.05931869106 кайсы
-8.07435656842 жанына
-8.07435656842 качып
-8.07435656842 ордунан
-8.07435656842 көздөй
-8.07435656842 ой
-8.07435656842 эсенбек
-8.08962404055 ат
-8.08962404055 комузун
-8.08962404055 аз
-8.10512822709 түшүп
-8.10512822709 анан
-8.10512822709 бу
-8.10512822709 бетер
-8.10512822709 чырым
-8.10512822709 кайра
-8.12087658406 баланын
-8.13687692541 балам
-8.13687692541 ала
-8.13687692541 үч
-8.13687692541 кудай
-8.15313744628 жакка
-8.15313744628 ачык
-8.15313744628 таң
-8.16966674823 кээде
-8.16966674823 аккыз
-8.16966674823 кантип
-8.16966674823 жол
-8.16966674823 жерге
-8.16966674823 көргөн
-8.16966674823 кирип
-8.18647386654 эски
-8.2035682999 молдо
-8.2035682999 тура
-8.22096004262 жерден
-8.22096004262 балким
-8.22096004262 көк
-8.22096004262 атайды
-8.22096004262 каякка
-8.22096004262 алдына
-8.23865961972 султаналынын
-8.23865961972 окшоп
-8.23865961972 абдыракман
-8.23865961972 колуна
-8.23865961972 кол
-8.25667812522 элек
-8.25667812522 көзүн
-8.25667812522 мына
-8.25667812522 келгенде
-8.25667812522 мурда
-8.25667812522 балдар
-8.25667812522 сени
-8.25667812522 кылып
-8.25667812522 колун
-8.25667812522 түгүл
-8.27502726389 бет
-8.27502726389 жүрөгү
-8.27502726389 болуштун
-8.27502726389 тең
-8.27502726389 дешип
-8.2937193969 дейт
-8.2937193969 карады
-8.2937193969 ырчы
-8.2937193969 биринчи
-8.2937193969 күнү
-8.31276759187 өзүнүн
-8.31276759187 көңүлү
-8.31276759187 кыргыз
-8.31276759187 албады
-8.31276759187 жаман
-8.31276759187 кызыл
-8.33218567773 отурду
-8.33218567773 алган
-8.33218567773 кудайберген
-8.33218567773 ары
-8.35198830502 атын
-8.35198830502 калып
-8.35198830502 кош
-8.35198830502 бүгүн
-8.35198830502 чай
-8.35198830502 ичинде
-8.37219101234 салып
-8.37219101234 уулу
-8.37219101234 үстүнө
-8.37219101234 улам
-8.39281029954 кой
-8.39281029954 тартып
-8.39281029954 атасы
-8.39281029954 бий
-8.39281029954 жерде
-8.41386370874 талас
-8.41386370874 ошону
-8.41386370874 байдын
-8.43536991396 деле
-8.43536991396 үйдө
-8.43536991396 көрө
-8.43536991396 комузду
-8.43536991396 кайдан
-8.43536991396 отура
-8.43536991396 бер
-8.43536991396 аларды
-8.43536991396 биздин
-8.45734882068 тиктеп
-8.45734882068 ошондо
-8.45734882068 топ
-8.45734882068 билбей
-8.45734882068 беле
-8.45734882068 биз
-8.45734882068 райымбек
-8.47982167653 жактан
-8.47982167653 сөзгө
-8.47982167653 мал
-8.47982167653 өзүнчө
-8.47982167653 маматтын
-8.47982167653 ошо
-8.47982167653 жаныбек
-8.47982167653 бойдон
-8.47982167653 көтөрүп
-8.50281119476 чыга
-8.50281119476 өтүп
-8.50281119476 угуп
-8.50281119476 үчүндүр
-8.50281119476 эң
-8.50281119476 атайга
-8.50281119476 мураталы
-8.50281119476 сөздү
-8.52634169217 берип
-8.52634169217 кеп
-8.52634169217 болсун
-8.52634169217 баарын
-8.52634169217 кеткен
-8.52634169217 салам
-8.52634169217 караганда
-8.52634169217 айыл
-8.52634169217 ыр
-8.52634169217 ээ
-8.55043924375 көзде
-8.55043924375 кармап
-8.55043924375 бирөө
-8.55043924375 өзүн
-8.55043924375 жанында
-8.55043924375 эгерде
-8.55043924375 келе
-8.55043924375 катуу
-8.55043924375 колунан
-8.55043924375 жантакпай
-8.55043924375 элди
-8.55043924375 билген
-8.57513185634 туура
-8.57513185634 чертип
-8.57513185634 өзүнө
-8.57513185634 үн
-8.57513185634 ай
-8.57513185634 мамыр
-8.60044966432 күүнү
-8.60044966432 үнү
-8.60044966432 тиги
-8.60044966432 атасынын
-8.60044966432 жакын
-8.60044966432 иш
-8.60044966432 алымбай
-8.60044966432 кишинин
-8.60044966432 боло
-8.62642515072 кетип
-8.62642515072 келет
-8.62642515072 акырында
-8.62642515072 ичинен
-8.62642515072 сага
-8.62642515072 ооба
-8.62642515072 комуздун
-8.62642515072 башына
-8.62642515072 өткөн
-8.62642515072 кулак
-8.62642515072 башы
-8.62642515072 качан
-8.65309339781 калат
-8.65309339781 түшкөн
-8.65309339781 аксакал
-8.65309339781 жатып
-8.65309339781 ачып
-8.65309339781 күлүп
-8.65309339781 сайын
-8.65309339781 орус
-8.65309339781 мейман
-8.65309339781 жагынан
-8.65309339781 кишилердин
-8.65309339781 мурун
-8.68049237199 мүмкүн
-8.68049237199 иреңи
-8.68049237199 жигиттин
-8.68049237199 кошо
-8.68049237199 ыраазы
-8.68049237199 баягы
-8.68049237199 тоо
-8.68049237199 сөзү
-8.68049237199 ойго
-8.70866324896 ичи
-8.70866324896 жагына
-8.70866324896 экендигин
-8.70866324896 уккан
-8.70866324896 өздөрү
-8.70866324896 уулжан
-8.73765078583 десе
-8.73765078583 аларга
-8.73765078583 алдында
-8.73765078583 ээси
-8.73765078583 бекен
-8.73765078583 сенин
-8.73765078583 ошондой
-8.73765078583 баланы
-8.73765078583 сүйлөдү
-8.73765078583 байбиче
-8.76750374898 ого
-8.76750374898 баратты
-8.76750374898 таштап
-8.76750374898 арасында
-8.76750374898 көңүл
-8.76750374898 албайт
-8.76750374898 байкап
-8.76750374898 кирди
-8.76750374898 суроо
-8.79827540765 өзүм
-8.79827540765 калың
-8.79827540765 кимдин
-8.79827540765 ушуну
-8.79827540765 түшүнө
-8.79827540765 иши
-8.79827540765 чал
-8.79827540765 токтогулдун
-8.79827540765 эмеспи
-8.79827540765 турганда
-8.79827540765 баласы
-8.79827540765 колу
-8.83002410597 экөө
-8.83002410597 неме
-8.83002410597 турат
-8.83002410597 сыяктуу
-8.83002410597 артына
-8.83002410597 кайда
-8.83002410597 көңүлүн
-8.83002410597 акыркы
-8.83002410597 аттын
-8.83002410597 оозунан
-8.83002410597 седептин
-8.83002410597 айтор
-8.83002410597 койгон
-8.83002410597 таластын
-8.83002410597 кыздын
-8.83002410597 айтты
-8.83002410597 оозун
-8.86281392879 убакта
-8.86281392879 күүсүн
-8.86281392879 муну
-8.86281392879 эгер
-8.86281392879 бүт
-8.86281392879 жай
-8.86281392879 турмуш
-8.86281392879 бектен
-8.86281392879 атка
-8.86281392879 бараткан
-8.86281392879 жери
-8.86281392879 сонун
-8.86281392879 а
-8.86281392879 айткан
-8.86281392879 андай
-8.86281392879 суу
-8.86281392879 дабышы
-8.86281392879 дем
-8.86281392879 субандын
-8.86281392879 канча
-8.86281392879 кызылбаштын
-8.86281392879 көзүнө
-8.86281392879 болбойт
-8.89671548046 берет
-8.89671548046 отурат
-8.89671548046 минип
-8.89671548046 күүгө
-8.89671548046 экинчи
-8.89671548046 ойлоп
-8.89671548046 убакыт
-8.89671548046 кайрадан
-8.89671548046 көзгө
-8.89671548046 кызы
-8.89671548046 болбой
-8.89671548046 белгилүү
-8.89671548046 аралап
-8.89671548046 күйөөсү
-8.89671548046 кылды
-8.89671548046 бизге
-8.89671548046 эртең
-8.89671548046 абдыраман
-8.89671548046 ооз
-8.93180680028 өтө
-8.93180680028 эмнеге
-8.93180680028 бурулча
-8.93180680028 этти
-8.93180680028 берген
-8.93180680028 тамаша
-8.93180680028 булар
-8.93180680028 чыгарып
-8.93180680028 жогору
-8.93180680028 жатат
-8.93180680028 айта
-8.93180680028 баштаганда
-8.93180680028 түшүндү
-8.93180680028 көргөндө
-8.96817444445 боюнча
-8.96817444445 келсе
-8.96817444445 калганын
-8.96817444445 үйдөн
-8.96817444445 болгону
-8.96817444445 өзүң
-8.96817444445 сары
-8.96817444445 узун
-8.96817444445 көрдү
-8.96817444445 кете
-8.96817444445 ырас
-8.96817444445 оң
-8.96817444445 элден
-8.96817444445 жөн
-8.96817444445 салды
-8.96817444445 башынан
-8.96817444445 кулагына
-8.96817444445 жагында
-8.96817444445 болор
-9.00591477243 барбы
-9.00591477243 кимиси
-9.00591477243 акын
-9.00591477243 нерсени
-9.00591477243 баштаган
-9.00591477243 ата
-9.00591477243 кошуп
-9.00591477243 күтүп
-9.00591477243 чыкканда
-9.00591477243 аттан
-9.00591477243 айылдын
-9.00591477243 артынан
-9.00591477243 кандайдыр
-9.00591477243 учурда
-9.00591477243 өттү
-9.00591477243 ойлойт
-9.04513548558 алышып
-9.04513548558 тууган
-9.04513548558 эсине
-9.04513548558 кана
-9.04513548558 макул
-9.04513548558 болгонун
-9.04513548558 билет
-9.04513548558 үйү
-9.04513548558 жайын
-9.04513548558 кыйын
-9.04513548558 абдыракмандын
-9.04513548558 жыл
-9.04513548558 он
-9.04513548558 окуу
-9.04513548558 кимге
-9.04513548558 укканда
-9.04513548558 болушту
-9.04513548558 туш
-9.04513548558 ойлоду
-9.04513548558 сууруп
-9.04513548558 келгенин
-9.04513548558 башында
-9.04513548558 дал
-9.04513548558 кичинекей
-9.04513548558 отурганда
-9.04513548558 кабар
-9.04513548558 кишиге
-9.04513548558 аял
-9.04513548558 чын
-9.0859574801 жүргөндө
-9.0859574801 угулду
-9.0859574801 силер
-9.0859574801 куу
-9.0859574801 келаткан
-9.0859574801 оор
-9.0859574801 далай
-9.0859574801 кылган
-9.0859574801 бирде
-9.0859574801 акшайым
-9.0859574801 бийик
-9.0859574801 дегенде
-9.0859574801 акыры
-9.0859574801 катары
-9.0859574801 кийип
-9.0859574801 темир
-9.0859574801 заман
-9.0859574801 ушинтип
-9.0859574801 кое
-9.0859574801 чор
-9.0859574801 анатолий
-9.0859574801 араң
-9.0859574801 шаршен
-9.0859574801 башкалар
-9.0859574801 күүсү
-9.0859574801 бардыгы
-9.0859574801 күлдү
-9.0859574801 кереги
-9.12851709452 айылдагы
-9.12851709452 соңунан
-9.12851709452 көрүндү
-9.12851709452 айылга
-9.12851709452 балага
-9.12851709452 эр
-9.12851709452 күч
-9.12851709452 чыгат
-9.12851709452 күйөөсүнүн
-9.12851709452 чакырып
-9.12851709452 кошулуп
-9.12851709452 сиз
-9.12851709452 үстүндө
-9.12851709452 бирге
-9.12851709452 келгенден
-9.12851709452 акырын
-9.12851709452 сыртынан
-9.12851709452 мунун
-9.12851709452 билчү
-9.12851709452 келбей
-9.12851709452 оторбай
-9.12851709452 элем
-9.12851709452 али
-9.12851709452 алымкул
-9.12851709452 болуу
-9.12851709452 анда
-9.12851709452 оюн
-9.12851709452 нечен
-9.12851709452 аялынын
-9.12851709452 кала
-9.17296885709 биле
-9.17296885709 кулагы
-9.17296885709 бозо
-9.17296885709 төмөн
-9.17296885709 жүрөт
-9.17296885709 бутун
-9.17296885709 отурушкан
-9.17296885709 садыр
-9.17296885709 сөзди
-9.17296885709 турсун
-9.17296885709 тууганбай
-9.17296885709 экиүч
-9.17296885709 сунду
-9.17296885709 үйүндө
-9.17296885709 сырын
-9.17296885709 кестикбай
-9.17296885709 мында
-9.17296885709 ээрчитип
-9.17296885709 алдынча
-9.17296885709 эркин
-9.17296885709 дегенсишип
-9.17296885709 таш
-9.17296885709 жалаң
-9.21948887273 кедей
-9.21948887273 калганда
-9.21948887273 жөнөдү
-9.21948887273 экенсиң
-9.21948887273 шалтакбай
-9.21948887273 анткени
-9.21948887273 чыгар
-9.21948887273 эмнеси
-9.21948887273 отургандар
-9.21948887273 ашык
-9.21948887273 тарапка
-9.21948887273 апасы
-9.21948887273 болорун
-9.21948887273 кулагын
-9.21948887273 таап
-9.21948887273 болучу
-9.21948887273 беш
-9.21948887273 дегендей
-9.21948887273 бийдин
-9.21948887273 отурушту
-9.21948887273 оокат
-9.21948887273 жан
-9.21948887273 билип
-9.21948887273 унчукпай
-9.21948887273 ошондон
-9.2682790369 федорович
-9.2682790369 бою
-9.2682790369 дабыш
-9.2682790369 койчу
-9.2682790369 акыл
-9.2682790369 жагын
-9.2682790369 абышкалар
-9.2682790369 жигитке
-9.2682790369 зуура
-9.2682790369 экөөнүн
-9.2682790369 ойлогон
-9.2682790369 жакта
-9.2682790369 меймандар
-9.2682790369 баса
-9.2682790369 тиктеди
-9.2682790369 бере
-9.2682790369 күүнүн
-9.2682790369 эс
-9.2682790369 кор
-9.2682790369 мугалим
-9.2682790369 ортосунда
-9.2682790369 үйүнөн
-9.2682790369 жараша
-9.2682790369 жардам
-9.2682790369 этип
-9.2682790369 баратат
-9.2682790369 кудайга
-9.2682790369 көзинде
-9.2682790369 айылда
-9.2682790369 тим
-9.2682790369 мынчалык
-9.2682790369 менден
-9.2682790369 өмүр
-9.2682790369 молдонун
-9.2682790369 тирүү
-9.2682790369 өмүрү
-9.2682790369 кайрылып
-9.2682790369 тааныш
-9.2682790369 аңгыча
-9.2682790369 бөлүп
-9.2682790369 кетет
-9.31957233128 кишини
-9.31957233128 калса
-9.31957233128 ээрчип
-9.31957233128 сурады
-9.31957233128 кашаттын
-9.31957233128 турушту
-9.31957233128 кайран
-9.31957233128 мырза
-9.31957233128 чуркап
-9.31957233128 келбейт
-9.31957233128 артисттер
-9.31957233128 аты
-9.31957233128 жанынан
-9.31957233128 бекер
-9.31957233128 жүрөгүн
-9.31957233128 минтип
-9.31957233128 бөлүнүп
-9.31957233128 жолго
-9.31957233128 атынын
-9.31957233128 ордуна
-9.31957233128 дале
-9.31957233128 көзүнчө
-9.31957233128 конок
-9.31957233128 мойнун
-9.31957233128 кетментөбөгө
-9.31957233128 окшойт
-9.31957233128 кыргыздын
-9.31957233128 сурап
-9.31957233128 аш
-9.31957233128 карыя
-9.31957233128 ошентип
-9.31957233128 дешет
-9.31957233128 атчан
-9.31957233128 окуя
-9.31957233128 жанындагы
-9.31957233128 сакалын
-9.31957233128 балдардын
-9.31957233128 башталды
-9.31957233128 көздөрү
-9.31957233128 түнү
-9.37363955255 султаналыга
-9.37363955255 теректин
-9.37363955255 байкады
-9.37363955255 алат
-9.37363955255 уулунун
-9.37363955255 өмүрүндө
-9.37363955255 түшүнгөн
-9.37363955255 келишкен
-9.37363955255 бүткүл
-9.37363955255 уулун
-9.37363955255 турбайбы
-9.37363955255 азыркы
-9.37363955255 күмүш
-9.37363955255 билбеген
-9.37363955255 колундагы
-9.37363955255 дешти
-9.37363955255 тийип
-9.37363955255 айсалкын
-9.37363955255 болуптур
-9.37363955255 турганын
-9.37363955255 эгин
-9.37363955255 комузчунун
-9.37363955255 сыр
-9.37363955255 көрүнүп
-9.37363955255 аздан
-9.37363955255 үйдү
-9.37363955255 күнгө
-9.37363955255 чыдабай
-9.37363955255 окуп
-9.37363955255 жеңеси
-9.37363955255 беришти
-9.37363955255 совет
-9.37363955255 анысы
-9.37363955255 бурулду
-9.37363955255 от
-9.37363955255 таластан
-9.37363955255 атты
-9.37363955255 күйдүм
-9.37363955255 угулат
-9.37363955255 мыкты
-9.37363955255 аманэсен
-9.37363955255 колго
-9.37363955255 баратканын
-9.43079796639 көңүлүнө
-9.43079796639 комузга
-9.43079796639 соң
-9.43079796639 келишти
-9.43079796639 тосуп
-9.43079796639 ойноп
-9.43079796639 жатты
-9.43079796639 атам
-9.43079796639 бүтүп
-9.43079796639 ысык
-9.43079796639 толук
-9.43079796639 жеткен
-9.43079796639 көңүлүндө
-9.43079796639 бол
-9.43079796639 апасынын
-9.43079796639 буга
-9.43079796639 капкачан
-9.43079796639 электе
-9.43079796639 эмесе
-9.43079796639 алыс
-9.43079796639 ишке
-9.43079796639 оюна
-9.43079796639 уулуна
-9.43079796639 жашы
-9.43079796639 кээ
-9.43079796639 кызын
-9.43079796639 болсоң
-9.43079796639 каршы
-9.43079796639 абдан
-9.43079796639 манаптар
-9.43079796639 дүйнө
-9.43079796639 алдын
-9.43079796639 тору
-9.43079796639 кийинки
-9.43079796639 жетти
-9.43079796639 жылы
-9.43079796639 күйөө
-9.43079796639 кең
-9.43079796639 ашып
-9.43079796639 дүйнөдөн
-9.43079796639 киришти
-9.43079796639 учуп
-9.43079796639 петр
-9.43079796639 башкача
-9.43079796639 кызык
-9.43079796639 болушка
-9.43079796639 айымкан
-9.43079796639 алагды
-9.43079796639 билбейм
-9.43079796639 карагер
-9.43079796639 келишип
-9.43079796639 бирөөгө
-9.43079796639 бата
-9.43079796639 жокпу
-9.43079796639 токтотуп
-9.43079796639 берки
-9.43079796639 күлкү
-9.43079796639 баатыр
-9.43079796639 соко
-9.43079796639 төргө
-9.43079796639 калышкан
-9.43079796639 абышканын
-9.43079796639 эрмек
-9.43079796639 сакал
-9.49142258821 жибек
-9.49142258821 камчы
-9.49142258821 орто
-9.49142258821 сөзүнө
-9.49142258821 моюн
-9.49142258821 окууга
-9.49142258821 өрөөндүн
-9.49142258821 бара
-9.49142258821 издеп
-9.49142258821 бая
-9.49142258821 баласынын
-9.49142258821 баарынан
-9.49142258821 жалпы
-9.49142258821 жиберди
-9.49142258821 баарына
-9.49142258821 жетип
-9.49142258821 ушунчалык
-9.49142258821 манат
-9.49142258821 ыракмат
-9.49142258821 уят
-9.49142258821 убада
-9.49142258821 ошонун
-9.49142258821 таласка
-9.49142258821 кел
-9.49142258821 жигиттер
-9.49142258821 сөзип
-9.49142258821 ичип
-9.49142258821 түн
-9.49142258821 үйүн
-9.49142258821 кепке
-9.49142258821 жылдан
-9.49142258821 токтой
-9.49142258821 өзгөчө
-9.49142258821 жакты
-9.49142258821 кандайча
-9.49142258821 кылат
-9.49142258821 күүлөрү
-9.49142258821 черте
-9.49142258821 дос
-9.49142258821 кенен
-9.49142258821 кийген
-9.49142258821 унутуп
-9.49142258821 мураталынын
-9.49142258821 ийди
-9.49142258821 короз
-9.49142258821 маматты
-9.49142258821 дайыма
-9.49142258821 качкан
-9.49142258821 күүлөрүн
-9.49142258821 садырдын
-9.49142258821 урунуп
-9.49142258821 алышкан
-9.49142258821 жигитти
-9.49142258821 башталат
-9.49142258821 кай
-9.49142258821 алдынан
-9.49142258821 майда
-9.49142258821 бастырып
-9.49142258821 бербей
-9.49142258821 арасына
-9.49142258821 тили
-9.55596110935 биротоло
-9.55596110935 көбүрөөк
-9.55596110935 экөөбүз
-9.55596110935 миң
-9.55596110935 оозу
-9.55596110935 киргенде
-9.55596110935 ичине
-9.55596110935 басты
-9.55596110935 жүр
-9.55596110935 атайын
-9.55596110935 комуздан
-9.55596110935 кап
-9.55596110935 жолдош
-9.55596110935 адам
-9.55596110935 ырды
-9.55596110935 кармаган
-9.55596110935 чыкпай
-9.55596110935 чайга
-9.55596110935 алтын
-9.55596110935 аялына
-9.55596110935 эшик
-9.55596110935 айтышып
-9.55596110935 ойлонуп
-9.55596110935 денеси
-9.55596110935 оозуна
-9.55596110935 жек
-9.55596110935 колунда
-9.55596110935 коет
-9.55596110935 анык
-9.55596110935 учур
-9.55596110935 максат
-9.55596110935 бооруна
-9.55596110935 күндөн
-9.55596110935 маалда
-9.55596110935 жолдон
-9.55596110935 шайым
-9.55596110935 тил
-9.55596110935 мырзанын
-9.55596110935 тарап
-9.55596110935 келиндин
-9.55596110935 бүгүнкү
-9.55596110935 тартты
-9.55596110935 жашырын
-9.55596110935 капсалаң
-9.55596110935 айылдан
-9.55596110935 чоочун
-9.55596110935 нерсеге
-9.55596110935 канчалык
-9.55596110935 түз
-9.55596110935 үнүн
-9.55596110935 улуу
-9.55596110935 кызмат
-9.55596110935 түбүнө
-9.55596110935 кубанычтуу
-9.55596110935 албаган
-9.55596110935 сүйгөн
-9.55596110935 мандаш
-9.55596110935 тур
-9.55596110935 иштин
-9.62495398084 бирөөлөр
-9.62495398084 жатканда
-9.62495398084 эшмамбет
-9.62495398084 өлүп
-9.62495398084 жумуш
-9.62495398084 ичиндеги
-9.62495398084 иштеген
-9.62495398084 тобо
-9.62495398084 мурут
-9.62495398084 бети
-9.62495398084 сөздөр
-9.62495398084 байга
-9.62495398084 соо
-9.62495398084 атаэнеси
-9.62495398084 тамагын
-9.62495398084 жүргөнүн
-9.62495398084 кайрылды
-9.62495398084 эткен
-9.62495398084 аялын
-9.62495398084 төрт
-9.62495398084 токтогулду
-9.62495398084 жылкы
-9.62495398084 нече
-9.62495398084 чырымдын
-9.62495398084 жетпей
-9.62495398084 ыры
-9.62495398084 суроого
-9.62495398084 жолдо
-9.62495398084 мыктыбек
-9.62495398084 таба
-9.62495398084 муңдуу
-9.62495398084 жиберип
-9.62495398084 анча
-9.62495398084 матай
-9.62495398084 карашы
-9.62495398084 тамак
-9.62495398084 төрдө
-9.62495398084 малы
-9.62495398084 билүү
-9.62495398084 чындап
-9.62495398084 эмнени
-9.62495398084 көйрөң
-9.62495398084 кайрып
-9.62495398084 жашын
-9.62495398084 орун
-9.62495398084 током
-9.62495398084 окуй
-9.62495398084 тамашаны
-9.62495398084 комузчулар
-9.62495398084 үйрөнүп
-9.62495398084 оңой
-9.62495398084 зыйнат
-9.62495398084 кылуу
-9.62495398084 жайып
-9.62495398084 алышты
-9.62495398084 отурганын
-9.62495398084 жылуу
-9.62495398084 жантакпайдын
-9.62495398084 барган
-9.62495398084 бетин
-9.62495398084 жаңылык
-9.62495398084 көрүнбөйт
-9.62495398084 катын
-9.62495398084 жеңижок
-9.62495398084 тараптан
-9.62495398084 сенден
-9.62495398084 эли
-9.62495398084 сизге
-9.62495398084 арман
-9.62495398084 себеби
-9.62495398084 көр
-9.62495398084 окуудан
-9.62495398084 көрүнөт
-9.62495398084 күлө
-9.62495398084 кирген
-9.62495398084 бергенде
-9.62495398084 келиптир
-9.69906195299 өнөрүн
-9.69906195299 жатканын
-9.69906195299 суз
-9.69906195299 турмуштун
-9.69906195299 седепти
-9.69906195299 ач
-9.69906195299 ыйлап
-9.69906195299 жел
-9.69906195299 тойкожо
-9.69906195299 алганда
-9.69906195299 үйүнүн
-9.69906195299 ырын
-9.69906195299 жата
-9.69906195299 жазып
-9.69906195299 айлына
-9.69906195299 даяр
-9.69906195299 падыша
-9.69906195299 эшиктен
-9.69906195299 байкаган
-9.69906195299 атканча
-9.69906195299 өңчөй
-9.69906195299 калыптыр
-9.69906195299 кар
-9.69906195299 оо
-9.69906195299 сөздүн
-9.69906195299 абдыракманды
-9.69906195299 отурушат
-9.69906195299 тамашага
-9.69906195299 арманда
-9.69906195299 батып
-9.69906195299 бергиле
-9.69906195299 куш
-9.69906195299 дей
-9.69906195299 алыска
-9.69906195299 кайын
-9.69906195299 түшө
-9.69906195299 коюшту
-9.69906195299 айтыке
-9.69906195299 отургандардын
-9.69906195299 сокону
-9.69906195299 быйыл
-9.69906195299 деги
-9.69906195299 көзүнүн
-9.69906195299 тиктейт
-9.69906195299 бош
-9.69906195299 таттуу
-9.69906195299 көзүнөн
-9.69906195299 күйөөсүнө
-9.69906195299 кудайбергендин
-9.69906195299 күүдөн
-9.69906195299 ортончу
-9.69906195299 жагындагы
-9.69906195299 болобу
-9.69906195299 ачуусу
-9.69906195299 жакасын
-9.69906195299 жасап
-9.69906195299 болгондо
-9.69906195299 байкуш
-9.69906195299 байбичеси
-9.69906195299 бурулкан
-9.69906195299 баарыдан
-9.69906195299 кимден
-9.69906195299 жетелеп
-9.69906195299 берем
-9.69906195299 чыбык
-9.69906195299 келдим
-9.69906195299 кадырын
-9.69906195299 ырчылар
-9.69906195299 ара
-9.69906195299 айтат
-9.69906195299 о
-9.69906195299 байлап
-9.69906195299 алууга
-9.69906195299 жаны
-9.69906195299 чалдын
-9.69906195299 баарынын
-9.69906195299 тыңшап
-9.69906195299 жактагы
-9.69906195299 кадимкидей
-9.69906195299 бирибирин
-9.69906195299 чечип
-9.77910466066 кагылайын
-9.77910466066 болбогон
-9.77910466066 ойлуу
-9.77910466066 калышат
-9.77910466066 чайды
-9.77910466066 улан
-9.77910466066 тогуз
-9.77910466066 жүрөк
-9.77910466066 айла
-9.77910466066 бакырып
-9.77910466066 айланып
-9.77910466066 угулуп
-9.77910466066 мунусу
-9.77910466066 ачты
-9.77910466066 кимди
-9.77910466066 агасы
-9.77910466066 жигити
-9.77910466066 адегенде
-9.77910466066 таза
-9.77910466066 жеринде
-9.77910466066 мурунку
-9.77910466066 боюн
-9.77910466066 толгон
-9.77910466066 көпкө
-9.77910466066 күлкүсү
-9.77910466066 түшкөндө
-9.77910466066 аягы
-9.77910466066 күтпөгөн
-9.77910466066 кичине
-9.77910466066 толуп
-9.77910466066 атактуу
-9.77910466066 катарына
-9.77910466066 катып
-9.77910466066 эрте
-9.77910466066 боору
-9.77910466066 шүгүр
-9.77910466066 туюк
-9.77910466066 таанып
-9.77910466066 субанга
-9.77910466066 ишене
-9.77910466066 чакырган
-9.77910466066 арга
-9.77910466066 биринин
-9.77910466066 пайда
-9.77910466066 карып
-9.77910466066 силердин
-9.77910466066 балдарды
-9.77910466066 сүйлөшүп
-9.77910466066 бүткөндөн
-9.77910466066 байлар
-9.77910466066 ортосундагы
-9.77910466066 жөнү
-9.77910466066 шыбырады
-9.77910466066 кыла
-9.77910466066 жерди
-9.77910466066 жеп
-9.77910466066 тышкары
-9.77910466066 тап
-9.77910466066 бизди
-9.77910466066 уйкусу
-9.77910466066 бирибири
-9.77910466066 коркунучтуу
-9.77910466066 немелер
-9.77910466066 кеткенден
-9.77910466066 акындын
-9.77910466066 болушуп
-9.77910466066 ушак
-9.77910466066 билинбей
-9.77910466066 бүттү
-9.77910466066 жумшак
-9.77910466066 бирөөнүн
-9.77910466066 ууру
-9.77910466066 калдым
-9.77910466066 аппак
-9.77910466066 энеси
-9.77910466066 иниси
-9.77910466066 солдаттар
-9.77910466066 алдыда
-9.77910466066 кагып
-9.77910466066 кире
-9.77910466066 айтпай
-9.77910466066 токой
-9.77910466066 жүрөсүң
-9.77910466066 тиричилик
-9.77910466066 түбүндө
-9.77910466066 кабарын
-9.77910466066 түрдүү
-9.77910466066 толгоп
-9.77910466066 ансыз
-9.77910466066 сүйлөп
-9.77910466066 калганына
-9.77910466066 кеңкол
-9.77910466066 өскөн
-9.77910466066 малдын
-9.77910466066 сатып
-9.77910466066 суусунун
-9.77910466066 көрүшүп
-9.77910466066 карт
-9.77910466066 чаап
-9.77910466066 кошулду
-9.77910466066 көчүп
-9.77910466066 үстүнөн
-9.77910466066 кесени
-9.77910466066 силерге
-9.77910466066 барат
-9.77910466066 сүйлөй
-9.77910466066 катар
-9.77910466066 ырдап
-9.77910466066 комузунун
-9.77910466066 кеңеш
-9.77910466066 төз
-9.77910466066 эшиктин
-9.77910466066 дароо
-9.77910466066 көптөн
-9.77910466066 кереметтүү
-9.77910466066 салкын
-9.77910466066 келгенсип
-9.77910466066 терең
-9.77910466066 токол
-9.77910466066 тилек
-9.77910466066 сөзген
-9.86611603765 сүйлөшө
-9.86611603765 молдоке
-9.86611603765 кимдир
-9.86611603765 таятасы
-9.86611603765 болушу
-9.86611603765 талаада
-9.86611603765 жөө
-9.86611603765 күндүз
-9.86611603765 армандуу
-9.86611603765 тургандар
-9.86611603765 айрыкча
-9.86611603765 бактылуу
-9.86611603765 сол
-9.86611603765 көрсөтүп
-9.86611603765 алдындагы
-9.86611603765 жерин
-9.86611603765 куру
-9.86611603765 кишиси
-9.86611603765 таппай
-9.86611603765 дейсиңби
-9.86611603765 экинчиси
-9.86611603765 дейм
-9.86611603765 кымыз
-9.86611603765 жаштар
-9.86611603765 терс
-9.86611603765 жашоо
-9.86611603765 байдан
-9.86611603765 беришет
-9.86611603765 келиши
-9.86611603765 комузу
-9.86611603765 кууп
-9.86611603765 укту
-9.86611603765 көпчүлүгү
-9.86611603765 күрмөсүнүн
-9.86611603765 артык
-9.86611603765 жокто
-9.86611603765 туюлду
-9.86611603765 күнүтүнү
-9.86611603765 учурашып
-9.86611603765 башканы
-9.86611603765 кудайдан
-9.86611603765 жагы
-9.86611603765 сейилкан
-9.86611603765 кетишти
-9.86611603765 иштеп
-9.86611603765 колукту
-9.86611603765 сылап
-9.86611603765 аялдын
-9.86611603765 аккан
-9.86611603765 жүрөм
-9.86611603765 мененки
-9.86611603765 салган
-9.86611603765 сизди
-9.86611603765 буйрук
-9.86611603765 жарып
-9.86611603765 чогулган
-9.86611603765 манаптары
-9.86611603765 экени
-9.86611603765 алчу
-9.86611603765 союп
-9.86611603765 кайткан
-9.86611603765 бирибирине
-9.86611603765 боромбай
-9.86611603765 тебетей
-9.86611603765 көрүштү
-9.86611603765 тынч
-9.86611603765 конокко
-9.86611603765 атына
-9.86611603765 токтогулга
-9.86611603765 сыйра
-9.86611603765 кайнаган
-9.86611603765 кадырлуу
-9.86611603765 эмесмин
-9.86611603765 жашап
-9.86611603765 баштап
-9.86611603765 жакындаганда
-9.86611603765 уулжандын
-9.86611603765 кыйкырды
-9.86611603765 булардын
-9.86611603765 жантакбай
-9.86611603765 бел
-9.86611603765 илгери
-9.86611603765 шадыбек
-9.86611603765 досу
-9.86611603765 болдум
-9.86611603765 дөбөдө
-9.86611603765 караан
-9.86611603765 айылды
-9.86611603765 суук
-9.86611603765 айга
-9.86611603765 жанын
-9.86611603765 түшөт
-9.86611603765 зар
-9.86611603765 көбүнчө
-9.86611603765 намыс
-9.86611603765 жаңыдан
-9.86611603765 эт
-9.86611603765 көрчү
-9.86611603765 убак
-9.86611603765 калык
-9.86611603765 жамынып
-9.86611603765 чети
-9.86611603765 тыныбекке
-9.86611603765 бирине
-9.86611603765 жакшылык
-9.86611603765 сабыр
-9.96142621746 күндө
-9.96142621746 ошондуктан
-9.96142621746 туулган
-9.96142621746 тургансып
-9.96142621746 балдарга
-9.96142621746 тиричиликке
-9.96142621746 бурду
-9.96142621746 кичи
-9.96142621746 сайма
-9.96142621746 райымбектин
-9.96142621746 айтам
-9.96142621746 сөздөрдү
-9.96142621746 узакка
-9.96142621746 көрөйүн
-9.96142621746 талаа
-9.96142621746 күйөөсүн
-9.96142621746 тегерегинде
-9.96142621746 тийди
-9.96142621746 чатак
-9.96142621746 кызды
-9.96142621746 өткөрүп
-9.96142621746 чалкалап
-9.96142621746 кубанган
-9.96142621746 камчысын
-9.96142621746 чертет
-9.96142621746 оёз
-9.96142621746 султаналыны
-9.96142621746 отургузуп
-9.96142621746 кийимин
-9.96142621746 чуркады
-9.96142621746 жолун
-9.96142621746 устатынын
-9.96142621746 кемпир
-9.96142621746 баятан
-9.96142621746 аттарды
-9.96142621746 болгондой
-9.96142621746 меймандардын
-9.96142621746 убакытты
-9.96142621746 эшикте
-9.96142621746 келчү
-9.96142621746 четинде
-9.96142621746 бака
-9.96142621746 туугандар
-9.96142621746 курчап
-9.96142621746 ыраазымын
-9.96142621746 биринсерин
-9.96142621746 билишчү
-9.96142621746 сүйкүмдүү
-9.96142621746 колдон
-9.96142621746 жерине
-9.96142621746 жүрүшкөн
-9.96142621746 жатышат
-9.96142621746 токойду
-9.96142621746 билермандар
-9.96142621746 коюшуп
-9.96142621746 бошоп
-9.96142621746 десем
-9.96142621746 эстеп
-9.96142621746 сууга
-9.96142621746 эрдин
-9.96142621746 айтышкан
-9.96142621746 газетаны
-9.96142621746 кайнап
-9.96142621746 асман
-9.96142621746 келдиң
-9.96142621746 убара
-9.96142621746 салат
-9.96142621746 уулум
-9.96142621746 калыбында
-9.96142621746 ача
-9.96142621746 сурнайдын
-9.96142621746 бирэки
-9.96142621746 чертти
-9.96142621746 табылат
-9.96142621746 өзүңөр
-9.96142621746 атасын
-9.96142621746 этет
-9.96142621746 чачы
-9.96142621746 азырынча
-9.96142621746 караган
-9.96142621746 кечээ
-9.96142621746 окшогон
-9.96142621746 керегедеги
-9.96142621746 үмүтү
-9.96142621746 бузурман
-9.96142621746 апа
-9.96142621746 черткен
-9.96142621746 адамдын
-9.96142621746 мынча
-9.96142621746 тыныбекти
-9.96142621746 токтото
-9.96142621746 өнөр
-9.96142621746 кийиз
-9.96142621746 малга
-9.96142621746 жаштын
-9.96142621746 кеткени
-9.96142621746 секретарь
-9.96142621746 үндөр
-9.96142621746 минген
-9.96142621746 асыл
-9.96142621746 изи
-9.96142621746 судья
-9.96142621746 келер
-9.96142621746 чакырды
-9.96142621746 дегени
-9.96142621746 элең
-9.96142621746 как
-9.96142621746 сүйөнүп
-9.96142621746 жоголуп
-9.96142621746 огонбай
-9.96142621746 учурунда
-9.96142621746 аттарын
-9.96142621746 коркуп
-9.96142621746 жолоочу
-9.96142621746 алгачкы
-9.96142621746 күтүлбөгөн
-9.96142621746 жоргону
-9.96142621746 баягыдай
-9.96142621746 эринин
-9.96142621746 жеңин
-9.96142621746 кадимки
-9.96142621746 адатта
-9.96142621746 карыялар
-9.96142621746 артист
-9.96142621746 тийген
-9.96142621746 үйбүлөсү
-9.96142621746 урган
-9.96142621746 арам
-9.96142621746 бурулчанын
-9.96142621746 арыктын
-9.96142621746 байбиченин
-9.96142621746 иттин
-9.96142621746 көзүм
-9.96142621746 чаптырып
-9.96142621746 чокту
-9.96142621746 мурутун
-9.96142621746 ээн
-9.96142621746 толо
-9.96142621746 куп
-9.96142621746 топко
-9.96142621746 таяк
-9.96142621746 сөзүнүн
-9.96142621746 өнөрү
-9.96142621746 ырчынын
-9.96142621746 күлүштү
-9.96142621746 эсенбектин
-9.96142621746 колунун
-9.96142621746 болбосун
-9.96142621746 көрүшөт
-9.96142621746 үйүр
-9.96142621746 көтөрдү
-9.96142621746 сулуу
-9.96142621746 каны
-9.96142621746 билсин
-9.96142621746 көрбөгөн
-9.96142621746 кетишет
-9.96142621746 өсүп
-9.96142621746 кыларын
-9.96142621746 арадан
-9.96142621746 шаңдуу
-9.96142621746 дөңдө
-9.96142621746 барарын
-9.96142621746 айлы
-9.96142621746 айтканда
-9.96142621746 албайм
-9.96142621746 каарына
-9.96142621746 акчаны
-9.96142621746 алышпады
-9.96142621746 болбо
-9.96142621746 өмүрдүн
-9.96142621746 салынган
-9.96142621746 чок
-9.96142621746 талаага
-9.96142621746 көйнөкчөн
-9.96142621746 чочуп
-9.96142621746 билбейт
-9.96142621746 өзүбүз
-9.96142621746 жапырт
-9.96142621746 берсин
-9.96142621746 жеңе
-9.96142621746 калдык
-9.96142621746 кеч
-9.96142621746 замандын
-9.96142621746 сыры
-9.96142621746 ачууланды
-9.96142621746 кишилерге
-9.96142621746 жүзү
-9.96142621746 карыянын
-9.96142621746 секретары
-9.96142621746 суусу
-9.96142621746 алик
-9.96142621746 жаттап
-10.0667867331 айылдагылар
-10.0667867331 айтышты
-10.0667867331 түш
-10.0667867331 чөк
-10.0667867331 келгендей
-10.0667867331 сур
-10.0667867331 укмуш
-10.0667867331 жыгач
-10.0667867331 өткөндөн
-10.0667867331 эркек
-10.0667867331 убагында
-10.0667867331 калгандары
-10.0667867331 кер
-10.0667867331 жиберишти
-10.0667867331 кошулган
-10.0667867331 каардуу
-10.0667867331 сый
-10.0667867331 токтотту
-10.0667867331 коңкогой
-10.0667867331 жакында
-10.0667867331 зоотбек
-10.0667867331 кайгылуу
-10.0667867331 дабышын
-10.0667867331 зарыл
-10.0667867331 курсагы
-10.0667867331 карамолдо
-10.0667867331 жайылып
-10.0667867331 жашаган
-10.0667867331 чыкканча
-10.0667867331 алгыла
-10.0667867331 баратып
-10.0667867331 жыйып
-10.0667867331 табып
-10.0667867331 чү
-10.0667867331 айдап
-10.0667867331 бийлик
-10.0667867331 меймандын
-10.0667867331 арасынан
-10.0667867331 кыргызча
-10.0667867331 болбогондуктан
-10.0667867331 башындагы
-10.0667867331 карашты
-10.0667867331 берүү
-10.0667867331 уктап
-10.0667867331 бойго
-10.0667867331 кедейлер
-10.0667867331 каалаган
-10.0667867331 тилеп
-10.0667867331 терип
-10.0667867331 байланып
-10.0667867331 жүгүртүп
-10.0667867331 жүгөрүнүн
-10.0667867331 эрегишкен
-10.0667867331 басылды
-10.0667867331 кетментөбө
-10.0667867331 таштын
-10.0667867331 боюна
-10.0667867331 эмненин
-10.0667867331 көрөт
-10.0667867331 ич
-10.0667867331 бербейт
-10.0667867331 жеңесинин
-10.0667867331 кетиши
-10.0667867331 карылыкка
-10.0667867331 мойнуна
-10.0667867331 ээрчий
-10.0667867331 тың
-10.0667867331 ашка
-10.0667867331 кожокенин
-10.0667867331 биринен
-10.0667867331 мейманга
-10.0667867331 капшытта
-10.0667867331 ит
-10.0667867331 эшикти
-10.0667867331 буларды
-10.0667867331 четине
-10.0667867331 жашай
-10.0667867331 кантейин
-10.0667867331 жылдын
-10.0667867331 ташка
-10.0667867331 адашып
-10.0667867331 бермек
-10.0667867331 бээни
-10.0667867331 той
-10.0667867331 маң
-10.0667867331 белгисиз
-10.0667867331 турмушу
-10.0667867331 ачылып
-10.0667867331 комузчулардын
-10.0667867331 шек
-10.0667867331 айылдар
-10.0667867331 аргасыз
-10.0667867331 күтүү
-10.0667867331 кулап
-10.0667867331 чынында
-10.0667867331 кызматчы
-10.0667867331 түрмөгө
-10.0667867331 турса
-10.0667867331 ырчыны
-10.0667867331 алип
-10.0667867331 кыңгыратып
-10.0667867331 жөнүндөгү
-10.0667867331 ажыраган
-10.0667867331 карабай
-10.0667867331 эгинди
-10.0667867331 карабастан
-10.0667867331 чалып
-10.0667867331 айтууга
-10.0667867331 аябай
-10.0667867331 жоругуна
-10.0667867331 илинген
-10.0667867331 комузчуну
-10.0667867331 кылса
-10.0667867331 багы
-10.0667867331 чыккандан
-10.0667867331 соккон
-10.0667867331 бээ
-10.0667867331 так
-10.0667867331 жүрүшөт
-10.0667867331 жете
-10.0667867331 айланды
-10.0667867331 ачылды
-10.0667867331 баракелде
-10.0667867331 чыгышты
-10.0667867331 ою
-10.0667867331 ырдын
-10.0667867331 таңында
-10.0667867331 аттуу
-10.0667867331 чөнтөгүнөн
-10.0667867331 тыным
-10.0667867331 озунуп
-10.0667867331 тагдыры
-10.0667867331 жолку
-10.0667867331 бекеринен
-10.0667867331 дүнүйө
-10.0667867331 куйругун
-10.0667867331 кан
-10.0667867331 жак
-10.0667867331 билүүчү
-10.0667867331 түрлүү
-10.0667867331 кайтарды
-10.0667867331 маал
-10.0667867331 ылдый
-10.0667867331 адамдар
-10.0667867331 атасына
-10.0667867331 төзирээк
-10.0667867331 башкалардын
-10.0667867331 жеткенде
-10.0667867331 экендиги
-10.0667867331 оору
-10.0667867331 карай
-10.0667867331 иним
-10.0667867331 ии
-10.0667867331 таасир
-10.0667867331 алам
-10.0667867331 тилеги
-10.0667867331 жабыла
-10.0667867331 падышанын
-10.0667867331 элдик
-10.0667867331 колдору
-10.0667867331 чуу
-10.0667867331 кетментөбөдөн
-10.0667867331 алдырып
-10.0667867331 жүрдү
-10.0667867331 шамал
-10.0667867331 калар
-10.0667867331 болмок
-10.0667867331 куда
-10.0667867331 сиздин
-10.0667867331 фрунзеге
-10.0667867331 кылбай
-10.0667867331 нааразы
-10.0667867331 жетпейт
-10.0667867331 койсо
-10.0667867331 козголуп
-10.0667867331 бой
-10.0667867331 сактап
-10.0667867331 шарапаты
-10.0667867331 топтон
-10.0667867331 кыймыл
-10.0667867331 сураган
-10.0667867331 кечип
-10.0667867331 маңдай
-10.0667867331 ортого
-10.0667867331 күткөн
-10.0667867331 барын
-10.0667867331 бойлуу
-10.0667867331 жайында
-10.0667867331 туугандары
-10.0667867331 токойго
-10.0667867331 чыгарды
-10.0667867331 тегиз
-10.0667867331 жоон
-10.0667867331 букаралар
-10.0667867331 чапты
-10.0667867331 фрунзе
-10.0667867331 анысын
-10.0667867331 сабак
-10.0667867331 шайтан
-10.0667867331 салмак
-10.0667867331 айт
-10.0667867331 чыкса
-10.0667867331 алабыз
-10.0667867331 аргасыздан
-10.0667867331 ошончо
-10.0667867331 айдатып
-10.0667867331 болчу
-10.0667867331 былк
-10.0667867331 тебетейин
-10.0667867331 атым
-10.0667867331 көптү
-10.0667867331 созуп
-10.0667867331 там
-10.0667867331 күтөт
-10.1845697688 махаббат
-10.1845697688 баамдуу
-10.1845697688 чакыртып
-10.1845697688 орустар
-10.1845697688 караңгы
-10.1845697688 тарапта
-10.1845697688 үйдөгү
-10.1845697688 жөнөгөндө
-10.1845697688 ээсинин
-10.1845697688 бийликтен
-10.1845697688 тийгенде
-10.1845697688 кабагы
-10.1845697688 калам
-10.1845697688 көргүсү
-10.1845697688 жайнаган
-10.1845697688 келечеги
-10.1845697688 абдыракманга
-10.1845697688 жаап
-10.1845697688 коюшат
-10.1845697688 эшенкул
-10.1845697688 кыңк
-10.1845697688 маматка
-10.1845697688 карышкыр
-10.1845697688 берүүгө
-10.1845697688 азаптуу
-10.1845697688 атчандар
-10.1845697688 качты
-10.1845697688 бөлүндү
-10.1845697688 тайып
-10.1845697688 шерменде
-10.1845697688 кучакташып
-10.1845697688 тоонун
-10.1845697688 чогуу
-10.1845697688 чөгөлөп
-10.1845697688 кишилерди
-10.1845697688 эсимде
-10.1845697688 уй
-10.1845697688 таптакыр
-10.1845697688 кесе
-10.1845697688 көрүнбөй
-10.1845697688 тууганы
-10.1845697688 мурду
-10.1845697688 тагдыр
-10.1845697688 көрбөй
-10.1845697688 жеңем
-10.1845697688 берчү
-10.1845697688 жээни
-10.1845697688 нан
-10.1845697688 семиз
-10.1845697688 келсин
-10.1845697688 угат
-10.1845697688 эртеден
-10.1845697688 үстү
-10.1845697688 күбө
-10.1845697688 жоголгон
-10.1845697688 өңдүү
-10.1845697688 коноктор
-10.1845697688 уккандан
-10.1845697688 адаты
-10.1845697688 сурайт
-10.1845697688 кашын
-10.1845697688 учуру
-10.1845697688 тургандай
-10.1845697688 жанкороз
-10.1845697688 көбү
-10.1845697688 дөбөгө
-10.1845697688 аттар
-10.1845697688 колдорун
-10.1845697688 көрүү
-10.1845697688 кетүүгө
-10.1845697688 кубанычы
-10.1845697688 ушунча
-10.1845697688 маркум
-10.1845697688 жанагы
-10.1845697688 айтайын
-10.1845697688 кечки
-10.1845697688 дүйнөдө
-10.1845697688 чыбыкты
-10.1845697688 отурушуп
-10.1845697688 айтканын
-10.1845697688 тарткан
-10.1845697688 кайрат
-10.1845697688 топтун
-10.1845697688 ажырап
-10.1845697688 жорго
-10.1845697688 чачын
-10.1845697688 суусар
-10.1845697688 калп
-10.1845697688 жанаша
-10.1845697688 алек
-10.1845697688 кармашып
-10.1845697688 өкмөтү
-10.1845697688 козголду
-10.1845697688 дөңгө
-10.1845697688 дүйнөнүн
-10.1845697688 манаптарды
-10.1845697688 белгиси
-10.1845697688 ошолор
-10.1845697688 эп
-10.1845697688 чертчү
-10.1845697688 жүрсө
-10.1845697688 алсыз
-10.1845697688 дасторкон
-10.1845697688 орусча
-10.1845697688 чайдан
-10.1845697688 болоюн
-10.1845697688 келинчеги
-10.1845697688 атайдан
-10.1845697688 аркы
-10.1845697688 даанышман
-10.1845697688 белдүү
-10.1845697688 айлын
-10.1845697688 угушту
-10.1845697688 күчүн
-10.1845697688 туштуштан
-10.1845697688 кайтып
-10.1845697688 төбөсүнө
-10.1845697688 баалуу
-10.1845697688 көңүлсүз
-10.1845697688 муруттары
-10.1845697688 үндү
-10.1845697688 колхоз
-10.1845697688 жөнөштү
-10.1845697688 башкаларга
-10.1845697688 ооруп
-10.1845697688 кыжыры
-10.1845697688 курман
-10.1845697688 кишиден
-10.1845697688 короонун
-10.1845697688 түрүнүп
-10.1845697688 бардыр
-10.1845697688 аксакалдын
-10.1845697688 баатырдын
-10.1845697688 кече
-10.1845697688 аяк
-10.1845697688 ийкеди
-10.1845697688 эмнесин
-10.1845697688 түнкүсүн
-10.1845697688 дыйкан
-10.1845697688 селт
-10.1845697688 баштан
-10.1845697688 төшөктө
-10.1845697688 аягына
-10.1845697688 өзүнөн
-10.1845697688 шулыин
-10.1845697688 шарият
-10.1845697688 күттү
-10.1845697688 кетчүдөй
-10.1845697688 каранды
-10.1845697688 жүз
-10.1845697688 күрмөчөн
-10.1845697688 тетири
-10.1845697688 билсе
-10.1845697688 этек
-10.1845697688 окуучулар
-10.1845697688 жолоочулар
-10.1845697688 кыштын
-10.1845697688 билгенин
-10.1845697688 күбүрөп
-10.1845697688 жүрө
-10.1845697688 кесип
-10.1845697688 эсенбекке
-10.1845697688 кээси
-10.1845697688 кубаныч
-10.1845697688 ичин
-10.1845697688 манастын
-10.1845697688 өтөт
-10.1845697688 боюнда
-10.1845697688 сагынган
-10.1845697688 назик
-10.1845697688 жантакпайды
-10.1845697688 ишенет
-10.1845697688 калдыбы
-10.1845697688 акынды
-10.1845697688 төр
-10.1845697688 кимдер
-10.1845697688 немени
-10.1845697688 коркот
-10.1845697688 кат
-10.1845697688 баратканда
-10.1845697688 кайтарып
-10.1845697688 кыл
-10.1845697688 таята
-10.1845697688 жетет
-10.1845697688 капысынан
-10.1845697688 тартат
-10.1845697688 николай
-10.1845697688 ыйык
-10.1845697688 айласы
-10.1845697688 тигилген
-10.1845697688 соконун
-10.1845697688 десең
-10.1845697688 берейин
-10.1845697688 бетине
-10.1845697688 чепкенин
-10.1845697688 кабыл
-10.1845697688 чоочуп
-10.1845697688 жымжырт
-10.1845697688 ачуулуу
-10.1845697688 тагдырына
-10.1845697688 сөздөрүн
-10.1845697688 ачуу
-10.1845697688 каткырып
-10.1845697688 алышат
-10.1845697688 ракмат
-10.1845697688 келгенине
-10.1845697688 билимдүү
-10.1845697688 кадыресе
-10.1845697688 баласын
-10.1845697688 суусун
-10.1845697688 манаптын
-10.1845697688 калгансып
-10.1845697688 берсең
-10.1845697688 уккусу
-10.1845697688 көрүнүшү
-10.1845697688 ишти
-10.1845697688 күчү
-10.1845697688 башканын
-10.1845697688 кооз
-10.1845697688 кеңколдун
-10.1845697688 жаныбекке
-10.1845697688 айтчы
-10.1845697688 көпчүлүктүн
-10.1845697688 эси
-10.1845697688 мол
-10.1845697688 каргаша
-10.1845697688 шарт
-10.1845697688 алардан
-10.1845697688 билем
-10.1845697688 антип
-10.1845697688 күндүн
-10.1845697688 аялдар
-10.1845697688 тизгинин
-10.1845697688 гөр
-10.1845697688 кийинчерээк
-10.1845697688 барбайт
-10.1845697688 жаздап
-10.1845697688 бригадир
-10.1845697688 сөзүнөн
-10.1845697688 кичүү
-10.1845697688 көрсө
-10.1845697688 айлынан
-10.1845697688 түнкү
-10.1845697688 ошого
-10.1845697688 акылы
-10.1845697688 болгондуктан
-10.1845697688 арсыкул
-10.1845697688 үчүнчү
-10.1845697688 төрө
-10.1845697688 короо
-10.1845697688 жеткирип
-10.1845697688 бийлиги
-10.1845697688 тынчы
-10.1845697688 кокус
-10.1845697688 казан
-10.1845697688 кордук
-10.1845697688 токтогулдан
-10.1845697688 терек
-10.1845697688 түтүн
-10.1845697688 көкөй
-10.1845697688 бечара
-10.1845697688 калк
-10.1845697688 чорду
-10.1845697688 келатат
-10.1845697688 максаты
-10.1845697688 тапкан
-10.1845697688 болуштар
-10.1845697688 көнбөдү
-10.1845697688 карабаш
-10.1845697688 оогон
-10.1845697688 ошолордун
-10.1845697688 айдыралы
-10.1845697688 өзгөрүлүп
-10.1845697688 чыгарын
-10.1845697688 ойлоно
-10.1845697688 атасынан
-10.1845697688 колуктусу
-10.1845697688 жердин
-10.1845697688 кудая
-10.1845697688 ден
-10.1845697688 көрдүм
-10.1845697688 жинди
-10.1845697688 күчтүү
-10.1845697688 жоругу
-10.1845697688 ишенимдүү
-10.1845697688 жылаңбаш
-10.1845697688 башталган
-10.1845697688 секирип
-10.1845697688 алыстан
-10.1845697688 алыңыз
-10.1845697688 дили
-10.1845697688 жеринен
-10.1845697688 бүткөн
-10.1845697688 кыргыздар
-10.1845697688 алдыга
-10.1845697688 өмүрүн
-10.1845697688 арбак
-10.1845697688 керт
-10.1845697688 аяп
-10.1845697688 түбүнөн
-10.3181011614 атама
-10.3181011614 калдың
-10.3181011614 экенине
-10.3181011614 арт
-10.3181011614 белин
-10.3181011614 кундуз
-10.3181011614 заматта
-10.3181011614 тарапты
-10.3181011614 көздөрүн
-10.3181011614 кызыган
-10.3181011614 кысып
-10.3181011614 жообун
-10.3181011614 жүрөктү
-10.3181011614 токтоно
-10.3181011614 сүйөп
-10.3181011614 болосуң
-10.3181011614 каптал
-10.3181011614 кыткылыктап
-10.3181011614 шумдук
-10.3181011614 билесиңби
-10.3181011614 кечтим
-10.3181011614 уюн
-10.3181011614 күмөн
-10.3181011614 оорулуу
-10.3181011614 сөзим
-10.3181011614 мааниси
-10.3181011614 күүлөрдү
-10.3181011614 баласына
-10.3181011614 тоону
-10.3181011614 ынак
-10.3181011614 кылмак
-10.3181011614 ашкан
-10.3181011614 кыял
-10.3181011614 тектүү
-10.3181011614 өлгөн
-10.3181011614 барар
-10.3181011614 мүчөсү
-10.3181011614 турасыңбы
-10.3181011614 убакка
-10.3181011614 акшыя
-10.3181011614 жолду
-10.3181011614 болору
-10.3181011614 жазгы
-10.3181011614 демин
-10.3181011614 жүрүшүн
-10.3181011614 кестикбайдын
-10.3181011614 сырттан
-10.3181011614 түрүп
-10.3181011614 забар
-10.3181011614 буруп
-10.3181011614 аксакалдар
-10.3181011614 суроону
-10.3181011614 уккандар
-10.3181011614 ачыгын
-10.3181011614 катарында
-10.3181011614 көйнөк
-10.3181011614 теминип
-10.3181011614 топту
-10.3181011614 мутаке
-10.3181011614 чертүүгө
-10.3181011614 оюнда
-10.3181011614 угулганда
-10.3181011614 советинин
-10.3181011614 кубат
-10.3181011614 көздөн
-10.3181011614 сүрөп
-10.3181011614 болжоду
-10.3181011614 өлгөнү
-10.3181011614 мындайда
-10.3181011614 кобурашып
-10.3181011614 дуу
-10.3181011614 дайынсыз
-10.3181011614 жакындап
-10.3181011614 силерди
-10.3181011614 утурлай
-10.3181011614 айтасың
-10.3181011614 үрөн
-10.3181011614 жетим
-10.3181011614 керегеге
-10.3181011614 агасынын
-10.3181011614 өздөрүнчө
-10.3181011614 чертмек
-10.3181011614 жылкынын
-10.3181011614 тамыр
-10.3181011614 күүлөрүнүн
-10.3181011614 олуяатага
-10.3181011614 кылчактап
-10.3181011614 буулугуп
-10.3181011614 өздөрүн
-10.3181011614 төгүлгөн
-10.3181011614 кымбат
-10.3181011614 огонбайдын
-10.3181011614 жыйнап
-10.3181011614 жаагы
-10.3181011614 көзек
-10.3181011614 алакан
-10.3181011614 болбоду
-10.3181011614 эске
-10.3181011614 шашып
-10.3181011614 жайнап
-10.3181011614 тунук
-10.3181011614 көрүнгөн
-10.3181011614 күрмөсүн
-10.3181011614 кырына
-10.3181011614 угулган
-10.3181011614 жоробай
-10.3181011614 саан
-10.3181011614 чекир
-10.3181011614 жоругун
-10.3181011614 баштайт
-10.3181011614 болом
-10.3181011614 кайыш
-10.3181011614 жаныбектин
-10.3181011614 алабы
-10.3181011614 жал
-10.3181011614 өх
-10.3181011614 калгандай
-10.3181011614 кырка
-10.3181011614 кызына
-10.3181011614 көңүлгө
-10.3181011614 көзи
-10.3181011614 чукул
-10.3181011614 карыган
-10.3181011614 ырдай
-10.3181011614 кайрыды
-10.3181011614 өлүм
-10.3181011614 келгени
-10.3181011614 шашылып
-10.3181011614 тай
-10.3181011614 кабат
-10.3181011614 тийгенин
-10.3181011614 ийип
-10.3181011614 султаке
-10.3181011614 козу
-10.3181011614 маңдайынан
-10.3181011614 сакалдуу
-10.3181011614 капарына
-10.3181011614 жем
-10.3181011614 минди
-10.3181011614 ийкеп
-10.3181011614 сурарым
-10.3181011614 коюлду
-10.3181011614 жин
-10.3181011614 сүйлөшөлү
-10.3181011614 кылууга
-10.3181011614 токо
-10.3181011614 жүрчү
-10.3181011614 олчойгон
-10.3181011614 колдо
-10.3181011614 аңгемени
-10.3181011614 баратам
-10.3181011614 эрке
-10.3181011614 айымкандын
-10.3181011614 чайкады
-10.3181011614 калбады
-10.3181011614 алганы
-10.3181011614 ий
-10.3181011614 казак
-10.3181011614 элине
-10.3181011614 илгерки
-10.3181011614 келгендер
-10.3181011614 учу
-10.3181011614 аралаша
-10.3181011614 булак
-10.3181011614 акмак
-10.3181011614 суроосу
-10.3181011614 тамашалуу
-10.3181011614 кысты
-10.3181011614 уурулар
-10.3181011614 оттуу
-10.3181011614 мусулман
-10.3181011614 угушуп
-10.3181011614 келдиби
-10.3181011614 камбаркан
-10.3181011614 кечирип
-10.3181011614 кылышты
-10.3181011614 аралашып
-10.3181011614 кудайдын
-10.3181011614 шылдың
-10.3181011614 ичке
-10.3181011614 турмушту
-10.3181011614 алиги
-10.3181011614 чыны
-10.3181011614 улагада
-10.3181011614 күйүп
-10.3181011614 түшүрө
-10.3181011614 турам
-10.3181011614 билишкен
-10.3181011614 чөп
-10.3181011614 шайыр
-10.3181011614 кургакчылык
-10.3181011614 дейсиң
-10.3181011614 барабыз
-10.3181011614 сөзсүз
-10.3181011614 билинбейт
-10.3181011614 дүбүртү
-10.3181011614 жаңырып
-10.3181011614 кечикпей
-10.3181011614 барбай
-10.3181011614 турушат
-10.3181011614 карамолдонун
-10.3181011614 көргөздү
-10.3181011614 тиктешти
-10.3181011614 айтышууну
-10.3181011614 жүгүрүп
-10.3181011614 молдону
-10.3181011614 эх
-10.3181011614 тойматтын
-10.3181011614 окуянын
-10.3181011614 коштоп
-10.3181011614 малын
-10.3181011614 башта
-10.3181011614 жатышкан
-10.3181011614 аткара
-10.3181011614 ойной
-10.3181011614 күндөрдө
-10.3181011614 жоо
-10.3181011614 конуп
-10.3181011614 куудул
-10.3181011614 болсом
-10.3181011614 жалдырап
-10.3181011614 имиш
-10.3181011614 токолунун
-10.3181011614 түбү
-10.3181011614 шакин
-10.3181011614 саламын
-10.3181011614 кыдырып
-10.3181011614 аркылуу
-10.3181011614 койдун
-10.3181011614 көккашат
-10.3181011614 көрпө
-10.3181011614 акыр
-10.3181011614 качырып
-10.3181011614 буттары
-10.3181011614 жылаңаяк
-10.3181011614 калганы
-10.3181011614 көрүүгө
-10.3181011614 аткаруу
-10.3181011614 байлык
-10.3181011614 уста
-10.3181011614 үйүрү
-10.3181011614 баскан
-10.3181011614 арманым
-10.3181011614 колхозго
-10.3181011614 ордун
-10.3181011614 жүрүшү
-10.3181011614 манап
-10.3181011614 жеңеке
-10.3181011614 кимисинин
-10.3181011614 оңдонуп
-10.3181011614 токтобой
-10.3181011614 кызга
-10.3181011614 закон
-10.3181011614 акылга
-10.3181011614 отурса
-10.3181011614 аккыздын
-10.3181011614 чолок
-10.3181011614 билим
-10.3181011614 өзгөчөлүгү
-10.3181011614 болушкан
-10.3181011614 кечке
-10.3181011614 акча
-10.3181011614 арага
-10.3181011614 аңгеме
-10.3181011614 желбегей
-10.3181011614 табышмактуу
-10.3181011614 кызматынан
-10.3181011614 бурулуп
-10.3181011614 чычкан
-10.3181011614 кыймылга
-10.3181011614 айылдык
-10.3181011614 келбеген
-10.3181011614 ачуусун
-10.3181011614 балачакасы
-10.3181011614 ченде
-10.3181011614 эптеп
-10.3181011614 милиционер
-10.3181011614 өкүм
-10.3181011614 молдого
-10.3181011614 эркине
-10.3181011614 кайталап
-10.3181011614 артисттердин
-10.3181011614 балдарынын
-10.3181011614 чымчык
-10.3181011614 калчудай
-10.3181011614 кудуңдап
-10.3181011614 бирибиринен
-10.3181011614 оттун
-10.3181011614 капа
-10.3181011614 сарала
-10.3181011614 манаптардын
-10.3181011614 уруп
-10.3181011614 чогултуп
-10.3181011614 окууну
-10.3181011614 чакырат
-10.3181011614 кыялы
-10.3181011614 кырк
-10.3181011614 токтолуп
-10.3181011614 кызматка
-10.3181011614 жаккы
-10.3181011614 чак
-10.3181011614 булбул
-10.3181011614 артында
-10.3181011614 чык
-10.3181011614 урунду
-10.3181011614 жаштык
-10.3181011614 тегин
-10.3181011614 найза
-10.3181011614 үчөө
-10.3181011614 карашын
-10.3181011614 кабарды
-10.3181011614 оорусу
-10.3181011614 орустан
-10.3181011614 тааныды
-10.3181011614 калчу
-10.3181011614 серке
-10.3181011614 берүүдөн
-10.3181011614 атагы
-10.3181011614 өнөрпоз
-10.3181011614 жүрөктөрү
-10.3181011614 алгач
-10.3181011614 жалдын
-10.3181011614 жардамы
-10.3181011614 досунун
-10.3181011614 жылып
-10.3181011614 чыкканын
-10.3181011614 кемпири
-10.3181011614 жолуна
-10.3181011614 карайт
-10.3181011614 кыя
-10.3181011614 үнсүз
-10.3181011614 нерседен
-10.3181011614 кыздар
-10.3181011614 болгонуна
-10.3181011614 апам
-10.3181011614 пишпекке
-10.3181011614 түшүнүп
-10.3181011614 атаэнесинин
-10.3181011614 аралжы
-10.3181011614 кайдасың
-10.3181011614 токтотушуп
-10.3181011614 алдыңкы
-10.3181011614 түшүндүрдү
-10.3181011614 өзүңүз
-10.3181011614 жигиттери
-10.3181011614 эсинде
-10.3181011614 өзүбүздүн
-10.3181011614 илинип
-10.3181011614 тилегин
-10.3181011614 колуңду
-10.3181011614 абышканы
-10.3181011614 шилтеп
-10.3181011614 намысына
-10.4722518412 торгой
-10.4722518412 кетпей
-10.4722518412 жулуп
-10.4722518412 андасанда
-10.4722518412 абдыракмандан
-10.4722518412 астына
-10.4722518412 өзөн
-10.4722518412 батасын
-10.4722518412 жаз
-10.4722518412 алдыларына
-10.4722518412 чалды
-10.4722518412 имерчиктеп
-10.4722518412 ушундайча
-10.4722518412 өткөнү
-10.4722518412 жонуна
-10.4722518412 чаң
-10.4722518412 аке
-10.4722518412 турчу
-10.4722518412 колуктусуна
-10.4722518412 бешим
-10.4722518412 кабагын
-10.4722518412 менде
-10.4722518412 акысын
-10.4722518412 айланайын
-10.4722518412 үшкүрүп
-10.4722518412 барышты
-10.4722518412 аркасына
-10.4722518412 камын
-10.4722518412 кет
-10.4722518412 чертилип
-10.4722518412 өкмөт
-10.4722518412 кыйынчылык
-10.4722518412 айлынын
-10.4722518412 табылды
-10.4722518412 сурабай
-10.4722518412 кулакка
-10.4722518412 бөлөсү
-10.4722518412 туруучу
-10.4722518412 жиберген
-10.4722518412 тишин
-10.4722518412 чогулушуп
-10.4722518412 каргашалуу
-10.4722518412 келатты
-10.4722518412 күтпөй
-10.4722518412 бөтөн
-10.4722518412 артка
-10.4722518412 экөөң
-10.4722518412 чыкпайт
-10.4722518412 лам
-10.4722518412 бээге
-10.4722518412 десте
-10.4722518412 чыгышкан
-10.4722518412 албасын
-10.4722518412 китеп
-10.4722518412 аа
-10.4722518412 курбу
-10.4722518412 бөөдө
-10.4722518412 секин
-10.4722518412 малынын
-10.4722518412 жүккө
-10.4722518412 келбеди
-10.4722518412 сасыган
-10.4722518412 беришкен
-10.4722518412 айлана
-10.4722518412 жайлоого
-10.4722518412 жупуну
-10.4722518412 түйшүктүү
-10.4722518412 жайдары
-10.4722518412 күлөт
-10.4722518412 жагып
-10.4722518412 карыялардын
-10.4722518412 окуяларды
-10.4722518412 сүртүнүп
-10.4722518412 седепке
-10.4722518412 бөлмөнүн
-10.4722518412 кызып
-10.4722518412 бышырып
-10.4722518412 тартуу
-10.4722518412 көрсөттү
-10.4722518412 бетинен
-10.4722518412 арсар
-10.4722518412 сылады
-10.4722518412 журттун
-10.4722518412 кийими
-10.4722518412 кучактай
-10.4722518412 сот
-10.4722518412 жарык
-10.4722518412 байкай
-10.4722518412 абышкалардын
-10.4722518412 кашы
-10.4722518412 кеткенин
-10.4722518412 эшек
-10.4722518412 милиция
-10.4722518412 эзелден
-10.4722518412 тамгаларды
-10.4722518412 сураса
-10.4722518412 билдирип
-10.4722518412 сөйкө
-10.4722518412 кылганын
-10.4722518412 кайтарган
-10.4722518412 жогорку
-10.4722518412 оозгу
-10.4722518412 кайрыкты
-10.4722518412 сыйлай
-10.4722518412 жүгүрттү
-10.4722518412 чамасы
-10.4722518412 айткандай
-10.4722518412 болжогон
-10.4722518412 карала
-10.4722518412 шалдайып
-10.4722518412 зууранын
-10.4722518412 иттер
-10.4722518412 бакыт
-10.4722518412 туугандарына
-10.4722518412 келишиптир
-10.4722518412 маани
-10.4722518412 тургандардын
-10.4722518412 суусуну
-10.4722518412 көсөө
-10.4722518412 эсен
-10.4722518412 арка
-10.4722518412 кумардан
-10.4722518412 жогол
-10.4722518412 келдик
-10.4722518412 тилге
-10.4722518412 коюңуз
-10.4722518412 тирүүсүндө
-10.4722518412 жаак
-10.4722518412 тумар
-10.4722518412 уялбай
-10.4722518412 осмонкул
-10.4722518412 таластыктар
-10.4722518412 токто
-10.4722518412 гүл
-10.4722518412 алышпай
-10.4722518412 аташат
-10.4722518412 токойдо
-10.4722518412 сайрап
-10.4722518412 узак
-10.4722518412 эрегишип
-10.4722518412 жыйын
-10.4722518412 багып
-10.4722518412 келатканда
-10.4722518412 турушуп
-10.4722518412 чырканактын
-10.4722518412 жатканына
-10.4722518412 кишилеринин
-10.4722518412 элепжелеп
-10.4722518412 үстүндөгү
-10.4722518412 окшоду
-10.4722518412 акылына
-10.4722518412 келинге
-10.4722518412 болгондон
-10.4722518412 жорук
-10.4722518412 укпаган
-10.4722518412 тилин
-10.4722518412 карга
-10.4722518412 карачы
-10.4722518412 тынчтык
-10.4722518412 суроолуу
-10.4722518412 айланган
-10.4722518412 өлөт
-10.4722518412 жыйынга
-10.4722518412 аттанып
-10.4722518412 ойлосо
-10.4722518412 ичигин
-10.4722518412 азаматтар
-10.4722518412 таар
-10.4722518412 комузчуларды
-10.4722518412 четин
-10.4722518412 башкага
-10.4722518412 салынып
-10.4722518412 демейде
-10.4722518412 сыздап
-10.4722518412 бука
-10.4722518412 үрпөйтүп
-10.4722518412 зыйнатты
-10.4722518412 төмөнтөн
-10.4722518412 не
-10.4722518412 бээсин
-10.4722518412 даамдуу
-10.4722518412 билгендер
-10.4722518412 билишет
-10.4722518412 даана
-10.4722518412 кетиптир
-10.4722518412 орустардын
-10.4722518412 айтканы
-10.4722518412 арзыбай
-10.4722518412 куушуруп
-10.4722518412 атың
-10.4722518412 эшигин
-10.4722518412 сурнай
-10.4722518412 булардан
-10.4722518412 айтылган
-10.4722518412 аштык
-10.4722518412 таасири
-10.4722518412 суунун
-10.4722518412 кетер
-10.4722518412 катты
-10.4722518412 ыраазылыгын
-10.4722518412 оокатты
-10.4722518412 алмак
-10.4722518412 билишпейт
-10.4722518412 кебетесин
-10.4722518412 дебей
-10.4722518412 калба
-10.4722518412 күйөөгө
-10.4722518412 күлкүсүн
-10.4722518412 тазалап
-10.4722518412 көрөсүң
-10.4722518412 басат
-10.4722518412 падышалык
-10.4722518412 арыз
-10.4722518412 бөрү
-10.4722518412 тиктеген
-10.4722518412 энчи
-10.4722518412 мутакем
-10.4722518412 барабара
-10.4722518412 тилмеч
-10.4722518412 алымбайга
-10.4722518412 эрдикатын
-10.4722518412 каткырышты
-10.4722518412 аялдан
-10.4722518412 чалдар
-10.4722518412 өкүндү
-10.4722518412 ырга
-10.4722518412 кийим
-10.4722518412 тараптагы
-10.4722518412 тилекке
-10.4722518412 жыгылып
-10.4722518412 отурушу
-10.4722518412 бүктөп
-10.4722518412 этпей
-10.4722518412 кирет
-10.4722518412 үйлөр
-10.4722518412 кучактап
-10.4722518412 коен
-10.4722518412 тиет
-10.4722518412 кулактын
-10.4722518412 барам
-10.4722518412 жылдар
-10.4722518412 таяна
-10.4722518412 үйрөнгөн
-10.4722518412 барганда
-10.4722518412 караңгыда
-10.4722518412 достук
-10.4722518412 чуркаган
-10.4722518412 кырынан
-10.4722518412 табат
-10.4722518412 арманы
-10.4722518412 музыка
-10.4722518412 үйлөрдүн
-10.4722518412 түзөп
-10.4722518412 никелейден
-10.4722518412 мурдун
-10.4722518412 тосту
-10.4722518412 өзүңө
-10.4722518412 бирден
-10.4722518412 дыңгыратып
-10.4722518412 мөзгил
-10.4722518412 чоңоюп
-10.4722518412 кыялга
-10.4722518412 көңүлдүн
-10.4722518412 көнгөн
-10.4722518412 тамашасын
-10.4722518412 куран
-10.4722518412 нандан
-10.4722518412 адал
-10.4722518412 жолдошу
-10.4722518412 астында
-10.4722518412 карашында
-10.4722518412 келтирүү
-10.4722518412 сабырлуу
-10.4722518412 угуу
-10.4722518412 бүтөр
-10.4722518412 ишин
-10.4722518412 түшкөнүн
-10.4722518412 үнүңдү
-10.4722518412 жашыл
-10.4722518412 жемеледи
-10.4722518412 баа
-10.4722518412 көрүнө
-10.4722518412 кереге
-10.4722518412 баламдын
-10.4722518412 караанын
-10.4722518412 көңүлүнөн
-10.4722518412 кеткенде
-10.4722518412 шылк
-10.4722518412 чукулунан
-10.4722518412 муздак
-10.4722518412 эшиги
-10.4722518412 муруту
-10.4722518412 сүйлөшөт
-10.4722518412 кылганы
-10.4722518412 тиктешет
-10.4722518412 кайтты
-10.4722518412 балаага
-10.4722518412 айылдаштары
-10.4722518412 буту
-10.4722518412 койбой
-10.4722518412 көөрү
-10.4722518412 оомийин
-10.4722518412 чалган
-10.4722518412 карызынан
-10.4722518412 обон
-10.4722518412 сизден
-10.4722518412 жолуң
-10.4722518412 өзөндүн
-10.4722518412 булактын
-10.4722518412 чыгуучу
-10.4722518412 акылын
-10.4722518412 бешалты
-10.4722518412 шашпа
-10.4722518412 мукамдуу
-10.4722518412 чертсе
-10.4722518412 өт
-10.4722518412 бөлүнгөн
-10.4722518412 белем
-10.4722518412 малдарын
-10.4722518412 жаныма
-10.4722518412 керегенин
-10.4722518412 кызың
-10.4722518412 кожоке
-10.4722518412 акындардын
-10.4722518412 жесир
-10.4722518412 тек
-10.4722518412 көтөрүлө
-10.4722518412 машак
-10.4722518412 малдан
-10.4722518412 кыргыздардын
-10.4722518412 орундарынан
-10.4722518412 мамилеси
-10.4722518412 үйлөрүнө
-10.4722518412 жоопту
-10.4722518412 баяндады
-10.4722518412 жигиттерин
-10.4722518412 райымбекти
-10.4722518412 кайнатып
-10.4722518412 далдаланып
-10.4722518412 суроосуна
-10.4722518412 артта
-10.4722518412 кем
-10.4722518412 кошумча
-10.4722518412 кийинип
-10.4722518412 шакирти
-10.4722518412 жайлуу
-10.4722518412 татынакай
-10.4722518412 алуу
-10.4722518412 кармады
-10.4722518412 тетирисинче
-10.4722518412 мутакемдин
-10.4722518412 төш
-10.4722518412 тал
-10.4722518412 каптап
-10.4722518412 жаагын
-10.4722518412 сурай
-10.4722518412 сөзгендей
-10.4722518412 таппады
-10.4722518412 жээнин
-10.4722518412 куюп
-10.4722518412 кыймылы
-10.4722518412 себебин
-10.4722518412 жолуңду
-10.4722518412 нерселерди
-10.4722518412 затаевич
-10.4722518412 алышпайт
-10.4722518412 эместигин
-10.4722518412 советтин
-10.4722518412 тамашасы
-10.4722518412 угууга
-10.4722518412 районго
-10.4722518412 атанын
-10.4722518412 уйлар
-10.4722518412 үмүт
-10.4722518412 эсенбекти
-10.4722518412 мактап
-10.4722518412 таянып
-10.4722518412 койгондо
-10.4722518412 аялды
-10.4722518412 билбейбиз
-10.4722518412 чырай
-10.4722518412 келмек
-10.4722518412 койгула
-10.4722518412 асмандан
-10.4722518412 учкан
-10.4722518412 жарым
-10.4722518412 чертмекчи
-10.4722518412 бетиндеги
-10.4722518412 токтоп
-10.4722518412 алаканын
-10.4722518412 жумадан
-10.4722518412 тагдырдын
-10.4722518412 белең
-10.4722518412 тиктешип
-10.4722518412 балдарына
-10.4722518412 токтот
-10.4722518412 ушунун
-10.4722518412 кетсе
-10.4722518412 отургандарга
-10.4722518412 калбайт
-10.4722518412 турушкан
-10.4722518412 ири
-10.4722518412 ырчыларды
-10.4722518412 чабылган
-10.4722518412 көл
-10.4722518412 ыкласы
-10.4722518412 театр
-10.4722518412 шалтакбайдын
-10.4722518412 мураталыны
-10.4722518412 козгоп
-10.4722518412 эмнеден
-10.4722518412 жаным
-10.4722518412 кыңылдап
-10.4722518412 баладан
-10.4722518412 сурнайчы
-10.4722518412 айыбы
-10.4722518412 кантондук
-10.4722518412 чаар
-10.4722518412 бирлери
-10.4722518412 түгөнүп
-10.4722518412 тынарбек
-10.4722518412 акырына
-10.4722518412 таштады
-10.4722518412 суукка
-10.4722518412 аалы
-10.4722518412 тандап
-10.4722518412 берсе
-10.4722518412 көйнөгүнүн
-10.4722518412 кага
-10.4722518412 туулуп
-10.4722518412 тапты
-10.4722518412 кызыгып
-10.4722518412 билбеймин
-10.4722518412 күйөөсүнөн
-10.4722518412 айдоого
-10.4722518412 фрунзеден
-10.4722518412 мурутунан
-10.4722518412 алейкум
-10.4722518412 ийи
-10.4722518412 чүй
-10.4722518412 айдалган
-10.4722518412 өмүрдү
-10.4722518412 кокуй
-10.4722518412 жашырып
-10.4722518412 сөзмөр
-10.4722518412 кыйла
-10.4722518412 бут
-10.4722518412 башкалардан
-10.4722518412 асманды
-10.4722518412 саадак
-10.4722518412 жолборс
-10.4722518412 жүрөгүнө
-10.4722518412 жаңыртып
-10.4722518412 чакты
-10.4722518412 келинди
-10.4722518412 күндөрү
-10.4722518412 комузчулары
-10.4722518412 отурууга
-10.4722518412 анжиянда
-10.4722518412 түшкөнсүп
-10.4722518412 айдоо
-10.4722518412 ишенген
-10.4722518412 таятасынын
-10.4722518412 машакты
-10.4722518412 эткизди
-10.4722518412 чапан
-10.4722518412 колуман
-10.4722518412 тарта
-10.4722518412 азабын
-10.4722518412 чыкпады
-10.4722518412 карманды
-10.4722518412 жайы
-10.4722518412 молдодон
-10.4722518412 бетим
-10.4722518412 кыскасы
-10.4722518412 кантет
-10.4722518412 күрөш
-10.4722518412 тебетейчен
-10.4722518412 ийни
-10.4722518412 келишин
-10.4722518412 каттап
-10.4722518412 соодагер
-10.4722518412 атаке
-10.4722518412 тойкожонун
-10.4722518412 кестини
-10.4722518412 көрүнүш
-10.4722518412 ташкенден
-10.4722518412 келгенче
-10.4722518412 малай
-10.4722518412 салт
-10.4722518412 нерселер
-10.4722518412 ток
-10.4722518412 кетментөбөнүн
-10.4722518412 карамагындагы
-10.4722518412 назар
-10.4722518412 баарыбыз
-10.4722518412 отко
-10.4722518412 күчөп
-10.4722518412 тизесин
-10.4722518412 ынтымактуу
-10.4722518412 батышты
-10.4722518412 келме
-10.4722518412 даңкын
-10.654573398 төшөктүн
-10.654573398 алгандай
-10.654573398 топураган
-10.654573398 оюнун
-10.654573398 куду
-10.654573398 комузчулугун
-10.654573398 куурайдын
-10.654573398 жылаажындуу
-10.654573398 сөөгүн
-10.654573398 купуя
-10.654573398 түшкөндөй
-10.654573398 мурдагы
-10.654573398 отурушканда
-10.654573398 төмөнкү
-10.654573398 ыргылжың
-10.654573398 шашты
-10.654573398 балаңыз
-10.654573398 жадаганда
-10.654573398 сибирге
-10.654573398 катылган
-10.654573398 букжуюп
-10.654573398 карматып
-10.654573398 жубарымбек
-10.654573398 күтө
-10.654573398 турганы
-10.654573398 ээсине
-10.654573398 сыноо
-10.654573398 жеримди
-10.654573398 келиндер
-10.654573398 барча
-10.654573398 күлүк
-10.654573398 мойну
-10.654573398 уга
-10.654573398 убактан
-10.654573398 камалып
-10.654573398 таарынып
-10.654573398 соолугу
-10.654573398 соодагерлер
-10.654573398 көкбөрү
-10.654573398 шашпай
-10.654573398 айтасыз
-10.654573398 жылдары
-10.654573398 сактай
-10.654573398 күйөөм
-10.654573398 анчамынча
-10.654573398 түшүнбөгөн
-10.654573398 жигиттердин
-10.654573398 тыйылып
-10.654573398 бектенге
-10.654573398 эбак
-10.654573398 отурчу
-10.654573398 жыйноо
-10.654573398 кантээр
-10.654573398 мелтиреп
-10.654573398 айтсам
-10.654573398 падышага
-10.654573398 урсун
-10.654573398 чертүү
-10.654573398 жанып
-10.654573398 көргөнсүп
-10.654573398 мукамы
-10.654573398 жыгылды
-10.654573398 даңкы
-10.654573398 ыраспы
-10.654573398 тиледи
-10.654573398 май
-10.654573398 укмуштай
-10.654573398 болжолу
-10.654573398 бергени
-10.654573398 элин
-10.654573398 тышта
-10.654573398 анчейин
-10.654573398 ымырт
-10.654573398 күз
-10.654573398 өзүмдүн
-10.654573398 жумушу
-10.654573398 сөзүңдү
-10.654573398 калбайын
-10.654573398 сыпайкерчиликтүү
-10.654573398 болууга
-10.654573398 бармак
-10.654573398 шилтеди
-10.654573398 экендигине
-10.654573398 купкуу
-10.654573398 мейли
-10.654573398 мойнума
-10.654573398 коңшулаш
-10.654573398 окутуп
-10.654573398 тергөө
-10.654573398 жууп
-10.654573398 ырына
-10.654573398 кантондун
-10.654573398 айттың
-10.654573398 жөнөп
-10.654573398 салуу
-10.654573398 демек
-10.654573398 каранып
-10.654573398 аялга
-10.654573398 алайын
-10.654573398 сөзишти
-10.654573398 сөөк
-10.654573398 жүк
-10.654573398 ыргагы
-10.654573398 угууну
-10.654573398 экөөңөр
-10.654573398 чекесин
-10.654573398 дөөт
-10.654573398 жесирлер
-10.654573398 оодарып
-10.654573398 бешташ
-10.654573398 нарыбери
-10.654573398 тымызын
-10.654573398 жомок
-10.654573398 эжелеп
-10.654573398 сатылган
-10.654573398 түртүп
-10.654573398 алына
-10.654573398 жатса
-10.654573398 бечаралар
-10.654573398 өкүлү
-10.654573398 тартканда
-10.654573398 кимде
-10.654573398 маасычан
-10.654573398 бурчунда
-10.654573398 ойлогондо
-10.654573398 жигиттерине
-10.654573398 көтөрүлдү
-10.654573398 обону
-10.654573398 биринбири
-10.654573398 каягына
-10.654573398 баруудан
-10.654573398 такыр
-10.654573398 барбады
-10.654573398 билектен
-10.654573398 күнүндө
-10.654573398 кантсин
-10.654573398 токтотушту
-10.654573398 жакындан
-10.654573398 кийиздин
-10.654573398 акт
-10.654573398 райымбекке
-10.654573398 болбостон
-10.654573398 төшөнчү
-10.654573398 көтөрө
-10.654573398 аның
-10.654573398 таппаган
-10.654573398 кетпейт
-10.654573398 отун
-10.654573398 пейли
-10.654573398 шыдыр
-10.654573398 адатынча
-10.654573398 албырып
-10.654573398 эри
-10.654573398 тизгин
-10.654573398 туугандык
-10.654573398 кабарларды
-10.654573398 аша
-10.654573398 болбос
-10.654573398 батты
-10.654573398 бөтөнчө
-10.654573398 байкуштун
-10.654573398 ээлери
-10.654573398 азга
-10.654573398 тилегине
-10.654573398 жар
-10.654573398 күнөө
-10.654573398 самоордун
-10.654573398 бакырды
-10.654573398 кошулганда
-10.654573398 отурганы
-10.654573398 абалы
-10.654573398 жаштайынан
-10.654573398 тарабын
-10.654573398 үрөйлүү
-10.654573398 жоош
-10.654573398 кыргызга
-10.654573398 тымтырс
-10.654573398 жайыты
-10.654573398 албаганы
-10.654573398 чече
-10.654573398 бердим
-10.654573398 курч
-10.654573398 үшкүрдү
-10.654573398 жайлоо
-10.654573398 черт
-10.654573398 аздап
-10.654573398 төшөп
-10.654573398 кыйналып
-10.654573398 узатты
-10.654573398 колдорунун
-10.654573398 берер
-10.654573398 аткарды
-10.654573398 калышчу
-10.654573398 өлгөнчө
-10.654573398 кыйкырып
-10.654573398 кыраакы
-10.654573398 кармалап
-10.654573398 активдери
-10.654573398 чымчып
-10.654573398 ачкан
-10.654573398 кечинде
-10.654573398 мурдагыдай
-10.654573398 тикесинен
-10.654573398 үрүп
-10.654573398 зарын
-10.654573398 бешөө
-10.654573398 жолдоштору
-10.654573398 мырзаны
-10.654573398 жатамын
-10.654573398 капкара
-10.654573398 ойлонот
-10.654573398 сейрек
-10.654573398 алмаксалмак
-10.654573398 жеме
-10.654573398 тентек
-10.654573398 талашып
-10.654573398 окуяга
-10.654573398 жүрөгүнөн
-10.654573398 сөзими
-10.654573398 бышып
-10.654573398 түшөр
-10.654573398 белги
-10.654573398 киришкен
-10.654573398 арык
-10.654573398 абдыраманга
-10.654573398 баккан
-10.654573398 чарк
-10.654573398 атаэне
-10.654573398 барды
-10.654573398 мурдагыдан
-10.654573398 буюм
-10.654573398 кышында
-10.654573398 учурашуудан
-10.654573398 баалай
-10.654573398 басылган
-10.654573398 жаза
-10.654573398 таштаган
-10.654573398 талаша
-10.654573398 жактырбагандай
-10.654573398 көрүшү
-10.654573398 салбай
-10.654573398 көнүмүш
-10.654573398 бөксө
-10.654573398 зыйнаттын
-10.654573398 таласты
-10.654573398 аялдыкка
-10.654573398 акмалап
-10.654573398 намасын
-10.654573398 кутулуу
-10.654573398 кыялын
-10.654573398 жутту
-10.654573398 көрбөсүн
-10.654573398 бергенден
-10.654573398 сөздөн
-10.654573398 ошондойлордун
-10.654573398 чукуп
-10.654573398 көнө
-10.654573398 ылайыктуу
-10.654573398 сөздөрү
-10.654573398 угуза
-10.654573398 учурдан
-10.654573398 билбесе
-10.654573398 жоктой
-10.654573398 отурушунан
-10.654573398 кудурети
-10.654573398 тоодон
-10.654573398 антпесе
-10.654573398 каткан
-10.654573398 чертиши
-10.654573398 ити
-10.654573398 жашар
-10.654573398 экөөбүздүн
-10.654573398 соода
-10.654573398 атаңдын
-10.654573398 турсаңчы
-10.654573398 чырымга
-10.654573398 төбөсүнөн
-10.654573398 желге
-10.654573398 азабынан
-10.654573398 курсагын
-10.654573398 калсын
-10.654573398 чакыруудан
-10.654573398 мүмкүндүк
-10.654573398 кунан
-10.654573398 ашкере
-10.654573398 канат
-10.654573398 ээгин
-10.654573398 жетсе
-10.654573398 шабдандын
-10.654573398 түшүндө
-10.654573398 күнөөлүү
-10.654573398 чабуу
-10.654573398 кууш
-10.654573398 күчүнө
-10.654573398 седептен
-10.654573398 аңгемеге
-10.654573398 чылым
-10.654573398 жөзде
-10.654573398 шартта
-10.654573398 көтөрүшүп
-10.654573398 кантем
-10.654573398 жиберет
-10.654573398 күбүрөдү
-10.654573398 кээрдүү
-10.654573398 жайжайына
-10.654573398 дегенин
-10.654573398 куштар
-10.654573398 айбаттуу
-10.654573398 шаша
-10.654573398 айдаса
-10.654573398 жылдардан
-10.654573398 киришип
-10.654573398 оңуна
-10.654573398 жоолугун
-10.654573398 дөңдөгү
-10.654573398 сала
-10.654573398 акындар
-10.654573398 айланасында
-10.654573398 дамбалчан
-10.654573398 жаныңда
-10.654573398 күкүк
-10.654573398 бекем
-10.654573398 тегерек
-10.654573398 өрөөн
-10.654573398 айтарын
-10.654573398 бузуп
-10.654573398 ийменип
-10.654573398 мамырдын
-10.654573398 жүрөгүндө
-10.654573398 чыдап
-10.654573398 мурункудай
-10.654573398 чыкпаган
-10.654573398 эмнесине
-10.654573398 кызылбашка
-10.654573398 кармай
-10.654573398 мойнунда
-10.654573398 чыгышы
-10.654573398 зал
-10.654573398 жомогу
-10.654573398 козгогон
-10.654573398 майдамайда
-10.654573398 күрөшүп
-10.654573398 унутулгус
-10.654573398 жасады
-10.654573398 керегеде
-10.654573398 капшыт
-10.654573398 күтүүгө
-10.654573398 маанисин
-10.654573398 кеткиси
-10.654573398 кирер
-10.654573398 акылынан
-10.654573398 сөзилди
-10.654573398 жөргөлөк
-10.654573398 жүргүлө
-10.654573398 үйбүлө
-10.654573398 жылга
-10.654573398 кожокул
-10.654573398 өзөндү
-10.654573398 ачка
-10.654573398 ойлочу
-10.654573398 күзүндө
-10.654573398 картаң
-10.654573398 жетине
-10.654573398 ишенип
-10.654573398 ок
-10.654573398 чууруп
-10.654573398 шардана
-10.654573398 шектүү
-10.654573398 камбыл
-10.654573398 берилген
-10.654573398 ойгонуп
-10.654573398 берилип
-10.654573398 азамат
-10.654573398 пейил
-10.654573398 бурула
-10.654573398 ыргытып
-10.654573398 сайып
-10.654573398 шыр
-10.654573398 жээгине
-10.654573398 бериңиз
-10.654573398 тобокел
-10.654573398 учурашууга
-10.654573398 ынтаа
-10.654573398 өгүзгө
-10.654573398 каласың
-10.654573398 акшайымдын
-10.654573398 тынымсыз
-10.654573398 табылбайт
-10.654573398 жакшылыктын
-10.654573398 ушунда
-10.654573398 солдатка
-10.654573398 өзбек
-10.654573398 ташта
-10.654573398 арманын
-10.654573398 жашка
-10.654573398 эрине
-10.654573398 ормое
-10.654573398 бас
-10.654573398 тарады
-10.654573398 кебетеси
-10.654573398 табына
-10.654573398 калышы
-10.654573398 кетүү
-10.654573398 китебин
-10.654573398 айдыралынын
-10.654573398 конгон
-10.654573398 жаткандыр
-10.654573398 орунга
-10.654573398 илеби
-10.654573398 беркилер
-10.654573398 кам
-10.654573398 кирипчыгып
-10.654573398 душман
-10.654573398 өлүгүн
-10.654573398 коюшкан
-10.654573398 көтөрүлгөн
-10.654573398 кыса
-10.654573398 изине
-10.654573398 түшүнүшкөн
-10.654573398 күнүнө
-10.654573398 каттай
-10.654573398 окуган
-10.654573398 уйкуда
-10.654573398 каяша
-10.654573398 өспүрүм
-10.654573398 айрылып
-10.654573398 экемин
-10.654573398 аялдары
-10.654573398 жүргөндөр
-10.654573398 кагаз
-10.654573398 тыңшады
-10.654573398 театрга
-10.654573398 кетментөбөлүктөр
-10.654573398 чепкен
-10.654573398 учуна
-10.654573398 айтылса
-10.654573398 законду
-10.654573398 тарабы
-10.654573398 жекжаат
-10.654573398 коштошуу
-10.654573398 ажырата
-10.654573398 таптың
-10.654573398 чыгым
-10.654573398 көрбөдү
-10.654573398 калы
-10.654573398 угушкан
-10.654573398 жаштарды
-10.654573398 үйлөнгөн
-10.654573398 кызыгы
-10.654573398 байкоо
-10.654573398 жаштары
-10.654573398 суроолор
-10.654573398 байланган
-10.654573398 карашат
-10.654573398 алдыма
-10.654573398 шакиртине
-10.654573398 жык
-10.654573398 колуктусун
-10.654573398 бали
-10.654573398 калтырган
-10.654573398 бизден
-10.654573398 жетишет
-10.654573398 дээрин
-10.654573398 ойлогонун
-10.654573398 жумушчу
-10.654573398 ызаат
-10.654573398 тебетейи
-10.654573398 жутуп
-10.654573398 артисттерге
-10.654573398 мөзгилсиз
-10.654573398 ойнотуп
-10.654573398 сөзилип
-10.654573398 таласта
-10.654573398 сөзет
-10.654573398 айтса
-10.654573398 белек
-10.654573398 олтурган
-10.654573398 кушту
-10.654573398 алты
-10.654573398 тунжурап
-10.654573398 сендей
-10.654573398 көтөргөндө
-10.654573398 коңур
-10.654573398 кылыч
-10.654573398 аккызга
-10.654573398 билбейсиңби
-10.654573398 убагы
-10.654573398 олуяатадан
-10.654573398 короого
-10.654573398 жоголгондон
-10.654573398 уңулдап
-10.654573398 аялынан
-10.654573398 айтуудан
-10.654573398 саз
-10.654573398 укчу
-10.654573398 качса
-10.654573398 өмүрүнө
-10.654573398 күүлөр
-10.654573398 чалынган
-10.654573398 кааласа
-10.654573398 жалаага
-10.654573398 бузду
-10.654573398 жеткенден
-10.654573398 жатабы
-10.654573398 оёзго
-10.654573398 бук
-10.654573398 күнөөсүн
-10.654573398 дүйнөнү
-10.654573398 тарыхын
-10.654573398 абдырамандын
-10.654573398 илбериңки
-10.654573398 аяңдап
-10.654573398 башым
-10.654573398 отурам
-10.654573398 калбай
-10.654573398 башкарып
-10.654573398 даярмын
-10.654573398 кубанат
-10.654573398 экенмин
-10.654573398 түшүнбөй
-10.654573398 уктабай
-10.654573398 садагаң
-10.654573398 терин
-10.654573398 тигине
-10.654573398 кыпкызыл
-10.654573398 нары
-10.654573398 ассалоомалейкум
-10.654573398 аяктап
-10.654573398 баламын
-10.654573398 айтышуу
-10.654573398 түндө
-10.654573398 уулжанга
-10.654573398 тике
-10.654573398 көрсөтө
-10.654573398 кубанышты
-10.654573398 калмак
-10.654573398 сүртүп
-10.654573398 билди
-10.654573398 ырысы
-10.654573398 чыныгы
-10.654573398 кыймылын
-10.654573398 анчалык
-10.654573398 аман
-10.654573398 күтүштү
-10.654573398 агарып
-10.654573398 күнөөмдү
-10.654573398 тынчтыкты
-10.654573398 кучак
-10.654573398 полиция
-10.654573398 сыяктанды
-10.654573398 түңүлгөн
-10.654573398 саздагы
-10.654573398 күлүмсүрөп
-10.654573398 оттоп
-10.654573398 борош
-10.654573398 бейкут
-10.654573398 койгондон
-10.654573398 тереңдеп
-10.654573398 ичтен
-10.654573398 жөнөйт
-10.654573398 акынга
-10.654573398 койнунан
-10.654573398 саясий
-10.654573398 меймандарды
-10.654573398 өнөрлүү
-10.654573398 чекеси
-10.654573398 сүйлөшкүсү
-10.654573398 окуйт
-10.654573398 билгиси
-10.654573398 кызынан
-10.654573398 кызкелиндер
-10.654573398 тааный
-10.654573398 окуду
-10.654573398 сергек
-10.654573398 мүмкүнчүлүк
-10.654573398 бирин
-10.654573398 бирибиринин
-10.654573398 дүңгүрөп
-10.654573398 сайрай
-10.654573398 маана
-10.654573398 жарк
-10.654573398 отуруудан
-10.654573398 оокумда
-10.654573398 баламды
-10.654573398 катарынан
-10.654573398 ачыла
-10.654573398 балдарын
-10.654573398 болдук
-10.654573398 беребиз
-10.654573398 көнүп
-10.654573398 турганына
-10.654573398 композитор
-10.654573398 үзүлбөйт
-10.654573398 абыл
-10.654573398 көчүрүп
-10.654573398 мүнөзү
-10.654573398 оорунун
-10.654573398 нуруна
-10.654573398 чачыкей
-10.654573398 келгиле
-10.654573398 айтпайт
-10.654573398 нокоттой
-10.654573398 ырларын
-10.654573398 көрүнчү
-10.654573398 тиричилиги
-10.654573398 бутунун
-10.654573398 бейтааныш
-10.654573398 тикчийтип
-10.654573398 кебетесинен
-10.654573398 кунт
-10.654573398 сүйлөшпөй
-10.654573398 маңдайына
-10.654573398 пенде
-10.654573398 тегеренип
-10.654573398 эртеси
-10.654573398 кишилери
-10.654573398 журтунда
-10.654573398 ырлары
-10.654573398 элечегин
-10.654573398 азапка
-10.654573398 текшерүү
-10.654573398 көчөгө
-10.654573398 өнөрпоздорду
-10.654573398 жашоого
-10.654573398 сурашат
-10.654573398 килем
-10.654573398 урият
-10.654573398 сапардан
-10.654573398 токтобойт
-10.654573398 көркөм
-10.654573398 унаа
-10.654573398 түшүнүштү
-10.654573398 эти
-10.654573398 бирдеме
-10.654573398 тебетейди
-10.654573398 денесинин
-10.654573398 жыйылып
-10.654573398 камбар
-10.654573398 көңүлдүү
-10.654573398 колпоч
-10.654573398 уйгутуйгу
-10.654573398 жолугушуудан
-10.654573398 балача
-10.654573398 москвада
-10.654573398 бүтүн
-10.654573398 колум
-10.654573398 туурап
-10.654573398 жолунан
-10.654573398 урунуштуруп
-10.654573398 иттердин
-10.654573398 тиштенип
-10.654573398 теңтуш
-10.654573398 губернатор
-10.654573398 эртеңки
-10.654573398 таштайт
-10.654573398 жатасың
-10.654573398 түшүндүрө
-10.654573398 терисин
-10.654573398 токтоткон
-10.654573398 күзгү
-10.654573398 талкан
-10.654573398 табышты
-10.654573398 бөлүнүшүп
-10.654573398 тамактын
-10.654573398 жетпеди
-10.654573398 тирчилик
-10.654573398 чапанын
-10.654573398 келбегендей
-10.654573398 агып
-10.654573398 стол
-10.654573398 сунуш
-10.654573398 убакыттын
-10.654573398 ассалоом
-10.654573398 ооп
-10.654573398 кыялдын
-10.654573398 кыздан
-10.654573398 угушканда
-10.654573398 табуу
-10.654573398 жамбаштап
-10.654573398 куруп
-10.654573398 канаттарын
-10.654573398 төшөгү
-10.654573398 эй
-10.654573398 түнөрүп
-10.654573398 биринде
-10.654573398 барууга
-10.654573398 ашуунун
-10.654573398 сурашып
-10.654573398 нерсенин
-10.654573398 башташты
-10.654573398 чоңдор
-10.654573398 ойгонгон
-10.654573398 айлык
-10.654573398 көзигет
-10.654573398 кедейлерге
-10.654573398 таасын
-10.654573398 кайтара
-10.654573398 жеңи
-10.654573398 бүлүк
-10.654573398 кылышат
-10.654573398 жыйырма
-10.654573398 айымканды
-10.654573398 укпай
-10.654573398 түшкө
-10.654573398 катышып
-10.654573398 толду
-10.654573398 шапкесин
-10.654573398 көзекти
-10.654573398 күткөнү
-10.654573398 райондун
-10.654573398 уккулуктуу
-10.654573398 күрөшкө
-10.654573398 те
-10.654573398 иреңинен
-10.654573398 салганда
-10.654573398 баратышкан
-10.654573398 тарай
-10.654573398 күүгүм
-10.654573398 боор
-10.654573398 угулбай
-10.654573398 өнөрпоздор
-10.654573398 тоң
-10.654573398 алдан
-10.654573398 келатышкан
-10.654573398 шайланды
-10.654573398 бутагына
-10.654573398 сууну
-10.654573398 жоопко
-10.654573398 жатышты
-10.654573398 кайгы
-10.654573398 түшүрүп
-10.654573398 чайнап
-10.654573398 кайгысын
-10.654573398 шыңгырамасы
-10.654573398 жеди
-10.654573398 топу
-10.654573398 курбум
-10.654573398 оокаттын
-10.654573398 атыжөнүн
-10.654573398 элдики
-10.654573398 айланасын
-10.654573398 үргөн
-10.654573398 калабы
-10.654573398 кубанып
-10.654573398 көзеги
-10.654573398 алгандан
-10.654573398 окшободу
-10.654573398 арыбери
-10.654573398 бура
-10.654573398 кары
-10.654573398 берүүчү
-10.654573398 бэ
-10.654573398 бакырыгын
-10.654573398 канып
-10.654573398 тердеп
-10.654573398 кыйышпас
-10.654573398 жаздады
-10.654573398 дабышынан
-10.654573398 эстеген
-10.654573398 чоңду
-10.654573398 суроолорго
-10.654573398 алганын
-10.654573398 адат
-10.654573398 тегереги
-10.654573398 жатам
-10.654573398 угушат
-10.654573398 жөнүн
-10.654573398 көтөрүңкү
-10.654573398 кумсарып
-10.654573398 издеген
-10.654573398 коюлган
-10.654573398 чыкканы
-10.654573398 кетпеди
-10.654573398 улак
-10.654573398 дээр
-10.654573398 кыстарылган
-10.654573398 койгонун
-10.654573398 келатканын
-10.654573398 ажырабай
-10.654573398 өмүрүмдө
-10.654573398 бардык
-10.654573398 кыштактын
-10.654573398 отур
-10.654573398 түшүндүңбү
-10.654573398 кургак
-10.654573398 балаа
-10.654573398 көтөрүлүп
-10.654573398 тигилер
-10.654573398 элес
-10.654573398 шуу
-10.654573398 чочугандай
-10.654573398 меники
-10.654573398 муңга
-10.654573398 кыягын
-10.654573398 каткырды
-10.654573398 балдары
-10.654573398 жибербей
-10.654573398 бурчта
-10.654573398 оюнан
-10.654573398 аба
-10.654573398 мунуң
-10.654573398 оркестр
-10.654573398 дурус
-10.654573398 көрөр
-10.654573398 экөөбүзгө
-10.654573398 улап
-10.654573398 жарабайт
-10.654573398 согуп
-10.654573398 карышкырга
-10.654573398 кул
-10.654573398 тик
-10.654573398 самоор
-10.654573398 тийбей
-10.654573398 төрүндө
-10.654573398 миндиң
-10.654573398 үргүлөп
-10.654573398 атабек
-10.654573398 өңөрүп
-10.654573398 эсенаман
-10.654573398 чыгуу
-10.654573398 намысы
-10.654573398 сагынып
-10.654573398 жериң
-10.654573398 бөлмөгө
-10.654573398 учурады
-10.654573398 албетте
-10.654573398 кетсең
-10.654573398 кучагын
-10.654573398 кумары
-10.654573398 шымчан
-10.654573398 устатын
-10.654573398 кедейлердин
-10.654573398 жеңесин
-10.654573398 жердеги
-10.654573398 тааныбаган
-10.654573398 кейиди
-10.8777169493 жесирлери
-10.8777169493 турабы
-10.8777169493 өрдөп
-10.8777169493 көрбө
-10.8777169493 суудан
-10.8777169493 таруу
-10.8777169493 комузчумун
-10.8777169493 черткенин
-10.8777169493 имере
-10.8777169493 кыянаттык
-10.8777169493 согот
-10.8777169493 кушчудагы
-10.8777169493 жүргөнү
-10.8777169493 кылы
-10.8777169493 жуук
-10.8777169493 жаркыраган
-10.8777169493 сүйлөйт
-10.8777169493 көпчүлүк
-10.8777169493 билгени
-10.8777169493 карынын
-10.8777169493 таятам
-10.8777169493 өзүндө
-10.8777169493 төбөсүндө
-10.8777169493 үзүлгөн
-10.8777169493 кокусунан
-10.8777169493 жакшылап
-10.8777169493 сынып
-10.8777169493 комузчусу
-10.8777169493 чечимге
-10.8777169493 тагдырыма
-10.8777169493 талканды
-10.8777169493 түндүктөн
-10.8777169493 кайсынысы
-10.8777169493 жакадан
-10.8777169493 ана
-10.8777169493 сыртта
-10.8777169493 жеңең
-10.8777169493 акы
-10.8777169493 уятсыз
-10.8777169493 отуруңуз
-10.8777169493 болуштукка
-10.8777169493 жакага
-10.8777169493 оңдой
-10.8777169493 талканга
-10.8777169493 сак
-10.8777169493 буйруса
-10.8777169493 ээрчиди
-10.8777169493 гүлдөп
-10.8777169493 малайы
-10.8777169493 устаты
-10.8777169493 көздөрүнө
-10.8777169493 алымкулга
-10.8777169493 бирибирибизден
-10.8777169493 чиренип
-10.8777169493 кажыкужу
-10.8777169493 каруусу
-10.8777169493 хан
-10.8777169493 өрөөнүндө
-10.8777169493 туйлады
-10.8777169493 ташы
-10.8777169493 келишинен
-10.8777169493 тарабында
-10.8777169493 токтоду
-10.8777169493 койбойт
-10.8777169493 оролгон
-10.8777169493 таланып
-10.8777169493 дүмбүлү
-10.8777169493 талаадан
-10.8777169493 оокатын
-10.8777169493 чогулушкан
-10.8777169493 койдон
-10.8777169493 жүрүшүп
-10.8777169493 б
-10.8777169493 айрым
-10.8777169493 буюмдардын
-10.8777169493 саруу
-10.8777169493 кызыктырган
-10.8777169493 чилденин
-10.8777169493 ыргагына
-10.8777169493 байлардан
-10.8777169493 коркту
-10.8777169493 окшош
-10.8777169493 беттен
-10.8777169493 бошобойт
-10.8777169493 төшүн
-10.8777169493 кыпчыкейди
-10.8777169493 жайкысын
-10.8777169493 бешимге
-10.8777169493 козгой
-10.8777169493 үйлөнмөк
-10.8777169493 олжо
-10.8777169493 топучан
-10.8777169493 жоолук
-10.8777169493 иреңине
-10.8777169493 сабырдуулук
-10.8777169493 болбосоң
-10.8777169493 корккон
-10.8777169493 көрөлү
-10.8777169493 даңкайган
-10.8777169493 байкеси
-10.8777169493 аңгеменин
-10.8777169493 аттап
-10.8777169493 өңгөчүн
-10.8777169493 күлгөн
-10.8777169493 шатырата
-10.8777169493 чогулгандар
-10.8777169493 татаал
-10.8777169493 калдайган
-10.8777169493 кайыл
-10.8777169493 сал
-10.8777169493 жомокко
-10.8777169493 энтелеп
-10.8777169493 акшайымды
-10.8777169493 чогулуштан
-10.8777169493 кыйкыра
-10.8777169493 мээлүүн
-10.8777169493 колуңа
-10.8777169493 койдум
-10.8777169493 берекеси
-10.8777169493 жоолугу
-10.8777169493 алга
-10.8777169493 күрөң
-10.8777169493 жоробайдын
-10.8777169493 ырайымдуу
-10.8777169493 ордуңан
-10.8777169493 тамшанды
-10.8777169493 коюу
-10.8777169493 азабы
-10.8777169493 тунат
-10.8777169493 мыктыбекти
-10.8777169493 калыңын
-10.8777169493 түштөн
-10.8777169493 чымчыктар
-10.8777169493 элик
-10.8777169493 көкүрөк
-10.8777169493 тиричилигине
-10.8777169493 ондогон
-10.8777169493 өгүздөрдү
-10.8777169493 чөптүн
-10.8777169493 качкысы
-10.8777169493 момпосуйдун
-10.8777169493 тынык
-10.8777169493 чайкап
-10.8777169493 кишилерден
-10.8777169493 баратышат
-10.8777169493 базардын
-10.8777169493 комитетинин
-10.8777169493 жайылган
-10.8777169493 жандуу
-10.8777169493 далыга
-10.8777169493 упгул
-10.8777169493 чөкө
-10.8777169493 өргөөлөр
-10.8777169493 алынган
-10.8777169493 ишенди
-10.8777169493 куурап
-10.8777169493 айылы
-10.8777169493 мингизип
-10.8777169493 сибирдин
-10.8777169493 созо
-10.8777169493 кордугун
-10.8777169493 сиздерге
-10.8777169493 капыр
-10.8777169493 махаббаттын
-10.8777169493 кетментөбөдө
-10.8777169493 колтуктап
-10.8777169493 жайык
-10.8777169493 колдоп
-10.8777169493 шайланат
-10.8777169493 андайларды
-10.8777169493 акылдуу
-10.8777169493 жыйылган
-10.8777169493 тартууга
-10.8777169493 борбогой
-10.8777169493 кайталанып
-10.8777169493 экиге
-10.8777169493 келбесе
-10.8777169493 малдар
-10.8777169493 өздөрүнүн
-10.8777169493 билбегениң
-10.8777169493 көкүлүн
-10.8777169493 аттиң
-10.8777169493 заманы
-10.8777169493 маанек
-10.8777169493 учурайт
-10.8777169493 айтаарын
-10.8777169493 аттарга
-10.8777169493 чала
-10.8777169493 үйрөтүү
-10.8777169493 дыйкандарынын
-10.8777169493 алкыш
-10.8777169493 пайдаланып
-10.8777169493 орусту
-10.8777169493 убаданы
-10.8777169493 карбаластап
-10.8777169493 жоктор
-10.8777169493 дан
-10.8777169493 такады
-10.8777169493 кожоюну
-10.8777169493 энчисин
-10.8777169493 шаркырап
-10.8777169493 олуяата
-10.8777169493 өлөрчө
-10.8777169493 иштейт
-10.8777169493 башталганын
-10.8777169493 таңдын
-10.8777169493 адамдарды
-10.8777169493 айландырып
-10.8777169493 айдай
-10.8777169493 айтылат
-10.8777169493 кайгырышты
-10.8777169493 тыныбектер
-10.8777169493 үйрүлүп
-10.8777169493 сурабайт
-10.8777169493 казактын
-10.8777169493 кыңылдаган
-10.8777169493 шаарга
-10.8777169493 мекеменин
-10.8777169493 сыйпалап
-10.8777169493 тартпайт
-10.8777169493 жаздан
-10.8777169493 кулактан
-10.8777169493 жеңил
-10.8777169493 өлсөм
-10.8777169493 орундалды
-10.8777169493 таңып
-10.8777169493 кийимчен
-10.8777169493 ме
-10.8777169493 тумшугун
-10.8777169493 жандын
-10.8777169493 жамбаш
-10.8777169493 буюмдары
-10.8777169493 кабырга
-10.8777169493 жолуңар
-10.8777169493 күңгүрөнгөн
-10.8777169493 катынына
-10.8777169493 киргиле
-10.8777169493 пайдалуу
-10.8777169493 ашыгып
-10.8777169493 тагдырын
-10.8777169493 эңкейип
-10.8777169493 мактай
-10.8777169493 керимбай
-10.8777169493 үйлөрдөн
-10.8777169493 тетирисинен
-10.8777169493 сөзүм
-10.8777169493 пристав
-10.8777169493 катыны
-10.8777169493 үрөндү
-10.8777169493 жашырууга
-10.8777169493 кыска
-10.8777169493 оңдоп
-10.8777169493 жаштардын
-10.8777169493 чыгарышкан
-10.8777169493 ажыратып
-10.8777169493 оозуңан
-10.8777169493 билбеди
-10.8777169493 кетишкен
-10.8777169493 момун
-10.8777169493 апкел
-10.8777169493 калууга
-10.8777169493 коркутуп
-10.8777169493 токойдон
-10.8777169493 бойдок
-10.8777169493 бөлө
-10.8777169493 энчисине
-10.8777169493 түшкөндөн
-10.8777169493 сүйөт
-10.8777169493 зарылдыгын
-10.8777169493 комузчуга
-10.8777169493 саламдашып
-10.8777169493 балаң
-10.8777169493 кайраттанып
-10.8777169493 каймакка
-10.8777169493 кылдары
-10.8777169493 үзөн
-10.8777169493 айлындагы
-10.8777169493 толгойтолгой
-10.8777169493 күткөндөй
-10.8777169493 чоюп
-10.8777169493 билинсе
-10.8777169493 бараткандай
-10.8777169493 элеңдеп
-10.8777169493 билгеним
-10.8777169493 баягыда
-10.8777169493 болжогондой
-10.8777169493 сайраган
-10.8777169493 жылкысын
-10.8777169493 арасындагы
-10.8777169493 жылаңач
-10.8777169493 сыртка
-10.8777169493 шоола
-10.8777169493 айкалыштырып
-10.8777169493 алдың
-10.8777169493 казакча
-10.8777169493 байкалат
-10.8777169493 шордуу
-10.8777169493 капал
-10.8777169493 баратканы
-10.8777169493 жибермек
-10.8777169493 сайдын
-10.8777169493 тарабына
-10.8777169493 сабакка
-10.8777169493 бадал
-10.8777169493 шыбырап
-10.8777169493 теке
-10.8777169493 барсаң
-10.8777169493 ишенгени
-10.8777169493 коем
-10.8777169493 барбастан
-10.8777169493 саргайып
-10.8777169493 иңир
-10.8777169493 учурашканын
-10.8777169493 сыртына
-10.8777169493 турбайсыңарбы
-10.8777169493 мартабасы
-10.8777169493 бериши
-10.8777169493 аксы
-10.8777169493 бербеди
-10.8777169493 көрүнбөдү
-10.8777169493 көңүлүмдү
-10.8777169493 келтирди
-10.8777169493 кулагынын
-10.8777169493 түшпөй
-10.8777169493 төркүнүнө
-10.8777169493 жөнөгөн
-10.8777169493 коркконунан
-10.8777169493 чертүүнү
-10.8777169493 чынын
-10.8777169493 калгандыктан
-10.8777169493 киргендей
-10.8777169493 жолдошун
-10.8777169493 былтыр
-10.8777169493 байланыштуу
-10.8777169493 кайта
-10.8777169493 жылдарда
-10.8777169493 туруу
-10.8777169493 сунуп
-10.8777169493 жатышып
-10.8777169493 пикир
-10.8777169493 ойлонтту
-10.8777169493 баштары
-10.8777169493 жараткан
-10.8777169493 ашуун
-10.8777169493 кучагынан
-10.8777169493 бетинче
-10.8777169493 үйлөнүү
-10.8777169493 өлбөсө
-10.8777169493 ээрчиткен
-10.8777169493 байды
-10.8777169493 кыйлага
-10.8777169493 башкалары
-10.8777169493 бирөөлөрдүн
-10.8777169493 келимкетим
-10.8777169493 тарагандан
-10.8777169493 айыпка
-10.8777169493 токтолбой
-10.8777169493 эмки
-10.8777169493 жет
-10.8777169493 кыжырланып
-10.8777169493 улакта
-10.8777169493 таңыркады
-10.8777169493 марттыгы
-10.8777169493 айдаган
-10.8777169493 болушуна
-10.8777169493 оозундагы
-10.8777169493 түгөнгөн
-10.8777169493 ыйлай
-10.8777169493 тарабындагылар
-10.8777169493 иштер
-10.8777169493 башкарган
-10.8777169493 быякта
-10.8777169493 жытын
-10.8777169493 салууга
-10.8777169493 чырымды
-10.8777169493 карыса
-10.8777169493 барайын
-10.8777169493 тайманбай
-10.8777169493 чогулуш
-10.8777169493 тарабынан
-10.8777169493 чертүүдөн
-10.8777169493 кошту
-10.8777169493 тааныдым
-10.8777169493 бирөөлөрү
-10.8777169493 күйөөң
-10.8777169493 үзбөй
-10.8777169493 жапалак
-10.8777169493 болсоңор
-10.8777169493 айтышпайт
-10.8777169493 тапканына
-10.8777169493 сөзе
-10.8777169493 чабылып
-10.8777169493 капталга
-10.8777169493 куюлуп
-10.8777169493 чыкчыйган
-10.8777169493 кызылдуу
-10.8777169493 борбору
-10.8777169493 тукаба
-10.8777169493 жээгиндеги
-10.8777169493 алыста
-10.8777169493 толтура
-10.8777169493 жусуп
-10.8777169493 билгендерин
-10.8777169493 оту
-10.8777169493 айыгып
-10.8777169493 элестетип
-10.8777169493 өзгөрүп
-10.8777169493 таман
-10.8777169493 арабада
-10.8777169493 түктүйүп
-10.8777169493 кайгыга
-10.8777169493 бышмыгый
-10.8777169493 жандана
-10.8777169493 акысы
-10.8777169493 окшобойт
-10.8777169493 камбарканды
-10.8777169493 тоодо
-10.8777169493 калыс
-10.8777169493 телмирип
-10.8777169493 көргөнүн
-10.8777169493 бозокорлор
-10.8777169493 көрсөм
-10.8777169493 уйдан
-10.8777169493 ыңгыранып
-10.8777169493 босогону
-10.8777169493 кыраанкаткы
-10.8777169493 өзгөртүп
-10.8777169493 экенсиңер
-10.8777169493 чоюлуп
-10.8777169493 кудайды
-10.8777169493 жагуу
-10.8777169493 жегенин
-10.8777169493 эркиндик
-10.8777169493 байбичесине
-10.8777169493 мооку
-10.8777169493 датын
-10.8777169493 өтсө
-10.8777169493 дүүлүгүштү
-10.8777169493 деми
-10.8777169493 жемиш
-10.8777169493 адатын
-10.8777169493 отургандан
-10.8777169493 тарт
-10.8777169493 жаймажай
-10.8777169493 төшөк
-10.8777169493 чокусуна
-10.8777169493 олуяатанын
-10.8777169493 шайлоо
-10.8777169493 каалгасы
-10.8777169493 алкашалка
-10.8777169493 ойлоочу
-10.8777169493 дилгирлиги
-10.8777169493 дилгир
-10.8777169493 ырынан
-10.8777169493 комузум
-10.8777169493 баратышты
-10.8777169493 булт
-10.8777169493 оой
-10.8777169493 айыптуу
-10.8777169493 арабага
-10.8777169493 жамандык
-10.8777169493 табылбады
-10.8777169493 кулакты
-10.8777169493 бакырган
-10.8777169493 жалгасын
-10.8777169493 эрки
-10.8777169493 шашпагыла
-10.8777169493 сыймыктануучу
-10.8777169493 жарашып
-10.8777169493 азайып
-10.8777169493 жактырбай
-10.8777169493 жээги
-10.8777169493 шыкаалап
-10.8777169493 узатып
-10.8777169493 шашкан
-10.8777169493 карысына
-10.8777169493 жабыр
-10.8777169493 элеңдей
-10.8777169493 өкмөттүн
-10.8777169493 окулуп
-10.8777169493 курбуларынын
-10.8777169493 чайнек
-10.8777169493 тирүүлөй
-10.8777169493 маркумдун
-10.8777169493 байланыш
-10.8777169493 нике
-10.8777169493 жогу
-10.8777169493 турмушка
-10.8777169493 кийиминин
-10.8777169493 чыкчу
-10.8777169493 ишенемин
-10.8777169493 жолугушууга
-10.8777169493 төшөлгөн
-10.8777169493 кармабай
-10.8777169493 китепти
-10.8777169493 айыбым
-10.8777169493 элечек
-10.8777169493 молдолор
-10.8777169493 жышаанасы
-10.8777169493 чыдай
-10.8777169493 сеники
-10.8777169493 матайдын
-10.8777169493 нерсеси
-10.8777169493 экинчиден
-10.8777169493 кетүүчү
-10.8777169493 жүрөсүңбү
-10.8777169493 сурамжылап
-10.8777169493 койнуна
-10.8777169493 калпагын
-10.8777169493 абышкага
-10.8777169493 шайы
-10.8777169493 капилеттен
-10.8777169493 алдыртан
-10.8777169493 чачтары
-10.8777169493 кытайга
-10.8777169493 кур
-10.8777169493 бербес
-10.8777169493 жөнөтүп
-10.8777169493 күйүтүн
-10.8777169493 уюштурган
-10.8777169493 боромбайга
-10.8777169493 буттап
-10.8777169493 болбогондон
-10.8777169493 бактысы
-10.8777169493 төгүлүп
-10.8777169493 сакалы
-10.8777169493 урду
-10.8777169493 аялдарына
-10.8777169493 мыскылдуу
-10.8777169493 суута
-10.8777169493 музыкалык
-10.8777169493 түшүндүм
-10.8777169493 билер
-10.8777169493 жашоону
-10.8777169493 маңдайы
-10.8777169493 текке
-10.8777169493 дүйнөсү
-10.8777169493 айылдагылардын
-10.8777169493 билгенимди
-10.8777169493 доору
-10.8777169493 бардыгын
-10.8777169493 чыгарбайт
-10.8777169493 оттон
-10.8777169493 тынбайт
-10.8777169493 документ
-10.8777169493 өткөрө
-10.8777169493 таптым
-10.8777169493 эринен
-10.8777169493 ушулбу
-10.8777169493 капка
-10.8777169493 үйлөнөт
-10.8777169493 мендей
-10.8777169493 өнөрүңдү
-10.8777169493 жаздыктан
-10.8777169493 турбайсыңбы
-10.8777169493 байланышкан
-10.8777169493 доктурга
-10.8777169493 көздөгөн
-10.8777169493 аттары
-10.8777169493 эчен
-10.8777169493 улага
-10.8777169493 саздын
-10.8777169493 кыскача
-10.8777169493 датка
-10.8777169493 зары
-10.8777169493 жылда
-10.8777169493 абалга
-10.8777169493 чийкил
-10.8777169493 залкар
-10.8777169493 мудалуу
-10.8777169493 эрин
-10.8777169493 күүсүнүн
-10.8777169493 кетментөбөнү
-10.8777169493 тиш
-10.8777169493 төшөгүндө
-10.8777169493 коломтого
-10.8777169493 түшүнбөйт
-10.8777169493 окшотуп
-10.8777169493 талашкан
-10.8777169493 багытка
-10.8777169493 үйдөгүлөр
-10.8777169493 жука
-10.8777169493 учурашты
-10.8777169493 келинчегин
-10.8777169493 жалжал
-10.8777169493 кызым
-10.8777169493 жылмайды
-10.8777169493 бузбай
-10.8777169493 талап
-10.8777169493 сиңип
-10.8777169493 чакырылган
-10.8777169493 ошончолук
-10.8777169493 жөнөгөнү
-10.8777169493 бөлмөдө
-10.8777169493 бакырык
-10.8777169493 каптаган
-10.8777169493 көптүн
-10.8777169493 айсалкынга
-10.8777169493 кооптоно
-10.8777169493 макулмун
-10.8777169493 жумушун
-10.8777169493 чычкандын
-10.8777169493 аттай
-10.8777169493 келем
-10.8777169493 обочо
-10.8777169493 жазбай
-10.8777169493 калыбынан
-10.8777169493 түндүк
-10.8777169493 кыягы
-10.8777169493 өлгөнүн
-10.8777169493 ардактуу
-10.8777169493 сыягы
-10.8777169493 алаңдап
-10.8777169493 дешкен
-10.8777169493 алдыңа
-10.8777169493 кагуу
-10.8777169493 иче
-10.8777169493 чымыр
-10.8777169493 улуттук
-10.8777169493 жибериптир
-10.8777169493 жарамазан
-10.8777169493 кач
-10.8777169493 кошкула
-10.8777169493 албаймын
-10.8777169493 калтырап
-10.8777169493 тымтым
-10.8777169493 уландын
-10.8777169493 бийликтин
-10.8777169493 аңчылар
-10.8777169493 кыртышы
-10.8777169493 секретарга
-10.8777169493 сыяктанат
-10.8777169493 ынтаалуу
-10.8777169493 ороп
-10.8777169493 тагылган
-10.8777169493 үчтөрт
-10.8777169493 дегениби
-10.8777169493 жуучу
-10.8777169493 бириге
-10.8777169493 эрмеги
-10.8777169493 курчанган
-10.8777169493 чымчыктарды
-10.8777169493 эмиштер
-10.8777169493 өбөктөп
-10.8777169493 зле
-10.8777169493 этпеди
-10.8777169493 чаары
-10.8777169493 түшүшүп
-10.8777169493 төрдүн
-10.8777169493 туугандарынын
-10.8777169493 жылдардын
-10.8777169493 сыйрылып
-10.8777169493 чокусу
-10.8777169493 иреңин
-10.8777169493 төгүп
-10.8777169493 председатели
-10.8777169493 эмгекчилерди
-10.8777169493 төшүнө
-10.8777169493 малды
-10.8777169493 шумкардай
-10.8777169493 ташты
-10.8777169493 кыштан
-10.8777169493 кабардан
-10.8777169493 жоголду
-10.8777169493 негизги
-10.8777169493 адатына
-10.8777169493 жылганын
-10.8777169493 отургандарды
-10.8777169493 эстен
-10.8777169493 турмушундагы
-10.8777169493 кузгундар
-10.8777169493 жарайбыз
-10.8777169493 этегин
-10.8777169493 кайгырат
-10.8777169493 кайтат
-10.8777169493 мылтык
-10.8777169493 жайкалып
-10.8777169493 акылман
-10.8777169493 оронгон
-10.8777169493 кеңешин
-10.8777169493 алайдын
-10.8777169493 сөөктүн
-10.8777169493 аңдыган
-10.8777169493 жаша
-10.8777169493 кебетесине
-10.8777169493 таятасыныкына
-10.8777169493 комузчулуктун
-10.8777169493 сурайсың
-10.8777169493 издей
-10.8777169493 өкүнүчтүү
-10.8777169493 келгенби
-10.8777169493 азгырган
-10.8777169493 билгенге
-10.8777169493 күткөнсүп
-10.8777169493 сурашкан
-10.8777169493 кетмек
-10.8777169493 болгондор
-10.8777169493 кашкайып
-10.8777169493 шектенип
-10.8777169493 жашынмак
-10.8777169493 сүртүндү
-10.8777169493 билесиң
-10.8777169493 мамырды
-10.8777169493 досуна
-10.8777169493 эркинен
-10.8777169493 төзтөз
-10.8777169493 торпок
-10.8777169493 акчийдеги
-10.8777169493 кылчайып
-10.8777169493 коргоп
-10.8777169493 этегинен
-10.8777169493 мейманды
-10.8777169493 кейип
-10.8777169493 буудай
-10.8777169493 алымбайдын
-10.8777169493 ыңгайы
-10.8777169493 сүзүлтүп
-10.8777169493 кудасы
-10.8777169493 көңүлдү
-10.8777169493 курчалган
-10.8777169493 ууртун
-10.8777169493 айтпайсыңбы
-10.8777169493 кемчилиги
-10.8777169493 чаркы
-10.8777169493 коштошуп
-10.8777169493 айтмак
-10.8777169493 кайрап
-10.8777169493 кайгысы
-10.8777169493 боюндагы
-10.8777169493 орточу
-10.8777169493 жут
-10.8777169493 арыкбай
-10.8777169493 жайды
-10.8777169493 торгойдон
-10.8777169493 билдиңби
-10.8777169493 кирин
-10.8777169493 ж
-10.8777169493 наамына
-10.8777169493 этин
-10.8777169493 кемпирдин
-10.8777169493 жообу
-10.8777169493 кыргызда
-10.8777169493 меркиге
-10.8777169493 буйругу
-10.8777169493 кайыр
-10.8777169493 өткөндөгү
-10.8777169493 жүргөнүнө
-10.8777169493 баарыңар
-10.8777169493 элде
-10.8777169493 билишсин
-10.8777169493 жаздыкка
-10.8777169493 кайрылган
-10.8777169493 кайрым
-10.8777169493 азыркыдай
-10.8777169493 кызарып
-10.8777169493 кетейин
-10.8777169493 ээрчиген
-10.8777169493 айдакең
-10.8777169493 көздүн
-10.8777169493 айтпа
-10.8777169493 кылсын
-10.8777169493 момпосуй
-10.8777169493 берекелүү
-10.8777169493 бүтүрүп
-10.8777169493 сай
-10.8777169493 ашыкпады
-10.8777169493 четинен
-10.8777169493 балбай
-10.8777169493 жүрбөсүн
-10.8777169493 кудайбергенди
-10.8777169493 ыктап
-10.8777169493 жансактоо
-10.8777169493 кубулжуган
-10.8777169493 тийгенсип
-10.8777169493 хам
-10.8777169493 байкушту
