
\data\
ngram 1=8345
ngram 2=56946

\1-grams:
-2.05164297432 <UNK> -0.772980020926
-2.50566514358 </s> -2.50566514358
-2.50566514358 <s> -1.8891614943
-4.3711857842 да -3.82897864788
-4.47497090879 менен -3.96987119338
-4.90136604003 бир -4.54451607103
-4.98056308169 эле -4.56242631992
-5.12197473574 деп -4.7116741903
-5.16728993196 атай -4.68203663163
-5.29798712334 ал -4.86771307769
-5.34630570062 жок -4.95969022665
-5.3522640102 жана -5.09373909028
-5.46830553528 анын -5.23804260812
-5.50012640189 үчүн -5.08263097741
-5.57690270258 гана -5.20473191214
-5.66823079649 аны -5.39766876694
-5.75078119954 эмне -5.41712654775
-5.7901206141 бирок -5.39851848884
-5.93607452672 болуп -5.58856379635
-5.9468466237 бул -5.72671866362
-5.95409303222 турган -5.60603496018
-5.9577360235 экен -5.64580021885
-6.00251962613 эмес -5.69442123683
-6.05341123343 кийин -5.69008171305
-6.06960591935 өз -5.91553825049
-6.11127861575 деген -5.78626910253
-6.14591411241 калды -5.86840396305
-6.15921807804 алып -5.84324452999
-6.16369235843 өзү -5.82195116378
-6.1863690671 чоң -5.90715441832
-6.19096677635 бар -5.85105233676
-6.19558572221 эки -5.91370849951
-6.20488811487 султаналы -5.84141576199
-6.24785415075 башка -5.9508185531
-6.26755922183 мен -5.91187949293
-6.29274947066 эч -6.03814422109
-6.30300597083 болсо -5.95019197457
-6.31336875786 эл -5.97484312611
-6.32384005773 же -6.11329327246
-6.35592837228 киши -5.97164203185
-6.377907279 ким -6.00558752125
-6.40038013485 жакшы -6.11033780532
-6.41757253539 ушул -6.12450025092
-6.42336965308 деди -6.124185309
-6.44096541497 келип -6.2181670452
-6.46491865599 баштады -6.21424231281
-6.52743901297 ага -6.3271200653
-6.56022883579 бери -6.22414528226
-6.56691782395 кара -6.30056787108
-6.56691782395 эми -6.34448045507
-6.57365185613 калган -6.27558390023
-6.60105083031 керек -6.47525361674
-6.60105083031 албай -6.29406538176
-6.62922170728 отурган -6.31701720707
-6.65820924415 көз -6.40298639292
-6.68051500167 келген -6.38166854962
-6.69566680669 бала -6.33037373907
-6.69566680669 токтогул -6.33641482312
-6.69566680669 берди -6.42099379303
-6.70332967944 сөз -6.39586608825
-6.70332967944 атайдын -6.52572329299
-6.71883386597 мамат -6.37395579934
-6.74255039259 болду -6.45655933315
-6.74255039259 тыныбек -6.41106536816
-6.75058256429 алар -6.54318904056
-6.79174063678 жаңы -6.60278474339
-6.80017950543 жигит -6.47315344631
-6.80869019509 жаш -6.54019591593
-6.81727393878 күү -6.48653840063
-6.8346656815 башын -6.67075926918
-6.84347631118 ак -6.59912817394
-6.84347631118 кандай -6.65083394341
-6.8523652586 баары -6.63108079046
-6.86133392858 жолу -6.64414474702
-6.8703837641 сен -6.65359510041
-6.8703837641 го -6.60128591378
-6.8703837641 азыр -6.65496714034
-6.87951624766 дагы -6.58653280329
-6.87951624766 жалгыз -6.6022261502
-6.90742503578 көп -6.62997940253
-6.90742503578 ушу -6.60379291869
-6.91690377973 алды -6.63422252106
-6.94589131661 ар -6.78883839782
-6.95574361305 кишилер -6.61488765242
-6.95574361305 чыгып -6.7667166777
-6.95574361305 келди -6.68441173242
-7.00651593842 үйүнө -6.81235752767
-7.00651593842 барып -6.83297423983
-7.01698723829 болуш -6.68452204787
-7.02756934762 субан -6.70042742758
-7.02756934762 экенин -6.82032054756
-7.03826463674 ошол -6.76448087181
-7.03826463674 болгон -6.7514663173
-7.04907555284 дегенсип -6.86477192809
-7.04907555284 отуруп -6.77858003463
-7.06000462337 жөнүндө -6.85876154024
-7.09352731541 жүргөн -6.79945367371
-7.09352731541 чыкты -6.82864471278
-7.10495601124 жаткан -6.81544990904
-7.10495601124 кызылбаш -6.79864236302
-7.10495601124 койду -6.82895939429
-7.10495601124 жер -6.79250322909
-7.11651683364 нерсе -6.8175435718
-7.11651683364 көзү -6.94636076733
-7.11651683364 кыз -6.78634035732
-7.1282128734 туруп -6.83885020926
-7.1282128734 жооп -6.96160098864
-7.15202352209 бай -6.8181300368
-7.15202352209 үйгө -6.98755332737
-7.15202352209 көрүп -6.96520521096
-7.18883749522 кетти -6.92868663419
-7.18883749522 турду -7.08354937722
-7.18883749522 седеп -6.86257300901
-7.20141627742 ушундай -6.9350244293
-7.2141553032 мындай -7.04242658946
-7.2141553032 элдин -7.06533072352
-7.2141553032 калышты -7.12693032994
-7.2141553032 боз -7.06903935443
-7.22705870804 келин -6.91620573621
-7.22705870804 болот -7.10576766077
-7.2401307896 карап -6.9728941288
-7.2401307896 үй -6.95661216832
-7.2401307896 бири -6.92521251445
-7.25337601635 абышка -6.93329691963
-7.26679903669 түштү -7.01141400439
-7.26679903669 андан -7.09693377937
-7.26679903669 жүрүп -7.08353616944
-7.28040468874 тыныбектин -7.12130552208
-7.28040468874 баш -7.13429778968
-7.28040468874 чыккан -7.00578156205
-7.29419801087 айтып -7.13933152039
-7.29419801087 тоймат -7.01660215192
-7.29419801087 мени -7.10728934604
-7.30818425285 мындан -7.14294469197
-7.32236888784 чейин -7.15523447044
-7.32236888784 аялы -7.00722067362
-7.33675762529 алардын -7.17162003953
-7.33675762529 эшикке -7.18959259372
-7.33675762529 коюп -7.1562187136
-7.33675762529 комуз -7.0349312017
-7.35135642471 үйдүн -7.19625031434
-7.35135642471 күн -7.10567652081
-7.3661715105 мага -7.20045623085
-7.3661715105 сөзүн -7.20449394385
-7.38120938786 болбосо -7.08354499372
-7.38120938786 кайсы -7.20935727319
-7.38120938786 менин -7.2177660799
-7.38120938786 басып -7.11621132483
-7.38120938786 комузчу -7.04851180996
-7.38120938786 элге -7.21589612989
-7.39647686 качып -7.23133156051
-7.39647686 ордунан -7.2554442293
-7.39647686 ой -7.21861938241
-7.39647686 көздөй -7.25260215823
-7.39647686 эсенбек -7.09881490068
-7.39647686 жанына -7.24255226297
-7.41198104653 ат -7.11247581019
-7.41198104653 аз -7.13436525033
-7.41198104653 комузун -7.2633631663
-7.4277294035 бу -7.25986424107
-7.4277294035 анан -7.26102516279
-7.4277294035 кайра -7.25617159865
-7.4277294035 бетер -7.27641331778
-7.4277294035 түшүп -7.25964083229
-7.4277294035 чырым -7.0890166143
-7.44372974485 баланын -7.28384179394
-7.45999026572 ала -7.30448127763
-7.45999026572 кудай -7.30295772858
-7.45999026572 балам -7.16039047613
-7.45999026572 үч -7.30310135039
-7.47651956767 жакка -7.21768103234
-7.47651956767 ачык -7.215758673
-7.47651956767 таң -7.31884677832
-7.49332668598 кээде -7.33112273104
-7.49332668598 жерге -7.33649453265
-7.49332668598 аккыз -7.28108184056
-7.49332668598 кирип -7.33909804003
-7.49332668598 жол -7.31830268745
-7.49332668598 кантип -7.33569889095
-7.49332668598 көргөн -7.21553482109
-7.51042111934 эски -7.36782570467
-7.52781286206 молдо -7.21683155715
-7.52781286206 тура -7.27846388383
-7.54551243916 каякка -7.37903739673
-7.54551243916 жерден -7.27029183792
-7.54551243916 көк -7.40154519763
-7.54551243916 атайды -7.37101988555
-7.54551243916 алдына -7.3679797535
-7.54551243916 балким -7.37453265802
-7.56353094466 султаналынын -7.28908310336
-7.56353094466 окшоп -7.4018298928
-7.56353094466 кол -7.41135230137
-7.56353094466 колуна -7.41330740063
-7.56353094466 абдыракман -7.27143477546
-7.58188008333 түгүл -7.42181014901
-7.58188008333 балдар -7.37672704896
-7.58188008333 мурда -7.39088506993
-7.58188008333 сени -7.28287066506
-7.58188008333 көзүн -7.43796860821
-7.58188008333 мына -7.41806871414
-7.58188008333 кылып -7.41375483114
-7.58188008333 колун -7.42148873568
-7.58188008333 келгенде -7.38461351606
-7.58188008333 элек -7.32639912304
-7.60057221634 жүрөгү -7.4480211258
-7.60057221634 дешип -7.43318486393
-7.60057221634 бет -7.35711376424
-7.60057221634 тең -7.33007172676
-7.60057221634 болуштун -7.45049269035
-7.61962041131 ырчы -7.30423534541
-7.61962041131 карады -7.5201643137
-7.61962041131 дейт -7.33897267462
-7.61962041131 күнү -7.43769554822
-7.61962041131 биринчи -7.47098870574
-7.63903849717 өзүнүн -7.47329244394
-7.63903849717 көңүлү -7.45954679297
-7.63903849717 жаман -7.37814829852
-7.63903849717 кызыл -7.49401611702
-7.63903849717 албады -7.54129150455
-7.63903849717 кыргыз -7.44002590841
-7.65884112446 алган -7.3958425745
-7.65884112446 отурду -7.54006211876
-7.65884112446 кудайберген -7.35641058353
-7.65884112446 ары -7.48882982095
-7.67904383178 ичинде -7.38774550489
-7.67904383178 атын -7.40870020049
-7.67904383178 чай -7.50785763345
-7.67904383178 калып -7.42082588401
-7.67904383178 бүгүн -7.48005676434
-7.67904383178 кош -7.52550531359
-7.69966311898 салып -7.43261960914
-7.69966311898 улам -7.52715482592
-7.69966311898 уулу -7.40411289781
-7.69966311898 үстүнө -7.54689563439
-7.72071652818 бий -7.39513310063
-7.72071652818 кой -7.42326366176
-7.72071652818 жерде -7.46201341418
-7.72071652818 атасы -7.51147247061
-7.72071652818 тартып -7.56648569014
-7.7422227334 талас -7.47528197266
-7.7422227334 ошону -7.58493653187
-7.7422227334 байдын -7.58393050113
-7.76420164012 деле -7.60309681045
-7.76420164012 кайдан -7.58851611673
-7.76420164012 бер -7.49225670713
-7.76420164012 аларды -7.59224574573
-7.76420164012 биздин -7.59641943521
-7.76420164012 үйдө -7.50362963725
-7.76420164012 комузду -7.5917298193
-7.76420164012 көрө -7.60424970167
-7.76420164012 отура -7.61755542433
-7.78667449597 билбей -7.60798042567
-7.78667449597 беле -7.49384540984
-7.78667449597 биз -7.60634223861
-7.78667449597 тиктеп -7.52818509573
-7.78667449597 ошондо -7.50699406633
-7.78667449597 топ -7.53777329353
-7.78667449597 райымбек -7.50438063381
-7.8096640142 ошо -7.52563050455
-7.8096640142 маматтын -7.66330330531
-7.8096640142 жактан -7.63502656446
-7.8096640142 жаныбек -7.52187325109
-7.8096640142 мал -7.53614831506
-7.8096640142 бойдон -7.65653707542
-7.8096640142 өзүнчө -7.55084639963
-7.8096640142 көтөрүп -7.6409563771
-7.8096640142 сөзгө -7.65234697115
-7.83319451161 чыга -7.81936942464
-7.83319451161 мураталы -7.65467176828
-7.83319451161 сөздү -7.65307911449
-7.83319451161 угуп -7.66596193927
-7.83319451161 үчүндүр -7.67672869552
-7.83319451161 өтүп -7.68686723875
-7.83319451161 атайга -7.55628695852
-7.83319451161 эң -7.68058532212
-7.85729206319 ээ -7.59759740944
-7.85729206319 караганда -7.69340265666
-7.85729206319 айыл -7.61063404018
-7.85729206319 кеткен -7.57515515475
-7.85729206319 баарын -7.69681140389
-7.85729206319 берип -7.68477912098
-7.85729206319 кеп -7.59482718875
-7.85729206319 салам -7.71017826113
-7.85729206319 болсун -7.59458166646
-7.85729206319 ыр -7.68057450546
-7.88198467578 келе -7.73154107943
-7.88198467578 көзде -7.71014555928
-7.88198467578 жанында -7.72173756585
-7.88198467578 эгерде -7.71846307782
-7.88198467578 бирөө -7.5864029634
-7.88198467578 катуу -7.64035398458
-7.88198467578 жантакпай -7.61128865916
-7.88198467578 өзүн -7.7078558932
-7.88198467578 билген -7.59170506186
-7.88198467578 элди -7.71645980514
-7.88198467578 кармап -7.71980747019
-7.88198467578 колунан -7.72602808906
-7.90730248376 ай -7.74245780248
-7.90730248376 чертип -7.75145698768
-7.90730248376 өзүнө -7.73009108387
-7.90730248376 үн -7.74561451811
-7.90730248376 мамыр -7.71070946328
-7.90730248376 туура -7.63137229933
-7.93327797016 алымбай -7.65068450339
-7.93327797016 боло -7.78455711122
-7.93327797016 иш -7.63546558388
-7.93327797016 үнү -7.75230720352
-7.93327797016 күүнү -7.75229588983
-7.93327797016 атасынын -7.76971357581
-7.93327797016 кишинин -7.78053967499
-7.93327797016 тиги -7.78012163778
-7.93327797016 жакын -7.76556895398
-7.95994621725 ичинен -7.78549439784
-7.95994621725 келет -7.84732956157
-7.95994621725 башы -7.68820401937
-7.95994621725 кетип -7.80498446032
-7.95994621725 ооба -7.70098130764
-7.95994621725 өткөн -7.69198773415
-7.95994621725 комуздун -7.80053227521
-7.95994621725 башына -7.79914728715
-7.95994621725 сага -7.81119316913
-7.95994621725 качан -7.81195971282
-7.95994621725 кулак -7.71031892107
-7.95994621725 акырында -7.7053870581
-7.98734519143 кишилердин -7.8334418194
-7.98734519143 мурун -7.80536909527
-7.98734519143 күлүп -7.84020186445
-7.98734519143 орус -7.80854630347
-7.98734519143 жагынан -7.8101705777
-7.98734519143 түшкөн -7.7237973187
-7.98734519143 сайын -7.82730073226
-7.98734519143 ачып -7.72719511524
-7.98734519143 аксакал -7.81772702004
-7.98734519143 калат -7.86696451143
-7.98734519143 мейман -7.7177336316
-7.98734519143 жатып -7.72884690598
-8.0155160684 тоо -7.74530067646
-8.0155160684 жигиттин -7.86005964878
-8.0155160684 сөзү -7.8363794707
-8.0155160684 мүмкүн -7.74840057335
-8.0155160684 кошо -7.87127840935
-8.0155160684 ыраазы -7.76709133625
-8.0155160684 ойго -7.84436520638
-8.0155160684 иреңи -7.85020713395
-8.0155160684 баягы -7.84536175214
-8.04450360527 уулжан -7.76174377429
-8.04450360527 уккан -7.76728962912
-8.04450360527 өздөрү -7.86102230346
-8.04450360527 экендигин -7.88049774998
-8.04450360527 ичи -7.90496652404
-8.04450360527 жагына -7.89149319272
-8.07435656842 десе -7.89027505022
-8.07435656842 сүйлөдү -7.98683379384
-8.07435656842 сенин -7.92814440414
-8.07435656842 алдында -7.91389342704
-8.07435656842 бекен -7.90941681067
-8.07435656842 аларга -7.90259122688
-8.07435656842 ошондой -7.81896444362
-8.07435656842 ээси -7.78450969693
-8.07435656842 баланы -7.91342781575
-8.07435656842 байбиче -7.89103509676
-8.10512822709 кирди -7.86186333502
-8.10512822709 ого -8.10486239411
-8.10512822709 арасында -7.92975915599
-8.10512822709 албайт -7.84265675429
-8.10512822709 таштап -7.95266915589
-8.10512822709 баратты -8.01832647239
-8.10512822709 көңүл -7.96606974632
-8.10512822709 байкап -7.94923283994
-8.10512822709 суроо -7.83132567782
-8.13687692541 эмеспи -7.88042780213
-8.13687692541 иши -7.86623689297
-8.13687692541 колу -7.96975444629
-8.13687692541 ушуну -7.96920759263
-8.13687692541 турганда -7.97228393511
-8.13687692541 кимдин -7.9870099846
-8.13687692541 токтогулдун -7.9836486369
-8.13687692541 баласы -7.84650479552
-8.13687692541 өзүм -7.97529536637
-8.13687692541 калың -7.9928380358
-8.13687692541 түшүнө -7.97952491971
-8.13687692541 чал -7.85757474139
-8.16966674823 аттын -8.02986059045
-8.16966674823 кыздын -8.0253667877
-8.16966674823 неме -7.88151570926
-8.16966674823 акыркы -8.02869827329
-8.16966674823 оозун -8.02497411753
-8.16966674823 айтты -8.06422126525
-8.16966674823 айтор -8.0032923939
-8.16966674823 артына -8.02818729541
-8.16966674823 таластын -8.0300994042
-8.16966674823 турат -8.06779189359
-8.16966674823 оозунан -8.00364909089
-8.16966674823 көңүлүн -8.02935020629
-8.16966674823 экөө -7.90619235067
-8.16966674823 кайда -8.0164281807
-8.16966674823 койгон -7.89718339191
-8.16966674823 седептин -8.02836127464
-8.16966674823 сыяктуу -7.93081424356
-8.2035682999 айткан -7.93218975443
-8.2035682999 атка -8.0636975794
-8.2035682999 дабышы -8.04082268492
-8.2035682999 дем -8.05249573288
-8.2035682999 көзүнө -8.04247644927
-8.2035682999 күүсүн -8.03869875095
-8.2035682999 турмуш -8.02150892425
-8.2035682999 а -8.04116698208
-8.2035682999 бектен -7.93144649943
-8.2035682999 жери -7.93289533535
-8.2035682999 эгер -8.03369918692
-8.2035682999 жай -8.03954441696
-8.2035682999 кызылбаштын -8.0490532751
-8.2035682999 бүт -8.05439336031
-8.2035682999 болбойт -7.94795223563
-8.2035682999 суу -8.04596368566
-8.2035682999 канча -7.96085032716
-8.2035682999 бараткан -7.94737917321
-8.2035682999 муну -8.0230705405
-8.2035682999 субандын -8.05646238319
-8.2035682999 сонун -7.95739084601
-8.2035682999 убакта -8.03809744811
-8.2035682999 андай -8.04484687983
-8.23865961972 кызы -7.97787610628
-8.23865961972 күүгө -8.08001642619
-8.23865961972 отурат -7.99975059623
-8.23865961972 бизге -8.07518142742
-8.23865961972 кайрадан -8.0982356202
-8.23865961972 кылды -8.00051748581
-8.23865961972 болбой -7.98131310321
-8.23865961972 аралап -8.06807515529
-8.23865961972 минип -7.99338915217
-8.23865961972 эртең -8.07772382519
-8.23865961972 күйөөсү -7.95306617057
-8.23865961972 белгилүү -7.98505466014
-8.23865961972 берет -8.14763806052
-8.23865961972 көзгө -8.09991796198
-8.23865961972 экинчи -8.08731323454
-8.23865961972 ооз -8.09223214828
-8.23865961972 абдыраман -7.94794108615
-8.23865961972 ойлоп -8.0847070475
-8.23865961972 убакыт -8.07253224233
-8.27502726389 айта -8.2693891122
-8.27502726389 жогору -8.1330492554
-8.27502726389 булар -8.11994066879
-8.27502726389 этти -8.03184340922
-8.27502726389 берген -7.99140607031
-8.27502726389 түшүндү -8.03832314678
-8.27502726389 тамаша -8.01609409682
-8.27502726389 өтө -8.12726630657
-8.27502726389 чыгарып -8.12904839975
-8.27502726389 баштаганда -8.11179443507
-8.27502726389 эмнеге -8.13536395805
-8.27502726389 жатат -8.18162491035
-8.27502726389 бурулча -7.99350977887
-8.27502726389 көргөндө -8.11465760427
-8.31276759187 болгону -8.14487940105
-8.31276759187 үйдөн -8.17217094214
-8.31276759187 боюнча -8.03610644296
-8.31276759187 жөн -8.06244541412
-8.31276759187 болор -8.05033262948
-8.31276759187 сары -8.17229044565
-8.31276759187 өзүң -8.14453321993
-8.31276759187 ырас -8.05719382475
-8.31276759187 келсе -8.13196758603
-8.31276759187 көрдү -8.21176056594
-8.31276759187 кулагына -8.14820110776
-8.31276759187 узун -8.1710730145
-8.31276759187 элден -8.14996892397
-8.31276759187 салды -8.05885007932
-8.31276759187 кете -8.16604631668
-8.31276759187 башынан -8.1569429161
-8.31276759187 калганын -8.14544866421
-8.31276759187 жагында -8.04877282543
-8.31276759187 оң -8.1573840715
-8.35198830502 кимиси -8.1746442678
-8.35198830502 акын -8.06007679112
-8.35198830502 ата -8.17472316282
-8.35198830502 күтүп -8.19983103995
-8.35198830502 кандайдыр -8.20339669281
-8.35198830502 аттан -8.21197875162
-8.35198830502 ойлойт -8.24768654753
-8.35198830502 кошуп -8.20609811133
-8.35198830502 чыкканда -8.19163133281
-8.35198830502 учурда -8.08404222268
-8.35198830502 артынан -8.20836734349
-8.35198830502 нерсени -8.2115334697
-8.35198830502 өттү -8.26650362351
-8.35198830502 барбы -8.08755296483
-8.35198830502 баштаган -8.10112222436
-8.35198830502 айылдын -8.21254321437
-8.39281029954 үйү -8.12837697768
-8.39281029954 кимге -8.25200837758
-8.39281029954 жыл -8.14306149352
-8.39281029954 болгонун -8.23019100811
-8.39281029954 алышып -8.24581701478
-8.39281029954 кыйын -8.13682586959
-8.39281029954 сууруп -8.24857952288
-8.39281029954 абдыракмандын -8.24790325021
-8.39281029954 кана -8.2403899352
-8.39281029954 тууган -8.11076149731
-8.39281029954 макул -8.14092655493
-8.39281029954 башында -8.12417500607
-8.39281029954 укканда -8.23463474572
-8.39281029954 дал -8.14606210073
-8.39281029954 кишиге -8.22123264392
-8.39281029954 туш -8.24639635424
-8.39281029954 келгенин -8.22936880412
-8.39281029954 ойлоду -8.29084241535
-8.39281029954 аял -8.21291675144
-8.39281029954 билет -8.14931868612
-8.39281029954 эсине -8.24153261667
-8.39281029954 чын -8.14467180957
-8.39281029954 жайын -8.25153013229
-8.39281029954 кабар -8.24103834744
-8.39281029954 окуу -8.22811197061
-8.39281029954 болушту -8.14497421125
-8.39281029954 отурганда -8.22685355549
-8.39281029954 кичинекей -8.24768500014
-8.39281029954 он -8.25170406613
-8.43536991396 дегенде -8.25862504189
-8.43536991396 кое -8.29280665692
-8.43536991396 заман -8.28459792886
-8.43536991396 акыры -8.27862046683
-8.43536991396 бийик -8.18788630873
-8.43536991396 келаткан -8.18042327056
-8.43536991396 чор -8.28499296458
-8.43536991396 темир -8.29555694265
-8.43536991396 кереги -8.2852342985
-8.43536991396 ушинтип -8.28438937485
-8.43536991396 акшайым -8.16143761539
-8.43536991396 кылган -8.18331801583
-8.43536991396 күлдү -8.18105645171
-8.43536991396 катары -8.28650582418
-8.43536991396 угулду -8.3503786402
-8.43536991396 куу -8.28941547401
-8.43536991396 араң -8.28542074392
-8.43536991396 кийип -8.28656059499
-8.43536991396 күүсү -8.2691911441
-8.43536991396 шаршен -8.18444688277
-8.43536991396 силер -8.25825325488
-8.43536991396 жүргөндө -8.17611431336
-8.43536991396 оор -8.18590160481
-8.43536991396 башкалар -8.16108996636
-8.43536991396 бирде -8.29516605892
-8.43536991396 бардыгы -8.26907968002
-8.43536991396 далай -8.29288285362
-8.43536991396 анатолий -8.27377269694
-8.47982167653 мунун -8.31973302021
-8.47982167653 болуу -8.47435044967
-8.47982167653 айылдагы -8.33157151806
-8.47982167653 анда -8.31778138898
-8.47982167653 кала -8.33648585485
-8.47982167653 күйөөсүнүн -8.33593010858
-8.47982167653 айылга -8.23798191886
-8.47982167653 билчү -8.38210968856
-8.47982167653 эр -8.33199838437
-8.47982167653 чыгат -8.23331866988
-8.47982167653 али -8.32027569494
-8.47982167653 оюн -8.32642385469
-8.47982167653 акырын -8.2336809406
-8.47982167653 келбей -8.32608266857
-8.47982167653 көрүндү -8.3852272544
-8.47982167653 сиз -8.318580244
-8.47982167653 алымкул -8.21038757318
-8.47982167653 элем -8.22773520951
-8.47982167653 бирге -8.33277503247
-8.47982167653 чакырып -8.33601730489
-8.47982167653 кошулуп -8.33239225316
-8.47982167653 үстүндө -8.21359551187
-8.47982167653 күч -8.32576338904
-8.47982167653 аялынын -8.33519954083
-8.47982167653 сыртынан -8.33087062439
-8.47982167653 соңунан -8.33207498212
-8.47982167653 оторбай -8.46619297364
-8.47982167653 келгенден -8.47627526857
-8.47982167653 балага -8.32009852741
-8.47982167653 нечен -8.34030234212
-8.52634169217 таш -8.37430816292
-8.52634169217 мында -8.28660523817
-8.52634169217 биле -8.38276679312
-8.52634169217 бутун -8.3822218221
-8.52634169217 бозо -8.28502047081
-8.52634169217 төмөн -8.43803591591
-8.52634169217 жүрөт -8.27809977765
-8.52634169217 кулагы -8.37497826802
-8.52634169217 отурушкан -8.27248229656
-8.52634169217 экиүч -8.51627503051
-8.52634169217 сөзди -8.44103179496
-8.52634169217 дегенсишип -8.37718314706
-8.52634169217 сунду -8.28362572014
-8.52634169217 тууганбай -8.24659965873
-8.52634169217 ээрчитип -8.38216730866
-8.52634169217 эркин -8.37831112936
-8.52634169217 үйүндө -8.24344823799
-8.52634169217 жалаң -8.35631203478
-8.52634169217 кестикбай -8.25015183896
-8.52634169217 садыр -8.35550613375
-8.52634169217 алдынча -8.38588919479
-8.52634169217 турсун -8.42355871298
-8.52634169217 сырын -8.38059604499
-8.57513185634 ошондон -8.48606284828
-8.57513185634 дегендей -8.42414243811
-8.57513185634 чыгар -8.46529457923
-8.57513185634 болорун -8.56353776257
-8.57513185634 бийдин -8.43402798916
-8.57513185634 таап -8.43334297942
-8.57513185634 жөнөдү -8.49004808657
-8.57513185634 оокат -8.41963153279
-8.57513185634 кедей -8.3338844608
-8.57513185634 экенсиң -8.30980859337
-8.57513185634 билип -8.41948817073
-8.57513185634 ашык -8.42263739814
-8.57513185634 тарапка -8.43341911479
-8.57513185634 отургандар -8.46873355661
-8.57513185634 апасы -8.32042231198
-8.57513185634 беш -8.33560103455
-8.57513185634 эмнеси -8.41834053374
-8.57513185634 анткени -8.39336494766
-8.57513185634 калганда -8.40184196295
-8.57513185634 кулагын -8.43652484225
-8.57513185634 шалтакбай -8.41293780817
-8.57513185634 унчукпай -8.5616835207
-8.57513185634 болучу -8.4901508541
-8.57513185634 жан -8.42811932703
-8.57513185634 отурушту -8.49019195815
-8.62642515072 кудайга -8.48320010657
-8.62642515072 ортосунда -8.37273985122
-8.62642515072 аңгыча -8.48086640867
-8.62642515072 акыл -8.47269933942
-8.62642515072 федорович -8.35974923689
-8.62642515072 үйүнөн -8.48308028282
-8.62642515072 мугалим -8.46263210317
-8.62642515072 айылда -8.46520833664
-8.62642515072 экөөнүн -8.4684082685
-8.62642515072 тааныш -8.37238701668
-8.62642515072 кетет -8.35185569629
-8.62642515072 зуура -8.45613995013
-8.62642515072 тим -8.47792518184
-8.62642515072 абышкалар -8.36875410685
-8.62642515072 меймандар -8.45627423539
-8.62642515072 дабыш -8.4764348686
-8.62642515072 койчу -8.35882453813
-8.62642515072 кайрылып -8.47976309589
-8.62642515072 эс -8.47676380515
-8.62642515072 жакта -8.4667708283
-8.62642515072 баса -8.60906524351
-8.62642515072 тирүү -8.4827752121
-8.62642515072 жагын -8.48237194015
-8.62642515072 менден -8.47862573794
-8.62642515072 күүнүн -8.48481088608
-8.62642515072 көзинде -8.47812226285
-8.62642515072 тиктеди -8.37449001575
-8.62642515072 молдонун -8.4851370794
-8.62642515072 өмүр -8.47985053141
-8.62642515072 жардам -8.47953354128
-8.62642515072 бере -8.48062618679
-8.62642515072 жараша -8.38333963103
-8.62642515072 этип -8.484092886
-8.62642515072 бөлүп -8.38418181739
-8.62642515072 мынчалык -8.48408200325
-8.62642515072 өмүрү -8.4539104197
-8.62642515072 баратат -8.52920259857
-8.62642515072 жигитке -8.61830013764
-8.62642515072 кор -8.48325456716
-8.62642515072 бою -8.47892113791
-8.62642515072 ойлогон -8.50837957131
-8.68049237199 жолго -8.53760554665
-8.68049237199 мырза -8.53622173485
-8.68049237199 ошентип -8.52748250737
-8.68049237199 калса -8.5084719635
-8.68049237199 кайран -8.53084267392
-8.68049237199 минтип -8.53220110186
-8.68049237199 атынын -8.53301089825
-8.68049237199 аты -8.51457424564
-8.68049237199 келбейт -8.41114072971
-8.68049237199 атчан -8.6675017071
-8.68049237199 түнү -8.51790025888
-8.68049237199 көзүнчө -8.53640708054
-8.68049237199 кетментөбөгө -8.52359215944
-8.68049237199 дешет -8.59036011456
-8.68049237199 көздөрү -8.53825865055
-8.68049237199 бекер -8.52936163912
-8.68049237199 кишини -8.534366386
-8.68049237199 аш -8.52379090074
-8.68049237199 жанынан -8.53056857366
-8.68049237199 окуя -8.42851052873
-8.68049237199 турушту -8.58167708207
-8.68049237199 мойнун -8.54201658355
-8.68049237199 ордуна -8.53549092006
-8.68049237199 сурады -8.58328034724
-8.68049237199 сакалын -8.53507619061
-8.68049237199 кашаттын -8.66636315256
-8.68049237199 жүрөгүн -8.53637437497
-8.68049237199 бөлүнүп -8.52565493697
-8.68049237199 сурап -8.50848317395
-8.68049237199 чуркап -8.53308746668
-8.68049237199 карыя -8.41909134512
-8.68049237199 дале -8.54155032494
-8.68049237199 артисттер -8.65047058037
-8.68049237199 балдардын -8.53282492196
-8.68049237199 кыргыздын -8.53399490279
-8.68049237199 жанындагы -8.53993300077
-8.68049237199 конок -8.53661419097
-8.68049237199 окшойт -8.59247533825
-8.68049237199 башталды -8.5948946154
-8.68049237199 ээрчип -8.53306559058
-8.73765078583 сыр -8.59478634817
-8.73765078583 угулат -8.47687672842
-8.73765078583 уулунун -8.73542559441
-8.73765078583 аздан -8.73547289206
-8.73765078583 мыкты -8.49788521683
-8.73765078583 болуптур -8.6378140484
-8.73765078583 бурулду -8.65235117462
-8.73765078583 азыркы -8.59838388486
-8.73765078583 от -8.59716803964
-8.73765078583 айсалкын -8.46337125979
-8.73765078583 турганын -8.58687200865
-8.73765078583 күмүш -8.59973911163
-8.73765078583 келишкен -8.63312011209
-8.73765078583 билбеген -8.48719973098
-8.73765078583 комузчунун -8.59080421339
-8.73765078583 атты -8.49012969252
-8.73765078583 таластан -8.47484101694
-8.73765078583 байкады -8.63504635034
-8.73765078583 теректин -8.59844897772
-8.73765078583 бүткүл -8.59716803964
-8.73765078583 түшүнгөн -8.63501497402
-8.73765078583 аманэсен -8.50073623519
-8.73765078583 колундагы -8.58743156585
-8.73765078583 совет -8.5978738441
-8.73765078583 чыдабай -8.5960485899
-8.73765078583 беришти -8.65268005438
-8.73765078583 алат -8.64757022334
-8.73765078583 өмүрүндө -8.5949932038
-8.73765078583 күнгө -8.59767844042
-8.73765078583 баратканын -8.58102735372
-8.73765078583 дешти -8.64442543654
-8.73765078583 султаналыга -8.59754815009
-8.73765078583 эгин -8.57652431182
-8.73765078583 жеңеси -8.56073159814
-8.73765078583 уулун -8.5820644922
-8.73765078583 анысы -8.59298816875
-8.73765078583 колго -8.59509117311
-8.73765078583 турбайбы -8.49434007267
-8.73765078583 окуп -8.59443786298
-8.73765078583 үйдү -8.58008858874
-8.73765078583 көрүнүп -8.59117582246
-8.73765078583 күйдүм -8.59964159664
-8.73765078583 тийип -8.59732010116
-8.79827540765 комузга -8.65464911982
-8.79827540765 тосуп -8.65649980292
-8.79827540765 жетти -8.56158979102
-8.79827540765 ашып -8.65766289078
-8.79827540765 келишип -8.64937223568
-8.79827540765 токтотуп -8.65495417391
-8.79827540765 келишти -8.71329439865
-8.79827540765 жашы -8.64177415856
-8.79827540765 кызык -8.54600581136
-8.79827540765 калышкан -8.69073302685
-8.79827540765 айымкан -8.53286180431
-8.79827540765 абдан -8.65602113101
-8.79827540765 жеткен -8.55420773482
-8.79827540765 көңүлүндө -8.63958631238
-8.79827540765 эмесе -8.65146228355
-8.79827540765 дүйнө -8.63699448957
-8.79827540765 бирөөгө -8.65454014937
-8.79827540765 кээ -8.65159344972
-8.79827540765 киришти -8.56249827344
-8.79827540765 дүйнөдөн -8.65939956765
-8.79827540765 бүтүп -8.65488881301
-8.79827540765 электе -8.6413104698
-8.79827540765 манаптар -8.62804889962
-8.79827540765 соң -8.65023723554
-8.79827540765 кызын -8.65530269325
-8.79827540765 бата -8.79487571155
-8.79827540765 эрмек -8.6402498017
-8.79827540765 алагды -8.55307460388
-8.79827540765 болушка -8.64303165961
-8.79827540765 көңүлүнө -8.6582927847
-8.79827540765 оюна -8.64395722851
-8.79827540765 каршы -8.55728721423
-8.79827540765 күйөө -8.64187349247
-8.79827540765 бол -8.556277805
-8.79827540765 апасынын -8.65732606057
-8.79827540765 берки -8.65661943511
-8.79827540765 жылы -8.6541041488
-8.79827540765 билбейм -8.71154598463
-8.79827540765 жокпу -8.77218392773
-8.79827540765 учуп -8.65746732576
-8.79827540765 абышканын -8.65498685276
-8.79827540765 башкача -8.55781554603
-8.79827540765 алдын -8.65954054025
-8.79827540765 болсоң -8.62588685772
-8.79827540765 алыс -8.65170274173
-8.79827540765 кең -8.65983326602
-8.79827540765 ишке -8.65741299535
-8.79827540765 уулуна -8.64731074102
-8.79827540765 тору -8.65720651289
-8.79827540765 жатты -8.69943956253
-8.79827540765 петр -8.64491495119
-8.79827540765 буга -8.64137672421
-8.79827540765 атам -8.62943552118
-8.79827540765 карагер -8.55768348925
-8.79827540765 баатыр -8.69052279928
-8.79827540765 күлкү -8.54115958996
-8.79827540765 ысык -8.64467285508
-8.79827540765 сакал -8.55773151191
-8.79827540765 ойноп -8.65874866722
-8.79827540765 кийинки -8.65982242585
-8.79827540765 соко -8.6890499675
-8.79827540765 капкачан -8.65135296525
-8.79827540765 толук -8.55656631162
-8.79827540765 төргө -8.65768461787
-8.86281392879 кылат -8.76673547005
-8.86281392879 жетип -8.71618727006
-8.86281392879 жибек -8.72518501878
-8.86281392879 ыракмат -8.61587657584
-8.86281392879 өрөөндүн -8.71349509543
-8.86281392879 дайыма -8.7186978047
-8.86281392879 моюн -8.70944319489
-8.86281392879 түн -8.61074053238
-8.86281392879 башталат -8.60255820849
-8.86281392879 черте -8.85643520085
-8.86281392879 бара -8.71894851186
-8.86281392879 дос -8.70543004756
-8.86281392879 убада -8.62085413892
-8.86281392879 жигитти -8.7218869057
-8.86281392879 бая -8.85557993138
-8.86281392879 кандайча -8.72126729668
-8.86281392879 жалпы -8.71398810835
-8.86281392879 арасына -8.7227884574
-8.86281392879 ошонун -8.85360050534
-8.86281392879 өзгөчө -8.71597959595
-8.86281392879 кел -8.76831355985
-8.86281392879 ийди -8.62685922711
-8.86281392879 ичип -8.71449182602
-8.86281392879 бербей -8.71922094837
-8.86281392879 таласка -8.71303473064
-8.86281392879 маматты -8.70287486363
-8.86281392879 издеп -8.72247354978
-8.86281392879 баарынан -8.7071519403
-8.86281392879 кепке -8.71651508876
-8.86281392879 камчы -8.70543004756
-8.86281392879 күүлөрү -8.60827216092
-8.86281392879 кай -8.71372519838
-8.86281392879 мураталынын -8.72146300416
-8.86281392879 алышкан -8.61760284758
-8.86281392879 уят -8.76949549504
-8.86281392879 күүлөрүн -8.69990220324
-8.86281392879 ушунчалык -8.72348307523
-8.86281392879 урунуп -8.71199264682
-8.86281392879 алдынан -8.71363754636
-8.86281392879 кенен -8.71215725858
-8.86281392879 бастырып -8.8555228874
-8.86281392879 баарына -8.71971114713
-8.86281392879 жакты -8.6211907057
-8.86281392879 орто -8.72504420346
-8.86281392879 жигиттер -8.58014685027
-8.86281392879 манат -8.72417721089
-8.86281392879 майда -8.72480585543
-8.86281392879 окууга -8.70884885431
-8.86281392879 унутуп -8.72059289981
-8.86281392879 короз -8.62141902581
-8.86281392879 тили -8.72451325972
-8.86281392879 жиберди -8.77694881746
-8.86281392879 токтой -8.85961229056
-8.86281392879 жылдан -8.70882683491
-8.86281392879 сөзип -8.84888360554
-8.86281392879 садырдын -8.72378681887
-8.86281392879 качкан -8.7568155825
-8.86281392879 үйүн -8.72455661264
-8.86281392879 баласынын -8.72419889487
-8.86281392879 сөзүнө -8.71777073249
-8.86281392879 кийген -8.62095031242
-8.93180680028 жүр -8.68471417241
-8.93180680028 ойлонуп -8.78898774524
-8.93180680028 бооруна -8.79018464649
-8.93180680028 көбүрөөк -8.78799649755
-8.93180680028 учур -8.67720605594
-8.93180680028 тартты -8.83865422306
-8.93180680028 канчалык -8.79289956063
-8.93180680028 чайга -8.77569330607
-8.93180680028 миң -8.78113985273
-8.93180680028 жолдош -8.68934369868
-8.93180680028 мырзанын -8.79206415229
-8.93180680028 ырды -8.78626217554
-8.93180680028 коет -8.84609595465
-8.93180680028 чыкпай -8.77761123265
-8.93180680028 капсалаң -8.68471417241
-8.93180680028 биротоло -8.78237905783
-8.93180680028 күндөн -8.92786552117
-8.93180680028 үнүн -8.7918796174
-8.93180680028 комуздан -8.78638225698
-8.93180680028 колунда -8.66820480887
-8.93180680028 нерсеге -8.79294293941
-8.93180680028 бүгүнкү -8.78936873287
-8.93180680028 жек -8.79211842078
-8.93180680028 тил -8.79323569691
-8.93180680028 оозуна -8.79174933697
-8.93180680028 анык -8.68502830727
-8.93180680028 эшик -8.79221609664
-8.93180680028 чоочун -8.92178260391
-8.93180680028 келиндин -8.7874841494
-8.93180680028 тур -8.77554986492
-8.93180680028 максат -8.76618177738
-8.93180680028 экөөбүз -8.79221609664
-8.93180680028 улуу -8.69414343911
-8.93180680028 түбүнө -8.78957549396
-8.93180680028 адам -8.66858557643
-8.93180680028 албаган -8.67733997283
-8.93180680028 аялына -8.69300558498
-8.93180680028 айтышып -8.78433890889
-8.93180680028 басты -8.83610243387
-8.93180680028 иштин -8.78934696606
-8.93180680028 кызмат -8.77976725936
-8.93180680028 атайын -8.79099989495
-8.93180680028 алтын -8.79158646256
-8.93180680028 кубанычтуу -8.68433949798
-8.93180680028 мандаш -8.93175247358
-8.93180680028 жолдон -8.77666375167
-8.93180680028 маалда -8.78918369986
-8.93180680028 кармаган -8.67747387179
-8.93180680028 түз -8.78246673098
-8.93180680028 айылдан -8.77315245783
-8.93180680028 шайым -8.83185578941
-8.93180680028 ичине -8.77103753131
-8.93180680028 тарап -8.6800631139
-8.93180680028 кап -8.79215098046
-8.93180680028 оозу -8.68083979412
-8.93180680028 жашырын -8.78777850914
-8.93180680028 сүйгөн -8.7860219694
-8.93180680028 денеси -8.78045928191
-8.93180680028 киргенде -8.77680703315
-9.00591477243 бергенде -8.74334619783
-9.00591477243 жумуш -8.74507510347
-9.00591477243 кайрып -8.86506499269
-9.00591477243 сенден -8.84375978649
-9.00591477243 тамашаны -8.86257359976
-9.00591477243 зыйнат -8.86037078756
-9.00591477243 токтогулду -8.89986438924
-9.00591477243 кирген -8.76041775028
-9.00591477243 бети -8.86722497312
-9.00591477243 жылкы -8.86141827369
-9.00591477243 жайып -8.86027252945
-9.00591477243 чындап -8.85904895362
-9.00591477243 жаңылык -8.8582506377
-9.00591477243 эли -8.8328110775
-9.00591477243 бетин -8.86585788925
-9.00591477243 ыры -8.96177589263
-9.00591477243 суроого -8.86298744845
-9.00591477243 сизге -8.84466956332
-9.00591477243 орун -8.99793742282
-9.00591477243 эмнени -8.86774527578
-9.00591477243 көрүнбөйт -8.91961763046
-9.00591477243 нече -9.00326054633
-9.00591477243 жатканда -8.84897421489
-9.00591477243 оңой -8.90554660918
-9.00591477243 төрдө -8.76326095441
-9.00591477243 көйрөң -8.86647656346
-9.00591477243 көрүнөт -8.92090293143
-9.00591477243 тамагын -8.86825447662
-9.00591477243 малы -8.74677656481
-9.00591477243 билүү -8.88755257777
-9.00591477243 төрт -8.86581445914
-9.00591477243 чырымдын -8.86686710795
-9.00591477243 мыктыбек -8.82943877215
-9.00591477243 тараптан -8.86270430732
-9.00591477243 эшмамбет -8.83286718635
-9.00591477243 жылуу -8.86580360132
-9.00591477243 жашын -8.86145098995
-9.00591477243 эткен -8.86464113262
-9.00591477243 ичиндеги -8.86775611254
-9.00591477243 карашы -8.99111171841
-9.00591477243 тамак -8.85168690333
-9.00591477243 жетпей -8.86177809378
-9.00591477243 током -8.84230464297
-9.00591477243 окуй -8.85923477136
-9.00591477243 кайрылды -8.90511869006
-9.00591477243 алышты -8.90704809531
-9.00591477243 көр -8.76830098524
-9.00591477243 бирөөлөр -8.76627602604
-9.00591477243 мурут -8.88963277211
-9.00591477243 соо -8.85046379638
-9.00591477243 комузчулар -8.81188898195
-9.00591477243 анча -8.86740927794
-9.00591477243 жантакпайдын -8.86513018599
-9.00591477243 байга -8.84733863854
-9.00591477243 күлө -8.86170177912
-9.00591477243 тобо -8.90922333281
-9.00591477243 жиберип -8.8573750384
-9.00591477243 таба -9.00129021434
-9.00591477243 иштеген -8.75007331135
-9.00591477243 себеби -8.84375978649
-9.00591477243 келиптир -8.91706269279
-9.00591477243 арман -8.86244287511
-9.00591477243 үйрөнүп -8.86263895568
-9.00591477243 катын -8.84885274377
-9.00591477243 өлүп -8.86720328797
-9.00591477243 муңдуу -8.86661761101
-9.00591477243 атаэнеси -8.98970259916
-9.00591477243 жолдо -9.00472630228
-9.00591477243 кылуу -8.90202387767
-9.00591477243 барган -8.91457360065
-9.00591477243 сөздөр -8.74790112183
-9.00591477243 жүргөнүн -8.99314042724
-9.00591477243 аялын -8.86403219867
-9.00591477243 жеңижок -8.99275796687
-9.00591477243 матай -8.89964398506
-9.00591477243 окуудан -8.86321608085
-9.00591477243 отурганын -8.86411921194
-9.0859574801 атканча -8.94495615651
-9.0859574801 көзүнөн -9.0826303177
-9.0859574801 деги -8.94619427777
-9.0859574801 оо -8.93659685646
-9.0859574801 жазып -8.94727908836
-9.0859574801 баарыдан -9.0728477758
-9.0859574801 коюшту -8.98662197757
-9.0859574801 тыңшап -8.9432485114
-9.0859574801 отурушат -8.85017508099
-9.0859574801 тамашага -8.94807025765
-9.0859574801 седепти -8.93641054182
-9.0859574801 кадырын -8.94668258817
-9.0859574801 өңчөй -8.94232277196
-9.0859574801 келдим -8.99238023067
-9.0859574801 айтат -8.98863177732
-9.0859574801 арманда -8.84281205456
-9.0859574801 кадимкидей -8.94657409535
-9.0859574801 жата -8.94257335075
-9.0859574801 ачуусу -9.06932246273
-9.0859574801 айлына -8.94616171526
-9.0859574801 жатканын -9.07964290528
-9.0859574801 ырчылар -8.8318717414
-9.0859574801 жакасын -8.94782105267
-9.0859574801 байкуш -8.94281297606
-9.0859574801 байкаган -8.98432607683
-9.0859574801 отургандардын -9.07412836925
-9.0859574801 бош -8.94544507173
-9.0859574801 турмуштун -8.94822191724
-9.0859574801 жагындагы -8.94508655728
-9.0859574801 үйүнүн -8.94722487577
-9.0859574801 кар -8.93218174127
-9.0859574801 сөздүн -8.94310698322
-9.0859574801 даяр -8.83471513789
-9.0859574801 алууга -8.94608573196
-9.0859574801 тиктейт -8.85017508099
-9.0859574801 сокону -9.08064918989
-9.0859574801 чыбык -8.84715967862
-9.0859574801 ач -8.9437817838
-9.0859574801 байбичеси -8.80627276898
-9.0859574801 суз -8.9951126142
-9.0859574801 эшиктен -8.945064825
-9.0859574801 жетелеп -8.94118893555
-9.0859574801 болгондо -9.07976637204
-9.0859574801 жел -8.92761436464
-9.0859574801 ара -8.94774519534
-9.0859574801 падыша -8.93505048984
-9.0859574801 таттуу -8.93983537132
-9.0859574801 бергиле -8.84568456637
-9.0859574801 кайын -8.94802692211
-9.0859574801 ортончу -8.9406979345
-9.0859574801 чалдын -8.94172330711
-9.0859574801 алыска -8.94619427777
-9.0859574801 жактагы -9.08218514287
-9.0859574801 жасап -8.93822836575
-9.0859574801 ырын -8.93341378332
-9.0859574801 алганда -9.06643934235
-9.0859574801 кимден -8.94718150358
-9.0859574801 чечип -8.94694292292
-9.0859574801 жаны -8.93809706754
-9.0859574801 батып -9.08227040445
-9.0859574801 бирибирин -8.94574916504
-9.0859574801 күйөөсүнө -8.84811793467
-9.0859574801 тойкожо -8.92996685213
-9.0859574801 абдыракманды -8.93927813129
-9.0859574801 көзүнүн -8.9468561522
-9.0859574801 дей -9.08198617089
-9.0859574801 баарынын -8.93920162312
-9.0859574801 ыйлап -9.08207144944
-9.0859574801 быйыл -8.93018745902
-9.0859574801 куш -8.919554192
-9.0859574801 бурулкан -9.06241794738
-9.0859574801 берем -8.84135461806
-9.0859574801 байлап -8.94702968611
-9.0859574801 айтыке -8.83094650302
-9.0859574801 түшө -8.93893926496
-9.0859574801 кудайбергендин -8.92563310296
-9.0859574801 өнөрүн -8.93287495169
-9.0859574801 болобу -8.9309261377
-9.0859574801 калыптыр -8.99738391116
-9.0859574801 күүдөн -8.94234456392
-9.0859574801 о -8.94764765604
-9.17296885709 жигити -9.03193552137
-9.17296885709 болбогон -8.93329756234
-9.17296885709 угулуп -9.16986813208
-9.17296885709 кеңеш -9.03388979207
-9.17296885709 жүрөк -9.01892964463
-9.17296885709 агасы -9.01852219378
-9.17296885709 түрдүү -9.03223976999
-9.17296885709 төз -9.02741523505
-9.17296885709 ортосундагы -9.02610434685
-9.17296885709 көпкө -9.03209852321
-9.17296885709 энеси -8.917691794
-9.17296885709 тап -8.93708059352
-9.17296885709 биринин -9.02966159384
-9.17296885709 атактуу -9.03266339065
-9.17296885709 ырдап -9.02141480096
-9.17296885709 бизди -9.0285281405
-9.17296885709 келгенсип -9.16842804239
-9.17296885709 эшиктин -9.03315196083
-9.17296885709 сүйлөп -8.92654602483
-9.17296885709 ансыз -9.15781950667
-9.17296885709 түбүндө -9.03153333652
-9.17296885709 аппак -9.0310439747
-9.17296885709 иниси -9.02479173796
-9.17296885709 мунусу -9.01869840912
-9.17296885709 бүткөндөн -9.17072929963
-9.17296885709 байлар -9.15757992259
-9.17296885709 ишене -9.17071038084
-9.17296885709 калышат -9.08752534535
-9.17296885709 болушуп -9.02591849864
-9.17296885709 таза -9.03052172466
-9.17296885709 карып -8.92005249552
-9.17296885709 адегенде -9.02577635611
-9.17296885709 тилек -9.02838636846
-9.17296885709 кереметтүү -8.93419672977
-9.17296885709 силерге -9.01968904222
-9.17296885709 шыбырады -8.91972427792
-9.17296885709 кимди -9.03454036786
-9.17296885709 калганына -9.03010808319
-9.17296885709 терең -9.03337987859
-9.17296885709 сүйлөй -9.16761233524
-9.17296885709 толуп -9.03270682878
-9.17296885709 бирибири -9.1616259746
-9.17296885709 көчүп -9.03179423161
-9.17296885709 тиричилик -9.0208545307
-9.17296885709 айтпай -8.93226552097
-9.17296885709 толгоп -9.03182683871
-9.17296885709 кичине -9.02513099368
-9.17296885709 кесени -9.032934848
-9.17296885709 айла -9.02863718225
-9.17296885709 билинбей -9.02996653498
-9.17296885709 күтпөгөн -9.16091933503
-9.17296885709 силердин -9.03004275574
-9.17296885709 тогуз -8.93475979622
-9.17296885709 катар -9.03374877818
-9.17296885709 ууру -9.01873144604
-9.17296885709 катарына -9.03314110631
-9.17296885709 бакырып -8.93268566635
-9.17296885709 калдым -9.08142097498
-9.17296885709 кагып -9.03257650873
-9.17296885709 толгон -8.934040932
-9.17296885709 салкын -9.03458372453
-9.17296885709 барат -9.07575770565
-9.17296885709 комузунун -9.03523384916
-9.17296885709 боюн -9.03428018833
-9.17296885709 арга -9.16717575348
-9.17296885709 өскөн -8.93401696096
-9.17296885709 күлкүсү -9.15782908884
-9.17296885709 сүйлөшүп -9.16714727414
-9.17296885709 көрүшүп -9.03275026502
-9.17296885709 жумшак -9.03367283939
-9.17296885709 карт -9.03343413706
-9.17296885709 солдаттар -9.02349932359
-9.17296885709 сөзген -9.0714629903
-9.17296885709 чаап -9.1640762435
-9.17296885709 алдыда -9.025371686
-9.17296885709 таанып -8.93368130601
-9.17296885709 дароо -9.02677092976
-9.17296885709 кеткенден -9.03118537049
-9.17296885709 акындын -9.03316281523
-9.17296885709 үстүнөн -8.91881199673
-9.17296885709 бирөөнүн -9.0332713528
-9.17296885709 туюк -8.93584908835
-9.17296885709 суусунун -9.03417176021
-9.17296885709 токол -9.01843407447
-9.17296885709 коркунучтуу -9.05466047551
-9.17296885709 жеринде -9.08672318152
-9.17296885709 ачты -9.08793646195
-9.17296885709 жерди -9.03310854203
-9.17296885709 пайда -9.16709980676
-9.17296885709 улан -9.07892520665
-9.17296885709 кагылайын -9.16090978242
-9.17296885709 малдын -9.03275026502
-9.17296885709 жүрөсүң -8.91274549089
-9.17296885709 аягы -9.03034758068
-9.17296885709 эрте -8.91876331834
-9.17296885709 чайды -9.02934566389
-9.17296885709 уйкусу -9.03444280847
-9.17296885709 мурунку -9.17113596709
-9.17296885709 немелер -8.92277133974
-9.17296885709 айланып -9.02928028661
-9.17296885709 чакырган -8.92917503467
-9.17296885709 катып -9.02678185365
-9.17296885709 кошулду -9.08790563407
-9.17296885709 ойлуу -9.0817105363
-9.17296885709 сатып -9.019964044
-9.17296885709 субанга -9.03196812387
-9.17296885709 кире -9.16193139389
-9.17296885709 балдарды -9.03221804101
-9.17296885709 кеңкол -9.01245691565
-9.17296885709 шүгүр -9.02424430867
-9.17296885709 көптөн -9.17143849604
-9.17296885709 түшкөндө -9.15699509641
-9.17296885709 жөнү -9.16320932496
-9.17296885709 бүттү -8.93436448485
-9.17296885709 жеп -9.03333646968
-9.17296885709 ушак -9.03184857619
-9.17296885709 тышкары -8.93454419121
-9.17296885709 кыла -9.17077659504
-9.17296885709 боору -9.02221621061
-9.17296885709 кабарын -9.03057613843
-9.17296885709 токой -9.05639060729
-9.2682790369 жанын -9.13028458757
-9.2682790369 келиши -9.10978266818
-9.2682790369 сыйра -9.12883169779
-9.2682790369 айылды -9.12106532413
-9.2682790369 комузу -9.16254407396
-9.2682790369 жокто -9.26262753252
-9.2682790369 сол -9.12993782062
-9.2682790369 жантакбай -9.10896396633
-9.2682790369 манаптары -9.12986194932
-9.2682790369 көбүнчө -9.12285704772
-9.2682790369 убак -9.01575340701
-9.2682790369 артык -9.1160884988
-9.2682790369 алдындагы -9.12174306052
-9.2682790369 тынч -9.17748596512
-9.2682790369 кетишти -9.03247608385
-9.2682790369 башканы -9.12910291954
-9.2682790369 караан -9.25423032925
-9.2682790369 сүйлөшө -9.12624597648
-9.2682790369 мененки -9.12977523221
-9.2682790369 суук -9.12879914624
-9.2682790369 тебетей -9.16771307155
-9.2682790369 алчу -9.12638738612
-9.2682790369 аккан -9.12698543649
-9.2682790369 сейилкан -9.1015653301
-9.2682790369 уулжандын -9.12965598391
-9.2682790369 сылап -9.12598485999
-9.2682790369 эмесмин -9.18282524824
-9.2682790369 айга -9.26727705203
-9.2682790369 колукту -9.25351220324
-9.2682790369 булардын -9.12967766648
-9.2682790369 молдоке -9.10049433173
-9.2682790369 айрыкча -9.26547094767
-9.2682790369 болушу -9.17643123269
-9.2682790369 зар -9.02893324899
-9.2682790369 аялдын -9.12875574252
-9.2682790369 көрсөтүп -9.03027525765
-9.2682790369 жаңыдан -9.12449301314
-9.2682790369 куру -9.1164291151
-9.2682790369 байдан -9.03043090993
-9.2682790369 дөбөдө -9.261620923
-9.2682790369 шадыбек -9.10855436392
-9.2682790369 кудайдан -9.02876537121
-9.2682790369 дейсиңби -9.02290801143
-9.2682790369 дейм -9.02448698133
-9.2682790369 кайнаган -9.12981859171
-9.2682790369 бирибирине -9.12821303701
-9.2682790369 токтогулга -9.11174923715
-9.2682790369 сабыр -9.12714847908
-9.2682790369 союп -9.12799587231
-9.2682790369 күндүз -9.26562236962
-9.2682790369 атына -9.26646423596
-9.2682790369 конокко -9.12827817723
-9.2682790369 жагы -9.02276324824
-9.2682790369 кадырлуу -9.1802107062
-9.2682790369 таппай -9.12191788569
-9.2682790369 жашап -9.12884254808
-9.2682790369 күнүтүнү -9.12986194932
-9.2682790369 көпчүлүгү -9.12291162305
-9.2682790369 тургандар -9.23776643093
-9.2682790369 кимдир -9.26798536434
-9.2682790369 терс -9.26739041572
-9.2682790369 буйрук -9.26325377791
-9.2682790369 тыныбекке -9.11454878488
-9.2682790369 бирине -9.11338142244
-9.2682790369 кымыз -9.03183069122
-9.2682790369 талаада -9.12717021609
-9.2682790369 түшөт -9.18298971517
-9.2682790369 туюлду -9.18323636484
-9.2682790369 жүрөм -9.03235659812
-9.2682790369 болдум -9.1750853514
-9.2682790369 жамынып -9.12739842611
-9.2682790369 калык -9.2340229338
-9.2682790369 учурашып -9.26108871995
-9.2682790369 жакындаганда -9.1127751781
-9.2682790369 кайткан -9.17205567488
-9.2682790369 намыс -9.26214334687
-9.2682790369 күрмөсүнүн -9.13032792498
-9.2682790369 чогулган -9.17875637053
-9.2682790369 жашоо -9.12121840153
-9.2682790369 боромбай -9.2538761182
-9.2682790369 жаштар -9.02980815542
-9.2682790369 таятасы -9.11266491236
-9.2682790369 салган -9.25313857381
-9.2682790369 кыйкырды -9.18234197017
-9.2682790369 баштап -9.12110906292
-9.2682790369 бел -9.12738756014
-9.2682790369 кишиси -9.16296361185
-9.2682790369 экени -9.12916800182
-9.2682790369 жарып -9.12865807726
-9.2682790369 беришет -9.1761828986
-9.2682790369 көрүштү -9.18312332463
-9.2682790369 чети -9.00543415416
-9.2682790369 бактылуу -9.12966682525
-9.2682790369 эт -9.03092165461
-9.2682790369 көрчү -9.1750853514
-9.2682790369 жөө -9.12941744464
-9.2682790369 сизди -9.12695282478
-9.2682790369 армандуу -9.02893324899
-9.2682790369 досу -9.01697973807
-9.2682790369 жерин -9.12762658406
-9.2682790369 илгери -9.12625685486
-9.2682790369 укту -9.17970553853
-9.2682790369 иштеп -9.26523430496
-9.2682790369 жакшылык -9.02058928183
-9.2682790369 кууп -9.12917884845
-9.2682790369 экинчиси -9.13017623581
-9.37363955255 тыныбекти -9.23278126214
-9.37363955255 тургансып -9.23308545126
-9.37363955255 токтото -9.23262913287
-9.37363955255 кичи -9.23547229438
-9.37363955255 жолоочу -9.35019480085
-9.37363955255 султаналыны -9.2205261934
-9.37363955255 баягыдай -9.1268338346
-9.37363955255 меймандардын -9.22560605007
-9.37363955255 арам -9.23309631345
-9.37363955255 сүйкүмдүү -9.13053551061
-9.37363955255 күйөөсүн -9.36907818414
-9.37363955255 окшогон -9.23510379061
-9.37363955255 жүрүшкөн -9.27740591373
-9.37363955255 жапырт -9.22675448859
-9.37363955255 айлы -9.27691740155
-9.37363955255 айтышкан -9.13429547804
-9.37363955255 аттарын -9.23597064226
-9.37363955255 келдиң -9.27989673014
-9.37363955255 секретарь -9.21645910855
-9.37363955255 тиричиликке -9.2197779457
-9.37363955255 кетишет -9.2885866037
-9.37363955255 ачууланды -9.13394770409
-9.37363955255 сүйөнүп -9.36667658445
-9.37363955255 өнөрү -9.22114197728
-9.37363955255 үйбүлөсү -9.23336782976
-9.37363955255 эсенбектин -9.36909714616
-9.37363955255 күлүштү -9.27473176758
-9.37363955255 эстеп -9.21549778782
-9.37363955255 кеч -9.36762652277
-9.37363955255 куп -9.23334611117
-9.37363955255 күндө -9.35042665803
-9.37363955255 дөңдө -9.37017738733
-9.37363955255 четинде -9.23195513922
-9.37363955255 бурулчанын -9.23513631112
-9.37363955255 эринин -9.23458331871
-9.37363955255 дегени -9.2692676442
-9.37363955255 табылат -9.27304243707
-9.37363955255 адамдын -9.22606558376
-9.37363955255 туулган -9.13452326438
-9.37363955255 сулуу -9.22029517666
-9.37363955255 чертет -9.28553002376
-9.37363955255 минген -9.36301087374
-9.37363955255 чачы -9.22252610616
-9.37363955255 болбо -9.12653179097
-9.37363955255 өзүңөр -9.21518820056
-9.37363955255 артист -9.11412996387
-9.37363955255 бурду -9.28099486859
-9.37363955255 кийимин -9.23331353239
-9.37363955255 ыраазымын -9.28449876625
-9.37363955255 чуркады -9.28813436614
-9.37363955255 болгондой -9.22563888091
-9.37363955255 берсин -9.27685502111
-9.37363955255 жерине -9.36878422685
-9.37363955255 райымбектин -9.22011912807
-9.37363955255 тийген -9.22624058868
-9.37363955255 көрөйүн -9.35746300931
-9.37363955255 жоргону -9.23566732965
-9.37363955255 үйүр -9.23512547107
-9.37363955255 чалкалап -9.37118077621
-9.37363955255 этет -9.28810352431
-9.37363955255 изи -9.20199737965
-9.37363955255 кечээ -9.22199904485
-9.37363955255 айтканда -9.22728997554
-9.37363955255 өмүрдүн -9.23253132326
-9.37363955255 замандын -9.23362841608
-9.37363955255 чакырды -9.28787732184
-9.37363955255 бирэки -9.2348327453
-9.37363955255 атасын -9.23504958743
-9.37363955255 билсин -9.13322778757
-9.37363955255 кубанган -9.26495260892
-9.37363955255 огонбай -9.2794301744
-9.37363955255 албайм -9.27954424146
-9.37363955255 жатышат -9.28803155635
-9.37363955255 сурнайдын -9.23500622276
-9.37363955255 тийди -9.1305836506
-9.37363955255 сайма -9.22236142934
-9.37363955255 талаа -9.11839066631
-9.37363955255 билбейт -9.2815848788
-9.37363955255 узакка -9.23498453973
-9.37363955255 курчап -9.37005426086
-9.37363955255 аттарды -9.23577566615
-9.37363955255 сөзүнүн -9.23533141192
-9.37363955255 балдарга -9.22494920683
-9.37363955255 ырчынын -9.23380210258
-9.37363955255 учурунда -9.21275238851
-9.37363955255 алгачкы -9.23604645604
-9.37363955255 болбосун -9.21862146238
-9.37363955255 арадан -9.36304902821
-9.37363955255 толо -9.13309574663
-9.37363955255 калдык -9.27925386334
-9.37363955255 алик -9.36913506912
-9.37363955255 ошондуктан -9.36377368665
-9.37363955255 жоголуп -9.37111454572
-9.37363955255 адатта -9.36730364498
-9.37363955255 газетаны -9.37019632851
-9.37363955255 как -9.13746782267
-9.37363955255 байбиченин -9.36991217302
-9.37363955255 барарын -9.36469781749
-9.37363955255 жүзү -9.23443146336
-9.37363955255 өнөр -9.27904639877
-9.37363955255 үндөр -9.37223986795
-9.37363955255 ача -9.36709466849
-9.37363955255 ээн -9.3707360016
-9.37363955255 убакытты -9.23218347827
-9.37363955255 өсүп -9.23443146336
-9.37363955255 суусу -9.12212367
-9.37363955255 сууга -9.23498453973
-9.37363955255 көйнөкчөн -9.36884112856
-9.37363955255 жеңин -9.23551563884
-9.37363955255 чок -9.11934043807
-9.37363955255 өзүбүз -9.20688211761
-9.37363955255 каарына -9.23391064132
-9.37363955255 келчү -9.27496096289
-9.37363955255 салынган -9.13712115042
-9.37363955255 алышпады -9.28827828209
-9.37363955255 арыктын -9.37309955483
-9.37363955255 малга -9.21094383901
-9.37363955255 билишчү -9.28525168902
-9.37363955255 келер -9.34468204898
-9.37363955255 токойду -9.23400831612
-9.37363955255 калыбында -9.13578114878
-9.37363955255 мынча -9.36859453112
-9.37363955255 күтүлбөгөн -9.23493033008
-9.37363955255 көзүм -9.22209789001
-9.37363955255 жолун -9.23494117224
-9.37363955255 жаштын -9.23398661143
-9.37363955255 карыялар -9.11952298312
-9.37363955255 апа -9.22882926875
-9.37363955255 кыларын -9.37313732632
-9.37363955255 чокту -9.37106723554
-9.37363955255 эрдин -9.23530973593
-9.37363955255 коркуп -9.22513535622
-9.37363955255 убара -9.13738415416
-9.37363955255 көрбөгөн -9.27439829877
-9.37363955255 колдон -9.13304772743
-9.37363955255 кайнап -9.36832889664
-9.37363955255 салат -9.13429547804
-9.37363955255 отургузуп -9.37043306309
-9.37363955255 билермандар -9.21788281627
-9.37363955255 коюшуп -9.23292250431
-9.37363955255 бака -9.37347720547
-9.37363955255 караган -9.20009067308
-9.37363955255 азырынча -9.23516883056
-9.37363955255 акчаны -9.23012654738
-9.37363955255 сөздөрдү -9.22003109215
-9.37363955255 биринсерин -9.23338954788
-9.37363955255 мурутун -9.23595981125
-9.37363955255 десем -9.13561352225
-9.37363955255 көрүшөт -9.13779047848
-9.37363955255 черткен -9.22379869199
-9.37363955255 айтам -9.27293806383
-9.37363955255 кийиз -9.12314265474
-9.37363955255 чаптырып -9.13446332563
-9.37363955255 кызды -9.22572642454
-9.37363955255 каны -9.23310717551
-9.37363955255 эшикте -9.22892744111
-9.37363955255 иттин -9.23556981677
-9.37363955255 устатынын -9.36937205503
-9.37363955255 урган -9.36507865381
-9.37363955255 жеңе -9.22750845927
-9.37363955255 кемпир -9.22614215218
-9.37363955255 судья -9.2298650468
-9.37363955255 үмүтү -9.23088886704
-9.37363955255 баятан -9.37231547446
-9.37363955255 колунун -9.23576483303
-9.37363955255 асыл -9.23521218817
-9.37363955255 туугандар -9.22647023617
-9.37363955255 уулум -9.35679135317
-9.37363955255 камчысын -9.23168323901
-9.37363955255 тегерегинде -9.22599994902
-9.37363955255 асман -9.27534630932
-9.37363955255 топко -9.23403002033
-9.37363955255 карыянын -9.23476768349
-9.37363955255 талаага -9.23470261745
-9.37363955255 жаттап -9.21534300617
-9.37363955255 элең -9.28709550119
-9.37363955255 шаңдуу -9.13518235354
-9.37363955255 таяк -9.23535308744
-9.37363955255 бошоп -9.23394320064
-9.37363955255 кадимки -9.22559510622
-9.37363955255 чочуп -9.21654745948
-9.37363955255 керегедеги -9.23532057398
-9.37363955255 өткөрүп -9.23161797196
-9.37363955255 кишилерге -9.35677215636
-9.37363955255 бузурман -9.36336374704
-9.37363955255 оёз -9.2308017742
-9.37363955255 көтөрдү -9.1378263227
-9.37363955255 секретары -9.23133509884
-9.37363955255 сыры -9.226929373
-9.37363955255 кеткени -9.35660896863
-9.37363955255 чатак -9.23440976786
-9.37363955255 чертти -9.28855577581
-9.49142258821 сур -9.4877891317
-9.49142258821 топтон -9.34570712423
-9.49142258821 так -9.35346175685
-9.49142258821 атасына -9.48913328154
-9.49142258821 фрунзеге -9.35239946067
-9.49142258821 бой -9.35079303462
-9.49142258821 зоотбек -9.23663842391
-9.49142258821 тагдыры -9.32947148255
-9.49142258821 ылдый -9.35245368678
-9.49142258821 букаралар -9.48652853374
-9.49142258821 койсо -9.33884877753
-9.49142258821 кыңгыратып -9.48848036397
-9.49142258821 шарапаты -9.24107302097
-9.49142258821 эрегишкен -9.35026060821
-9.49142258821 карай -9.34984751085
-9.49142258821 терип -9.35222591735
-9.49142258821 дабышын -9.3383319504
-9.49142258821 болчу -9.39613421908
-9.49142258821 капшытта -9.34920578447
-9.49142258821 сабак -9.35199809603
-9.49142258821 созуп -9.48392649243
-9.49142258821 падышанын -9.35071699106
-9.49142258821 карамолдо -9.22692319479
-9.49142258821 салмак -9.2395565365
-9.49142258821 көрөт -9.23515177906
-9.49142258821 чынында -9.33429813143
-9.49142258821 кыргызча -9.33029232763
-9.49142258821 эмненин -9.35267056183
-9.49142258821 каардуу -9.3527139312
-9.49142258821 берүү -9.22780807447
-9.49142258821 соккон -9.35321254376
-9.49142258821 жете -9.48780807594
-9.49142258821 алдырып -9.35338591596
-9.49142258821 маал -9.33025906322
-9.49142258821 жүрүшөт -9.4056809296
-9.49142258821 жеңесинин -9.35173766523
-9.49142258821 боюна -9.35177022279
-9.49142258821 элдик -9.35371090784
-9.49142258821 жакында -9.35120574166
-9.49142258821 багы -9.34572896068
-9.49142258821 таңында -9.47891227819
-9.49142258821 тыным -9.48963450861
-9.49142258821 айтышты -9.39250452653
-9.49142258821 төзирээк -9.35049969187
-9.49142258821 шайтан -9.32615908026
-9.49142258821 бээни -9.35335341096
-9.49142258821 ажыраган -9.39907820263
-9.49142258821 түрлүү -9.35310417087
-9.49142258821 алам -9.39836373568
-9.49142258821 чыкканча -9.35002146738
-9.49142258821 мойнуна -9.48639574673
-9.49142258821 ырдын -9.48810166574
-9.49142258821 белгисиз -9.39175406528
-9.49142258821 кошулган -9.34442886162
-9.49142258821 кылбай -9.48785543496
-9.49142258821 сураган -9.39815654835
-9.49142258821 туугандары -9.37591583359
-9.49142258821 турса -9.39200428161
-9.49142258821 кожокенин -9.48738174376
-9.49142258821 жашай -9.35030408222
-9.49142258821 ашка -9.35196554589
-9.49142258821 жайында -9.48625345537
-9.49142258821 маң -9.4032924754
-9.49142258821 калар -9.39850874127
-9.49142258821 токтотту -9.40578375208
-9.49142258821 токойго -9.48752387468
-9.49142258821 жолку -9.35358092376
-9.49142258821 түш -9.4025294393
-9.49142258821 жоон -9.35239946067
-9.49142258821 жак -9.35309333294
-9.49142258821 буларды -9.35081476029
-9.49142258821 ии -9.35019539366
-9.49142258821 жетпейт -9.24550010839
-9.49142258821 жиберишти -9.40635936265
-9.49142258821 кылса -9.33638320078
-9.49142258821 баратып -9.25428395271
-9.49142258821 курсагы -9.35337508108
-9.49142258821 жүрдү -9.40635936265
-9.49142258821 каалаган -9.34811717126
-9.49142258821 айдап -9.35031495043
-9.49142258821 ортого -9.34949950697
-9.49142258821 жашаган -9.48254675531
-9.49142258821 тебетейин -9.34221809363
-9.49142258821 таштын -9.35308249489
-9.49142258821 чалып -9.48625345537
-9.49142258821 чапты -9.25559908166
-9.49142258821 анысын -9.3519112933
-9.49142258821 айт -9.25507323761
-9.49142258821 тегиз -9.35210658884
-9.49142258821 болмок -9.39555269089
-9.49142258821 бээ -9.33807893762
-9.49142258821 дүнүйө -9.34048546607
-9.49142258821 кедейлер -9.48503841146
-9.49142258821 күткөн -9.25277540398
-9.49142258821 тилеп -9.47917982905
-9.49142258821 ошончо -9.35281150539
-9.49142258821 алип -9.24638076713
-9.49142258821 кантейин -9.34160434117
-9.49142258821 бойлуу -9.35148802205
-9.49142258821 аргасыз -9.34858542018
-9.49142258821 бермек -9.40553696037
-9.49142258821 кетментөбө -9.2409881586
-9.49142258821 четине -9.3491078578
-9.49142258821 той -9.33167736173
-9.49142258821 эгинди -9.3534184199
-9.49142258821 укмуш -9.3499344929
-9.49142258821 турмушу -9.4713338681
-9.49142258821 илинген -9.40411672486
-9.49142258821 алабыз -9.39984387568
-9.49142258821 бекеринен -9.35008669328
-9.49142258821 басылды -9.40635936265
-9.49142258821 кайгылуу -9.35040189183
-9.49142258821 жөнүндөгү -9.353201707
-9.49142258821 аргасыздан -9.34585996934
-9.49142258821 иним -9.34604553556
-9.49142258821 карабай -9.34507365982
-9.49142258821 атым -9.34007929
-9.49142258821 эшикти -9.25184039876
-9.49142258821 айылдагылар -9.34670020007
-9.49142258821 башындагы -9.35099940943
-9.49142258821 кайтарды -9.40421970829
-9.49142258821 айтууга -9.35108629135
-9.49142258821 чыгышты -9.40051594304
-9.49142258821 кетментөбөдөн -9.32704939371
-9.49142258821 комузчулардын -9.3524753764
-9.49142258821 байланып -9.35014104494
-9.49142258821 аттуу -9.35109715106
-9.49142258821 көптү -9.35196554589
-9.49142258821 жабыла -9.35318003313
-9.49142258821 мейманга -9.35289823002
-9.49142258821 чөнтөгүнөн -9.3444725899
-9.49142258821 былк -9.35355925811
-9.49142258821 аябай -9.35299578624
-9.49142258821 табып -9.346351099
-9.49142258821 куйругун -9.35365674986
-9.49142258821 карабастан -9.48804484863
-9.49142258821 чыкса -9.47546594655
-9.49142258821 баракелде -9.34799735142
-9.49142258821 чү -9.34487698579
-9.49142258821 айылдар -9.3264930407
-9.49142258821 алгыла -9.39936798571
-9.49142258821 экендиги -9.33788088296
-9.49142258821 жүгүртүп -9.34979314322
-9.49142258821 жоругуна -9.4886412673
-9.49142258821 келгендей -9.25285927197
-9.49142258821 бийлик -9.34499718007
-9.49142258821 жылдын -9.35335341096
-9.49142258821 шек -9.35339675073
-9.49142258821 жеткенде -9.33944224936
-9.49142258821 тилеги -9.3518461863
-9.49142258821 айдатып -9.35038015719
-9.49142258821 чөк -9.49091008527
-9.49142258821 бербейт -9.4058043153
-9.49142258821 озунуп -9.40195161932
-9.49142258821 калгандары -9.350423626
-9.49142258821 кер -9.35332090491
-9.49142258821 башкалардын -9.35309333294
-9.49142258821 куда -9.48601625809
-9.49142258821 өткөндөн -9.48915220033
-9.49142258821 түрмөгө -9.35116230684
-9.49142258821 кетиши -9.47357499711
-9.49142258821 барын -9.3535484251
-9.49142258821 карашты -9.40635936265
-9.49142258821 ээрчий -9.48868858688
-9.49142258821 ич -9.34640565408
-9.49142258821 адамдар -9.47456411212
-9.49142258821 комузчуну -9.33781485602
-9.49142258821 колдору -9.32598092241
-9.49142258821 сиздин -9.35391668141
-9.49142258821 жыгач -9.33899168257
-9.49142258821 фрунзе -9.35133603482
-9.49142258821 уктап -9.35130346312
-9.49142258821 бойго -9.33881579654
-9.49142258821 ырчыны -9.48986139675
-9.49142258821 кыймыл -9.48886838087
-9.49142258821 коңкогой -9.48727750158
-9.49142258821 болбогондуктан -9.47324827823
-9.49142258821 чыккандан -9.48453487482
-9.49142258821 оору -9.33715434674
-9.49142258821 ою -9.3427548182
-9.49142258821 зарыл -9.39846731325
-9.49142258821 кечип -9.35222591735
-9.49142258821 шамал -9.3480953869
-9.49142258821 ачылып -9.35070612722
-9.49142258821 сактап -9.34751792846
-9.49142258821 ит -9.4901732839
-9.49142258821 меймандын -9.34501903202
-9.49142258821 күтүү -9.4686436597
-9.49142258821 эркек -9.4743145249
-9.49142258821 там -9.48916165959
-9.49142258821 таасир -9.35162913238
-9.49142258821 сый -9.32543511647
-9.49142258821 чыгарды -9.39974044061
-9.49142258821 айланды -9.40118755903
-9.49142258821 жыйып -9.34179069871
-9.49142258821 козголуп -9.48911436239
-9.49142258821 чуу -9.34890109221
-9.49142258821 адашып -9.34806270948
-9.49142258821 арасынан -9.33812294444
-9.49142258821 тың -9.48042109262
-9.49142258821 кан -9.35387336418
-9.49142258821 ачылды -9.40482709475
-9.49142258821 убагында -9.34129732363
-9.49142258821 күтөт -9.40618465875
-9.49142258821 карылыкка -9.35284402801
-9.49142258821 биринен -9.49065510007
-9.49142258821 жайылып -9.4854372605
-9.49142258821 кулап -9.48186093649
-9.49142258821 маңдай -9.35284402801
-9.49142258821 билүүчү -9.40359134434
-9.49142258821 жүгөрүнүн -9.35383004507
-9.49142258821 ташка -9.35152058774
-9.49142258821 нааразы -9.2497875153
-9.49142258821 кызматчы -9.3502932139
-9.62495398084 назик -9.61873048227
-9.62495398084 коноктор -9.59600506928
-9.62495398084 алдыга -9.62251249523
-9.62495398084 тургандай -9.47344667475
-9.62495398084 келсин -9.53075515987
-9.62495398084 аркы -9.48670114916
-9.62495398084 билимдүү -9.46390214332
-9.62495398084 шарт -9.47931558318
-9.62495398084 караңгы -9.38555338202
-9.62495398084 жүрө -9.4851828095
-9.62495398084 туштуштан -9.48624588928
-9.62495398084 кыл -9.48265073614
-9.62495398084 айласы -9.6242328851
-9.62495398084 абдыракманга -9.48691786676
-9.62495398084 керт -9.4858012689
-9.62495398084 келгенине -9.47809208755
-9.62495398084 күндүн -9.48667947482
-9.62495398084 белдүү -9.48672282303
-9.62495398084 жаап -9.62025827946
-9.62495398084 манаптын -9.48349909711
-9.62495398084 тапкан -9.48181254506
-9.62495398084 айлын -9.62097866546
-9.62495398084 кат -9.48723202387
-9.62495398084 оогон -9.48478114857
-9.62495398084 жаздап -9.48181254506
-9.62495398084 кээси -9.48433587632
-9.62495398084 чайдан -9.38360902364
-9.62495398084 үндү -9.48636514404
-9.62495398084 төшөктө -9.53881122377
-9.62495398084 ишенет -9.53361319226
-9.62495398084 дасторкон -9.48730784011
-9.62495398084 топтун -9.62359044835
-9.62495398084 алыңыз -9.53688574039
-9.62495398084 жолоочулар -9.48535645076
-9.62495398084 кимдер -9.47728288446
-9.62495398084 берүүгө -9.48597480281
-9.62495398084 жылаңбаш -9.4863976656
-9.62495398084 кече -9.61252895632
-9.62495398084 тетири -9.62348648597
-9.62495398084 чорду -9.61030956057
-9.62495398084 алыстан -9.47728288446
-9.62495398084 бүткөн -9.38827153966
-9.62495398084 коюшат -9.53988047868
-9.62495398084 кишиден -9.48180165484
-9.62495398084 башталган -9.38120335473
-9.62495398084 арсыкул -9.4805921025
-9.62495398084 маркум -9.47060938784
-9.62495398084 билгенин -9.48712370498
-9.62495398084 соконун -9.48648438459
-9.62495398084 антип -9.48470514051
-9.62495398084 чоочуп -9.53882151051
-9.62495398084 баамдуу -9.62061853733
-9.62495398084 айтайын -9.52248729375
-9.62495398084 алсыз -9.48484629374
-9.62495398084 түнкү -9.48667947482
-9.62495398084 жетет -9.3713156446
-9.62495398084 чыгарын -9.61657240982
-9.62495398084 муруттары -9.48721036103
-9.62495398084 түбүнөн -9.48007950849
-9.62495398084 күттү -9.53988047868
-9.62495398084 аялдар -9.47341372926
-9.62495398084 манастын -9.48741613906
-9.62495398084 алардан -9.62162278177
-9.62495398084 келинчеги -9.61749515166
-9.62495398084 таята -9.53179162273
-9.62495398084 ошолордун -9.62182161622
-9.62495398084 карабаш -9.48586634765
-9.62495398084 өтөт -9.53874950109
-9.62495398084 гөр -9.47550909663
-9.62495398084 ошого -9.61981251774
-9.62495398084 ишти -9.48430328764
-9.62495398084 сөзүнөн -9.46873544827
-9.62495398084 сөздөрүн -9.46665899429
-9.62495398084 кабыл -9.62378889199
-9.62495398084 жымжырт -9.53656618405
-9.62495398084 орусча -9.37238537144
-9.62495398084 ооруп -9.47777504544
-9.62495398084 баатырдын -9.48743779744
-9.62495398084 жайнаган -9.62380778933
-9.62495398084 угушту -9.38912019769
-9.62495398084 өзүнөн -9.6101754738
-9.62495398084 эшенкул -9.48606155848
-9.62495398084 кадыресе -9.48511768625
-9.62495398084 жоругу -9.47893340158
-9.62495398084 бийликтен -9.48698287288
-9.62495398084 эртеден -9.62360934944
-9.62495398084 ракмат -9.52963457207
-9.62495398084 көкөй -9.48738365061
-9.62495398084 каткырып -9.53822470443
-9.62495398084 ушунча -9.62438398673
-9.62495398084 башканын -9.62366605057
-9.62495398084 максаты -9.6061637211
-9.62495398084 атчандар -9.47287546586
-9.62495398084 келатат -9.53970577478
-9.62495398084 ден -9.48739448021
-9.62495398084 көңүлсүз -9.37926257793
-9.62495398084 кесе -9.48468342287
-9.62495398084 махаббат -9.59996093939
-9.62495398084 окуучулар -9.37080468947
-9.62495398084 күчү -9.47405048315
-9.62495398084 кубаныч -9.59264777765
-9.62495398084 көрсө -9.62315562464
-9.62495398084 угат -9.53777171729
-9.62495398084 кечки -9.48721036103
-9.62495398084 жанаша -9.38813999296
-9.62495398084 бөлүндү -9.5369991068
-9.62495398084 колхоз -9.38617669639
-9.62495398084 дөңгө -9.48385780252
-9.62495398084 болоюн -9.53768933394
-9.62495398084 берейин -9.38114313879
-9.62495398084 эсенбекке -9.62356209605
-9.62495398084 бардыр -9.5389346577
-9.62495398084 билсе -9.59890563251
-9.62495398084 кармашып -9.48597480281
-9.62495398084 кичүү -9.53073441965
-9.62495398084 жеткирип -9.48602902598
-9.62495398084 курман -9.38658403813
-9.62495398084 бригадир -9.37811562959
-9.62495398084 терек -9.53042326475
-9.62495398084 качты -9.53070330852
-9.62495398084 көбү -9.48356432585
-9.62495398084 тагдыр -9.59855684599
-9.62495398084 үйдөгү -9.4859422675
-9.62495398084 өңдүү -9.47645112886
-9.62495398084 ачуулуу -9.47741415107
-9.62495398084 аяк -9.62348648597
-9.62495398084 көрүү -9.48267249798
-9.62495398084 аттар -9.47130295694
-9.62495398084 ачуу -9.46723376412
-9.62495398084 жөнөгөндө -9.47598022367
-9.62495398084 калдыбы -9.47206202871
-9.62495398084 этек -9.62398729625
-9.62495398084 дүйнөнүн -9.48610493349
-9.62495398084 нан -9.48656025753
-9.62495398084 чепкенин -9.62482771576
-9.62495398084 төр -9.48680951383
-9.62495398084 казан -9.47080759953
-9.62495398084 келечеги -9.48610493349
-9.62495398084 манаптарды -9.48667947482
-9.62495398084 шарият -9.4558092597
-9.62495398084 айтканын -9.48042853721
-9.62495398084 ыйык -9.61840754314
-9.62495398084 эсимде -9.37788608198
-9.62495398084 атайдан -9.48358606781
-9.62495398084 күбүрөп -9.48621336278
-9.62495398084 жинди -9.62015397006
-9.62495398084 жээни -9.61505803007
-9.62495398084 жөнөштү -9.53988047868
-9.62495398084 чакыртып -9.47508160332
-9.62495398084 баратканда -9.47999223227
-9.62495398084 николай -9.59998029242
-9.62495398084 кетчүдөй -9.48042853721
-9.62495398084 жаныбекке -9.60380483205
-9.62495398084 болгондуктан -9.47199604534
-9.62495398084 токтогулдан -9.62200148
-9.62495398084 сурайт -9.38503765534
-9.62495398084 акынды -9.46970592598
-9.62495398084 мурду -9.48724285511
-9.62495398084 короонун -9.48613746351
-9.62495398084 аягына -9.62318398847
-9.62495398084 тайып -9.61884443589
-9.62495398084 тартат -9.53746274472
-9.62495398084 кыргыздар -9.47361138593
-9.62495398084 бийлиги -9.4869287014
-9.62495398084 чөгөлөп -9.6235526451
-9.62495398084 кудая -9.62492210079
-9.62495398084 аксакалдын -9.62199201429
-9.62495398084 каргаша -9.48200854876
-9.62495398084 жанагы -9.48468342287
-9.62495398084 эмнесин -9.48723202387
-9.62495398084 десең -9.60537483474
-9.62495398084 күрмөчөн -9.61968918686
-9.62495398084 кокус -9.60763400577
-9.62495398084 сагынган -9.62359044835
-9.62495398084 семиз -9.48411859838
-9.62495398084 кубанычы -9.59501365176
-9.62495398084 жүз -9.48683118535
-9.62495398084 колдорун -9.48697203882
-9.62495398084 жердин -9.48341211885
-9.62495398084 отурушуп -9.47536661917
-9.62495398084 дөбөгө -9.48622420506
-9.62495398084 селт -9.48689619711
-9.62495398084 кооз -9.48721036103
-9.62495398084 дили -9.61345543505
-9.62495398084 кийинчерээк -9.61883494025
-9.62495398084 чертчү -9.38026357298
-9.62495398084 шулыин -9.53026765098
-9.62495398084 дыйкан -9.3855653725
-9.62495398084 күчтүү -9.38432959725
-9.62495398084 көнбөдү -9.38883340794
-9.62495398084 көрүнбөй -9.48296623645
-9.62495398084 өзгөрүлүп -9.4852045163
-9.62495398084 коркот -9.53058922608
-9.62495398084 төрө -9.47895524446
-9.62495398084 атасынан -9.48058119898
-9.62495398084 тарапта -9.37720921392
-9.62495398084 калк -9.46902227836
-9.62495398084 ичин -9.46988227533
-9.62495398084 каранды -9.61930012057
-9.62495398084 карышкыр -9.48601818159
-9.62495398084 арбак -9.6241195439
-9.62495398084 колуктусу -9.60231924869
-9.62495398084 тоонун -9.48680951383
-9.62495398084 тууганы -9.4811916131
-9.62495398084 баласын -9.48660361092
-9.62495398084 адаты -9.35400540859
-9.62495398084 кайрат -9.4852696339
-9.62495398084 учуру -9.61843604197
-9.62495398084 суусун -9.48120250996
-9.62495398084 төбөсүнө -9.4850742684
-9.62495398084 капысынан -9.48581211565
-9.62495398084 калп -9.52921922068
-9.62495398084 даанышман -9.48437932625
-9.62495398084 ишенимдүү -9.53976743846
-9.62495398084 кучакташып -9.48450966469
-9.62495398084 болуштар -9.59175059299
-9.62495398084 алек -9.53920204563
-9.62495398084 эп -9.37327189093
-9.62495398084 чогуу -9.47833253522
-9.62495398084 күбө -9.47058736189
-9.62495398084 түрүнүп -9.4844988038
-9.62495398084 ээсинин -9.62411009822
-9.62495398084 үстү -9.6241195439
-9.62495398084 тагдырына -9.48688536211
-9.62495398084 берсең -9.48295535879
-9.62495398084 кыңк -9.48702620794
-9.62495398084 жоголгон -9.3785624922
-9.62495398084 тизгинин -9.48467256386
-9.62495398084 ажырап -9.48677700566
-9.62495398084 күчүн -9.48669031205
-9.62495398084 уккусу -9.62177427827
-9.62495398084 кайтарып -9.48452052546
-9.62495398084 тарткан -9.48610493349
-9.62495398084 секирип -9.48491143466
-9.62495398084 кетүүгө -9.48686369176
-9.62495398084 тынчы -9.6241478804
-9.62495398084 орустар -9.53082774725
-9.62495398084 билем -9.53928430446
-9.62495398084 өмүрүн -9.47751258973
-9.62495398084 белгиси -9.61646771522
-9.62495398084 түнкүсүн -9.46968388012
-9.62495398084 кесип -9.48702620794
-9.62495398084 кордук -9.48019950085
-9.62495398084 баштан -9.48702620794
-9.62495398084 кыжыры -9.48542155845
-9.62495398084 чыбыкты -9.61882544452
-9.62495398084 барбайт -9.38908435347
-9.62495398084 жантакпайды -9.48472685769
-9.62495398084 боюнда -9.48613746351
-9.62495398084 калам -9.61548686084
-9.62495398084 кеңколдун -9.47291941659
-9.62495398084 көрдүм -9.53237157303
-9.62495398084 айтчы -9.61602978263
-9.62495398084 короо -9.53595771392
-9.62495398084 айдыралы -9.38809215351
-9.62495398084 эси -9.4817907645
-9.62495398084 кыштын -9.48560600725
-9.62495398084 кайтып -9.48517195592
-9.62495398084 жанкороз -9.45649082778
-9.62495398084 азаптуу -9.62451618192
-9.62495398084 көргүсү -9.6218784188
-9.62495398084 уй -9.47062040063
-9.62495398084 баалуу -9.48737282089
-9.62495398084 уккандан -9.62125341286
-9.62495398084 козголду -9.5398496508
-9.62495398084 немени -9.48466170474
-9.62495398084 бетине -9.48685285641
-9.62495398084 көрүнүшү -9.60694237637
-9.62495398084 чачын -9.48442277428
-9.62495398084 жеринен -9.48637598468
-9.62495398084 ошолор -9.51538334413
-9.62495398084 бечара -9.61030956057
-9.62495398084 шерменде -9.53886265642
-9.62495398084 суусар -9.6247805199
-9.62495398084 таптакыр -9.48494400353
-9.62495398084 тийгенде -9.48595311272
-9.62495398084 кашын -9.62484659348
-9.62495398084 кабагы -9.48734033103
-9.62495398084 ойлоно -9.61871148874
-9.62495398084 кишилерди -9.48450966469
-9.62495398084 берчү -9.37706411114
-9.62495398084 калгансып -9.48664696242
-9.62495398084 башкаларга -9.47182006839
-9.62495398084 тигилген -9.38372915531
-9.62495398084 өкмөтү -9.46790759254
-9.62495398084 маматка -9.52899070385
-9.62495398084 көрбөй -9.47544334032
-9.62495398084 дүйнөдө -9.46610601927
-9.62495398084 түтүн -9.4787914112
-9.62495398084 жорго -9.38725459244
-9.62495398084 аяп -9.48072293547
-9.62495398084 мол -9.38169698867
-9.62495398084 көпчүлүктүн -9.48583380881
-9.62495398084 үчүнчү -9.48210653621
-9.62495398084 акылы -9.46533134017
-9.62495398084 жеңем -9.47836531906
-9.62495398084 ийкеди -9.52602564256
-9.62495398084 айлынан -9.48484629374
-9.62495398084 алышат -9.53923289348
-9.62495398084 жүрсө -9.47158905164
-9.77910466066 өлгөн -9.68974730523
-9.77910466066 кыткылыктап -9.77311776871
-9.77910466066 кымбат -9.54317696251
-9.77910466066 кыял -9.62279861407
-9.77910466066 заматта -9.77800488255
-9.77910466066 силерди -9.62296411579
-9.77910466066 акшыя -9.77787260116
-9.77910466066 дуу -9.64145907387
-9.77910466066 жал -9.77617027992
-9.77910466066 мүчөсү -9.7783260645
-9.77910466066 уурулар -9.76108277971
-9.77910466066 кылмак -9.69258123387
-9.77910466066 кечикпей -9.62994534985
-9.77910466066 көзек -9.64014774041
-9.77910466066 чыны -9.53974174641
-9.77910466066 ордун -9.64113411016
-9.77910466066 жоругун -9.63897583984
-9.77910466066 жүрөктү -9.64156737165
-9.77910466066 убакка -9.77850550361
-9.77910466066 жазгы -9.7770123454
-9.77910466066 көрүүгө -9.54315306451
-9.77910466066 улагада -9.77691776665
-9.77910466066 казак -9.64144824345
-9.77910466066 кайталап -9.54289014877
-9.77910466066 дүбүртү -9.63901926807
-9.77910466066 эске -9.64026702362
-9.77910466066 саламын -9.77797653801
-9.77910466066 ийип -9.77800488255
-9.77910466066 кургакчылык -9.63830246108
-9.77910466066 турушат -9.69068596735
-9.77910466066 шайыр -9.69095399477
-9.77910466066 жин -9.63624693955
-9.77910466066 кыялы -9.62842133537
-9.77910466066 токтоно -9.63913868596
-9.77910466066 манап -9.7609097976
-9.77910466066 сырттан -9.77745674572
-9.77910466066 артында -9.63815034504
-9.77910466066 кабат -9.64087406313
-9.77910466066 ойной -9.6360400659
-9.77910466066 көйнөк -9.63863920714
-9.77910466066 айымкандын -9.6392363809
-9.77910466066 забар -9.63572422884
-9.77910466066 күйүп -9.63880210808
-9.77910466066 карыган -9.63886726103
-9.77910466066 тилегин -9.64001759703
-9.77910466066 өзүбүздүн -9.63153267784
-9.77910466066 чымчык -9.68148840489
-9.77910466066 ынак -9.76883616637
-9.77910466066 барабыз -9.52838292077
-9.77910466066 артисттердин -9.77598095411
-9.77910466066 эх -9.77780645391
-9.77910466066 болору -9.63868264999
-9.77910466066 каптал -9.77800488255
-9.77910466066 желбегей -9.77907194214
-9.77910466066 досунун -9.76961773661
-9.77910466066 кимисинин -9.77749455791
-9.77910466066 атаэнесинин -9.64125327578
-9.77910466066 кыймылга -9.63867178945
-9.77910466066 ачуусун -9.64087406313
-9.77910466066 шилтеп -9.77790094865
-9.77910466066 мусулман -9.53192981793
-9.77910466066 кыдырып -9.63651907653
-9.77910466066 кырына -9.77553589731
-9.77910466066 чукул -9.77382010258
-9.77910466066 чакырат -9.69316762649
-9.77910466066 кудайдын -9.63871523088
-9.77910466066 жатышкан -9.69062410466
-9.77910466066 жыйнап -9.64000675099
-9.77910466066 калганы -9.68097841055
-9.77910466066 өлүм -9.7672043387
-9.77910466066 келгени -9.63995251899
-9.77910466066 минди -9.6773071124
-9.77910466066 чычкан -9.77628385821
-9.77910466066 акыр -9.64099325975
-9.77910466066 болом -9.69152073925
-9.77910466066 дейсиң -9.69244744703
-9.77910466066 ийкеп -9.63276795443
-9.77910466066 калчу -9.68379573845
-9.77910466066 жетим -9.63912783037
-9.77910466066 көргөздү -9.69402088202
-9.77910466066 апам -9.77705017439
-9.77910466066 акылга -9.64024533682
-9.77910466066 болсом -9.63297550603
-9.77910466066 имиш -9.68585950862
-9.77910466066 чөп -9.76687956413
-9.77910466066 кыздар -9.74532496594
-9.77910466066 молдону -9.76594285859
-9.77910466066 эптеп -9.77154997561
-9.77910466066 уруп -9.64142658225
-9.77910466066 аккыздын -9.63888897773
-9.77910466066 буулугуп -9.77186373093
-9.77910466066 берүүдөн -9.76377935018
-9.77910466066 өлгөнү -9.63858490093
-9.77910466066 алакан -9.64142658225
-9.77910466066 калбады -9.69394894882
-9.77910466066 найза -9.64114494398
-9.77910466066 ченде -9.63072290803
-9.77910466066 олуяатага -9.64065730561
-9.77910466066 тегин -9.77777810375
-9.77910466066 эркине -9.64073317609
-9.77910466066 көрпө -9.64144824345
-9.77910466066 жоо -9.62822381101
-9.77910466066 камбаркан -9.53387345314
-9.77910466066 күрмөсүн -9.64116661128
-9.77910466066 утурлай -9.64054890922
-9.77910466066 топту -9.6388238262
-9.77910466066 дайынсыз -9.69343498967
-9.77910466066 болосуң -9.69094368735
-9.77910466066 орустан -9.77620814078
-9.77910466066 жаштык -9.63106221574
-9.77910466066 буттары -9.64129660522
-9.77910466066 аткаруу -9.62364789912
-9.77910466066 жүрүшү -9.76163035909
-9.77910466066 жоробай -9.63526663274
-9.77910466066 угушуп -9.77594308465
-9.77910466066 илинип -9.77447453734
-9.77910466066 койдун -9.64140492059
-9.77910466066 кызматынан -9.64068982223
-9.77910466066 күүлөрдү -9.64103660045
-9.77910466066 чолок -9.64109077368
-9.77910466066 конуп -9.7770123454
-9.77910466066 элине -9.64024533682
-9.77910466066 аксакалдар -9.63412172554
-9.77910466066 ашкан -9.54259129696
-9.77910466066 билишкен -9.68748470889
-9.77910466066 билинбейт -9.69025284816
-9.77910466066 айтасың -9.76905544894
-9.77910466066 карашын -9.6397247125
-9.77910466066 илгерки -9.64123161036
-9.77910466066 аңгеме -9.63262592062
-9.77910466066 чогултуп -9.64116661128
-9.77910466066 капарына -9.76435418948
-9.77910466066 тоону -9.64060310888
-9.77910466066 жайнап -9.77738111706
-9.77910466066 саан -9.63575690627
-9.77910466066 султаке -9.6887664423
-9.77910466066 ачыгын -9.77871323499
-9.77910466066 атама -9.63497235321
-9.77910466066 аралаша -9.63829159642
-9.77910466066 уста -9.6386935104
-9.77910466066 малын -9.63843282785
-9.77910466066 күүлөрүнүн -9.64061394846
-9.77910466066 келбеген -9.63817207732
-9.77910466066 качырып -9.63888897773
-9.77910466066 турмушту -9.64116661128
-9.77910466066 түрүп -9.63976810821
-9.77910466066 көңүлгө -9.64142658225
-9.77910466066 көздөрүн -9.77861881699
-9.77910466066 тамыр -9.77541276152
-9.77910466066 жолду -9.63875867043
-9.77910466066 акча -9.62382428346
-9.77910466066 аркылуу -9.63320485506
-9.77910466066 үнсүз -9.6929001918
-9.77910466066 токо -9.77685155621
-9.77910466066 закон -9.63435081187
-9.77910466066 суроону -9.61972634713
-9.77910466066 күмөн -9.53707642283
-9.77910466066 булбул -9.62575145887
-9.77910466066 жалдырап -9.68563156241
-9.77910466066 кырка -9.640917409
-9.77910466066 бирибиринен -9.63321577513
-9.77910466066 шылдың -9.63622516539
-9.77910466066 кылышты -9.68750539505
-9.77910466066 агасынын -9.63681290132
-9.77910466066 кестикбайдын -9.63897583984
-9.77910466066 төгүлгөн -9.64061394846
-9.77910466066 кайыш -9.64151322423
-9.77910466066 өкүм -9.64118827811
-9.77910466066 окуянын -9.63281165308
-9.77910466066 ичке -9.54226843665
-9.77910466066 өзүңүз -9.64103660045
-9.77910466066 арт -9.77862825919
-9.77910466066 коюлду -9.69402088202
-9.77910466066 манаптардын -9.6410582701
-9.77910466066 болжоду -9.69402088202
-9.77910466066 көзи -9.53742499938
-9.77910466066 балдарынын -9.64002844296
-9.77910466066 чак -9.77867546886
-9.77910466066 намысына -9.77746619891
-9.77910466066 окууну -9.77569689817
-9.77910466066 кыя -9.63996336563
-9.77910466066 түшүрө -9.77838273296
-9.77910466066 демин -9.6395402597
-9.77910466066 түшүндүрдү -9.69393867222
-9.77910466066 жообун -9.77866602711
-9.77910466066 байлык -9.76968442773
-9.77910466066 шашып -9.77497692845
-9.77910466066 алабы -9.54162240316
-9.77910466066 болбоду -9.69313677229
-9.77910466066 кубат -9.64052722854
-9.77910466066 сөзим -9.77468310769
-9.77910466066 абышканы -9.64078736576
-9.77910466066 калчудай -9.54156256413
-9.77910466066 баласына -9.62624641855
-9.77910466066 кундуз -9.64141575148
-9.77910466066 баратам -9.69225188022
-9.77910466066 өзгөчөлүгү -9.62673014235
-9.77910466066 күндөрдө -9.77561166565
-9.77910466066 балачакасы -9.62810308247
-9.77910466066 сарала -9.64140492059
-9.77910466066 бурулуп -9.77774030228
-9.77910466066 теминип -9.77879820358
-9.77910466066 кызматка -9.64132910106
-9.77910466066 кызыган -9.6340780841
-9.77910466066 козу -9.63891069397
-9.77910466066 тарапты -9.77787260116
-9.77910466066 кайрыды -9.69248861412
-9.77910466066 кысып -9.54116753668
-9.77910466066 жигиттери -9.76855007335
-9.77910466066 советинин -9.64116661128
-9.77910466066 чыкканын -9.64014774041
-9.77910466066 болушкан -9.6893550755
-9.77910466066 жүгүрүп -9.63722628629
-9.77910466066 мааниси -9.63908440687
-9.77910466066 баскан -9.69072720701
-9.77910466066 тойматтын -9.6400718255
-9.77910466066 шашылып -9.77729602798
-9.77910466066 жем -9.77356390278
-9.77910466066 жүрөктөрү -9.63889983591
-9.77910466066 тамашалуу -9.77657720908
-9.77910466066 баштайт -9.54194547208
-9.77910466066 уюн -9.63995251899
-9.77910466066 болгонуна -9.64035376612
-9.77910466066 токтобой -9.63631225918
-9.77910466066 үрөн -9.63892155191
-9.77910466066 арага -9.64062478793
-9.77910466066 отурса -9.62074411388
-9.77910466066 экенине -9.63935577287
-9.77910466066 чертүүгө -9.625432355
-9.77910466066 үчөө -9.76404764964
-9.77910466066 ырдай -9.63978980536
-9.77910466066 чертмек -9.76601935724
-9.77910466066 башта -9.77301332561
-9.77910466066 жылкынын -9.64117744476
-9.77910466066 уккандар -9.62685103675
-9.77910466066 серке -9.62791647332
-9.77910466066 көрүнгөн -9.63569155035
-9.77910466066 мутаке -9.77679480091
-9.77910466066 оттун -9.77835439913
-9.77910466066 оорусу -9.6390626944
-9.77910466066 капа -9.77656774749
-9.77910466066 токолунун -9.77803322628
-9.77910466066 аралжы -9.77689884983
-9.77910466066 куудул -9.63200291871
-9.77910466066 келдиби -9.77296584786
-9.77910466066 айылдык -9.64148073437
-9.77910466066 кечтим -9.54320085995
-9.77910466066 жүрүшүн -9.64152405395
-9.77910466066 мындайда -9.63445988216
-9.77910466066 эсинде -9.51603452397
-9.77910466066 сурарым -9.77231042469
-9.77910466066 оюнда -9.63282257745
-9.77910466066 түбү -9.6257074506
-9.77910466066 пишпекке -9.63650819247
-9.77910466066 урунду -9.69402088202
-9.77910466066 шумдук -9.63863920714
-9.77910466066 эрке -9.63572422884
-9.77910466066 ий -9.63412172554
-9.77910466066 жаккы -9.63895412502
-9.77910466066 аралашып -9.64120994447
-9.77910466066 түшүнүп -9.77849606025
-9.77910466066 аткара -9.77281390393
-9.77910466066 токтолуп -9.63517944783
-9.77910466066 колуңду -9.63961621497
-9.77910466066 алгач -9.77129319346
-9.77910466066 сүрөп -9.69164434992
-9.77910466066 нерседен -9.63139046845
-9.77910466066 карайт -9.69402088202
-9.77910466066 кылууга -9.64027786685
-9.77910466066 табышмактуу -9.54279452591
-9.77910466066 тектүү -9.77808046405
-9.77910466066 жаңырып -9.77524224076
-9.77910466066 оорулуу -9.77617027992
-9.77910466066 кызына -9.77836384383
-9.77910466066 келгендер -9.54072444147
-9.77910466066 акмак -9.6817901158
-9.77910466066 катарында -9.69340414372
-9.77910466066 тиктешти -9.6801660459
-9.77910466066 тааныды -9.68779495637
-9.77910466066 көккашат -9.76708972442
-9.77910466066 олчойгон -9.77613241763
-9.77910466066 жүрчү -9.69308534651
-9.77910466066 алдыңкы -9.64107993927
-9.77910466066 кылчактап -9.77629332248
-9.77910466066 милиционер -9.76640176277
-9.77910466066 жолуна -9.63813947872
-9.77910466066 өздөрүнчө -9.64113411016
-9.77910466066 барар -9.54312916594
-9.77910466066 кызга -9.6408415525
-9.77910466066 карамолдонун -9.63916039677
-9.77910466066 жылаңаяк -9.64050554738
-9.77910466066 огонбайдын -9.64090657271
-9.77910466066 оңдонуп -9.7778537024
-9.77910466066 чайкады -9.6792278813
-9.77910466066 оттуу -9.77612295183
-9.77910466066 кырк -9.77886428527
-9.77910466066 турасыңбы -9.63455803524
-9.77910466066 алиги -9.77774975278
-9.77910466066 суроосу -9.63586582331
-9.77910466066 сүйөп -9.77738111706
-9.77910466066 угулган -9.69084060732
-9.77910466066 молдого -9.63838937415
-9.77910466066 жакындап -9.77546959531
-9.77910466066 токтотушуп -9.77150242833
-9.77910466066 кайдасың -9.63313933214
-9.77910466066 өздөрүн -9.64074401426
-9.77910466066 барбай -9.6291233284
-9.77910466066 атагы -9.63676937717
-9.77910466066 жардамы -9.62815796088
-9.77910466066 билесиңби -9.76460318393
-9.77910466066 чык -9.69128377609
-9.77910466066 жылып -9.77499588167
-9.77910466066 кечирип -9.77867546886
-9.77910466066 чекир -9.77784425288
-9.77910466066 кабарды -9.77682317896
-9.77910466066 өх -9.77691776665
-9.77910466066 жалдын -9.64124244313
-9.77910466066 сөзсүз -9.68779495637
-9.77910466066 тунук -9.77353543208
-9.77910466066 булак -9.66721487415
-9.77910466066 угулганда -9.62817991141
-9.77910466066 үйүрү -9.62288688506
-9.77910466066 кудуңдап -9.63895412502
-9.77910466066 коштоп -9.77686101511
-9.77910466066 колдо -9.77583893623
-9.77910466066 арманым -9.77228191828
-9.77910466066 көздөн -9.64031039581
-9.77910466066 сакалдуу -9.6380634112
-9.77910466066 тийгенин -9.77705017439
-9.77910466066 кечке -9.77827883833
-9.77910466066 аңгемени -9.77227241596
-9.77910466066 шакин -9.77045581593
-9.77910466066 учу -9.62842133537
-9.77910466066 өнөрпоз -9.63847627966
-9.77910466066 жаагы -9.64148073437
-9.77910466066 жаныбектин -9.77598095411
-9.77910466066 буруп -9.62939741064
-9.77910466066 жеңеке -9.76889337516
-9.77910466066 керегеге -9.64146990418
-9.77910466066 айтышууну -9.64142658225
-9.77910466066 кемпири -9.62276551044
-9.77910466066 колхозго -9.64079820334
-9.77910466066 билим -9.63571333613
-9.77910466066 белин -9.64151322423
-9.77910466066 кысты -9.54257934103
-9.77910466066 калдың -9.68346347804
-9.77910466066 маңдайынан -9.63522304124
-9.77910466066 калгандай -9.68669831756
-9.77910466066 сүйлөшөлү -9.69179884177
-9.77910466066 турам -9.69223129202
-9.77910466066 алганы -9.77014161849
-9.77910466066 тай -9.64102576545
-9.77910466066 кобурашып -9.77729602798
-9.96142621746 карамагындагы -9.82368370762
-9.96142621746 суусуну -9.8238136748
-9.96142621746 менде -9.81880858871
-9.96142621746 оомийин -9.94962067066
-9.96142621746 айлынын -9.96125108226
-9.96142621746 падышалык -9.82379201478
-9.96142621746 куран -9.82368370762
-9.96142621746 секин -9.82181898608
-9.96142621746 себебин -9.95948438915
-9.96142621746 эрдикатын -9.80878859632
-9.96142621746 ири -9.95809340383
-9.96142621746 нандан -9.96008938416
-9.96142621746 кийими -9.94309612787
-9.96142621746 демейде -9.8230444565
-9.96142621746 десте -9.72551214036
-9.96142621746 ийни -9.94240381349
-9.96142621746 бөрү -9.82367287626
-9.96142621746 караанын -9.81949406054
-9.96142621746 сабырлуу -9.72411317919
-9.96142621746 баарыбыз -9.82343455663
-9.96142621746 эрегишип -9.82240479647
-9.96142621746 окшоду -9.87633216243
-9.96142621746 ишенген -9.81184022385
-9.96142621746 көрүнүш -9.71832920933
-9.96142621746 каргашалуу -9.96102451541
-9.96142621746 байкай -9.95973966606
-9.96142621746 алейкум -9.82100479082
-9.96142621746 жыгылып -9.82243733143
-9.96142621746 бут -9.82218786967
-9.96142621746 сыйлай -9.95806499622
-9.96142621746 назар -9.96132659314
-9.96142621746 бүтөр -9.939755137
-9.96142621746 тизесин -9.82380284485
-9.96142621746 асманды -9.9601271842
-9.96142621746 ойлосо -9.80105206211
-9.96142621746 жүккө -9.82379201478
-9.96142621746 келгенче -9.94788112422
-9.96142621746 жатканына -9.8127823696
-9.96142621746 кайнатып -9.96087344231
-9.96142621746 батышты -9.96036340207
-9.96142621746 жайлоого -9.82375952386
-9.96142621746 тумар -9.7254165472
-9.96142621746 жайдары -9.82153680679
-9.96142621746 алаканын -9.96128883841
-9.96142621746 арка -9.96017443224
-9.96142621746 чертсе -9.94857921788
-9.96142621746 жиберген -9.86693718722
-9.96142621746 арманы -9.81757791315
-9.96142621746 тосту -9.87633216243
-9.96142621746 күрөш -9.94971616249
-9.96142621746 буту -9.80514299701
-9.96142621746 жыйынга -9.82365121318
-9.96142621746 карачы -9.72184917645
-9.96142621746 келме -9.82355372354
-9.96142621746 батасын -9.95983419652
-9.96142621746 сылады -9.87559203082
-9.96142621746 бирлери -9.81778494685
-9.96142621746 азабын -9.95864245909
-9.96142621746 китеп -9.81038143438
-9.96142621746 кестини -9.81932001696
-9.96142621746 жайлуу -9.72527314033
-9.96142621746 токто -9.86792211787
-9.96142621746 абдыракмандан -9.95858567425
-9.96142621746 тек -9.82355372354
-9.96142621746 аялдан -9.80766659508
-9.96142621746 үйрөнгөн -9.87065410553
-9.96142621746 таластыктар -9.82189494383
-9.96142621746 кетпей -9.94444092419
-9.96142621746 сүйлөшөт -9.85587063917
-9.96142621746 кашы -9.79582008297
-9.96142621746 таасири -9.94799591282
-9.96142621746 турчу -9.72080529118
-9.96142621746 шылк -9.9609300974
-9.96142621746 жолуңду -9.823716201
-9.96142621746 алуу -9.95601752451
-9.96142621746 малдарын -9.96067512424
-9.96142621746 каткырышты -9.87633216243
-9.96142621746 окуяларды -9.95685218577
-9.96142621746 баа -9.8234562244
-9.96142621746 алымбайга -9.96090177026
-9.96142621746 тиктешет -9.87633216243
-9.96142621746 сөйкө -9.72520142919
-9.96142621746 билбеймин -9.86978564606
-9.96142621746 жашыл -9.87609579104
-9.96142621746 тиктеген -9.87367748483
-9.96142621746 аштык -9.82370536999
-9.96142621746 эзелден -9.95922904706
-9.96142621746 астында -9.87253318431
-9.96142621746 ток -9.82082014769
-9.96142621746 жүгүрттү -9.87633216243
-9.96142621746 көрүнө -9.95930471077
-9.96142621746 үмүт -9.81062288484
-9.96142621746 тишин -9.82385699344
-9.96142621746 жээнин -9.96045787359
-9.96142621746 көйнөгүнүн -9.96113780525
-9.96142621746 чыкпайт -9.86977530272
-9.96142621746 өт -9.86960979461
-9.96142621746 дыңгыратып -9.8221661744
-9.96142621746 кеткенин -9.95958839872
-9.96142621746 мөзгил -9.81777405141
-9.96142621746 үстүндөгү -9.82113510661
-9.96142621746 кожоке -9.71652237177
-9.96142621746 шакирти -9.96038229709
-9.96142621746 торгой -9.80959082502
-9.96142621746 сураса -9.95446966154
-9.96142621746 аа -9.82112424761
-9.96142621746 ишин -9.82058114715
-9.96142621746 отко -9.8228710298
-9.96142621746 кайтарган -9.87088143462
-9.96142621746 сизден -9.82152595215
-9.96142621746 тирүүсүндө -9.81552705555
-9.96142621746 кага -9.95649184932
-9.96142621746 үйлөрдүн -9.82342372257
-9.96142621746 алышпай -9.82156937
-9.96142621746 төмөнтөн -9.81985292978
-9.96142621746 чуркаган -9.87584908305
-9.96142621746 жаңыртып -9.72367036504
-9.96142621746 ушунун -9.95773351445
-9.96142621746 айткандай -9.87535548439
-9.96142621746 турушкан -9.87394533002
-9.96142621746 кантет -9.81546153333
-9.96142621746 келатканда -9.95417501134
-9.96142621746 өкмөт -9.95761036466
-9.96142621746 оокатты -9.95945602103
-9.96142621746 машакты -9.95424155284
-9.96142621746 алдыларына -9.82368370762
-9.96142621746 бука -9.96087344231
-9.96142621746 кыйла -9.82344539057
-9.96142621746 муздак -9.96103395672
-9.96142621746 аркасына -9.82358622115
-9.96142621746 үрпөйтүп -9.96113780525
-9.96142621746 сыздап -9.95879386958
-9.96142621746 отурушу -9.93613196214
-9.96142621746 чогулушуп -9.95795135771
-9.96142621746 албасын -9.95126186108
-9.96142621746 билдирип -9.95877494452
-9.96142621746 келинге -9.82276262284
-9.96142621746 жыйын -9.82079842273
-9.96142621746 кыргыздардын -9.96046732025
-9.96142621746 катты -9.87567429472
-9.96142621746 чертмекчи -9.87173862032
-9.96142621746 эмнеден -9.82379201478
-9.96142621746 молдодон -9.81501368328
-9.96142621746 осмонкул -9.82168875938
-9.96142621746 кулактын -9.82388948119
-9.96142621746 келинди -9.81871062579
-9.96142621746 сөзмөр -9.82365121318
-9.96142621746 таяна -9.95992871806
-9.96142621746 районго -9.82161278597
-9.96142621746 жемеледи -9.72544044635
-9.96142621746 үйлөр -9.72552408886
-9.96142621746 баладан -9.81830778851
-9.96142621746 азаматтар -9.81759970819
-9.96142621746 бээге -9.82203599291
-9.96142621746 чүй -9.81824244825
-9.96142621746 келдик -9.71683579094
-9.96142621746 чамасы -9.82343455663
-9.96142621746 жоопту -9.96065623475
-9.96142621746 кантондук -9.96084511357
-9.96142621746 түшкөнүн -9.82342372257
-9.96142621746 кошумча -9.82375952386
-9.96142621746 кетсе -9.81422672919
-9.96142621746 асмандан -9.82372703189
-9.96142621746 өзөн -9.95705126337
-9.96142621746 элепжелеп -9.87326527518
-9.96142621746 үнүңдү -9.95413698563
-9.96142621746 жолборс -9.82162363967
-9.96142621746 белең -9.72325130624
-9.96142621746 койбой -9.71499002632
-9.96142621746 алышпайт -9.87443962504
-9.96142621746 салынып -9.96059011874
-9.96142621746 бөлүнгөн -9.87296631689
-9.96142621746 отурууга -9.96024057574
-9.96142621746 келишиптир -9.86926834759
-9.96142621746 акылын -9.82369453886
-9.96142621746 күйөөсүнөн -9.81999426716
-9.96142621746 советтин -9.82338038515
-9.96142621746 сөзгендей -9.81974419513
-9.96142621746 сурай -9.95924796353
-9.96142621746 орустардын -9.80908538605
-9.96142621746 акысын -9.72528509169
-9.96142621746 айдоо -9.81840579089
-9.96142621746 келмек -9.95849102568
-9.96142621746 туулуп -9.8210482313
-9.96142621746 күчөп -9.95714604831
-9.96142621746 машак -9.82391113911
-9.96142621746 кеткенде -9.81444538967
-9.96142621746 бетинен -9.96105283907
-9.96142621746 булардан -9.95837743557
-9.96142621746 акылына -9.8230227798
-9.96142621746 суукка -9.82370536999
-9.96142621746 таятасынын -9.96033505887
-9.96142621746 уйлар -9.82361871769
-9.96142621746 седепке -9.81465307286
-9.96142621746 чыкпады -9.87630133455
-9.96142621746 жолуң -9.82279514616
-9.96142621746 даана -9.82321785312
-9.96142621746 кайрыкты -9.82191664498
-9.96142621746 башкалардан -9.82318534354
-9.96142621746 жорук -9.71948387443
-9.96142621746 карашында -9.82382450464
-9.96142621746 журттун -9.82347789169
-9.96142621746 жигиттерин -9.82140654333
-9.96142621746 тынчтык -9.95619779444
-9.96142621746 карызынан -9.80911835725
-9.96142621746 кучактап -9.95986255392
-9.96142621746 аалы -9.96102451541
-9.96142621746 кайтты -9.86882325678
-9.96142621746 төш -9.82359705345
-9.96142621746 бээсин -9.82315283291
-9.96142621746 ырга -9.82348872517
-9.96142621746 чакты -9.95920067169
-9.96142621746 билишпейт -9.87488222362
-9.96142621746 табылды -9.87591076575
-9.96142621746 абышкалардын -9.8211459655
-9.96142621746 кабагын -9.82339121968
-9.96142621746 көрсөттү -9.87633216243
-9.96142621746 айылдаштары -9.78516072013
-9.96142621746 тетирисинче -9.95671944534
-9.96142621746 болгондон -9.95912500011
-9.96142621746 жылдар -9.94660800083
-9.96142621746 өкүндү -9.87633216243
-9.96142621746 баяндады -9.87633216243
-9.96142621746 саадак -9.82385699344
-9.96142621746 болжогон -9.86724832277
-9.96142621746 өзүңө -9.72363445259
-9.96142621746 камын -9.82367287626
-9.96142621746 айдалган -9.87500570455
-9.96142621746 тал -9.82384616396
-9.96142621746 чоңоюп -9.82171046501
-9.96142621746 бөөдө -9.82307697065
-9.96142621746 бешим -9.87615745853
-9.96142621746 келишин -9.82329370469
-9.96142621746 кебетесин -9.81769777999
-9.96142621746 жайы -9.72243663248
-9.96142621746 мурутунан -9.96120388506
-9.96142621746 айыбы -9.81910241989
-9.96142621746 белем -9.8740483283
-9.96142621746 балаага -9.82271925677
-9.96142621746 ыраазылыгын -9.82382450464
-9.96142621746 атың -9.94192275747
-9.96142621746 түгөнүп -9.95772404193
-9.96142621746 маани -9.96105283907
-9.96142621746 дебей -9.95733559122
-9.96142621746 гүл -9.82378118459
-9.96142621746 тапты -9.87296631689
-9.96142621746 кыймылы -9.80467946178
-9.96142621746 отургандарга -9.94987847767
-9.96142621746 эсенбекти -9.95926687963
-9.96142621746 айлана -9.82136311841
-9.96142621746 айланган -9.72450795617
-9.96142621746 көөрү -9.96120388506
-9.96142621746 кызың -9.82334788086
-9.96142621746 сурнайчы -9.69964638615
-9.96142621746 беришкен -9.71943578999
-9.96142621746 берсе -9.82122197438
-9.96142621746 чыгуучу -9.86610701886
-9.96142621746 коен -9.95894525714
-9.96142621746 көтөрүлө -9.95971130517
-9.96142621746 керегенин -9.82244817618
-9.96142621746 жаным -9.94690488877
-9.96142621746 акырына -9.96135490825
-9.96142621746 каптап -9.82078756007
-9.96142621746 чаар -9.96081678402
-9.96142621746 никелейден -9.87603411975
-9.96142621746 бөтөн -9.95864245909
-9.96142621746 айтканы -9.96052399835
-9.96142621746 келатты -9.87633216243
-9.96142621746 караңгыда -9.82309864617
-9.96142621746 малдан -9.82150424251
-9.96142621746 кулакка -9.8232828691
-9.96142621746 каттап -9.95898310045
-9.96142621746 тараптагы -9.82118939985
-9.96142621746 иттер -9.94810112412
-9.96142621746 мамилеси -9.95982474388
-9.96142621746 колуктусуна -9.82281682779
-9.96142621746 жаак -9.82172131765
-9.96142621746 эткизди -9.85909580662
-9.96142621746 куушуруп -9.87504686147
-9.96142621746 чапан -9.82335871574
-9.96142621746 тиктешип -9.82271925677
-9.96142621746 эсен -9.96086399949
-9.96142621746 бетиндеги -9.82338038515
-9.96142621746 астына -9.82245902082
-9.96142621746 кокуй -9.95476422494
-9.96142621746 айдоого -9.82340205409
-9.96142621746 суунун -9.82364038147
-9.96142621746 ичигин -9.96118500556
-9.96142621746 көрөсүң -9.87536577019
-9.96142621746 этпей -9.95828276729
-9.96142621746 кырынан -9.94759409506
-9.96142621746 кет -9.87543776776
-9.96142621746 кишилеринин -9.82256746069
-9.96142621746 кармады -9.87586964437
-9.96142621746 тагдырдын -9.82368370762
-9.96142621746 бүктөп -9.82383533436
-9.96142621746 ынтымактуу -9.86862652562
-9.96142621746 четин -9.96041063895
-9.96142621746 сурнай -9.82336955051
-9.96142621746 аялды -9.82318534354
-9.96142621746 кем -9.82344539057
-9.96142621746 курбу -9.95801764841
-9.96142621746 кучактай -9.9590493228
-9.96142621746 нерселер -9.82065719897
-9.96142621746 табат -9.72487866537
-9.96142621746 калба -9.82125454785
-9.96142621746 андасанда -9.82331537551
-9.96142621746 имерчиктеп -9.96034450669
-9.96142621746 өмүрдү -9.82374869332
-9.96142621746 күлкүсүн -9.82340205409
-9.96142621746 күндөрү -9.95600803572
-9.96142621746 жарык -9.815472454
-9.96142621746 уялбай -9.81565808709
-9.96142621746 укпаган -9.86691644141
-9.96142621746 жогол -9.72145334823
-9.96142621746 ыкласы -9.94992621242
-9.96142621746 жесир -9.95818809004
-9.96142621746 таар -9.81831867813
-9.96142621746 сүртүнүп -9.95925742163
-9.96142621746 кыңылдап -9.96129827722
-9.96142621746 угууга -9.82377035429
-9.96142621746 комузчулары -9.94001549968
-9.96142621746 мукамдуу -9.95971130517
-9.96142621746 коюңуз -9.87630133455
-9.96142621746 тынарбек -9.80640008206
-9.96142621746 туруучу -9.86218554719
-9.96142621746 баламдын -9.8234670581
-9.96142621746 жулуп -9.82093962655
-9.96142621746 жаныма -9.96059011874
-9.96142621746 турушуп -9.8754480527
-9.96142621746 кумардан -9.95280517417
-9.96142621746 жупуну -9.95368056435
