
\data\
ngram 1=8346
ngram 2=56946

\1-grams:
-2.05165241136 <UNK> -0.773019432122
-2.50567458062 <s> -1.88918068098
-2.50567458062 </s> -2.50567458062
-4.37119522123 да -3.82899510404
-4.47498034583 менен -3.96988702832
-4.90137547707 бир -4.54452966491
-4.98057251873 эле -4.562440764
-5.12198417278 деп -4.71168850741
-5.16729936899 атай -4.68205205861
-5.29799656038 ал -4.86772766824
-5.34631513765 жок -4.9597041903
-5.35227344723 жана -5.09375137477
-5.46831497231 анын -5.2380545435
-5.50013583892 үчүн -5.08264536828
-5.57691213962 гана -5.20474566077
-5.66824023352 аны -5.39768118274
-5.75079063657 эмне -5.41713976818
-5.79013005113 бирок -5.39853249611
-5.93608396376 болуп -5.58857719336
-5.94685606074 бул -5.72673045795
-5.95410246926 турган -5.60604836384
-5.95774546054 экен -5.64581314684
-6.00252906316 эмес -5.69443411372
-6.05342067046 кийин -5.69009531932
-6.06961535638 өз -5.91554928723
-6.11128805278 деген -5.78628219539
-6.14592354944 калды -5.86841644752
-6.15922751507 алып -5.84325750361
-6.16370179546 өзү -5.8219644759
-6.18637850414 чоң -5.90716692293
-6.19097621338 бар -5.85106562376
-6.19559515924 эки -5.9137210372
-6.2048975519 султаналы -5.8414293653
-6.24786358779 башка -5.95083128084
-6.26756865887 мен -5.91189298884
-6.29275890769 эч -6.03815641896
-6.30301540786 болсо -5.95020543089
-6.3133781949 эл -5.97485639126
-6.32384949476 же -6.11330494387
-6.35593780932 киши -5.97165591698
-6.37791671603 ким -6.00560124065
-6.40038957189 жакшы -6.1103504406
-6.41758197243 ушул -6.12451292415
-6.42337909011 деди -6.12419805979
-6.440974852 келип -6.21817885792
-6.46492809302 баштады -6.21425445898
-6.52744845001 ага -6.32713161378
-6.56023827283 бери -6.22415850934
-6.56692726098 кара -6.30058020708
-6.56692726098 эми -6.3444922611
-6.57366129316 калган -6.27559663365
-6.60106026735 албай -6.29407822871
-6.60106026735 керек -6.47526433468
-6.62923114432 отурган -6.31703012071
-6.65821868119 көз -6.40299859079
-6.6805244387 келген -6.38168129099
-6.69567624372 токтогул -6.33642835757
-6.69567624372 берди -6.42100622983
-6.69567624372 бала -6.33038735554
-6.70333911647 атайдын -6.52573457922
-6.70333911647 сөз -6.39587893949
-6.718843303 мамат -6.37396914024
-6.74255982962 болду -6.45657191074
-6.74255982962 тыныбек -6.41107853116
-6.75059200132 алар -6.54320066732
-6.79175007381 жаңы -6.60279615715
-6.80018894246 жигит -6.47316654981
-6.80869963213 жаш -6.54020827435
-6.81728337582 күү -6.48655155255
-6.83467511853 башын -6.67077040002
-6.84348574821 кандай -6.65084539863
-6.84348574821 ак -6.59914023703
-6.85237469563 баары -6.6310925784
-6.86134336561 жолу -6.64415648666
-6.87039320113 азыр -6.65497885906
-6.87039320113 го -6.60129827877
-6.87039320113 сен -6.65360683523
-6.8795256847 дагы -6.58654546705
-6.8795256847 жалгыз -6.60223861677
-6.90743447281 ушу -6.60380571763
-6.90743447281 көп -6.62999187066
-6.91691321677 алды -6.6342350545
-6.94590075364 ар -6.78884945127
-6.95575305008 келди -6.68442412392
-6.95575305008 кишилер -6.61490093607
-6.95575305008 чыгып -6.76672809016
-7.00652537546 барып -6.83298547635
-7.00652537546 үйүнө -6.81236899826
-7.01699667532 болуш -6.68453521972
-7.02757878465 субан -6.70044052936
-7.02757878465 экенин -6.82033216904
-7.03827407377 ошол -6.7644932927
-7.03827407377 болгон -6.7514789009
-7.04908498988 отуруп -6.77859241462
-7.04908498988 дегенсип -6.86478328573
-7.06001406041 жөнүндө -6.85877309179
-7.09353675245 жүргөн -6.79946634854
-7.09353675245 чыкты -6.82865702297
-7.10496544827 кызылбаш -6.79865519382
-7.10496544827 койду -6.82897184193
-7.10496544827 жаткан -6.81546252598
-7.10496544827 жер -6.79251613889
-7.11652627067 нерсе -6.81755630863
-7.11652627067 кыз -6.78635349784
-7.11652627067 көзү -6.94637196473
-7.12822231043 туруп -6.83886282414
-7.12822231043 жооп -6.9616121463
-7.15203295913 көрүп -6.96521659613
-7.15203295913 үйгө -6.98756446094
-7.15203295913 бай -6.81814322585
-7.18884693225 турду -7.08355987067
-7.18884693225 кетти -6.92869888526
-7.18884693225 седеп -6.86258609741
-7.20142571446 ушундай -6.93503675695
-7.21416474023 элдин -7.06534168369
-7.21416474023 боз -7.06905027403
-7.21416474023 мындай -7.04243780355
-7.21416474023 калышты -7.12694063534
-7.22706814507 келин -6.91621862405
-7.22706814507 болот -7.10577832318
-7.24014022664 үй -6.95662470852
-7.24014022664 карап -6.97290646648
-7.24014022664 бири -6.92522545466
-7.25338545339 абышка -6.93330992666
-7.26680847372 жүрүп -7.08354751316
-7.26680847372 түштү -7.01142619646
-7.26680847372 андан -7.09694497212
-7.28041412578 баш -7.13430871953
-7.28041412578 тыныбектин -7.12131659487
-7.28041412578 чыккан -7.00579399082
-7.29420744791 мени -7.10730073096
-7.29420744791 айтып -7.13934254629
-7.29420744791 тоймат -7.01661461756
-7.30819368988 мындан -7.14295583273
-7.32237832488 чейин -7.15524563222
-7.32237832488 аялы -7.00723361601
-7.33676706233 комуз -7.03494397268
-7.33676706233 коюп -7.15623002588
-7.33676706233 алардын -7.17163117892
-7.33676706233 эшикке -7.1896035347
-7.35136586175 күн -7.10568859438
-7.35136586175 үйдүн -7.19626134244
-7.36618094753 мага -7.20046737645
-7.36618094753 сөзүн -7.20450504454
-7.3812188249 басып -7.11622363366
-7.3812188249 кайсы -7.20936848728
-7.3812188249 комузчу -7.04852498094
-7.3812188249 элге -7.2159072709
-7.3812188249 болбосо -7.08355771127
-7.3812188249 менин -7.2177772001
-7.39648629703 качып -7.23134269953
-7.39648629703 көздөй -7.25261306282
-7.39648629703 ордунан -7.25545510294
-7.39648629703 жанына -7.2425632777
-7.39648629703 ой -7.21863066394
-7.39648629703 эсенбек -7.09882761807
-7.41199048356 комузун -7.26337412263
-7.41199048356 аз -7.13437771519
-7.41199048356 ат -7.11248855091
-7.42773884053 чырым -7.08902986433
-7.42773884053 бетер -7.27642430359
-7.42773884053 бу -7.25987541019
-7.42773884053 түшүп -7.25965200392
-7.42773884053 кайра -7.2561828091
-7.42773884053 анан -7.26103631896
-7.44373918188 баланын -7.28385287421
-7.45999970275 үч -7.30311239736
-7.45999970275 ала -7.30449230938
-7.45999970275 кудай -7.30296877714
-7.45999970275 балам -7.16040321766
-7.4765290047 жакка -7.21769326483
-7.4765290047 ачык -7.21577092903
-7.4765290047 таң -7.31885783384
-7.49333612302 аккыз -7.28109351605
-7.49333612302 жол -7.31831393636
-7.49333612302 кирип -7.33910905743
-7.49333612302 кээде -7.33113383666
-7.49333612302 кантип -7.33570994587
-7.49333612302 жерге -7.33650557877
-7.49333612302 көргөн -7.21554728751
-7.51043055638 эски -7.36783659454
-7.52782229909 тура -7.27847600042
-7.52782229909 молдо -7.216844444
-7.54552187619 көк -7.40155610222
-7.54552187619 балким -7.37454386119
-7.54552187619 каякка -7.37904854954
-7.54552187619 алдына -7.36799103032
-7.54552187619 атайды -7.37103112814
-7.54552187619 жерден -7.27030427195
-7.56354038169 окшоп -7.40184099238
-7.56354038169 абдыракман -7.27144742096
-7.56354038169 султаналынын -7.28909552765
-7.56354038169 кол -7.41136329576
-7.56354038169 колуна -7.41331837354
-7.58188952036 элек -7.32641131378
-7.58188952036 балдар -7.37673864135
-7.58188952036 келгенде -7.38462501738
-7.58188952036 түгүл -7.42182123039
-7.58188952036 мурда -7.39089649935
-7.58188952036 колун -7.42149982062
-7.58188952036 көзүн -7.43797951197
-7.58188952036 сени -7.28288339816
-7.58188952036 мына -7.41807983705
-7.58188952036 кылып -7.41376600214
-7.60058165337 болуштун -7.45050366146
-7.60058165337 дешип -7.43319602657
-7.60058165337 бет -7.35712580917
-7.60058165337 тең -7.33008410185
-7.60058165337 жүрөгү -7.44803212406
-7.61962984834 карады -7.52017474313
-7.61962984834 дейт -7.33898517579
-7.61962984834 биринчи -7.47099966086
-7.61962984834 ырчы -7.30424828846
-7.61962984834 күнү -7.43770687421
-7.6390479342 өзүнүн -7.47330358805
-7.6390479342 жаман -7.378160555
-7.6390479342 кыргыз -7.44003742948
-7.6390479342 кызыл -7.49402703257
-7.6390479342 көңүлү -7.45955809132
-7.6390479342 албады -7.54130191607
-7.6588505615 отурду -7.54007275146
-7.6588505615 ары -7.48884101258
-7.6588505615 алган -7.39585485672
-7.6588505615 кудайберген -7.35642335974
-7.67905326881 кош -7.52551632226
-7.67905326881 калып -7.42083810753
-7.67905326881 атын -7.40871257313
-7.67905326881 бүгүн -7.48006828488
-7.67905326881 чай -7.50786883812
-7.67905326881 ичинде -7.38775813953
-7.69967255602 улам -7.5271660453
-7.69967255602 уулу -7.40412558615
-7.69967255602 үстүнө -7.54690663446
-7.69967255602 салып -7.43263194088
-7.72072596521 тартып -7.56649670621
-7.72072596521 бий -7.39514617568
-7.72072596521 жерде -7.46202564338
-7.72072596521 кой -7.42327637413
-7.72072596521 атасы -7.51148410968
-7.74223217044 ошону -7.58494758153
-7.74223217044 талас -7.47529430289
-7.74223217044 байдын -7.58394156191
-7.76421107715 көрө -7.60426078071
-7.76421107715 аларды -7.59225695857
-7.76421107715 отура -7.61756635694
-7.76421107715 үйдө -7.50364188907
-7.76421107715 комузду -7.59174103792
-7.76421107715 кайдан -7.58852737147
-7.76421107715 деле -7.60310790227
-7.76421107715 биздин -7.59643060134
-7.76421107715 бер -7.49226909909
-7.78668393301 райымбек -7.50439315454
-7.78668393301 билбей -7.6079917142
-7.78668393301 тиктеп -7.52819732193
-7.78668393301 беле -7.49385806318
-7.78668393301 биз -7.60635354565
-7.78668393301 топ -7.53778540308
-7.78668393301 ошондо -7.50700655439
-7.80967345123 өзүнчө -7.55085862973
-7.80967345123 маматтын -7.66331423457
-7.80967345123 мал -7.53616072625
-7.80967345123 жаныбек -7.52188584071
-7.80967345123 көтөрүп -7.64096755334
-7.80967345123 сөзгө -7.65235802082
-7.80967345123 ошо -7.52564304696
-7.80967345123 жактан -7.63503780718
-7.80967345123 бойдон -7.65654807888
-7.83320394864 чыга -7.81937899718
-7.83320394864 үчүндүр -7.67673973567
-7.83320394864 өтүп -7.68687816753
-7.83320394864 атайга -7.55629941174
-7.83320394864 угуп -7.66597309893
-7.83320394864 сөздү -7.65309041884
-7.83320394864 эң -7.68059631977
-7.83320394864 мураталы -7.65468305465
-7.85730150022 кеткен -7.57516767313
-7.85730150022 ыр -7.68058577135
-7.85730150022 караганда -7.69341377895
-7.85730150022 болсун -7.59459394401
-7.85730150022 кеп -7.59483946328
-7.85730150022 салам -7.7101891984
-7.85730150022 баарын -7.69682248833
-7.85730150022 айыл -7.61064612222
-7.85730150022 ээ -7.59760965002
-7.85730150022 берип -7.68479033961
-7.88199411281 жантакпай -7.61130103502
-7.88199411281 билген -7.59171768247
-7.88199411281 эгерде -7.71847419591
-7.88199411281 кармап -7.71981857334
-7.88199411281 өзүн -7.70786712985
-7.88199411281 жанында -7.72174864759
-7.88199411281 катуу -7.6403660059
-7.88199411281 көзде -7.71015677023
-7.88199411281 бирөө -7.5864156511
-7.88199411281 колунан -7.72603912336
-7.88199411281 элди -7.71647094553
-7.88199411281 келе -7.73155205306
-7.90731192079 туура -7.63138474
-7.90731192079 чертип -7.75146802064
-7.90731192079 үн -7.74562561572
-7.90731192079 ай -7.74246893517
-7.90731192079 өзүнө -7.7301023551
-7.90731192079 мамыр -7.71072095509
-7.9332874072 күүнү -7.75230720352
-7.9332874072 иш -7.63547829965
-7.9332874072 кишинин -7.78055067361
-7.9332874072 атасынын -7.76972469415
-7.9332874072 үнү -7.75231851708
-7.9332874072 боло -7.78456806574
-7.9332874072 жакын -7.7655801185
-7.9332874072 алымбай -7.65069702711
-7.9332874072 тиги -7.780132641
-7.95995565428 кулак -7.71033103853
-7.95995565428 сага -7.81120412389
-7.95995565428 ичинен -7.78550563778
-7.95995565428 келет -7.84734012753
-7.95995565428 башы -7.6882164078
-7.95995565428 акырында -7.70539923548
-7.95995565428 кетип -7.80499548331
-7.95995565428 ооба -7.70099353879
-7.95995565428 качан -7.81197065919
-7.95995565428 өткөн -7.69200007579
-7.95995565428 башына -7.79915837467
-7.95995565428 комуздун -7.80054334738
-7.98735462847 жагынан -7.81018184816
-7.98735462847 орус -7.80855759225
-7.98735462847 жатып -7.72885913129
-7.98735462847 аксакал -7.81773820566
-7.98735462847 түшкөн -7.7238096059
-7.98735462847 мурун -7.80538041998
-7.98735462847 сайын -7.8273118113
-7.98735462847 кишилердин -7.83345283061
-7.98735462847 калат -7.86697515964
-7.98735462847 мейман -7.71774599354
-7.98735462847 күлүп -7.84021280148
-7.98735462847 ачып -7.72720736077
-8.01552550544 сөзү -7.83639076318
-8.01552550544 кошо -7.87128931453
-8.01552550544 ойго -7.84437640904
-8.01552550544 иреңи -7.85021827136
-8.01552550544 тоо -7.74531304574
-8.01552550544 баягы -7.84537294364
-8.01552550544 жигиттин -7.86007067699
-8.01552550544 ыраазы -7.7671034389
-8.01552550544 мүмкүн -7.74841290434
-8.04451304231 жагына -7.89150419388
-8.04451304231 экендигин -7.88050887277
-8.04451304231 өздөрү -7.86103364499
-8.04451304231 уккан -7.76730208514
-8.04451304231 уулжан -7.76175629957
-8.04451304231 ичи -7.90497737797
-8.07436600546 бекен -7.90942794374
-8.07436600546 аларга -7.90260243619
-8.07436600546 баланы -7.91343890425
-8.07436600546 алдында -7.91390451038
-8.07436600546 сенин -7.92815533065
-8.07436600546 байбиче -7.89104643637
-8.07436600546 десе -7.89028639844
-8.07436600546 сүйлөдү -7.98684409755
-8.07436600546 ээси -7.78452231117
-8.07436600546 ошондой -7.81897663064
-8.10513766412 суроо -7.83133809116
-8.10513766412 байкап -7.94924387266
-8.10513766412 ого -8.10487183676
-8.10513766412 арасында -7.92977040566
-8.10513766412 таштап -7.95268015077
-8.10513766412 албайт -7.84266902777
-8.10513766412 баратты -8.01833676856
-8.10513766412 кирди -7.86187537502
-8.10513766412 көңүл -7.96608059483
-8.13688636244 өзүм -7.97530646188
-8.13688636244 түшүнө -7.9795359684
-8.13688636244 иши -7.86624926699
-8.13688636244 баласы -7.84651741612
-8.13688636244 токтогулдун -7.98365964011
-8.13688636244 кимдин -7.98702095089
-8.13688636244 турганда -7.97229506409
-8.13688636244 колу -7.96976560345
-8.13688636244 калың -7.99284893837
-8.13688636244 чал -7.85758722305
-8.13688636244 эмеспи -7.88044000179
-8.13688636244 ушуну -7.9692187559
-8.16967618526 артына -8.02819816999
-8.16967618526 аттын -8.02987144686
-8.16967618526 кайда -8.01643918391
-8.16967618526 оозунан -8.00366023563
-8.16967618526 койгон -7.89719578863
-8.16967618526 таластын -8.03011025801
-8.16967618526 айтты -8.06423175496
-8.16967618526 оозун -8.02498502712
-8.16967618526 акыркы -8.02870914232
-8.16967618526 кыздын -8.025377693
-8.16967618526 көңүлүн -8.02936106824
-8.16967618526 айтор -8.00330354261
-8.16967618526 экөө -7.90620463621
-8.16967618526 седептин -8.02837214733
-8.16967618526 турат -8.06780234591
-8.16967618526 сыяктуу -7.9308262303
-8.16967618526 неме -7.88152830173
-8.20357773694 суу -8.04597473691
-8.20357773694 болбойт -7.94796442488
-8.20357773694 күүсүн -8.03870988278
-8.20357773694 убакта -8.03810858663
-8.20357773694 дем -8.05250671217
-8.20357773694 дабышы -8.04083379313
-8.20357773694 жай -8.03955553938
-8.20357773694 бектен -7.93145889154
-8.20357773694 субандын -8.05647331903
-8.20357773694 атка -8.0637084364
-8.20357773694 эгер -8.03371037455
-8.20357773694 айткан -7.93220213733
-8.20357773694 турмуш -8.02152024909
-8.20357773694 а -8.04117808647
-8.20357773694 муну -8.02308184767
-8.20357773694 сонун -7.95740292075
-8.20357773694 канча -7.9608623602
-8.20357773694 көзүнө -8.04248753913
-8.20357773694 кызылбаштын -8.04906429226
-8.20357773694 жери -7.93290770952
-8.20357773694 бүт -8.0544043188
-8.20357773694 бараткан -7.94739136945
-8.20357773694 андай -8.04485794343
-8.23866905675 ооз -8.09224307658
-8.23866905675 бизге -8.07519254366
-8.23866905675 кылды -8.00052946379
-8.23866905675 убакыт -8.07254338805
-8.23866905675 эртең -8.0777349132
-8.23866905675 экинчи -8.08732421673
-8.23866905675 күйөөсү -7.95307873062
-8.23866905675 көзгө -8.09992880662
-8.23866905675 кызы -7.97788835856
-8.23866905675 берет -8.14764839981
-8.23866905675 болбой -7.98132531345
-8.23866905675 отурат -7.9997625834
-8.23866905675 минип -7.99340121584
-8.23866905675 кайрадан -8.09824648309
-8.23866905675 белгилүү -7.98506682478
-8.23866905675 ойлоп -8.08471805835
-8.23866905675 күүгө -8.08002748881
-8.23866905675 аралап -8.0680863508
-8.23866905675 абдыраман -7.94795371074
-8.27503670092 чыгарып -8.12905932304
-8.27503670092 эмнеге -8.13537481257
-8.27503670092 түшүндү -8.03833510743
-8.27503670092 булар -8.11995169202
-8.27503670092 айта -8.26939860522
-8.27503670092 баштаганда -8.11180554847
-8.27503670092 көргөндө -8.11466868589
-8.27503670092 жогору -8.13306013508
-8.27503670092 бурулча -7.9935222877
-8.27503670092 берген -7.99141860548
-8.27503670092 этти -8.03185544762
-8.27503670092 өтө -8.12727724935
-8.27503670092 тамаша -8.01610632632
-8.27503670092 жатат -8.18163527417
-8.3127770289 келсе -8.13197889626
-8.3127770289 үйдөн -8.17218180668
-8.3127770289 узун -8.17108389098
-8.3127770289 оң -8.15739509789
-8.3127770289 көрдү -8.21177100877
-8.3127770289 боюнча -8.03611889107
-8.3127770289 калганын -8.14545982299
-8.3127770289 жөн -8.06245753864
-8.3127770289 башынан -8.15695394736
-8.3127770289 болгону -8.14489056619
-8.3127770289 кете -8.16605724797
-8.3127770289 жагында -8.04878511686
-8.3127770289 элден -8.14998003243
-8.3127770289 салды -8.0588622475
-8.3127770289 болор -8.05034490175
-8.3127770289 ырас -8.05720601311
-8.3127770289 сары -8.1723013089
-8.3127770289 кулагына -8.14821223587
-8.3127770289 өзүң -8.14454438893
-8.35199774206 чыкканда -8.19164241406
-8.35199774206 аттан -8.21198960968
-8.35199774206 нерсени -8.2115443326
-8.35199774206 учурда -8.08405456265
-8.35199774206 артынан -8.20837824083
-8.35199774206 ата -8.17473443303
-8.35199774206 баштаган -8.10113435535
-8.35199774206 ойлойт -8.24769702472
-8.35199774206 акын -8.06008943039
-8.35199774206 кошуп -8.20610903343
-8.35199774206 өттү -8.26651390538
-8.35199774206 күтүп -8.19984203071
-8.35199774206 кимиси -8.1746555389
-8.35199774206 барбы -8.08756526155
-8.35199774206 айылдын -8.2125540663
-8.35199774206 кандайдыр -8.20340764445
-8.39281973658 кана -8.24040092874
-8.39281973658 туш -8.24640728195
-8.39281973658 тууган -8.11077401241
-8.39281973658 отурганда -8.22686469886
-8.39281973658 укканда -8.23464580271
-8.39281973658 макул -8.14093869815
-8.39281973658 ойлоду -8.290852868
-8.39281973658 кишиге -8.2212438501
-8.39281973658 чын -8.14468390739
-8.39281973658 алышып -8.24582794882
-8.39281973658 кимге -8.25201924413
-8.39281973658 эсине -8.24154359765
-8.39281973658 сууруп -8.24859042676
-8.39281973658 кичинекей -8.24769591377
-8.39281973658 жыл -8.14307361084
-8.39281973658 келгенин -8.22937991949
-8.39281973658 абдыракмандын -8.24791416146
-8.39281973658 үйү -8.12838927425
-8.39281973658 кыйын -8.13683806271
-8.39281973658 жайын -8.25154100404
-8.39281973658 он -8.25171493599
-8.39281973658 кабар -8.24104933385
-8.39281973658 башында -8.12418735441
-8.39281973658 болгонун -8.23020211435
-8.39281973658 дал -8.14607418174
-8.39281973658 билет -8.14933072786
-8.39281973658 аял -8.2129280512
-8.39281973658 болушту -8.14498630541
-8.39281973658 окуу -8.22812309996
-8.435379351 кое -8.29281754252
-8.435379351 заман -8.28460890418
-8.435379351 башкалар -8.16110238448
-8.435379351 келаткан -8.1804354509
-8.435379351 кылган -8.18333016096
-8.435379351 акшайым -8.16145002919
-8.435379351 бирде -8.29517691887
-8.435379351 күлдү -8.18106862434
-8.435379351 куу -8.28942639658
-8.435379351 оор -8.18591371861
-8.435379351 далай -8.29289373838
-8.435379351 угулду -8.35038891679
-8.435379351 кийип -8.28657154879
-8.435379351 анатолий -8.27378379171
-8.435379351 темир -8.29556779835
-8.435379351 катары -8.28651677858
-8.435379351 дегенде -8.258636306
-8.435379351 чор -8.28500393557
-8.435379351 бийик -8.1878983985
-8.435379351 күүсү -8.26920228982
-8.435379351 шаршен -8.1844590142
-8.435379351 ушинтип -8.28440035246
-8.435379351 бардыгы -8.26909082698
-8.435379351 кереги -8.28524526684
-8.435379351 жүргөндө -8.1761265463
-8.435379351 силер -8.25826452319
-8.435379351 акыры -8.27863150795
-8.435379351 араң -8.28543171022
-8.47983111357 сыртынан -8.33088157963
-8.47983111357 оюн -8.32643485876
-8.47983111357 көрүндү -8.38523763005
-8.47983111357 келбей -8.32609367639
-8.47983111357 күйөөсүнүн -8.33594100854
-8.47983111357 үстүндө -8.21360783025
-8.47983111357 билчү -8.38212009661
-8.47983111357 болуу -8.47435994062
-8.47983111357 мунун -8.31974409815
-8.47983111357 келгенден -8.47628474127
-8.47983111357 элем -8.22774735494
-8.47983111357 сиз -8.31859133471
-8.47983111357 оторбай -8.46620254234
-8.47983111357 нечен -8.34031319452
-8.47983111357 анда -8.31779248856
-8.47983111357 алымкул -8.21039993114
-8.47983111357 чакырып -8.3360282039
-8.47983111357 аялынын -8.33521044875
-8.47983111357 балага -8.3201096013
-8.47983111357 кошулуп -8.33240319174
-8.47983111357 чыгат -8.23333074769
-8.47983111357 кала -8.33649674875
-8.47983111357 эр -8.33200932727
-8.47983111357 акырын -8.23369301403
-8.47983111357 күч -8.32577440037
-8.47983111357 айылга -8.23799394048
-8.47983111357 али -8.32028676687
-8.47983111357 бирге -8.33278596686
-8.47983111357 соңунан -8.33208592418
-8.47983111357 айылдагы -8.33158246563
-8.5263511292 ээрчитип -8.38217821158
-8.5263511292 жалаң -8.35632322328
-8.5263511292 төмөн -8.43804622641
-8.5263511292 биле -8.38277768951
-8.5263511292 отурушкан -8.27249446342
-8.5263511292 таш -8.37431915187
-8.5263511292 тууганбай -8.24661214461
-8.5263511292 алдынча -8.38590005721
-8.5263511292 бутун -8.38223272443
-8.5263511292 кулагы -8.3749892496
-8.5263511292 дегенсишип -8.37719410447
-8.5263511292 турсун -8.42356917383
-8.5263511292 үйүндө -8.24346076327
-8.5263511292 мында -8.2866172344
-8.5263511292 сөзди -8.44104207462
-8.5263511292 эркин -8.37832207441
-8.5263511292 бозо -8.28503248607
-8.5263511292 сырын -8.38060696506
-8.5263511292 садыр -8.35551733127
-8.5263511292 кестикбай -8.25016428056
-8.5263511292 экиүч -8.51628456508
-8.5263511292 сунду -8.28363775217
-8.5263511292 жүрөт -8.27811187635
-8.57514129337 ашык -8.42264839204
-8.57514129337 чыгар -8.46530511403
-8.57514129337 беш -8.3356130282
-8.57514129337 кулагын -8.43653568453
-8.57514129337 отургандар -8.46874405524
-8.57514129337 таап -8.43335385626
-8.57514129337 кедей -8.33389647505
-8.57514129337 оокат -8.41964255979
-8.57514129337 дегендей -8.42415341548
-8.57514129337 унчукпай -8.56169308747
-8.57514129337 жөнөдү -8.49005836379
-8.57514129337 болорун -8.56354731161
-8.57514129337 апасы -8.32043448906
-8.57514129337 жан -8.42813026083
-8.57514129337 отурушту -8.4902022339
-8.57514129337 экенсиң -8.30982090038
-8.57514129337 калганда -8.40185318787
-8.57514129337 эмнеси -8.41835157499
-8.57514129337 билип -8.41949919931
-8.57514129337 анткени -8.39337626814
-8.57514129337 ошондон -8.48607316655
-8.57514129337 бийдин -8.43403885854
-8.57514129337 шалтакбай -8.41294890923
-8.57514129337 болучу -8.49016113027
-8.57514129337 тарапка -8.4334299908
-8.62643458776 көзинде -8.47813321066
-8.62643458776 баратат -8.5292130012
-8.62643458776 дабыш -8.4764458349
-8.62643458776 үйүнөн -8.48309117648
-8.62643458776 тиктеди -8.37450215897
-8.62643458776 бере -8.48063710722
-8.62643458776 тим -8.47793613181
-8.62643458776 ойлогон -8.50839019282
-8.62643458776 ортосунда -8.37275201571
-8.62643458776 кудайга -8.48321099892
-8.62643458776 айылда -8.46521942674
-8.62643458776 күүнүн -8.4848217609
-8.62643458776 кетет -8.35186811749
-8.62643458776 акыл -8.47271034675
-8.62643458776 этип -8.48410376864
-8.62643458776 мынчалык -8.484092886
-8.62643458776 жагын -8.48238284153
-8.62643458776 тирүү -8.48278610909
-8.62643458776 молдонун -8.48514795068
-8.62643458776 меймандар -8.45628542502
-8.62643458776 өмүр -8.47986146031
-8.62643458776 жардам -8.47954447365
-8.62643458776 бою -8.47893207697
-8.62643458776 баса -8.60907484767
-8.62643458776 өмүрү -8.45392163581
-8.62643458776 федорович -8.35976156044
-8.62643458776 жараша -8.38335166726
-8.62643458776 тааныш -8.37239918546
-8.62643458776 абышкалар -8.36876631992
-8.62643458776 менден -8.47863668023
-8.62643458776 жакта -8.46678190109
-8.62643458776 экөөнүн -8.46841932318
-8.62643458776 кор -8.48326545893
-8.62643458776 койчу -8.35883687307
-8.62643458776 мугалим -8.46264322188
-8.62643458776 кайрылып -8.47977402575
-8.62643458776 аңгыча -8.48087732648
-8.62643458776 зуура -8.45615114126
-8.62643458776 жигитке -8.61830965352
-8.62643458776 бөлүп -8.38419384349
-8.62643458776 эс -8.47677476784
-8.68050180903 турушту -8.58168750118
-8.68050180903 жүрөгүн -8.53638527695
-8.68050180903 кайран -8.53085363637
-8.68050180903 кыргыздын -8.53400583074
-8.68050180903 кашаттын -8.66637272565
-8.68050180903 сурады -8.58329074966
-8.68050180903 башталды -8.5949048977
-8.68050180903 окуя -8.42852267239
-8.68050180903 ээрчип -8.53307652869
-8.68050180903 ошентип -8.52749350671
-8.68050180903 дале -8.54156117063
-8.68050180903 көздөрү -8.538269532
-8.68050180903 дешет -8.5903704436
-8.68050180903 калса -8.50848317395
-8.68050180903 кетментөбөгө -8.52360320166
-8.68050180903 аты -8.51458538788
-8.68050180903 карыя -8.4191036037
-8.68050180903 жанынан -8.53057953911
-8.68050180903 мойнун -8.54202742419
-8.68050180903 бөлүнүп -8.52566595644
-8.68050180903 жанындагы -8.53994386402
-8.68050180903 түнү -8.51791136413
-8.68050180903 окшойт -8.59248564546
-8.68050180903 бекер -8.52937261782
-8.68050180903 артисттер -8.65048030681
-8.68050180903 келбейт -8.41115308615
-8.68050180903 ордуна -8.53550183167
-8.68050180903 аш -8.52380194077
-8.68050180903 сакалын -8.53508710675
-8.68050180903 атчан -8.6675112693
-8.68050180903 сурап -8.50849438427
-8.68050180903 атынын -8.53302183696
-8.68050180903 чуркап -8.53309840454
-8.68050180903 минтип -8.53221204943
-8.68050180903 балдардын -8.5328358627
-8.68050180903 жолго -8.53761643521
-8.68050180903 конок -8.53662509033
-8.68050180903 кишини -8.53437730989
-8.68050180903 көзүнчө -8.53641798216
-8.68050180903 мырза -8.53623263848
-8.73766022287 султаналыга -8.59755900827
-8.73766022287 от -8.59717890194
-8.73766022287 билбеген -8.48721185594
-8.73766022287 теректин -8.59845982612
-8.73766022287 азыркы -8.59839473396
-8.73766022287 тийип -8.59733096181
-8.73766022287 жеңеси -8.56074286352
-8.73766022287 күмүш -8.59974994604
-8.73766022287 келишкен -8.63313059081
-8.73766022287 мыкты -8.49789721292
-8.73766022287 күнгө -8.59768929719
-8.73766022287 күйдүм -8.59965243211
-8.73766022287 көрүнүп -8.59118675005
-8.73766022287 чыдабай -8.59605946437
-8.73766022287 анысы -8.59299907655
-8.73766022287 атты -8.49014178201
-8.73766022287 комузчунун -8.59081514504
-8.73766022287 уулунун -8.73543505412
-8.73766022287 турбайбы -8.49435211136
-8.73766022287 бурулду -8.65236145375
-8.73766022287 аманэсен -8.50074819713
-8.73766022287 колундагы -8.58744253443
-8.73766022287 совет -8.59788469874
-8.73766022287 өмүрүндө -8.59500408975
-8.73766022287 уулун -8.58207551981
-8.73766022287 таластан -8.47485329268
-8.73766022287 беришти -8.65269033013
-8.73766022287 байкады -8.6350568089
-8.73766022287 окуп -8.59444875498
-8.73766022287 колго -8.595102058
-8.73766022287 турганын -8.58688298337
-8.73766022287 үйдү -8.58009963816
-8.73766022287 аздан -8.73548235132
-8.73766022287 эгин -8.57653540069
-8.73766022287 түшүнгөн -8.63502543291
-8.73766022287 алат -8.64758055173
-8.73766022287 сыр -8.59479723637
-8.73766022287 баратканын -8.58103839277
-8.73766022287 айсалкын -8.46338367714
-8.73766022287 дешти -8.64443579746
-8.73766022287 болуптур -8.63782447804
-8.73766022287 угулат -8.4768889792
-8.73766022287 бүткүл -8.59717890194
-8.79828484468 билбейм -8.71155627836
-8.79828484468 кээ -8.65160437946
-8.79828484468 башкача -8.55782755033
-8.79828484468 берки -8.65663031005
-8.79828484468 кең -8.65984410607
-8.79828484468 электе -8.64132151251
-8.79828484468 эрмек -8.64026085613
-8.79828484468 соң -8.65024818011
-8.79828484468 болсоң -8.62589807206
-8.79828484468 ысык -8.64468386072
-8.79828484468 жатты -8.69944998164
-8.79828484468 эмесе -8.65147321472
-8.79828484468 кызык -8.54601795827
-8.79828484468 атам -8.6294466958
-8.79828484468 оюна -8.64396824203
-8.79828484468 капкачан -8.65136389762
-8.79828484468 учуп -8.65747819149
-8.79828484468 кийинки -8.65983326602
-8.79828484468 алдын -8.65955138348
-8.79828484468 апасынын -8.65733692783
-8.79828484468 бүтүп -8.65489970679
-8.79828484468 токтотуп -8.65496506698
-8.79828484468 күлкү -8.54117179587
-8.79828484468 баатыр -8.69053331171
-8.79828484468 ашып -8.65767375438
-8.79828484468 дүйнө -8.63700558004
-8.79828484468 тосуп -8.65651067917
-8.79828484468 киришти -8.56251022165
-8.79828484468 уулуна -8.64732171767
-8.79828484468 калышкан -8.69074353707
-8.79828484468 бата -8.79488518228
-8.79828484468 күйөө -8.64188452896
-8.79828484468 соко -8.68906049542
-8.79828484468 комузга -8.65466001621
-8.79828484468 буга -8.64138776619
-8.79828484468 жеткен -8.55421978251
-8.79828484468 петр -8.64492595417
-8.79828484468 жокпу -8.77219361582
-8.79828484468 алагды -8.55308666523
-8.79828484468 болушка -8.64304268333
-8.79828484468 келишти -8.7133046744
-8.79828484468 жетти -8.5616017501
-8.79828484468 жылы -8.65411505113
-8.79828484468 жашы -8.64178519615
-8.79828484468 бирөөгө -8.65455104695
-8.79828484468 манаптар -8.62806008974
-8.79828484468 төргө -8.65769548123
-8.79828484468 көңүлүнө -8.65830364146
-8.79828484468 кызын -8.65531358253
-8.79828484468 бол -8.55628982778
-8.79828484468 каршы -8.55729922487
-8.79828484468 келишип -8.64938318972
-8.79828484468 абдан -8.65603201246
-8.79828484468 сакал -8.55774351722
-8.79828484468 айымкан -8.53287411193
-8.79828484468 толук -8.55657833093
-8.79828484468 ишке -8.65742386167
-8.79828484468 тору -8.65721738145
-8.79828484468 алыс -8.65171367027
-8.79828484468 абышканын -8.65499774547
-8.79828484468 көңүлүндө -8.63959737415
-8.79828484468 карагер -8.55769549513
-8.79828484468 ойноп -8.65875951903
-8.79828484468 дүйнөдөн -8.6594104124
-8.86282336582 тили -8.72452409813
-8.86282336582 ийди -8.62687117733
-8.86282336582 камчы -8.70544109479
-8.86282336582 жалпы -8.71399906144
-8.86282336582 кандайча -8.72127817032
-8.86282336582 бербей -8.71923184429
-8.86282336582 арасына -8.72279931452
-8.86282336582 убада -8.62086616111
-8.86282336582 жигиттер -8.58015937195
-8.86282336582 алышкан -8.61761490893
-8.86282336582 кенен -8.71216823174
-8.86282336582 баарына -8.71972203771
-8.86282336582 башталат -8.60257045267
-8.86282336582 таласка -8.71304569417
-8.86282336582 жакты -8.62120272385
-8.86282336582 жылдан -8.70883784467
-8.86282336582 ушунчалык -8.7234939248
-8.86282336582 ыракмат -8.61588865802
-8.86282336582 өзгөчө -8.71599052724
-8.86282336582 түн -8.61075267677
-8.86282336582 дайыма -8.71870870632
-8.86282336582 кылат -8.76674586036
-8.86282336582 жибек -8.72519584991
-8.86282336582 кепке -8.7165260142
-8.86282336582 ошонун -8.85361003119
-8.86282336582 уят -8.76950585672
-8.86282336582 алдынан -8.71364850328
-8.86282336582 майда -8.72481669066
-8.86282336582 күүлөрүн -8.6999133117
-8.86282336582 кийген -8.62096233345
-8.86282336582 моюн -8.70945419786
-8.86282336582 жетип -8.71619819908
-8.86282336582 өрөөндүн -8.71350605392
-8.86282336582 короз -8.62143104121
-8.86282336582 кай -8.71373615434
-8.86282336582 издеп -8.72248441032
-8.86282336582 мураталынын -8.72147387568
-8.86282336582 күүлөрү -8.60828433533
-8.86282336582 ичип -8.71450277359
-8.86282336582 жигитти -8.7218977726
-8.86282336582 бая -8.8555894384
-8.86282336582 кел -8.76832393378
-8.86282336582 сөзүнө -8.71778164422
-8.86282336582 баласынын -8.72420973668
-8.86282336582 бара -8.71895941075
-8.86282336582 токтой -8.85962175931
-8.86282336582 жиберди -8.77695910219
-8.86282336582 качкан -8.7568260764
-8.86282336582 үйүн -8.72456745057
-8.86282336582 черте -8.85644469973
-8.86282336582 бастырып -8.85553239496
-8.86282336582 сөзип -8.84889317643
-8.86282336582 унутуп -8.72060378078
-8.86282336582 урунуп -8.71200362178
-8.86282336582 орто -8.72505503611
-8.86282336582 окууга -8.70885986383
-8.86282336582 манат -8.72418805294
-8.86282336582 баарынан -8.70716296852
-8.86282336582 садырдын -8.72379766515
-8.86282336582 дос -8.70544109479
-8.86282336582 маматты -8.70288593912
-8.93181623731 жүр -8.68472625634
-8.93181623731 басты -8.83611282019
-8.93181623731 биротоло -8.78239001739
-8.93181623731 үнүн -8.79189047334
-8.93181623731 чайга -8.77570433915
-8.93181623731 сүйгөн -8.78603288911
-8.93181623731 максат -8.76619291591
-8.93181623731 учур -8.67721823095
-8.93181623731 кап -8.79216183345
-8.93181623731 анык -8.68504038741
-8.93181623731 көбүрөөк -8.78800739572
-8.93181623731 келиндин -8.78749505316
-8.93181623731 атайын -8.79101076044
-8.93181623731 нерсеге -8.7929537838
-8.93181623731 кызмат -8.77977824759
-8.93181623731 ичине -8.77104861588
-8.93181623731 ойлонуп -8.78899863261
-8.93181623731 бооруна -8.79019552085
-8.93181623731 жолдон -8.77667477405
-8.93181623731 тур -8.77556089958
-8.93181623731 айтышып -8.784349847
-8.93181623731 маалда -8.78919458511
-8.93181623731 кармаган -8.67748604353
-8.93181623731 түбүнө -8.78958637494
-8.93181623731 айылдан -8.77316351898
-8.93181623731 аялына -8.69301756913
-8.93181623731 комуздан -8.78639317276
-8.93181623731 бүгүнкү -8.7893796161
-8.93181623731 чыкпай -8.7776222446
-8.93181623731 жек -8.79212927412
-8.93181623731 тартты -8.83866458291
-8.93181623731 тил -8.79324653814
-8.93181623731 денеси -8.78047026253
-8.93181623731 иштин -8.78935784952
-8.93181623731 мандаш -8.93176191248
-8.93181623731 жолдош -8.6893557268
-8.93181623731 канчалык -8.7929104055
-8.93181623731 миң -8.78115082589
-8.93181623731 мырзанын -8.79207500623
-8.93181623731 жашырын -8.78778940969
-8.93181623731 чоочун -8.92179213739
-8.93181623731 киргенде -8.77681805395
-8.93181623731 албаган -8.6773521462
-8.93181623731 улуу -8.69415540964
-8.93181623731 адам -8.66859785684
-8.93181623731 түз -8.78247768959
-8.93181623731 экөөбүз -8.79222694892
-8.93181623731 кубанычтуу -8.68435158644
-8.93181623731 ырды -8.78627309263
-8.93181623731 күндөн -8.92787499683
-8.93181623731 алтын -8.79159732168
-8.93181623731 оозуна -8.79176019432
-8.93181623731 шайым -8.83186621993
-8.93181623731 тарап -8.68007525417
-8.93181623731 капсалаң -8.68472625634
-8.93181623731 колунда -8.66821709396
-8.93181623731 эшик -8.79222694892
-8.93181623731 коет -8.84610623769
-8.93181623731 оозу -8.68085192496
-9.00592420946 сизге -8.84468065306
-9.00592420946 кайрылды -8.90512912929
-9.00592420946 жетпей -8.8617889954
-9.00592420946 муңдуу -8.86662846
-9.00592420946 окуй -8.85924570074
-9.00592420946 тамагын -8.86826530786
-9.00592420946 аялын -8.86404307575
-9.00592420946 комузчулар -8.81190044124
-9.00592420946 ичиндеги -8.86776694918
-9.00592420946 жаңылык -8.85826157784
-9.00592420946 мурут -8.88964337426
-9.00592420946 жолдо -9.0047357518
-9.00592420946 бети -8.86723581552
-9.00592420946 жүргөнүн -8.99314998687
-9.00592420946 жиберип -8.85738598813
-9.00592420946 малы -8.74678879506
-9.00592420946 ыры -8.96178575685
-9.00592420946 тамашаны -8.86258449271
-9.00592420946 тамак -8.85169791551
-9.00592420946 эшмамбет -8.83287840775
-9.00592420946 чындап -8.85905988503
-9.00592420946 отурганын -8.86413008807
-9.00592420946 жантакпайдын -8.86514105113
-9.00592420946 көрүнбөйт -8.91962791943
-9.00592420946 матай -8.8996544816
-9.00592420946 жатканда -8.84898525699
-9.00592420946 жашын -8.86146189514
-9.00592420946 үйрөнүп -8.86264984791
-9.00592420946 тараптан -8.86271519885
-9.00592420946 иштеген -8.75008550134
-9.00592420946 сенден -8.84377088632
-9.00592420946 анча -8.86742011835
-9.00592420946 өлүп -8.86721413061
-9.00592420946 оңой -8.90555704394
-9.00592420946 эли -8.83282229952
-9.00592420946 күлө -8.86171268157
-9.00592420946 таба -9.00129969638
-9.00592420946 жылкы -8.86142917923
-9.00592420946 келиптир -8.91707300808
-9.00592420946 көрүнөт -8.92091320718
-9.00592420946 жайып -8.8602834475
-9.00592420946 током -8.84231575896
-9.00592420946 токтогулду -8.89987488346
-9.00592420946 орун -8.99794693671
-9.00592420946 арман -8.86245376948
-9.00592420946 зыйнат -8.86038170453
-9.00592420946 сөздөр -8.74791333833
-9.00592420946 эмнени -8.86775611254
-9.00592420946 кирген -8.76042981483
-9.00592420946 мыктыбек -8.82945003208
-9.00592420946 байга -8.84734969871
-9.00592420946 жеңижок -8.99276753016
-9.00592420946 катын -8.84886378721
-9.00592420946 себеби -8.84377088632
-9.00592420946 кайрып -8.86507585854
-9.00592420946 суроого -8.86299833689
-9.00592420946 жумуш -8.74508735455
-9.00592420946 окуудан -8.8632269668
-9.00592420946 эткен -8.86465200307
-9.00592420946 алышты -8.90705851442
-9.00592420946 төрт -8.86582531684
-9.00592420946 бирөөлөр -8.76628802011
-9.00592420946 соо -8.85047482204
-9.00592420946 көр -8.76831295505
-9.00592420946 тобо -8.90923372928
-9.00592420946 көйрөң -8.86648741398
-9.00592420946 атаэнеси -8.98971219172
-9.00592420946 бергенде -8.7433584701
-9.00592420946 нече -9.00327000971
-9.00592420946 бетин -8.86586874648
-9.00592420946 кылуу -8.90203434926
-9.00592420946 жылуу -8.86581445914
-9.00592420946 чырымдын -8.86687795423
-9.00592420946 барган -8.91458394164
-9.00592420946 карашы -8.99112129746
-9.00592420946 билүү -8.887563202
-9.00592420946 төрдө -8.76327298471
-9.08596691714 алууга -8.94609658707
-9.08596691714 кадимкидей -8.94658494516
-9.08596691714 жасап -8.93823930649
-9.08596691714 даяр -8.83472727182
-9.08596691714 суз -8.99512294996
-9.08596691714 сокону -9.08065867833
-9.08596691714 кадырын -8.9466934368
-9.08596691714 байбичеси -8.80628525298
-9.08596691714 отургандардын -9.07413791976
-9.08596691714 арманда -8.84282409064
-9.08596691714 айтат -8.98864218028
-9.08596691714 батып -9.08227987752
-9.08596691714 жагындагы -8.94509742324
-9.08596691714 чалдын -8.94173420967
-9.08596691714 ара -8.94775603246
-9.08596691714 күүдөн -8.94235545972
-9.08596691714 байкаган -8.98433652468
-9.08596691714 куш -8.91956533897
-9.08596691714 болобу -8.93093715862
-9.08596691714 кудайбергендин -8.92564418237
-9.08596691714 дей -9.08199564664
-9.08596691714 оо -8.93660781506
-9.08596691714 тиктейт -8.85018702878
-9.08596691714 атканча -8.94496702389
-9.08596691714 үйүнүн -8.94723571852
-9.08596691714 кайын -8.94803775617
-9.08596691714 чечип -8.94695376873
-9.08596691714 сөздүн -8.94311787071
-9.08596691714 ортончу -8.94070884825
-9.08596691714 айлына -8.94617256955
-9.08596691714 абдыракманды -8.93928906055
-9.08596691714 жатканын -9.07965240326
-9.08596691714 о -8.94765849421
-9.08596691714 ачуусу -9.06933205924
-9.08596691714 өңчөй -8.942333668
-9.08596691714 күйөөсүнө -8.84812990706
-9.08596691714 тамашага -8.94808109124
-9.08596691714 болгондо -9.07977586885
-9.08596691714 жазып -8.94728993052
-9.08596691714 коюшту -8.98663240146
-9.08596691714 ырчылар -8.83188390988
-9.08596691714 алыска -8.9462051317
-9.08596691714 бурулкан -9.06242761038
-9.08596691714 чыбык -8.84717166249
-9.08596691714 көзүнүн -8.94686699895
-9.08596691714 бош -8.9454559338
-9.08596691714 седепти -8.93642150246
-9.08596691714 бергиле -8.84569656793
-9.08596691714 ырын -8.93342477686
-9.08596691714 байлап -8.94704053098
-9.08596691714 байкуш -8.94282386676
-9.08596691714 тойкожо -8.92997788363
-9.08596691714 жетелеп -8.94119984395
-9.08596691714 келдим -8.99239059471
-9.08596691714 отурушат -8.85018702878
-9.08596691714 эшиктен -8.9450756912
-9.08596691714 көзүнөн -9.08263978735
-9.08596691714 берем -8.8413666717
-9.08596691714 алганда -9.06644896657
-9.08596691714 түшө -8.93895019792
-9.08596691714 тыңшап -8.94325939735
-9.08596691714 ыйлап -9.08208092439
-9.08596691714 өнөрүн -8.93288595115
-9.08596691714 жактагы -9.08219461674
-9.08596691714 падыша -8.9350614654
-9.08596691714 деги -8.9462051317
-9.08596691714 кимден -8.9471923468
-9.08596691714 айтыке -8.83095868277
-9.08596691714 баарыдан -9.07285733854
-9.08596691714 таттуу -8.9398462945
-9.08596691714 жакасын -8.94783188896
-9.08596691714 быйыл -8.93019848809
-9.08596691714 бирибирин -8.94576002381
-9.08596691714 калыптыр -8.99739422347
-9.08596691714 жел -8.92762542212
-9.08596691714 турмуштун -8.94823274919
-9.08596691714 жаны -8.93810800971
-9.08596691714 кар -8.93219274836
-9.08596691714 ач -8.94379266395
-9.08596691714 баарынын -8.93921255322
-9.08596691714 жата -8.94258424405
-9.17297829413 энеси -8.91770397686
-9.17297829413 толуп -9.03271768801
-9.17297829413 кыла -9.17078605385
-9.17297829413 сүйлөшүп -9.16715676734
-9.17297829413 пайда -9.16710930041
-9.17297829413 карып -8.92006464966
-9.17297829413 салкын -9.0345945634
-9.17297829413 катар -9.03375962611
-9.17297829413 тышкары -8.93455617049
-9.17297829413 үстүнөн -8.91882416595
-9.17297829413 кеңкол -9.01246799703
-9.17297829413 жеринде -9.08673346975
-9.17297829413 калдым -9.0814313179
-9.17297829413 агасы -9.01853320815
-9.17297829413 алдыда -9.02538262518
-9.17297829413 айла -9.02864808577
-9.17297829413 арга -9.16718524642
-9.17297829413 субанга -9.03197899113
-9.17297829413 сатып -9.0199750425
-9.17297829413 коркунучтуу -9.05467109895
-9.17297829413 кереметтүү -8.93420871321
-9.17297829413 бүттү -8.93437646628
-9.17297829413 толгоп -9.03183770751
-9.17297829413 билинбей -9.02997742402
-9.17297829413 кире -9.16194093674
-9.17297829413 уйкусу -9.03445364887
-9.17297829413 ишене -9.17071984028
-9.17297829413 тогуз -8.93477177292
-9.17297829413 калганына -9.03011897069
-9.17297829413 солдаттар -9.02351028328
-9.17297829413 бирибири -9.16163552037
-9.17297829413 чайды -9.02935655969
-9.17297829413 көптөн -9.1714479486
-9.17297829413 туюк -8.93586105201
-9.17297829413 мунусу -9.01870942155
-9.17297829413 ушак -9.03185944475
-9.17297829413 акындын -9.03317366952
-9.17297829413 шыбырады -8.91973643605
-9.17297829413 болбогон -8.93330955656
-9.17297829413 күлкүсү -9.15783867092
-9.17297829413 көчүп -9.03180510077
-9.17297829413 биринин -9.0296724862
-9.17297829413 күтпөгөн -9.16092888754
-9.17297829413 келгенсип -9.16843752345
-9.17297829413 аягы -9.03035846557
-9.17297829413 жеп -9.03334732209
-9.17297829413 чаап -9.1640857659
-9.17297829413 шүгүр -9.02425526019
-9.17297829413 чакырган -8.92918707844
-9.17297829413 сүйлөп -8.9265581003
-9.17297829413 өскөн -8.93402894655
-9.17297829413 силерге -9.01970004374
-9.17297829413 кеткенден -9.03119624626
-9.17297829413 ырдап -9.02142578351
-9.17297829413 калышат -9.08753562533
-9.17297829413 төз -9.0274261519
-9.17297829413 ансыз -9.15782908884
-9.17297829413 атактуу -9.03267425036
-9.17297829413 жүрөк -9.01894065452
-9.17297829413 түрдүү -9.0322506343
-9.17297829413 тап -8.93709254245
-9.17297829413 ачты -9.0879467377
-9.17297829413 немелер -8.92278346088
-9.17297829413 кабарын -9.03058702083
-9.17297829413 толгон -8.93405291731
-9.17297829413 көпкө -9.03210938906
-9.17297829413 жүрөсүң -8.91275773416
-9.17297829413 суусунун -9.03418260355
-9.17297829413 боюн -9.0342910305
-9.17297829413 токол -9.01844508981
-9.17297829413 таанып -8.93369329562
-9.17297829413 ойлуу -9.08172087623
-9.17297829413 комузунун -9.03524468099
-9.17297829413 дароо -9.02678185365
-9.17297829413 малдын -9.03276112378
-9.17297829413 кеңеш -9.03390063847
-9.17297829413 сүйлөй -9.16762182403
-9.17297829413 эшиктин -9.03316281523
-9.17297829413 ортосундагы -9.02611527802
-9.17297829413 түшкөндө -9.15700468648
-9.17297829413 катып -9.02679277742
-9.17297829413 байлар -9.15758950705
-9.17297829413 бакырып -8.93269766791
-9.17297829413 катарына -9.03315196083
-9.17297829413 айланып -9.02929118312
-9.17297829413 кимди -9.0345512072
-9.17297829413 көрүшүп -9.03276112378
-9.17297829413 кагылайын -9.16091933503
-9.17297829413 бирөөнүн -9.03328220591
-9.17297829413 айтпай -8.93227752757
-9.17297829413 токой -9.05640121236
-9.17297829413 адегенде -9.02578729087
-9.17297829413 аппак -9.03105485201
-9.17297829413 жерди -9.03311939691
-9.17297829413 силердин -9.03005364394
-9.17297829413 кесени -9.03294570476
-9.17297829413 улан -9.07893557542
-9.17297829413 балдарды -9.03222890556
-9.17297829413 кошулду -9.08791591013
-9.17297829413 терең -9.03339073052
-9.17297829413 ууру -9.0187424581
-9.17297829413 карт -9.0334449884
-9.17297829413 кичине -9.02514193549
-9.17297829413 тилек -9.02839727472
-9.17297829413 мурунку -9.1711454225
-9.17297829413 таза -9.03053260765
-9.17297829413 иниси -9.02480268349
-9.17297829413 кагып -9.03258736938
-9.17297829413 барат -9.07576810731
-9.17297829413 боору -9.02222718436
-9.17297829413 түбүндө -9.03154420851
-9.17297829413 жигити -9.03194638899
-9.17297829413 бизди -9.02853904521
-9.17297829413 жумшак -9.03368368814
-9.17297829413 угулуп -9.16987759949
-9.17297829413 бүткөндөн -9.17073875889
-9.17297829413 жөнү -9.16321885562
-9.17297829413 тиричилик -9.02086551941
-9.17297829413 эрте -8.91877548816
-9.17297829413 болушуп -9.02592943184
-9.17297829413 сөзген -9.07147343673
-9.26828847393 куру -9.11644010079
-9.26828847393 жашоо -9.12122933474
-9.26828847393 дөбөдө -9.26163042405
-9.26828847393 салган -9.2531481558
-9.26828847393 айга -9.2672864995
-9.26828847393 убак -9.01576555628
-9.26828847393 кудайдан -9.02877736341
-9.26828847393 мененки -9.12978607226
-9.26828847393 буйрук -9.26326326346
-9.26828847393 жакшылык -9.02060137249
-9.26828847393 жарып -9.12866892943
-9.26828847393 күрмөсүнүн -9.13033875904
-9.26828847393 тыныбекке -9.11455979125
-9.26828847393 терс -9.26739986212
-9.26828847393 тынч -9.17749630013
-9.26828847393 конокко -9.12828903352
-9.26828847393 таппай -9.12192881125
-9.26828847393 көрүштү -9.18313360154
-9.26828847393 күнүтүнү -9.12987278843
-9.26828847393 кимдир -9.26799480512
-9.26828847393 экени -9.12917884845
-9.26828847393 түшөт -9.18299999345
-9.26828847393 көбүнчө -9.12286796303
-9.26828847393 сыйра -9.12884254808
-9.26828847393 сүйлөшө -9.12625685486
-9.26828847393 досу -9.01699187244
-9.26828847393 армандуу -9.02894523919
-9.26828847393 сылап -9.1259957412
-9.26828847393 кууп -9.12918969497
-9.26828847393 манаптары -9.12987278843
-9.26828847393 эмесмин -9.18283552822
-9.26828847393 бирибирине -9.12822389401
-9.26828847393 комузу -9.16255456455
-9.26828847393 айрыкча -9.26548041221
-9.26828847393 жокто -9.26263702401
-9.26828847393 байдан -9.03044288218
-9.26828847393 көрсөтүп -9.03028723177
-9.26828847393 айылды -9.12107625901
-9.26828847393 кымыз -9.03184264672
-9.26828847393 көрчү -9.17509571125
-9.26828847393 боромбай -9.25388569312
-9.26828847393 аккан -9.12699630682
-9.26828847393 күндүз -9.26563183273
-9.26828847393 кетишти -9.03248803164
-9.26828847393 чогулган -9.17876669242
-9.26828847393 жаңыдан -9.1245039106
-9.26828847393 таятасы -9.11267593948
-9.26828847393 кадырлуу -9.18022101309
-9.26828847393 булардын -9.12968850759
-9.26828847393 артык -9.11609948823
-9.26828847393 келиши -9.10979372713
-9.26828847393 кишиси -9.16297409804
-9.26828847393 бирине -9.11339244166
-9.26828847393 молдоке -9.10050549388
-9.26828847393 беришет -9.17619324708
-9.26828847393 шадыбек -9.10856543646
-9.26828847393 алчу -9.12639826295
-9.26828847393 калык -9.23403270071
-9.26828847393 атына -9.26647369111
-9.26828847393 жанын -9.1302954221
-9.26828847393 колукту -9.25352178165
-9.26828847393 суук -9.12880999688
-9.26828847393 тургандар -9.23777616135
-9.26828847393 зар -9.02894523919
-9.26828847393 чети -9.00544642945
-9.26828847393 жагы -9.02277531264
-9.26828847393 экинчиси -9.13018707152
-9.26828847393 токтогулга -9.11176027438
-9.26828847393 туюлду -9.18324664059
-9.26828847393 бактылуу -9.12967766648
-9.26828847393 сабыр -9.12715934764
-9.26828847393 баштап -9.12111999732
-9.26828847393 жантакбай -9.10897503434
-9.26828847393 жүрөм -9.03236854733
-9.26828847393 эт -9.03093362099
-9.26828847393 учурашып -9.26109822606
-9.26828847393 жаштар -9.02982013512
-9.26828847393 уулжандын -9.12966682525
-9.26828847393 намыс -9.26215284296
-9.26828847393 алдындагы -9.12175398799
-9.26828847393 союп -9.12800673167
-9.26828847393 дейсиңби -9.02292007409
-9.26828847393 тебетей -9.16772350806
-9.26828847393 болдум -9.17509571125
-9.26828847393 кайткан -9.17206606616
-9.26828847393 башканы -9.12911376688
-9.26828847393 бел -9.12739842611
-9.26828847393 жерин -9.12763744742
-9.26828847393 жашап -9.12885339824
-9.26828847393 иштеп -9.26524377175
-9.26828847393 кыйкырды -9.18235225512
-9.26828847393 жөө -9.12942828857
-9.26828847393 илгери -9.12626773311
-9.26828847393 талаада -9.12718108441
-9.26828847393 сол -9.12994865891
-9.26828847393 укту -9.17971585063
-9.26828847393 сейилкан -9.10157648029
-9.26828847393 сизди -9.12696369547
-9.26828847393 аялдын -9.12876659363
-9.26828847393 болушу -9.17644157861
-9.26828847393 жамынып -9.12740929195
-9.26828847393 караан -9.25423990078
-9.26828847393 жакындаганда -9.11278620401
-9.26828847393 дейм -9.02449902496
-9.26828847393 кайнаган -9.12982943129
-9.26828847393 көпчүлүгү -9.12292253775
-9.37364898959 кызды -9.22573736696
-9.37364898959 күйөөсүн -9.36908766519
-9.37364898959 айтам -9.27294850164
-9.37364898959 устатынын -9.3693815333
-9.37364898959 коркуп -9.22514630511
-9.37364898959 токойду -9.23401916828
-9.37364898959 сайма -9.22237240864
-9.37364898959 камчысын -9.23169411644
-9.37364898959 керегедеги -9.23533141192
-9.37364898959 жеңин -9.23552647466
-9.37364898959 артист -9.11414219816
-9.37364898959 караган -9.20010189964
-9.37364898959 каны -9.23311803746
-9.37364898959 арадан -9.3630585666
-9.37364898959 калдык -9.27926423544
-9.37364898959 карыянын -9.23477852742
-9.37364898959 сүйкүмдүү -9.13054754582
-9.37364898959 сууга -9.2349953813
-9.37364898959 эшикте -9.22893834856
-9.37364898959 уулум -9.35680095143
-9.37364898959 билишчү -9.2852619991
-9.37364898959 сөздөрдү -9.22004209706
-9.37364898959 чакырды -9.28788760488
-9.37364898959 как -9.13747977474
-9.37364898959 топко -9.23404087226
-9.37364898959 коюшуп -9.23293336827
-9.37364898959 карыялар -9.1195351516
-9.37364898959 кийимин -9.2333243921
-9.37364898959 аттарын -9.23598147316
-9.37364898959 сулуу -9.22030617866
-9.37364898959 тургансып -9.23309631345
-9.37364898959 азырынча -9.23517967014
-9.37364898959 чертти -9.28856605188
-9.37364898959 үйүр -9.23513631112
-9.37364898959 аттарды -9.23578649915
-9.37364898959 адамдын -9.22607652246
-9.37364898959 билсин -9.13323979042
-9.37364898959 айлы -9.27692779791
-9.37364898959 үндөр -9.37224931908
-9.37364898959 учурунда -9.21276347381
-9.37364898959 ээн -9.37074546695
-9.37364898959 берсин -9.27686541812
-9.37364898959 жолоочу -9.35020446264
-9.37364898959 десем -9.13562549651
-9.37364898959 газетаны -9.37020579897
-9.37364898959 кадимки -9.22560605007
-9.37364898959 эстеп -9.21550884273
-9.37364898959 жатышат -9.2880418378
-9.37364898959 жолун -9.23495201429
-9.37364898959 калыбында -9.13579312103
-9.37364898959 биринсерин -9.23340040676
-9.37364898959 туугандар -9.22648117045
-9.37364898959 күлүштү -9.27474218668
-9.37364898959 бурулчанын -9.23514715105
-9.37364898959 токтото -9.23264000002
-9.37364898959 асман -9.27535672203
-9.37364898959 болбо -9.12654387447
-9.37364898959 таяк -9.23536392502
-9.37364898959 күтүлбөгөн -9.23494117224
-9.37364898959 суусу -9.12213580688
-9.37364898959 курчап -9.37006373266
-9.37364898959 ырчынын -9.23381295698
-9.37364898959 бузурман -9.36337328243
-9.37364898959 ошондуктан -9.36378321813
-9.37364898959 толо -9.13310775108
-9.37364898959 секретары -9.23134598006
-9.37364898959 өсүп -9.23444231094
-9.37364898959 минген -9.3630204125
-9.37364898959 кыларын -9.37314676896
-9.37364898959 көйнөкчөн -9.36885061186
-9.37364898959 сөзүнүн -9.23534224974
-9.37364898959 жаштын -9.23399746383
-9.37364898959 меймандардын -9.2256169938
-9.37364898959 кубанган -9.26496313042
-9.37364898959 тыныбекти -9.23279212763
-9.37364898959 отургузуп -9.37044253131
-9.37364898959 өткөрүп -9.2316288501
-9.37364898959 кичи -9.23548313068
-9.37364898959 дегени -9.26927812039
-9.37364898959 сыры -9.22694030226
-9.37364898959 чалкалап -9.37119023735
-9.37364898959 мынча -9.36860401677
-9.37364898959 жерине -9.3687937107
-9.37364898959 байбиченин -9.36992164617
-9.37364898959 убакытты -9.23219435026
-9.37364898959 арам -9.23310717551
-9.37364898959 жүзү -9.23444231094
-9.37364898959 кетишет -9.28859687945
-9.37364898959 узакка -9.2349953813
-9.37364898959 баятан -9.37232492487
-9.37364898959 албайм -9.27955461055
-9.37364898959 өзүбүз -9.20689326818
-9.37364898959 кишилерге -9.35678175481
-9.37364898959 колунун -9.23577566615
-9.37364898959 секретарь -9.21647015284
-9.37364898959 оёз -9.23081266122
-9.37364898959 чок -9.11935260878
-9.37364898959 болгондой -9.22564982428
-9.37364898959 күндө -9.35043631758
-9.37364898959 көрөйүн -9.35747260113
-9.37364898959 жапырт -9.22676541976
-9.37364898959 чокту -9.37107669776
-9.37364898959 көрбөгөн -9.27440872135
-9.37364898959 келдиң -9.27990709557
-9.37364898959 тийген -9.22625152547
-9.37364898959 билермандар -9.21789384486
-9.37364898959 убара -9.13739610723
-9.37364898959 талаага -9.23471346208
-9.37364898959 эринин -9.23459416464
-9.37364898959 султаналыны -9.22053719287
-9.37364898959 келчү -9.27497137961
-9.37364898959 алик -9.36914454963
-9.37364898959 четинде -9.23196601369
-9.37364898959 адатта -9.36731314287
-9.37364898959 асыл -9.23522302728
-9.37364898959 табылат -9.27305287379
-9.37364898959 келер -9.34469176418
-9.37364898959 өзүңөр -9.2151992589
-9.37364898959 жаттап -9.21535406279
-9.37364898959 апа -9.22884017727
-9.37364898959 атасын -9.2350604283
-9.37364898959 жүрүшкөн -9.27741630501
-9.37364898959 чаптырып -9.13447531367
-9.37364898959 эрдин -9.23532057398
-9.37364898959 өнөрү -9.22115296998
-9.37364898959 салынган -9.13713310663
-9.37364898959 урган -9.36508817286
-9.37364898959 билбейт -9.28159522675
-9.37364898959 салат -9.13430746809
-9.37364898959 баягыдай -9.12684591445
-9.37364898959 жоргону -9.23567816383
-9.37364898959 ыраазымын -9.28450908409
-9.37364898959 көрүшөт -9.1378024267
-9.37364898959 куп -9.23335697052
-9.37364898959 бирэки -9.23484358852
-9.37364898959 чочуп -9.21655850279
-9.37364898959 каарына -9.23392149454
-9.37364898959 жеңе -9.2275193822
-9.37364898959 көзүм -9.2221088722
-9.37364898959 барарын -9.36470734016
-9.37364898959 өнөр -9.27905677302
-9.37364898959 чертет -9.28554033096
-9.37364898959 тиричиликке -9.2197889534
-9.37364898959 мурутун -9.23597064226
-9.37364898959 айтканда -9.22730090086
-9.37364898959 алгачкы -9.23605728611
-9.37364898959 кеткени -9.35661856865
-9.37364898959 райымбектин -9.22013013201
-9.37364898959 эсенбектин -9.36910662703
-9.37364898959 болбосун -9.21863248282
-9.37364898959 арыктын -9.37310899784
-9.37364898959 ача -9.36710416837
-9.37364898959 кайнап -9.3683383848
-9.37364898959 балдарга -9.22496015776
-9.37364898959 чатак -9.23442061567
-9.37364898959 жоголуп -9.37112400749
-9.37364898959 бака -9.37348664491
-9.37364898959 бурду -9.28100522265
-9.37364898959 алышпады -9.28828856101
-9.37364898959 талаа -9.11840284858
-9.37364898959 изи -9.20200858483
-9.37364898959 сүйөнүп -9.3666860883
-9.37364898959 элең -9.28710579227
-9.37364898959 черткен -9.22380965552
-9.37364898959 шаңдуу -9.13519433296
-9.37364898959 кийиз -9.12315477926
-9.37364898959 замандын -9.23363927237
-9.37364898959 кечээ -9.22201002813
-9.37364898959 көтөрдү -9.13783827049
-9.37364898959 ачууланды -9.13395969831
-9.37364898959 колдон -9.13305973244
-9.37364898959 кеч -9.3676360176
-9.37364898959 чачы -9.22253708365
-9.37364898959 этет -9.28811380503
-9.37364898959 судья -9.22987594402
-9.37364898959 өмүрдүн -9.23254219147
-9.37364898959 үйбүлөсү -9.23337868888
-9.37364898959 айтышкан -9.13430746809
-9.37364898959 дөңдө -9.37018685796
-9.37364898959 тийди -9.13059568523
-9.37364898959 акчаны -9.23013744175
-9.37364898959 окшогон -9.2351146309
-9.37364898959 тегерегинде -9.22601088844
-9.37364898959 иттин -9.23558065201
-9.37364898959 туулган -9.13453525169
-9.37364898959 сурнайдын -9.23501706411
-9.37364898959 бошоп -9.23395405352
-9.37364898959 кемпир -9.22615309005
-9.37364898959 үмүтү -9.23089975311
-9.37364898959 огонбай -9.27944054467
-9.37364898959 малга -9.21095494439
-9.37364898959 чуркады -9.28814464654
-9.49143202524 арасынан -9.33813394584
-9.49143202524 сур -9.48779860386
-9.49143202524 жайылып -9.48544675497
-9.49143202524 салмак -9.23956867751
-9.49143202524 нааразы -9.24979953272
-9.49143202524 эрегишкен -9.35027147689
-9.49143202524 маал -9.33027015148
-9.49143202524 ич -9.34641656473
-9.49143202524 төзирээк -9.35051055795
-9.49143202524 жиберишти -9.4063696384
-9.49143202524 анысын -9.35192214405
-9.49143202524 ажыраган -9.39908855347
-9.49143202524 кетментөбө -9.24100028224
-9.49143202524 башкалардын -9.35310417087
-9.49143202524 буларды -9.35082562295
-9.49143202524 ошончо -9.35282234638
-9.49143202524 кыргызча -9.33030341551
-9.49143202524 былк -9.35357009099
-9.49143202524 тыным -9.48964396331
-9.49143202524 болбогондуктан -9.47325788913
-9.49143202524 каалаган -9.34812806326
-9.49143202524 коңкогой -9.48728697859
-9.49143202524 кылбай -9.4878649065
-9.49143202524 жолку -9.35359175642
-9.49143202524 ташка -9.35153144274
-9.49143202524 чыкса -9.47547553617
-9.49143202524 айланды -9.40119788806
-9.49143202524 кечип -9.35223676469
-9.49143202524 жүгүртүп -9.34980401698
-9.49143202524 созуп -9.48393600125
-9.49143202524 калгандары -9.35043449291
-9.49143202524 кедейлер -9.48504790971
-9.49143202524 жоругуна -9.48865073139
-9.49143202524 келгендей -9.25287125254
-9.49143202524 чынында -9.33430917499
-9.49143202524 чыккандан -9.48454437785
-9.49143202524 карабастан -9.48805431837
-9.49143202524 кайтарды -9.40423000605
-9.49143202524 барын -9.35355925811
-9.49143202524 куда -9.48602574706
-9.49143202524 сабак -9.35200894584
-9.49143202524 ою -9.34276576876
-9.49143202524 жыйып -9.34180165983
-9.49143202524 бой -9.35080389752
-9.49143202524 терип -9.35223676469
-9.49143202524 кыңгыратып -9.48848982959
-9.49143202524 жашай -9.35031495043
-9.49143202524 турмушу -9.47134349742
-9.49143202524 жашаган -9.48255627726
-9.49143202524 шарапаты -9.24108514358
-9.49143202524 соккон -9.35322338041
-9.49143202524 күтүү -9.46865331496
-9.49143202524 алабыз -9.3998542186
-9.49143202524 чыгышты -9.40052627901
-9.49143202524 жүрдү -9.4063696384
-9.49143202524 оору -9.3371653588
-9.49143202524 аттуу -9.35110801065
-9.49143202524 жеткенде -9.33945323626
-9.49143202524 алип -9.24639282556
-9.49143202524 боюна -9.35178107507
-9.49143202524 тилеги -9.35185703776
-9.49143202524 турса -9.39201470593
-9.49143202524 баракелде -9.34800824473
-9.49143202524 айылдагылар -9.34671110751
-9.49143202524 кетментөбөдөн -9.32706051761
-9.49143202524 дүнүйө -9.34049644152
-9.49143202524 кожокенин -9.48739121978
-9.49143202524 сураган -9.39816690874
-9.49143202524 биринен -9.49066454513
-9.49143202524 жак -9.35310417087
-9.49143202524 укмуш -9.34994536512
-9.49143202524 чуу -9.34891197567
-9.49143202524 ортого -9.34951038393
-9.49143202524 карашты -9.4063696384
-9.49143202524 убагында -9.34130829016
-9.49143202524 карабай -9.34508458502
-9.49143202524 чыгарды -9.3997507846
-9.49143202524 айт -9.25508519168
-9.49143202524 сиздин -9.35392751043
-9.49143202524 таштын -9.35309333294
-9.49143202524 так -9.35347259079
-9.49143202524 четине -9.34911873901
-9.49143202524 айтышты -9.39251494564
-9.49143202524 айдатып -9.35039102457
-9.49143202524 капшытта -9.34921666462
-9.49143202524 өткөндөн -9.48916165959
-9.49143202524 бермек -9.40554724457
-9.49143202524 таасир -9.35163998619
-9.49143202524 тебетейин -9.34222905007
-9.49143202524 берүү -9.22782035895
-9.49143202524 тегиз -9.35211743748
-9.49143202524 түрлүү -9.35311500869
-9.49143202524 сактап -9.34752882699
-9.49143202524 маңдай -9.35285486865
-9.49143202524 чү -9.34488791314
-9.49143202524 чөк -9.49091952792
-9.49143202524 куйругун -9.35366758169
-9.49143202524 фрунзеге -9.35241030613
-9.49143202524 курсагы -9.35338591596
-9.49143202524 бээни -9.35336424608
-9.49143202524 башындагы -9.35101027009
-9.49143202524 туугандары -9.37592642698
-9.49143202524 кайгылуу -9.35041275897
-9.49143202524 эркек -9.47432412556
-9.49143202524 ырдын -9.48811113494
-9.49143202524 зоотбек -9.23665060039
-9.49143202524 ырчыны -9.4898708493
-9.49143202524 бийлик -9.34500810611
-9.49143202524 белгисиз -9.39176449221
-9.49143202524 аябай -9.35300662523
-9.49143202524 жүрүшөт -9.40569121232
-9.49143202524 көрөт -9.23516397366
-9.49143202524 иним -9.34605645015
-9.49143202524 бойго -9.33882679033
-9.49143202524 колдору -9.32599205821
-9.49143202524 алгыла -9.39937833355
-9.49143202524 карай -9.34985838402
-9.49143202524 ии -9.35020626304
-9.49143202524 жүгөрүнүн -9.35384087502
-9.49143202524 дабышын -9.3383429495
-9.49143202524 зарыл -9.39847767042
-9.49143202524 бойлуу -9.3514988774
-9.49143202524 табып -9.34636201025
-9.49143202524 козголуп -9.48912382201
-9.49143202524 алдырып -9.35339675073
-9.49143202524 каардуу -9.35272477325
-9.49143202524 чөнтөгүнөн -9.34448352167
-9.49143202524 кылса -9.33639422134
-9.49143202524 болмок -9.39556307829
-9.49143202524 токойго -9.48753334936
-9.49143202524 карамолдо -9.22693549015
-9.49143202524 эгинди -9.35342925432
-9.49143202524 кулап -9.48187046498
-9.49143202524 тагдыры -9.32948257955
-9.49143202524 кантейин -9.34161530434
-9.49143202524 атым -9.3400902699
-9.49143202524 чапты -9.25561102945
-9.49143202524 айтууга -9.35109715106
-9.49143202524 адашып -9.34807360207
-9.49143202524 экендиги -9.33789188702
-9.49143202524 жөнүндөгү -9.35321254376
-9.49143202524 калар -9.39851909801
-9.49143202524 атасына -9.48914274098
-9.49143202524 фрунзе -9.35134689182
-9.49143202524 күткөн -9.25278738555
-9.49143202524 элдик -9.35372173908
-9.49143202524 кетиши -9.47358460487
-9.49143202524 бекеринен -9.35009756385
-9.49143202524 жылдын -9.35336424608
-9.49143202524 ылдый -9.35246453165
-9.49143202524 жайында -9.48626294209
-9.49143202524 падышанын -9.35072785478
-9.49143202524 түш -9.40253975448
-9.49143202524 кызматчы -9.35030408222
-9.49143202524 шайтан -9.32617021407
-9.49143202524 жоон -9.35241030613
-9.49143202524 аргасыз -9.34859630708
-9.49143202524 букаралар -9.48653801786
-9.49143202524 мойнуна -9.48640523211
-9.49143202524 эмненин -9.35268140435
-9.49143202524 баратып -9.25429591622
-9.49143202524 маң -9.40330278271
-9.49143202524 басылды -9.4063696384
-9.49143202524 айылдар -9.32650417079
-9.49143202524 кер -9.35333174038
-9.49143202524 ачылды -9.40483738626
-9.49143202524 жабыла -9.35319087013
-9.49143202524 комузчуну -9.33782586081
-9.49143202524 мейманга -9.35290907007
-9.49143202524 кошулган -9.34443979387
-9.49143202524 той -9.33168843427
-9.49143202524 илинген -9.40412702368
-9.49143202524 карылыкка -9.35285486865
-9.49143202524 койсо -9.33885977095
-9.49143202524 жыгач -9.33900267442
-9.49143202524 топтон -9.34571804252
-9.49143202524 алам -9.39837409392
-9.49143202524 уктап -9.35131432047
-9.49143202524 бээ -9.33808993951
-9.49143202524 кыймыл -9.48887784282
-9.49143202524 ачылып -9.35071699106
-9.49143202524 аргасыздан -9.34587088595
-9.49143202524 адамдар -9.47457371039
-9.49143202524 комузчулардын -9.35248622104
-9.49143202524 ит -9.49018273351
-9.49143202524 токтотту -9.40579403374
-9.49143202524 бербейт -9.40581459676
-9.49143202524 озунуп -9.40196194046
-9.49143202524 багы -9.34573987872
-9.49143202524 көптү -9.35197639605
-9.49143202524 түрмөгө -9.35117316572
-9.49143202524 кан -9.35388419366
-9.49143202524 таңында -9.47892183481
-9.49143202524 тың -9.48043063484
-9.49143202524 чыкканча -9.35003233866
-9.49143202524 айдап -9.35032581852
-9.49143202524 там -9.48917111876
-9.49143202524 билүүчү -9.40360164857
-9.49143202524 меймандын -9.34502995782
-9.49143202524 ээрчий -9.48869805053
-9.49143202524 байланып -9.35015191492
-9.49143202524 ашка -9.35197639605
-9.49143202524 сый -9.32544625834
-9.49143202524 жетпейт -9.24551217745
-9.49143202524 шек -9.35340758537
-9.49143202524 шамал -9.34810627914
-9.49143202524 эшикти -9.25185239154
-9.49143202524 жеңесинин -9.35174851787
-9.49143202524 болчу -9.39614460044
-9.49143202524 чалып -9.48626294209
-9.49143202524 жете -9.48781754792
-9.49143202524 күтөт -9.40619493629
-9.49143202524 тилеп -9.47918938311
-9.49143202524 жакында -9.35121660007
-9.62496341787 орусча -9.37239752085
-9.62496341787 капысынан -9.48582296229
-9.62496341787 шулыин -9.53027802599
-9.62496341787 жүз -9.48684202094
-9.62496341787 алек -9.53921232835
-9.62496341787 жүрө -9.48519366296
-9.62496341787 учуру -9.61844554139
-9.62496341787 аялдар -9.47342471121
-9.62496341787 үндү -9.48637598468
-9.62496341787 кетүүгө -9.48687452699
-9.62496341787 болоюн -9.53769963223
-9.62496341787 ошолордун -9.62183108354
-9.62496341787 эмнесин -9.48724285511
-9.62496341787 кат -9.48724285511
-9.62496341787 берүүгө -9.48598564768
-9.62496341787 үчүнчү -9.48211742311
-9.62496341787 коноктор -9.59601478419
-9.62496341787 тапкан -9.48182343516
-9.62496341787 дыйкан -9.38557736283
-9.62496341787 уккандан -9.62126288557
-9.62496341787 колуктусу -9.60232890246
-9.62496341787 карышкыр -9.48602902598
-9.62496341787 атасынан -9.4805921025
-9.62496341787 аяк -9.62349593754
-9.62496341787 кармашып -9.48598564768
-9.62496341787 адаты -9.35401778338
-9.62496341787 суусун -9.48121340671
-9.62496341787 жеңем -9.47837624677
-9.62496341787 көрүнүшү -9.60695198561
-9.62496341787 каргаша -9.48201943673
-9.62496341787 бөлүндү -9.5370094122
-9.62496341787 тарапта -9.37722130487
-9.62496341787 кишиден -9.48181254506
-9.62496341787 ооруп -9.4777859796
-9.62496341787 дүйнөнүн -9.48611577694
-9.62496341787 кыңк -9.48703704142
-9.62496341787 отурушуп -9.47537757969
-9.62496341787 берейин -9.38115518227
-9.62496341787 ачуулуу -9.47742508918
-9.62496341787 башкаларга -9.47183106786
-9.62496341787 жанкороз -9.45650199716
-9.62496341787 тууганы -9.48120250996
-9.62496341787 алыңыз -9.53689604696
-9.62496341787 николай -9.5999899688
-9.62496341787 чачын -9.484433636
-9.62496341787 соконун -9.48649522393
-9.62496341787 төр -9.48682034965
-9.62496341787 ракмат -9.52964495364
-9.62496341787 кечки -9.48722119251
-9.62496341787 чогуу -9.47834346329
-9.62496341787 секирип -9.48492229107
-9.62496341787 арсыкул -9.4806030059
-9.62496341787 белдүү -9.48673365979
-9.62496341787 өмүрүн -9.47752352676
-9.62496341787 жердин -9.48342299154
-9.62496341787 козголду -9.53985992687
-9.62496341787 кашын -9.6248560322
-9.62496341787 баласын -9.48661444897
-9.62496341787 жинди -9.62016345318
-9.62496341787 түтүн -9.47880233425
-9.62496341787 кээси -9.48434673898
-9.62496341787 кимдер -9.477293824
-9.62496341787 колхоз -9.3861886794
-9.62496341787 угушту -9.38913214548
-9.62496341787 кишилерди -9.48452052546
-9.62496341787 берчү -9.37707620384
-9.62496341787 алдыга -9.62252195601
-9.62496341787 тагдыр -9.59856653615
-9.62496341787 кесе -9.48469428175
-9.62496341787 тургандай -9.47345765634
-9.62496341787 качты -9.53071367901
-9.62496341787 боюнда -9.48614830661
-9.62496341787 жолоочулар -9.48536730233
-9.62496341787 чөгөлөп -9.62356209605
-9.62496341787 тизгинин -9.48468342287
-9.62496341787 токтогулдан -9.62201094562
-9.62496341787 каткырып -9.53823499721
-9.62496341787 төрө -9.47896616572
-9.62496341787 чоочуп -9.53883179715
-9.62496341787 жеринен -9.4863868252
-9.62496341787 сөздөрүн -9.46667005067
-9.62496341787 келгенине -9.47810301824
-9.62496341787 айлынан -9.48485715085
-9.62496341787 күчтүү -9.38434160241
-9.62496341787 барбайт -9.38909630169
-9.62496341787 оогон -9.48479200639
-9.62496341787 кабыл -9.6237983407
-9.62496341787 жылаңбаш -9.48640850589
-9.62496341787 семиз -9.4841294634
-9.62496341787 кичүү -9.53074478982
-9.62496341787 кубанычы -9.59502337631
-9.62496341787 калдыбы -9.47207302552
-9.62496341787 угат -9.53778201473
-9.62496341787 башталган -9.38121539748
-9.62496341787 жаап -9.62026776159
-9.62496341787 уй -9.4706314133
-9.62496341787 үйдөгү -9.48595311272
-9.62496341787 даанышман -9.48439018843
-9.62496341787 кече -9.61253851202
-9.62496341787 күчү -9.47406145811
-9.62496341787 көрдүм -9.53238192623
-9.62496341787 белгиси -9.61647723336
-9.62496341787 төбөсүнө -9.48508512304
-9.62496341787 ишенет -9.53362353261
-9.62496341787 тартат -9.53747304534
-9.62496341787 калк -9.46903330864
-9.62496341787 атайдан -9.48359693862
-9.62496341787 шерменде -9.53887294264
-9.62496341787 калам -9.61549638833
-9.62496341787 караңгы -9.3855653725
-9.62496341787 дөбөгө -9.48623504723
-9.62496341787 карабаш -9.48587719369
-9.62496341787 бетине -9.48686369176
-9.62496341787 дүйнөдө -9.46611708176
-9.62496341787 каранды -9.61930961179
-9.62496341787 түнкүсүн -9.46969490311
-9.62496341787 кыжыры -9.48543240933
-9.62496341787 муруттары -9.48722119251
-9.62496341787 кайтарып -9.48453138612
-9.62496341787 абдыракманга -9.4869287014
-9.62496341787 түрүнүп -9.48450966469
-9.62496341787 калгансып -9.4866578
-9.62496341787 кубаныч -9.59265752523
-9.62496341787 өзүнөн -9.61018505202
-9.62496341787 тоонун -9.48682034965
-9.62496341787 десең -9.60538445905
-9.62496341787 уккусу -9.62178374604
-9.62496341787 көрсө -9.62316507934
-9.62496341787 чыгарын -9.61658192697
-9.62496341787 көнбөдү -9.38884535916
-9.62496341787 баштан -9.48703704142
-9.62496341787 жоголгон -9.3785745668
-9.62496341787 акылы -9.46534241124
-9.62496341787 ээсинин -9.6241195439
-9.62496341787 антип -9.48471599916
-9.62496341787 ыйык -9.61841704284
-9.62496341787 махаббат -9.59997061595
-9.62496341787 таптакыр -9.48495485958
-9.62496341787 айлын -9.62098814077
-9.62496341787 керт -9.48581211565
-9.62496341787 баатырдын -9.48744862646
-9.62496341787 тийгенде -9.48596395783
-9.62496341787 тагдырына -9.48689619711
-9.62496341787 өкмөтү -9.46791863512
-9.62496341787 колдорун -9.48698287288
-9.62496341787 азаптуу -9.62452562377
-9.62496341787 билгенин -9.4871345374
-9.62496341787 ойлоно -9.61872098555
-9.62496341787 айтканын -9.48043944239
-9.62496341787 аттар -9.4713139621
-9.62496341787 кыргыздар -9.47362236571
-9.62496341787 арбак -9.62412898949
-9.62496341787 кийинчерээк -9.61884443589
-9.62496341787 ден -9.48740530969
-9.62496341787 сагынган -9.62359989894
-9.62496341787 эшенкул -9.48607240241
-9.62496341787 шарият -9.45582043669
-9.62496341787 эси -9.48180165484
-9.62496341787 аркы -9.48671198616
-9.62496341787 билсе -9.59891531928
-9.62496341787 гөр -9.47552005559
-9.62496341787 чорду -9.61031913751
-9.62496341787 бечара -9.61031913751
-9.62496341787 көргүсү -9.62188788559
-9.62496341787 болуштар -9.59176034932
-9.62496341787 атчандар -9.47288645372
-9.62496341787 туштуштан -9.48625673121
-9.62496341787 көрүү -9.48268337872
-9.62496341787 берсең -9.48296623645
-9.62496341787 маматка -9.52900109211
-9.62496341787 аксакалдын -9.62200148
-9.62496341787 кеңколдун -9.47293040397
-9.62496341787 күбө -9.47059837493
-9.62496341787 бийлиги -9.48693953593
-9.62496341787 жорго -9.38726656254
-9.62496341787 көрбөй -9.47545430001
-9.62496341787 тайып -9.61885393144
-9.62496341787 манаптын -9.48350996886
-9.62496341787 өтөт -9.53875978847
-9.62496341787 чайдан -9.38362103746
-9.62496341787 ичин -9.46989329613
-9.62496341787 суусар -9.62478995925
-9.62496341787 сурайт -9.38504965201
-9.62496341787 жаздап -9.48182343516
-9.62496341787 манастын -9.48742696831
-9.62496341787 кыл -9.48266161712
-9.62496341787 ишти -9.48431415065
-9.62496341787 кетчүдөй -9.48043944239
-9.62496341787 кордук -9.48021040853
-9.62496341787 кокус -9.60764360836
-9.62496341787 кайрат -9.48528048642
-9.62496341787 эсимде -9.37789816475
-9.62496341787 жөнөгөндө -9.47599117748
-9.62496341787 жетет -9.37132780702
-9.62496341787 короонун -9.48614830661
-9.62496341787 курман -9.38659601626
-9.62496341787 нан -9.48657109606
-9.62496341787 короо -9.53596803006
-9.62496341787 ошолор -9.51539387471
-9.62496341787 кудая -9.6249315388
-9.62496341787 чакыртып -9.47509256697
-9.62496341787 коркот -9.53059959775
-9.62496341787 жаныбекке -9.60381447149
-9.62496341787 келсин -9.53076552982
-9.62496341787 ажырап -9.48678784184
-9.62496341787 тарткан -9.48611577694
-9.62496341787 чыбыкты -9.61883494025
-9.62496341787 тетири -9.62349593754
-9.62496341787 казан -9.47081861014
-9.62496341787 өзгөрүлүп -9.48521536953
-9.62496341787 селт -9.48690703199
-9.62496341787 топтун -9.62359989894
-9.62496341787 күрмөчөн -9.61969867439
-9.62496341787 башканын -9.62367550045
-9.62496341787 назик -9.6187399789
-9.62496341787 бийликтен -9.48699370682
-9.62496341787 айдыралы -9.38810411359
-9.62496341787 кучакташып -9.48452052546
-9.62496341787 келечеги -9.48611577694
-9.62496341787 жоругу -9.47894432308
-9.62496341787 эсенбекке -9.62357154691
-9.62496341787 ачуу -9.46724481415
-9.62496341787 эртеден -9.62361879986
-9.62496341787 күчүн -9.48670114916
-9.62496341787 күттү -9.53989075443
-9.62496341787 өңдүү -9.47646207751
-9.62496341787 коюшат -9.53989075443
-9.62496341787 кыштын -9.48561685612
-9.62496341787 жүрсө -9.47160005365
-9.62496341787 көкөй -9.48739448021
-9.62496341787 баалуу -9.48738365061
-9.62496341787 жөнөштү -9.53989075443
-9.62496341787 орустар -9.53083811644
-9.62496341787 алышат -9.53924317589
-9.62496341787 ишенимдүү -9.53977771538
-9.62496341787 келинчеги -9.61750466003
-9.62496341787 кабагы -9.4873511611
-9.62496341787 манаптарды -9.48669031205
-9.62496341787 түнкү -9.48669031205
-9.62496341787 көпчүлүктүн -9.4858446552
-9.62496341787 жээни -9.61506756164
-9.62496341787 түбүнөн -9.48009041748
-9.62496341787 шарт -9.47932650051
-9.62496341787 айтайын -9.52249774979
-9.62496341787 акынды -9.46971694872
-9.62496341787 немени -9.48467256386
-9.62496341787 окуучулар -9.3708168581
-9.62496341787 билимдүү -9.46391323022
-9.62496341787 көрүнбөй -9.482977114
-9.62496341787 маркум -9.47062040063
-9.62496341787 бүткөн -9.38828349759
-9.62496341787 аяп -9.48073383744
-9.62496341787 дасторкон -9.48731867054
-9.62496341787 дили -9.61346498191
-9.62496341787 күбүрөп -9.48622420506
-9.62496341787 кадыресе -9.48512854042
-9.62496341787 алыстан -9.477293824
-9.62496341787 келатат -9.53971605232
-9.62496341787 бригадир -9.37812770959
-9.62496341787 максаты -9.60617333783
-9.62496341787 кооз -9.48722119251
-9.62496341787 мол -9.38170902548
-9.62496341787 таята -9.53180198193
-9.62496341787 көңүлсүз -9.37927464408
-9.62496341787 дөңгө -9.48386867037
-9.62496341787 ошого -9.6198220041
-9.62496341787 күндүн -9.48669031205
-9.62496341787 кайтып -9.4851828095
-9.62496341787 көбү -9.48357519689
-9.62496341787 сөзүнөн -9.46874648172
-9.62496341787 алардан -9.62163225097
-9.62496341787 жанагы -9.48469428175
-9.62496341787 жантакпайды -9.4847377161
-9.62496341787 билем -9.53929458634
-9.62496341787 бардыр -9.53894494317
-9.62496341787 эп -9.37328402958
-9.62496341787 айтчы -9.61603930495
-9.62496341787 айласы -9.62424232962
-9.62496341787 жеткирип -9.48603987027
-9.62496341787 кесип -9.48703704142
-9.62496341787 үстү -9.62412898949
-9.62496341787 баамдуу -9.62062801605
-9.62496341787 баратканда -9.48000314221
-9.62496341787 тынчы -9.62415732572
-9.62496341787 ушунча -9.62439342982
-9.62496341787 чепкенин -9.62483715466
-9.62496341787 төшөктө -9.53882151051
-9.62496341787 аягына -9.6231934429
-9.62496341787 чертчү -9.38027562705
-9.62496341787 алсыз -9.48485715085
-9.62496341787 жайнаган -9.62381723787
-9.62496341787 мурду -9.48725368624
-9.62496341787 болгондуктан -9.47200704287
-9.62496341787 ийкеди -9.52603606167
-9.62496341787 жымжырт -9.53657649391
-9.62496341787 калп -9.52922960656
-9.62496341787 терек -9.53043363814
-9.62496341787 жанаша -9.38815195247
-9.62496341787 этек -9.62399674309
-9.62496341787 тигилген -9.38374116768
-9.7791140977 барабыз -9.52839504764
-9.7791140977 маңдайынан -9.63523393929
-9.7791140977 үрөн -9.63893240973
-9.7791140977 колхозго -9.64080904081
-9.7791140977 орустан -9.77621760577
-9.7791140977 сүйлөшөлү -9.69180914038
-9.7791140977 уруп -9.64143741291
-9.7791140977 аңгеме -9.63263684701
-9.7791140977 көйнөк -9.63865006803
-9.7791140977 акмак -9.681800518
-9.7791140977 болжоду -9.69403115777
-9.7791140977 жоробай -9.63527753032
-9.7791140977 кылчактап -9.77630278667
-9.7791140977 ачыгын -9.77872267631
-9.7791140977 угулган -9.6908509158
-9.7791140977 жүрөктү -9.64157820078
-9.7791140977 кундуз -9.64142658225
-9.7791140977 жүрүшү -9.76163996307
-9.7791140977 көздөрүн -9.77862825919
-9.7791140977 бирибиринен -9.63322669509
-9.7791140977 тарапты -9.77788205041
-9.7791140977 болгонуна -9.6403646084
-9.7791140977 уста -9.6387043707
-9.7791140977 кырка -9.64092824517
-9.7791140977 тиктешти -9.68017646501
-9.7791140977 илгерки -9.64124244313
-9.7791140977 жем -9.77357339283
-9.7791140977 чөп -9.76688911783
-9.7791140977 жеңеке -9.76890290964
-9.7791140977 өзүңүз -9.64104743533
-9.7791140977 келгендер -9.5407364196
-9.7791140977 турушат -9.69069627742
-9.7791140977 кысты -9.54259129696
-9.7791140977 көрүүгө -9.54316501358
-9.7791140977 түшүнүп -9.77850550361
-9.7791140977 дуу -9.64146990418
-9.7791140977 кечтим -9.54321280845
-9.7791140977 акча -9.62383530645
-9.7791140977 жылкынын -9.64118827811
-9.7791140977 мааниси -9.63909526292
-9.7791140977 көздөн -9.64032123856
-9.7791140977 керегеге -9.64148073437
-9.7791140977 билишкен -9.68749505203
-9.7791140977 аңгемени -9.77228191828
-9.7791140977 аралаша -9.63830246108
-9.7791140977 шайыр -9.69096430208
-9.7791140977 намысына -9.777475652
-9.7791140977 молдого -9.63840023775
-9.7791140977 жаныбектин -9.77599042125
-9.7791140977 кыдырып -9.63652996047
-9.7791140977 үчөө -9.76405723043
-9.7791140977 бурулуп -9.77774975278
-9.7791140977 үйүрү -9.62289791838
-9.7791140977 суроону -9.61973741538
-9.7791140977 сакалдуу -9.63807427834
-9.7791140977 силерди -9.62297514826
-9.7791140977 жылаңаяк -9.64051638802
-9.7791140977 ийкеп -9.63277887927
-9.7791140977 молдону -9.76595242124
-9.7791140977 айымкандын -9.6392472353
-9.7791140977 эске -9.64027786685
-9.7791140977 малын -9.63844369098
-9.7791140977 калчудай -9.54157453222
-9.7791140977 айылдык -9.64149156444
-9.7791140977 дайынсыз -9.69344527145
-9.7791140977 дейсиң -9.69245773896
-9.7791140977 тай -9.64103660045
-9.7791140977 кызматынан -9.64070066087
-9.7791140977 эркине -9.64074401426
-9.7791140977 жылып -9.77500535814
-9.7791140977 суроосу -9.63587671436
-9.7791140977 апам -9.77705963142
-9.7791140977 жаагы -9.64149156444
-9.7791140977 буруп -9.62940837237
-9.7791140977 эптеп -9.77155948479
-9.7791140977 ченде -9.63073385524
-9.7791140977 жыйнап -9.64001759703
-9.7791140977 калчу -9.68380611981
-9.7791140977 элине -9.64025618028
-9.7791140977 кыя -9.63997421214
-9.7791140977 жүрүшүн -9.64153488355
-9.7791140977 чертүүгө -9.62544336028
-9.7791140977 тоону -9.64061394846
-9.7791140977 мусулман -9.53194190186
-9.7791140977 оюнда -9.6328335017
-9.7791140977 ичке -9.5422803963
-9.7791140977 турмушту -9.64117744476
-9.7791140977 демин -9.6395511108
-9.7791140977 калгандай -9.68670866883
-9.7791140977 конуп -9.77702180278
-9.7791140977 чакырат -9.69317791101
-9.7791140977 чертмек -9.76602891916
-9.7791140977 кыял -9.62280964837
-9.7791140977 айтасың -9.76906498187
-9.7791140977 өздөрүнчө -9.64114494398
-9.7791140977 келгени -9.63996336563
-9.7791140977 буулугуп -9.77187323713
-9.7791140977 өнөрпоз -9.63848714232
-9.7791140977 кабат -9.64088489978
-9.7791140977 алабы -9.54163437054
-9.7791140977 берүүдөн -9.76378893354
-9.7791140977 куудул -9.63201385191
-9.7791140977 шакин -9.77046533552
-9.7791140977 серке -9.62792745129
-9.7791140977 балачакасы -9.62811405839
-9.7791140977 сарала -9.64141575148
-9.7791140977 жолду -9.63876953002
-9.7791140977 жоругун -9.63898669707
-9.7791140977 оңдонуп -9.77786315182
-9.7791140977 жигиттери -9.76855961111
-9.7791140977 арманым -9.77229142051
-9.7791140977 калганы -9.6809888212
-9.7791140977 көзек -9.64015858492
-9.7791140977 ынак -9.7688457014
-9.7791140977 жүрчү -9.69309563188
-9.7791140977 забар -9.63573512144
-9.7791140977 келбеген -9.63818294328
-9.7791140977 султаке -9.68877677219
-9.7791140977 алганы -9.77015114107
-9.7791140977 желбегей -9.77908138007
-9.7791140977 оорусу -9.63907355069
-9.7791140977 билинбейт -9.6902631627
-9.7791140977 окуянын -9.63282257745
-9.7791140977 теминип -9.77880764409
-9.7791140977 болом -9.69153104072
-9.7791140977 кудайдын -9.63872609095
-9.7791140977 күндөрдө -9.77562113629
-9.7791140977 алдыңкы -9.64109077368
-9.7791140977 шилтеп -9.77791039763
-9.7791140977 имиш -9.68586986858
-9.7791140977 өзгөчөлүгү -9.62674113335
-9.7791140977 тектүү -9.77808991134
-9.7791140977 окууну -9.775706368
-9.7791140977 чак -9.77868491053
-9.7791140977 сөзим -9.77469258713
-9.7791140977 топту -9.63883468509
-9.7791140977 уюн -9.63996336563
-9.7791140977 манаптардын -9.64106910474
-9.7791140977 агасынын -9.63682378206
-9.7791140977 аралжы -9.77690830828
-9.7791140977 болушкан -9.68936539931
-9.7791140977 жоо -9.62823478561
-9.7791140977 закон -9.63436171944
-9.7791140977 заматта -9.77801433055
-9.7791140977 сүрөп -9.69165465012
-9.7791140977 кызга -9.64085238949
-9.7791140977 карайт -9.69403115777
-9.7791140977 ырдай -9.63980065376
-9.7791140977 мындайда -9.63447078853
-9.7791140977 сурарым -9.77231992664
-9.7791140977 ойной -9.63605095505
-9.7791140977 атаэнесинин -9.64126410832
-9.7791140977 кургакчылык -9.63831332563
-9.7791140977 кайталап -9.54290210099
-9.7791140977 атама -9.63498325399
-9.7791140977 көккашат -9.76709927611
-9.7791140977 калбады -9.6939592253
-9.7791140977 арага -9.64063562727
-9.7791140977 өзүбүздүн -9.63154361619
-9.7791140977 уккандар -9.62686202642
-9.7791140977 найза -9.64115577769
-9.7791140977 аркылуу -9.63321577513
-9.7791140977 камбаркан -9.53388551361
-9.7791140977 койдун -9.64141575148
-9.7791140977 уурулар -9.76109238895
-9.7791140977 жаңырып -9.7752517149
-9.7791140977 коюлду -9.69403115777
-9.7791140977 токтолуп -9.63519034636
-9.7791140977 оттун -9.77836384383
-9.7791140977 оттуу -9.77613241763
-9.7791140977 ачуусун -9.64088489978
-9.7791140977 белин -9.64152405395
-9.7791140977 эсинде -9.51604680152
-9.7791140977 барар -9.5431411153
-9.7791140977 кызына -9.77837328844
-9.7791140977 кечирип -9.77868491053
-9.7791140977 сырттан -9.77746619891
-9.7791140977 көрүнгөн -9.6357024433
-9.7791140977 угушуп -9.77595255215
-9.7791140977 күүлөрүнүн -9.64062478793
-9.7791140977 кыткылыктап -9.773127263
-9.7791140977 чолок -9.64110160798
-9.7791140977 чык -9.69129408
-9.7791140977 аткаруу -9.62365892405
-9.7791140977 токтобой -9.63632314537
-9.7791140977 карамолдонун -9.639171252
-9.7791140977 чукул -9.7738295902
-9.7791140977 качырып -9.63889983591
-9.7791140977 көргөздү -9.69403115777
-9.7791140977 баратам -9.69226217417
-9.7791140977 жазгы -9.77702180278
-9.7791140977 чайкады -9.67923831019
-9.7791140977 жатышкан -9.69063441537
-9.7791140977 милиционер -9.76641132103
-9.7791140977 тунук -9.7735449224
-9.7791140977 кызыган -9.63408899464
-9.7791140977 учу -9.6284323078
-9.7791140977 баштайт -9.54195743559
-9.7791140977 жүрөктөрү -9.63891069397
-9.7791140977 ий -9.63413263561
-9.7791140977 болору -9.6386935104
-9.7791140977 чымчык -9.68149881023
-9.7791140977 казак -9.64145907387
-9.7791140977 тийгенин -9.77705963142
-9.7791140977 тегин -9.77778755389
-9.7791140977 жаккы -9.63896498249
-9.7791140977 жолуна -9.63815034504
-9.7791140977 токтоно -9.63914954142
-9.7791140977 баласына -9.62625741487
-9.7791140977 козу -9.63892155191
-9.7791140977 угулганда -9.62819088649
-9.7791140977 күүлөрдү -9.64104743533
-9.7791140977 урунду -9.69403115777
-9.7791140977 тааныды -9.68780529629
-9.7791140977 огонбайдын -9.640917409
-9.7791140977 түбү -9.62571845285
-9.7791140977 шашылып -9.77730548268
-9.7791140977 болосуң -9.69095399477
-9.7791140977 шумдук -9.63865006803
-9.7791140977 акылга -9.64025618028
-9.7791140977 чычкан -9.77629332248
-9.7791140977 булбул -9.62576246064
-9.7791140977 айтышууну -9.64143741291
-9.7791140977 чекир -9.7778537024
-9.7791140977 кырына -9.77554536867
-9.7791140977 жардамы -9.62816893621
-9.7791140977 досунун -9.76962726418
-9.7791140977 байлык -9.76969395467
-9.7791140977 капарына -9.76436376734
-9.7791140977 колуңду -9.63962706525
-9.7791140977 баскан -9.69073751666
-9.7791140977 кестикбайдын -9.63898669707
-9.7791140977 алакан -9.64143741291
-9.7791140977 токо -9.77686101511
-9.7791140977 жообун -9.77867546886
-9.7791140977 өлгөнү -9.63859576241
-9.7791140977 жетим -9.63913868596
-9.7791140977 кылышты -9.68751573797
-9.7791140977 мүчөсү -9.77833550946
-9.7791140977 күйүп -9.6388129672
-9.7791140977 ордун -9.64114494398
-9.7791140977 болсом -9.63298642861
-9.7791140977 арт -9.7786377013
-9.7791140977 кабарды -9.77683263813
-9.7791140977 манап -9.7609194085
-9.7791140977 акшыя -9.77788205041
-9.7791140977 колдо -9.77584840471
-9.7791140977 төгүлгөн -9.64062478793
-9.7791140977 кемпири -9.6227765451
-9.7791140977 жалдырап -9.68564192473
-9.7791140977 кыймылга -9.63868264999
-9.7791140977 ийип -9.77801433055
-9.7791140977 жайнап -9.77739057096
-9.7791140977 кайдасың -9.63315025292
-9.7791140977 жалдын -9.64125327578
-9.7791140977 акыр -9.6410040951
-9.7791140977 кыздар -9.7453347278
-9.7791140977 кимисинин -9.77750401073
-9.7791140977 саан -9.63576779851
-9.7791140977 күрмөсүн -9.64117744476
-9.7791140977 аткара -9.7728234011
-9.7791140977 табышмактуу -9.54280647927
-9.7791140977 оорулуу -9.77617974527
-9.7791140977 балдарынын -9.64003928877
-9.7791140977 экенине -9.63936662598
-9.7791140977 нерседен -9.63140140835
-9.7791140977 жаштык -9.63107315923
-9.7791140977 алиги -9.77775920319
-9.7791140977 советинин -9.64117744476
-9.7791140977 капа -9.77657720908
-9.7791140977 кыялы -9.6284323078
-9.7791140977 тамашалуу -9.77658667058
-9.7791140977 утурлай -9.64055974939
-9.7791140977 турасыңбы -9.63456894055
-9.7791140977 өкүм -9.64119911135
-9.7791140977 кайрыды -9.69249890563
-9.7791140977 олчойгон -9.77614188334
-9.7791140977 барбай -9.62913429313
-9.7791140977 кубат -9.64053806894
-9.7791140977 артында -9.63816121124
-9.7791140977 түшүрө -9.77839217739
-9.7791140977 кылууга -9.64028870995
-9.7791140977 кылмак -9.69259152442
-9.7791140977 коштоп -9.77687047392
-9.7791140977 токтотушуп -9.77151193797
-9.7791140977 турам -9.69224158617
-9.7791140977 кысып -9.5411795095
-9.7791140977 тилегин -9.64002844296
-9.7791140977 артисттердин -9.77599042125
-9.7791140977 шылдың -9.63623605253
-9.7791140977 күмөн -9.53708844474
-9.7791140977 тойматтын -9.64008267084
-9.7791140977 калдың -9.68347386285
-9.7791140977 эрке -9.63573512144
-9.7791140977 билим -9.63572422884
-9.7791140977 булак -9.66722542908
-9.7791140977 мутаке -9.77680426035
-9.7791140977 түшүндүрдү -9.69394894882
-9.7791140977 кырк -9.77887372515
-9.7791140977 сөзсүз -9.68780529629
-9.7791140977 минди -9.67731756134
-9.7791140977 кечке -9.77828828374
-9.7791140977 карыган -9.63887811944
-9.7791140977 кудуңдап -9.63896498249
-9.7791140977 саламын -9.77798598628
-9.7791140977 улагада -9.77692722493
-9.7791140977 келдиби -9.77297534359
-9.7791140977 сүйөп -9.77739057096
-9.7791140977 кайыш -9.64152405395
-9.7791140977 түрүп -9.63977895685
-9.7791140977 жин -9.63625782645
-9.7791140977 кымбат -9.5431889113
-9.7791140977 көрпө -9.64145907387
-9.7791140977 көзи -9.5374370171
-9.7791140977 үнсүз -9.69291047908
-9.7791140977 чыкканын -9.64015858492
-9.7791140977 эх -9.77781590379
-9.7791140977 кызматка -9.64133993277
-9.7791140977 башта -9.77302282089
-9.7791140977 кобурашып -9.77730548268
-9.7791140977 чыны -9.53975373632
-9.7791140977 дүбүртү -9.63903012483
-9.7791140977 тамыр -9.77542223404
-9.7791140977 кечикпей -9.62995630558
-9.7791140977 атагы -9.63678025838
-9.7791140977 олуяатага -9.6406681446
-9.7791140977 жүгүрүп -9.63723716254
-9.7791140977 алгач -9.77130270509
-9.7791140977 болбоду -9.69314705713
-9.7791140977 аксакалдар -9.63413263561
-9.7791140977 чогултуп -9.64117744476
-9.7791140977 аккыздын -9.63889983591
-9.7791140977 каптал -9.77801433055
-9.7791140977 абышканы -9.64079820334
-9.7791140977 көңүлгө -9.64143741291
-9.7791140977 жал -9.77617974527
-9.7791140977 өлүм -9.76721388929
-9.7791140977 буттары -9.64130743728
-9.7791140977 өздөрүн -9.64075485231
-9.7791140977 өлгөн -9.68975762499
-9.7791140977 илинип -9.77448401876
-9.7791140977 аралашып -9.64122077748
-9.7791140977 өх -9.77692722493
-9.7791140977 катарында -9.69341442581
-9.7791140977 токолунун -9.77804267401
-9.7791140977 карашын -9.6397355616
-9.7791140977 жакындап -9.77547906729
-9.7791140977 билесиңби -9.7646127594
-9.7791140977 ашкан -9.54260325275
-9.7791140977 отурса -9.62075517087
-9.7791140977 шашып -9.7749864051
-9.7791140977 убакка -9.77851494688
-9.7791140977 пишпекке -9.63651907653
-9.96143565449 достук -9.94896152838
-9.96143565449 сөзгендей -9.81975506912
-9.96143565449 десте -9.72552408886
-9.96143565449 комузчуларды -9.82158022417
-9.96143565449 таштады -9.8752834809
-9.96143565449 бөлүнгөн -9.87297662729
-9.96143565449 бешим -9.87616773607
-9.96143565449 музыка -9.81064483199
-9.96143565449 куюп -9.81411738101
-9.96143565449 тирүүсүндө -9.8155379755
-9.96143565449 кишилеринин -9.82257830403
-9.96143565449 жаз -9.72392171605
-9.96143565449 айланайын -9.82276262284
-9.96143565449 күндөрү -9.95601752451
-9.96143565449 таасири -9.94800547794
-9.96143565449 гүл -9.82379201478
-9.96143565449 сүртүнүп -9.95926687963
-9.96143565449 жорук -9.71949589518
-9.96143565449 түгөнүп -9.95773351445
-9.96143565449 тал -9.82385699344
-9.96143565449 беришкен -9.71944781132
-9.96143565449 тартуу -9.72034899914
-9.96143565449 кармады -9.87587992487
-9.96143565449 мурутунан -9.96121332468
-9.96143565449 батышты -9.96037284962
-9.96143565449 жогол -9.72146534533
-9.96143565449 сыйлай -9.95807446552
-9.96143565449 алдыларына -9.82369453886
-9.96143565449 кырынан -9.94760366403
-9.96143565449 алейкум -9.82101565111
-9.96143565449 кирет -9.87604439856
-9.96143565449 кетсе -9.81423766335
-9.96143565449 чыгуучу -9.86611740022
-9.96143565449 ийни -9.94241343225
-9.96143565449 күйөөсүнөн -9.82000513844
-9.96143565449 төмөнтөн -9.8198638026
-9.96143565449 жесир -9.95819755817
-9.96143565449 жаңыртып -9.72368233556
-9.96143565449 келгенче -9.94789069044
-9.96143565449 тараптагы -9.82120025815
-9.96143565449 кийинип -9.82186239122
-9.96143565449 театр -9.80892051374
-9.96143565449 кучактап -9.95987200621
-9.96143565449 кет -9.8754480527
-9.96143565449 кетментөбөнүн -9.82369453886
-9.96143565449 байкай -9.95974911951
-9.96143565449 бээсин -9.8231636699
-9.96143565449 машак -9.82392196789
-9.96143565449 тизесин -9.8238136748
-9.96143565449 орустардын -9.80909637657
-9.96143565449 сабырлуу -9.72412514442
-9.96143565449 бакыт -9.82323952558
-9.96143565449 өмүрдү -9.82375952386
-9.96143565449 күчөп -9.95715552631
-9.96143565449 угуу -9.94487279636
-9.96143565449 турушкан -9.87395563033
-9.96143565449 сайрап -9.95993816972
-9.96143565449 эшек -9.82360788563
-9.96143565449 астына -9.82246986533
-9.96143565449 катты -9.87568457723
-9.96143565449 башкалардан -9.82319618019
-9.96143565449 жагып -9.9577998196
-9.96143565449 аке -9.87241971381
-9.96143565449 абдыракмандан -9.95859513862
-9.96143565449 мукамдуу -9.95972075889
-9.96143565449 лам -9.96143041128
-9.96143565449 ыкласы -9.9499357591
-9.96143565449 айланган -9.72451991668
-9.96143565449 чыгышкан -9.8148388581
-9.96143565449 малдарын -9.96068456885
-9.96143565449 түйшүктүү -9.82017906282
-9.96143565449 атаке -9.95800817858
-9.96143565449 ийи -9.82214447866
-9.96143565449 анжиянда -9.94565928416
-9.96143565449 басат -9.72550019171
-9.96143565449 эзелден -9.95923850534
-9.96143565449 жарым -9.93867438964
-9.96143565449 жумадан -9.95769562382
-9.96143565449 төш -9.82360788563
-9.96143565449 кем -9.8234562244
-9.96143565449 шылк -9.9609395396
-9.96143565449 кулактын -9.82390031021
-9.96143565449 учкан -9.72213695313
-9.96143565449 жайлоого -9.82377035429
-9.96143565449 жашыл -9.87610606922
-9.96143565449 карамагындагы -9.82369453886
-9.96143565449 узак -9.72538069741
-9.96143565449 көөрү -9.96121332468
-9.96143565449 бүктөп -9.82384616396
-9.96143565449 туулуп -9.82105909113
-9.96143565449 кантет -9.815472454
-9.96143565449 окшоду -9.87634243818
-9.96143565449 сураса -9.95447916494
-9.96143565449 аялдан -9.80767760121
-9.96143565449 куран -9.82369453886
-9.96143565449 барам -9.87559203082
-9.96143565449 угууга -9.82378118459
-9.96143565449 тургандардын -9.95775245923
-9.96143565449 ток -9.82083101
-9.96143565449 кошумча -9.82377035429
-9.96143565449 тамашасын -9.95368056435
-9.96143565449 жайдары -9.82154766131
-9.96143565449 күлкүсүн -9.82341288839
-9.96143565449 таяна -9.95993816972
-9.96143565449 бөлөсү -9.94860789624
-9.96143565449 аттанып -9.82210108577
-9.96143565449 табат -9.72489062144
-9.96143565449 бүтөр -9.93976478127
-9.96143565449 күйөөгө -9.82341288839
-9.96143565449 үйлөрдүн -9.82343455663
-9.96143565449 эрегишип -9.82241564157
-9.96143565449 атың -9.94193238086
-9.96143565449 алымбайга -9.96091121273
-9.96143565449 өзөндүн -9.9608923277
-9.96143565449 акырына -9.96136434644
-9.96143565449 чыкпады -9.87631161061
-9.96143565449 падышалык -9.82380284485
-9.96143565449 отурушу -9.93614164141
-9.96143565449 тумар -9.72542849685
-9.96143565449 муздак -9.96104339794
-9.96143565449 болгондон -9.95913445937
-9.96143565449 эмнеден -9.82380284485
-9.96143565449 айдоо -9.81841667945
-9.96143565449 аа -9.82113510661
-9.96143565449 абышкалардын -9.82115682426
-9.96143565449 асмандан -9.82373786267
-9.96143565449 астында -9.87254349917
-9.96143565449 кетпей -9.94445052338
-9.96143565449 каптап -9.82079842273
-9.96143565449 секин -9.82182983754
-9.96143565449 жоопту -9.96066567954
-9.96143565449 жылдар -9.94661757923
-9.96143565449 үйлөр -9.72553603722
-9.96143565449 малынын -9.82207938862
-9.96143565449 күлөт -9.86883360998
-9.96143565449 жиберген -9.86694755997
-9.96143565449 отко -9.82288186985
-9.96143565449 кокуй -9.95477372555
-9.96143565449 иттер -9.94811068824
-9.96143565449 ырга -9.82349955852
-9.96143565449 бетим -9.95437462257
-9.96143565449 өзүңө -9.72364642355
-9.96143565449 жолуң -9.82280598704
-9.96143565449 малдан -9.82151509739
-9.96143565449 жайы -9.72244861779
-9.96143565449 карга -9.81073261578
-9.96143565449 кучактай -9.95905878277
-9.96143565449 дебей -9.95734506743
-9.96143565449 арыз -9.82368370762
-9.96143565449 татынакай -9.95933308319
-9.96143565449 келтирүү -9.95739244709
-9.96143565449 салт -9.87577711508
-9.96143565449 кыйынчылык -9.96041063895
-9.96143565449 даңкын -9.81843845622
-9.96143565449 ишенген -9.81185118413
-9.96143565449 билишет -9.87556118011
-9.96143565449 үшкүрүп -9.95872763031
-9.96143565449 оозгу -9.82384616396
-9.96143565449 чоңоюп -9.82172131765
-9.96143565449 оомийин -9.94963022025
-9.96143565449 токтоп -9.82141739927
-9.96143565449 милиция -9.95452668058
-9.96143565449 тилекке -9.82348872517
-9.96143565449 тилин -9.82361871769
-9.96143565449 көрөсүң -9.87537605587
-9.96143565449 кеткенин -9.9595978536
-9.96143565449 жаак -9.82173217016
-9.96143565449 келдик -9.71684784356
-9.96143565449 айлынын -9.96126052143
-9.96143565449 айылдаштары -9.78517197676
-9.96143565449 бөлмөнүн -9.95264333338
-9.96143565449 таятасынын -9.96034450669
-9.96143565449 чаң -9.82163449325
-9.96143565449 кыйла -9.8234562244
-9.96143565449 сылады -9.87560231418
-9.96143565449 сөзмөр -9.82366204478
-9.96143565449 арка -9.96018388157
-9.96143565449 шакирти -9.96039174446
-9.96143565449 кебетесин -9.81770867626
-9.96143565449 алмак -9.87267758268
-9.96143565449 эшигин -9.82382450464
-9.96143565449 көнгөн -9.95571383852
-9.96143565449 аташат -9.87634243818
-9.96143565449 коюңуз -9.87631161061
-9.96143565449 токто -9.8679324804
-9.96143565449 билишпейт -9.87489251428
-9.96143565449 тосту -9.87634243818
-9.96143565449 алуу -9.95602701322
-9.96143565449 тишин -9.82386782281
-9.96143565449 эткизди -9.85910626102
-9.96143565449 машакты -9.95425105841
-9.96143565449 зыйнатты -9.82387865206
-9.96143565449 карманды -9.87634243818
-9.96143565449 карызынан -9.80912934741
-9.96143565449 балдарына -9.94872260144
-9.96143565449 белем -9.87405862755
-9.96143565449 карыялардын -9.8222637994
-9.96143565449 ойлосо -9.80106314128
-9.96143565449 чырай -9.82176472702
-9.96143565449 токтот -9.82129797748
-9.96143565449 ушундайча -9.82364038147
-9.96143565449 колуктусуна -9.82282766843
-9.96143565449 айлана -9.82137397481
-9.96143565449 жашырып -9.82297942501
-9.96143565449 кызың -9.82335871574
-9.96143565449 коен -9.9589547181
-9.96143565449 артка -9.82385699344
-9.96143565449 мурдун -9.82392196789
-9.96143565449 келинди -9.81872151103
-9.96143565449 чапан -9.82336955051
-9.96143565449 таянып -9.95981529115
-9.96143565449 келинге -9.82277346407
-9.96143565449 келме -9.82356455619
-9.96143565449 өкмөт -9.95761983826
-9.96143565449 бирден -9.72552408886
-9.96143565449 айдалган -9.87501599394
-9.96143565449 фрунзеден -9.95301457633
-9.96143565449 осмонкул -9.82169961225
-9.96143565449 акылына -9.82303361821
-9.96143565449 элепжелеп -9.87327558249
-9.96143565449 сурабай -9.71636562534
-9.96143565449 аалы -9.96103395672
-9.96143565449 бөтөн -9.95865192292
-9.96143565449 арсар -9.95981529115
-9.96143565449 молдодон -9.81502460884
-9.96143565449 колуман -9.95755352118
-9.96143565449 кыскасы -9.95613138299
-9.96143565449 менде -9.81881947288
-9.96143565449 арманы -9.81758881073
-9.96143565449 сизден -9.82153680679
-9.96143565449 булактын -9.96076956632
-9.96143565449 мураталыны -9.95892633495
-9.96143565449 чырканактын -9.96053344439
-9.96143565449 далдаланып -9.82123283232
-9.96143565449 чертилип -9.82366204478
-9.96143565449 айыбы -9.81911330087
-9.96143565449 каттап -9.95899256105
-9.96143565449 районго -9.82162363967
-9.96143565449 буту -9.80515403095
-9.96143565449 эрдикатын -9.80879959011
-9.96143565449 көрүнө -9.95931416834
-9.96143565449 дыңгыратып -9.8221770221
-9.96143565449 кантондук -9.96085455657
-9.96143565449 оокатты -9.95946547716
-9.96143565449 асманды -9.96013663398
-9.96143565449 сот -9.96090177026
-9.96143565449 албасын -9.95127139501
-9.96143565449 айтылган -9.82331537551
-9.96143565449 тилге -9.82344539057
-9.96143565449 салынып -9.96059956415
-9.96143565449 куушуруп -9.87505715043
-9.96143565449 балаага -9.82273009846
-9.96143565449 суроосуна -9.81396427348
-9.96143565449 кашы -9.79583122025
-9.96143565449 тетирисинче -9.95672892738
-9.96143565449 чыкпайт -9.86978564606
-9.96143565449 айткандай -9.87536577019
-9.96143565449 уйлар -9.82362954964
-9.96143565449 мутакем -9.81015090455
-9.96143565449 көңүлүнөн -9.82336955051
-9.96143565449 андасанда -9.82332621074
-9.96143565449 баладан -9.81831867813
-9.96143565449 кийими -9.94310573997
-9.96143565449 көсөө -9.82154766131
-9.96143565449 таар -9.81832956764
-9.96143565449 отургандарга -9.94988802481
-9.96143565449 бышырып -9.82209023726
-9.96143565449 эсен -9.96087344231
-9.96143565449 кестини -9.81933089558
-9.96143565449 демейде -9.82305529467
-9.96143565449 жонуна -9.82318534354
-9.96143565449 барганда -9.81338443964
-9.96143565449 кайнатып -9.96088288505
-9.96143565449 кеткенде -9.81445632144
-9.96143565449 аркасына -9.82359705345
-9.96143565449 жыйын -9.82080928527
-9.96143565449 бөөдө -9.82308780847
-9.96143565449 барышты -9.87634243818
-9.96143565449 келатканда -9.95418451754
-9.96143565449 алышпайт -9.87444992026
-9.96143565449 келатты -9.87634243818
-9.96143565449 кумардан -9.9528146934
-9.96143565449 тиктешет -9.87634243818
-9.96143565449 жолдошу -9.82039642578
-9.96143565449 кулакка -9.82329370469
-9.96143565449 окуяларды -9.95686166655
-9.96143565449 кага -9.95650133352
-9.96143565449 көрсөттү -9.87634243818
-9.96143565449 чукулунан -9.82352122488
-9.96143565449 чертмекчи -9.87174894338
-9.96143565449 тойкожонун -9.81447818462
-9.96143565449 жаным -9.94691446434
-9.96143565449 отурууга -9.96025002445
-9.96143565449 сыздап -9.95880333197
-9.96143565449 суукка -9.823716201
-9.96143565449 жүгүрттү -9.87634243818
-9.96143565449 акысын -9.72529704291
-9.96143565449 каткырышты -9.87634243818
-9.96143565449 сурай -9.95925742163
-9.96143565449 токойдо -9.81380020367
-9.96143565449 өлөт -9.86625234808
-9.96143565449 билдирип -9.95878440709
-9.96143565449 маани -9.96106228011
-9.96143565449 журттун -9.82348872517
-9.96143565449 баа -9.8234670581
-9.96143565449 мутакемдин -9.95818809004
-9.96143565449 аштык -9.823716201
-9.96143565449 ичигин -9.96119444536
-9.96143565449 тынарбек -9.80641110214
-9.96143565449 багып -9.96018388157
-9.96143565449 мактап -9.96104339794
-9.96143565449 тамашасы -9.82134140524
-9.96143565449 бут -9.82219871713
-9.96143565449 назар -9.96133603159
-9.96143565449 никелейден -9.87604439856
-9.96143565449 үстүндөгү -9.8211459655
-9.96143565449 билбеймин -9.8697959893
-9.96143565449 барабара -9.95625471504
-9.96143565449 бука -9.96088288505
-9.96143565449 керегенин -9.82245902082
-9.96143565449 сөйкө -9.7252133814
-9.96143565449 турушуп -9.87545833754
-9.96143565449 алышпай -9.82158022417
-9.96143565449 баламдын -9.82347789169
-9.96143565449 кийим -9.72538069741
-9.96143565449 туруучу -9.86219596933
-9.96143565449 белең -9.72326328178
-9.96143565449 көйнөгүнүн -9.96114724549
-9.96143565449 айдоого -9.82341288839
-9.96143565449 артта -9.9579324167
-9.96143565449 шалдайып -9.82021167028
-9.96143565449 атанын -9.96066567954
-9.96143565449 ынтымактуу -9.86863688086
-9.96143565449 даамдуу -9.82321785312
-9.96143565449 торгой -9.80960180999
-9.96143565449 тилмеч -9.81769777999
-9.96143565449 өзөн -9.95706074227
-9.96143565449 карачы -9.7218611688
-9.96143565449 көрүнүш -9.71834124397
