
\data\
ngram 1=2391
ngram 2=30894

\1-grams:
-1.25537570624 <UNK>
-2.50567458062 </s>
-2.50567458062 <s>
-4.37119522123 да
-4.47498034583 менен
-4.90137547707 бир
-4.98057251873 эле
-5.12198417278 деп
-5.16729936899 атай
-5.29799656038 ал
-5.34631513765 жок
-5.35227344723 жана
-5.46831497231 анын
-5.50013583892 үчүн
-5.57691213962 гана
-5.66824023352 аны
-5.75079063657 эмне
-5.79013005113 бирок
-5.93608396376 болуп
-5.94685606074 бул
-5.95410246926 турган
-5.95774546054 экен
-6.00252906316 эмес
-6.05342067046 кийин
-6.06961535638 өз
-6.11128805278 деген
-6.14592354944 калды
-6.15922751507 алып
-6.16370179546 өзү
-6.18637850414 чоң
-6.19097621338 бар
-6.19559515924 эки
-6.2048975519 султаналы
-6.24786358779 башка
-6.26756865887 мен
-6.29275890769 эч
-6.30301540786 болсо
-6.3133781949 эл
-6.32384949476 же
-6.35593780932 киши
-6.37791671603 ким
-6.40038957189 жакшы
-6.41758197243 ушул
-6.42337909011 деди
-6.440974852 келип
-6.46492809302 баштады
-6.52744845001 ага
-6.56023827283 бери
-6.56692726098 эми
-6.56692726098 кара
-6.57366129316 калган
-6.60106026735 албай
-6.60106026735 керек
-6.62923114432 отурган
-6.65821868119 көз
-6.6805244387 келген
-6.69567624372 берди
-6.69567624372 бала
-6.69567624372 токтогул
-6.70333911647 атайдын
-6.70333911647 сөз
-6.718843303 мамат
-6.74255982962 тыныбек
-6.74255982962 болду
-6.75059200132 алар
-6.79175007381 жаңы
-6.80018894246 жигит
-6.80869963213 жаш
-6.81728337582 күү
-6.83467511853 башын
-6.84348574821 ак
-6.84348574821 кандай
-6.85237469563 баары
-6.86134336561 жолу
-6.87039320113 сен
-6.87039320113 го
-6.87039320113 азыр
-6.8795256847 жалгыз
-6.8795256847 дагы
-6.90743447281 көп
-6.90743447281 ушу
-6.91691321677 алды
-6.94590075364 ар
-6.95575305008 кишилер
-6.95575305008 келди
-6.95575305008 чыгып
-7.00652537546 үйүнө
-7.00652537546 барып
-7.01699667532 болуш
-7.02757878465 субан
-7.02757878465 экенин
-7.03827407377 болгон
-7.03827407377 ошол
-7.04908498988 дегенсип
-7.04908498988 отуруп
-7.06001406041 жөнүндө
-7.09353675245 чыкты
-7.09353675245 жүргөн
-7.10496544827 кызылбаш
-7.10496544827 жаткан
-7.10496544827 койду
-7.10496544827 жер
-7.11652627067 кыз
-7.11652627067 нерсе
-7.11652627067 көзү
-7.12822231043 туруп
-7.12822231043 жооп
-7.15203295913 үйгө
-7.15203295913 көрүп
-7.15203295913 бай
-7.18884693225 турду
-7.18884693225 кетти
-7.18884693225 седеп
-7.20142571446 ушундай
-7.21416474023 боз
-7.21416474023 элдин
-7.21416474023 калышты
-7.21416474023 мындай
-7.22706814507 келин
-7.22706814507 болот
-7.24014022664 карап
-7.24014022664 бири
-7.24014022664 үй
-7.25338545339 абышка
-7.26680847372 жүрүп
-7.26680847372 андан
-7.26680847372 түштү
-7.28041412578 баш
-7.28041412578 чыккан
-7.28041412578 тыныбектин
-7.29420744791 мени
-7.29420744791 айтып
-7.29420744791 тоймат
-7.30819368988 мындан
-7.32237832488 аялы
-7.32237832488 чейин
-7.33676706233 эшикке
-7.33676706233 коюп
-7.33676706233 алардын
-7.33676706233 комуз
-7.35136586175 үйдүн
-7.35136586175 күн
-7.36618094753 мага
-7.36618094753 сөзүн
-7.3812188249 менин
-7.3812188249 элге
-7.3812188249 басып
-7.3812188249 комузчу
-7.3812188249 кайсы
-7.3812188249 болбосо
-7.39648629703 көздөй
-7.39648629703 ой
-7.39648629703 качып
-7.39648629703 ордунан
-7.39648629703 жанына
-7.39648629703 эсенбек
-7.41199048356 аз
-7.41199048356 комузун
-7.41199048356 ат
-7.42773884053 анан
-7.42773884053 чырым
-7.42773884053 түшүп
-7.42773884053 кайра
-7.42773884053 бу
-7.42773884053 бетер
-7.44373918188 баланын
-7.45999970275 балам
-7.45999970275 ала
-7.45999970275 үч
-7.45999970275 кудай
-7.4765290047 таң
-7.4765290047 ачык
-7.4765290047 жакка
-7.49333612302 жерге
-7.49333612302 көргөн
-7.49333612302 аккыз
-7.49333612302 кантип
-7.49333612302 кирип
-7.49333612302 жол
-7.49333612302 кээде
-7.51043055638 эски
-7.52782229909 тура
-7.52782229909 молдо
-7.54552187619 көк
-7.54552187619 атайды
-7.54552187619 жерден
-7.54552187619 алдына
-7.54552187619 балким
-7.54552187619 каякка
-7.56354038169 абдыракман
-7.56354038169 султаналынын
-7.56354038169 окшоп
-7.56354038169 колуна
-7.56354038169 кол
-7.58188952036 келгенде
-7.58188952036 сени
-7.58188952036 балдар
-7.58188952036 мурда
-7.58188952036 түгүл
-7.58188952036 колун
-7.58188952036 мына
-7.58188952036 көзүн
-7.58188952036 элек
-7.58188952036 кылып
-7.60058165337 бет
-7.60058165337 дешип
-7.60058165337 болуштун
-7.60058165337 жүрөгү
-7.60058165337 тең
-7.61962984834 дейт
-7.61962984834 биринчи
-7.61962984834 ырчы
-7.61962984834 карады
-7.61962984834 күнү
-7.6390479342 жаман
-7.6390479342 кызыл
-7.6390479342 көңүлү
-7.6390479342 өзүнүн
-7.6390479342 кыргыз
-7.6390479342 албады
-7.6588505615 алган
-7.6588505615 ары
-7.6588505615 отурду
-7.6588505615 кудайберген
-7.67905326881 чай
-7.67905326881 кош
-7.67905326881 атын
-7.67905326881 калып
-7.67905326881 бүгүн
-7.67905326881 ичинде
-7.69967255602 салып
-7.69967255602 уулу
-7.69967255602 улам
-7.69967255602 үстүнө
-7.72072596521 бий
-7.72072596521 кой
-7.72072596521 жерде
-7.72072596521 атасы
-7.72072596521 тартып
-7.74223217044 ошону
-7.74223217044 талас
-7.74223217044 байдын
-7.76421107715 комузду
-7.76421107715 көрө
-7.76421107715 кайдан
-7.76421107715 аларды
-7.76421107715 үйдө
-7.76421107715 биздин
-7.76421107715 бер
-7.76421107715 деле
-7.76421107715 отура
-7.78668393301 райымбек
-7.78668393301 тиктеп
-7.78668393301 биз
-7.78668393301 беле
-7.78668393301 билбей
-7.78668393301 топ
-7.78668393301 ошондо
-7.80967345123 маматтын
-7.80967345123 өзүнчө
-7.80967345123 бойдон
-7.80967345123 жактан
-7.80967345123 ошо
-7.80967345123 сөзгө
-7.80967345123 жаныбек
-7.80967345123 мал
-7.80967345123 көтөрүп
-7.83320394864 эң
-7.83320394864 угуп
-7.83320394864 чыга
-7.83320394864 үчүндүр
-7.83320394864 атайга
-7.83320394864 сөздү
-7.83320394864 өтүп
-7.83320394864 мураталы
-7.85730150022 ыр
-7.85730150022 кеп
-7.85730150022 берип
-7.85730150022 салам
-7.85730150022 караганда
-7.85730150022 баарын
-7.85730150022 болсун
-7.85730150022 кеткен
-7.85730150022 айыл
-7.85730150022 ээ
-7.88199411281 билген
-7.88199411281 жантакпай
-7.88199411281 бирөө
-7.88199411281 жанында
-7.88199411281 колунан
-7.88199411281 келе
-7.88199411281 элди
-7.88199411281 эгерде
-7.88199411281 кармап
-7.88199411281 көзде
-7.88199411281 катуу
-7.88199411281 өзүн
-7.90731192079 үн
-7.90731192079 туура
-7.90731192079 өзүнө
-7.90731192079 ай
-7.90731192079 мамыр
-7.90731192079 чертип
-7.9332874072 атасынын
-7.9332874072 боло
-7.9332874072 үнү
-7.9332874072 кишинин
-7.9332874072 алымбай
-7.9332874072 тиги
-7.9332874072 иш
-7.9332874072 күүнү
-7.9332874072 жакын
-7.95995565428 комуздун
-7.95995565428 сага
-7.95995565428 келет
-7.95995565428 башы
-7.95995565428 качан
-7.95995565428 өткөн
-7.95995565428 ичинен
-7.95995565428 башына
-7.95995565428 ооба
-7.95995565428 кулак
-7.95995565428 акырында
-7.95995565428 кетип
-7.98735462847 орус
-7.98735462847 сайын
-7.98735462847 жатып
-7.98735462847 калат
-7.98735462847 аксакал
-7.98735462847 түшкөн
-7.98735462847 ачып
-7.98735462847 күлүп
-7.98735462847 жагынан
-7.98735462847 мейман
-7.98735462847 мурун
-7.98735462847 кишилердин
-8.01552550544 ыраазы
-8.01552550544 мүмкүн
-8.01552550544 иреңи
-8.01552550544 кошо
-8.01552550544 ойго
-8.01552550544 тоо
-8.01552550544 сөзү
-8.01552550544 жигиттин
-8.01552550544 баягы
-8.04451304231 уккан
-8.04451304231 өздөрү
-8.04451304231 ичи
-8.04451304231 экендигин
-8.04451304231 жагына
-8.04451304231 уулжан
-8.07436600546 баланы
-8.07436600546 бекен
-8.07436600546 сүйлөдү
-8.07436600546 аларга
-8.07436600546 десе
-8.07436600546 ээси
-8.07436600546 сенин
-8.07436600546 ошондой
-8.07436600546 байбиче
-8.07436600546 алдында
-8.10513766412 көңүл
-8.10513766412 таштап
-8.10513766412 кирди
-8.10513766412 ого
-8.10513766412 суроо
-8.10513766412 албайт
-8.10513766412 арасында
-8.10513766412 байкап
-8.10513766412 баратты
-8.13688636244 иши
-8.13688636244 токтогулдун
-8.13688636244 эмеспи
-8.13688636244 кимдин
-8.13688636244 калың
-8.13688636244 ушуну
-8.13688636244 чал
-8.13688636244 турганда
-8.13688636244 баласы
-8.13688636244 түшүнө
-8.13688636244 өзүм
-8.13688636244 колу
-8.16967618526 айтор
-8.16967618526 көңүлүн
-8.16967618526 турат
-8.16967618526 сыяктуу
-8.16967618526 аттын
-8.16967618526 оозун
-8.16967618526 экөө
-8.16967618526 койгон
-8.16967618526 таластын
-8.16967618526 айтты
-8.16967618526 артына
-8.16967618526 кайда
-8.16967618526 неме
-8.16967618526 седептин
-8.16967618526 акыркы
-8.16967618526 кыздын
-8.16967618526 оозунан
-8.20357773694 а
-8.20357773694 дабышы
-8.20357773694 айткан
-8.20357773694 дем
-8.20357773694 субандын
-8.20357773694 көзүнө
-8.20357773694 канча
-8.20357773694 убакта
-8.20357773694 жери
-8.20357773694 муну
-8.20357773694 атка
-8.20357773694 бектен
-8.20357773694 суу
-8.20357773694 андай
-8.20357773694 турмуш
-8.20357773694 бараткан
-8.20357773694 бүт
-8.20357773694 кызылбаштын
-8.20357773694 болбойт
-8.20357773694 жай
-8.20357773694 эгер
-8.20357773694 күүсүн
-8.20357773694 сонун
-8.23866905675 берет
-8.23866905675 күүгө
-8.23866905675 убакыт
-8.23866905675 көзгө
-8.23866905675 абдыраман
-8.23866905675 кайрадан
-8.23866905675 отурат
-8.23866905675 күйөөсү
-8.23866905675 белгилүү
-8.23866905675 экинчи
-8.23866905675 аралап
-8.23866905675 ойлоп
-8.23866905675 ооз
-8.23866905675 кылды
-8.23866905675 кызы
-8.23866905675 минип
-8.23866905675 эртең
-8.23866905675 бизге
-8.23866905675 болбой
-8.27503670092 тамаша
-8.27503670092 баштаганда
-8.27503670092 этти
-8.27503670092 чыгарып
-8.27503670092 булар
-8.27503670092 түшүндү
-8.27503670092 жогору
-8.27503670092 өтө
-8.27503670092 бурулча
-8.27503670092 берген
-8.27503670092 көргөндө
-8.27503670092 эмнеге
-8.27503670092 айта
-8.27503670092 жатат
-8.3127770289 сары
-8.3127770289 салды
-8.3127770289 жөн
-8.3127770289 кулагына
-8.3127770289 үйдөн
-8.3127770289 болгону
-8.3127770289 келсе
-8.3127770289 ырас
-8.3127770289 башынан
-8.3127770289 кете
-8.3127770289 көрдү
-8.3127770289 оң
-8.3127770289 узун
-8.3127770289 элден
-8.3127770289 боюнча
-8.3127770289 өзүң
-8.3127770289 болор
-8.3127770289 калганын
-8.3127770289 жагында
-8.35199774206 кимиси
-8.35199774206 баштаган
-8.35199774206 өттү
-8.35199774206 ойлойт
-8.35199774206 кошуп
-8.35199774206 кандайдыр
-8.35199774206 айылдын
-8.35199774206 аттан
-8.35199774206 барбы
-8.35199774206 күтүп
-8.35199774206 учурда
-8.35199774206 чыкканда
-8.35199774206 ата
-8.35199774206 акын
-8.35199774206 артынан
-8.35199774206 нерсени
-8.39281973658 кабар
-8.39281973658 кимге
-8.39281973658 башында
-8.39281973658 отурганда
-8.39281973658 тууган
-8.39281973658 он
-8.39281973658 кичинекей
-8.39281973658 укканда
-8.39281973658 болгонун
-8.39281973658 кана
-8.39281973658 кыйын
-8.39281973658 аял
-8.39281973658 үйү
-8.39281973658 келгенин
-8.39281973658 ойлоду
-8.39281973658 болушту
-8.39281973658 алышып
-8.39281973658 эсине
-8.39281973658 кишиге
-8.39281973658 сууруп
-8.39281973658 абдыракмандын
-8.39281973658 дал
-8.39281973658 туш
-8.39281973658 окуу
-8.39281973658 жайын
-8.39281973658 макул
-8.39281973658 чын
-8.39281973658 билет
-8.39281973658 жыл
-8.435379351 оор
-8.435379351 араң
-8.435379351 келаткан
-8.435379351 куу
-8.435379351 бийик
-8.435379351 кое
-8.435379351 шаршен
-8.435379351 жүргөндө
-8.435379351 бардыгы
-8.435379351 ушинтип
-8.435379351 кереги
-8.435379351 темир
-8.435379351 кийип
-8.435379351 башкалар
-8.435379351 кылган
-8.435379351 акыры
-8.435379351 анатолий
-8.435379351 бирде
-8.435379351 дегенде
-8.435379351 угулду
-8.435379351 далай
-8.435379351 катары
-8.435379351 күүсү
-8.435379351 акшайым
-8.435379351 заман
-8.435379351 силер
-8.435379351 күлдү
-8.435379351 чор
-8.47983111357 күч
-8.47983111357 оюн
-8.47983111357 анда
-8.47983111357 акырын
-8.47983111357 элем
-8.47983111357 нечен
-8.47983111357 келгенден
-8.47983111357 кошулуп
-8.47983111357 үстүндө
-8.47983111357 айылга
-8.47983111357 алымкул
-8.47983111357 билчү
-8.47983111357 сыртынан
-8.47983111357 келбей
-8.47983111357 кала
-8.47983111357 аялынын
-8.47983111357 балага
-8.47983111357 эр
-8.47983111357 чакырып
-8.47983111357 оторбай
-8.47983111357 чыгат
-8.47983111357 күйөөсүнүн
-8.47983111357 болуу
-8.47983111357 соңунан
-8.47983111357 айылдагы
-8.47983111357 мунун
-8.47983111357 бирге
-8.47983111357 али
-8.47983111357 сиз
-8.47983111357 көрүндү
-8.5263511292 таш
-8.5263511292 мында
-8.5263511292 төмөн
-8.5263511292 сунду
-8.5263511292 турсун
-8.5263511292 биле
-8.5263511292 жалаң
-8.5263511292 сырын
-8.5263511292 кулагы
-8.5263511292 садыр
-8.5263511292 тууганбай
-8.5263511292 үйүндө
-8.5263511292 кестикбай
-8.5263511292 алдынча
-8.5263511292 ээрчитип
-8.5263511292 бутун
-8.5263511292 сөзди
-8.5263511292 экиүч
-8.5263511292 дегенсишип
-8.5263511292 жүрөт
-8.5263511292 эркин
-8.5263511292 отурушкан
-8.5263511292 бозо
-8.57514129337 беш
-8.57514129337 жан
-8.57514129337 тарапка
-8.57514129337 билип
-8.57514129337 калганда
-8.57514129337 жөнөдү
-8.57514129337 эмнеси
-8.57514129337 экенсиң
-8.57514129337 таап
-8.57514129337 чыгар
-8.57514129337 кулагын
-8.57514129337 кедей
-8.57514129337 оокат
-8.57514129337 отурушту
-8.57514129337 апасы
-8.57514129337 ошондон
-8.57514129337 унчукпай
-8.57514129337 отургандар
-8.57514129337 ашык
-8.57514129337 болорун
-8.57514129337 дегендей
-8.57514129337 шалтакбай
-8.57514129337 бийдин
-8.57514129337 анткени
-8.57514129337 болучу
-8.62643458776 жагын
-8.62643458776 баса
-8.62643458776 күүнүн
-8.62643458776 кетет
-8.62643458776 акыл
-8.62643458776 тааныш
-8.62643458776 меймандар
-8.62643458776 дабыш
-8.62643458776 көзинде
-8.62643458776 ортосунда
-8.62643458776 бере
-8.62643458776 бөлүп
-8.62643458776 кудайга
-8.62643458776 тим
-8.62643458776 жигитке
-8.62643458776 жакта
-8.62643458776 зуура
-8.62643458776 аңгыча
-8.62643458776 өмүрү
-8.62643458776 экөөнүн
-8.62643458776 баратат
-8.62643458776 өмүр
-8.62643458776 этип
-8.62643458776 молдонун
-8.62643458776 мынчалык
-8.62643458776 жардам
-8.62643458776 бою
-8.62643458776 менден
-8.62643458776 федорович
-8.62643458776 эс
-8.62643458776 үйүнөн
-8.62643458776 мугалим
-8.62643458776 койчу
-8.62643458776 тирүү
-8.62643458776 ойлогон
-8.62643458776 кор
-8.62643458776 жараша
-8.62643458776 кайрылып
-8.62643458776 айылда
-8.62643458776 абышкалар
-8.62643458776 тиктеди
-8.68050180903 кайран
-8.68050180903 дале
-8.68050180903 чуркап
-8.68050180903 дешет
-8.68050180903 кашаттын
-8.68050180903 түнү
-8.68050180903 балдардын
-8.68050180903 башталды
-8.68050180903 кыргыздын
-8.68050180903 турушту
-8.68050180903 сурап
-8.68050180903 ээрчип
-8.68050180903 аты
-8.68050180903 мойнун
-8.68050180903 атчан
-8.68050180903 аш
-8.68050180903 бөлүнүп
-8.68050180903 кетментөбөгө
-8.68050180903 сакалын
-8.68050180903 кишини
-8.68050180903 көзүнчө
-8.68050180903 конок
-8.68050180903 бекер
-8.68050180903 ордуна
-8.68050180903 окшойт
-8.68050180903 жанындагы
-8.68050180903 окуя
-8.68050180903 ошентип
-8.68050180903 келбейт
-8.68050180903 жүрөгүн
-8.68050180903 жолго
-8.68050180903 калса
-8.68050180903 минтип
-8.68050180903 артисттер
-8.68050180903 жанынан
-8.68050180903 көздөрү
-8.68050180903 сурады
-8.68050180903 атынын
-8.68050180903 карыя
-8.68050180903 мырза
-8.73766022287 бүткүл
-8.73766022287 мыкты
-8.73766022287 турганын
-8.73766022287 азыркы
-8.73766022287 аздан
-8.73766022287 өмүрүндө
-8.73766022287 түшүнгөн
-8.73766022287 күйдүм
-8.73766022287 көрүнүп
-8.73766022287 анысы
-8.73766022287 уулунун
-8.73766022287 алат
-8.73766022287 эгин
-8.73766022287 султаналыга
-8.73766022287 колундагы
-8.73766022287 уулун
-8.73766022287 билбеген
-8.73766022287 күмүш
-8.73766022287 колго
-8.73766022287 үйдү
-8.73766022287 бурулду
-8.73766022287 теректин
-8.73766022287 сыр
-8.73766022287 күнгө
-8.73766022287 совет
-8.73766022287 тийип
-8.73766022287 атты
-8.73766022287 от
-8.73766022287 келишкен
-8.73766022287 баратканын
-8.73766022287 комузчунун
-8.73766022287 айсалкын
-8.73766022287 беришти
-8.73766022287 болуптур
-8.73766022287 чыдабай
-8.73766022287 жеңеси
-8.73766022287 аманэсен
-8.73766022287 таластан
-8.73766022287 окуп
-8.73766022287 турбайбы
-8.73766022287 дешти
-8.73766022287 угулат
-8.73766022287 байкады
-8.79828484468 кең
-8.79828484468 берки
-8.79828484468 башкача
-8.79828484468 кээ
-8.79828484468 ашып
-8.79828484468 алыс
-8.79828484468 атам
-8.79828484468 бирөөгө
-8.79828484468 дүйнөдөн
-8.79828484468 каршы
-8.79828484468 эрмек
-8.79828484468 алагды
-8.79828484468 ысык
-8.79828484468 жашы
-8.79828484468 карагер
-8.79828484468 көңүлүнө
-8.79828484468 кызык
-8.79828484468 бол
-8.79828484468 манаптар
-8.79828484468 соң
-8.79828484468 толук
-8.79828484468 петр
-8.79828484468 дүйнө
-8.79828484468 келишти
-8.79828484468 тосуп
-8.79828484468 тору
-8.79828484468 төргө
-8.79828484468 жеткен
-8.79828484468 электе
-8.79828484468 көңүлүндө
-8.79828484468 оюна
-8.79828484468 комузга
-8.79828484468 кийинки
-8.79828484468 келишип
-8.79828484468 кызын
-8.79828484468 жылы
-8.79828484468 билбейм
-8.79828484468 сакал
-8.79828484468 жокпу
-8.79828484468 уулуна
-8.79828484468 бүтүп
-8.79828484468 токтотуп
-8.79828484468 буга
-8.79828484468 калышкан
-8.79828484468 абышканын
-8.79828484468 жетти
-8.79828484468 баатыр
-8.79828484468 күлкү
-8.79828484468 бата
-8.79828484468 капкачан
-8.79828484468 абдан
-8.79828484468 ишке
-8.79828484468 жатты
-8.79828484468 апасынын
-8.79828484468 алдын
-8.79828484468 айымкан
-8.79828484468 эмесе
-8.79828484468 күйөө
-8.79828484468 ойноп
-8.79828484468 киришти
-8.79828484468 соко
-8.79828484468 учуп
-8.79828484468 болушка
-8.79828484468 болсоң
-8.86282336582 алышкан
-8.86282336582 качкан
-8.86282336582 моюн
-8.86282336582 садырдын
-8.86282336582 кай
-8.86282336582 токтой
-8.86282336582 баласынын
-8.86282336582 ушунчалык
-8.86282336582 орто
-8.86282336582 мураталынын
-8.86282336582 өзгөчө
-8.86282336582 баарына
-8.86282336582 унутуп
-8.86282336582 тили
-8.86282336582 арасына
-8.86282336582 ыракмат
-8.86282336582 күүлөрү
-8.86282336582 бербей
-8.86282336582 үйүн
-8.86282336582 жетип
-8.86282336582 ичип
-8.86282336582 дос
-8.86282336582 урунуп
-8.86282336582 өрөөндүн
-8.86282336582 таласка
-8.86282336582 жиберди
-8.86282336582 жылдан
-8.86282336582 күүлөрүн
-8.86282336582 түн
-8.86282336582 кылат
-8.86282336582 сөзүнө
-8.86282336582 башталат
-8.86282336582 майда
-8.86282336582 манат
-8.86282336582 камчы
-8.86282336582 издеп
-8.86282336582 жакты
-8.86282336582 ошонун
-8.86282336582 маматты
-8.86282336582 уят
-8.86282336582 черте
-8.86282336582 жигиттер
-8.86282336582 сөзип
-8.86282336582 окууга
-8.86282336582 жалпы
-8.86282336582 бая
-8.86282336582 жибек
-8.86282336582 бара
-8.86282336582 кенен
-8.86282336582 баарынан
-8.86282336582 дайыма
-8.86282336582 жигитти
-8.86282336582 ийди
-8.86282336582 короз
-8.86282336582 кийген
-8.86282336582 кандайча
-8.86282336582 бастырып
-8.86282336582 убада
-8.86282336582 кел
-8.86282336582 кепке
-8.86282336582 алдынан
-8.93181623731 миң
-8.93181623731 жек
-8.93181623731 колунда
-8.93181623731 ичине
-8.93181623731 тартты
-8.93181623731 атайын
-8.93181623731 жүр
-8.93181623731 оозу
-8.93181623731 айтышып
-8.93181623731 кызмат
-8.93181623731 ойлонуп
-8.93181623731 сүйгөн
-8.93181623731 эшик
-8.93181623731 чыкпай
-8.93181623731 мандаш
-8.93181623731 чайга
-8.93181623731 нерсеге
-8.93181623731 кап
-8.93181623731 жолдош
-8.93181623731 адам
-8.93181623731 маалда
-8.93181623731 айылдан
-8.93181623731 кармаган
-8.93181623731 комуздан
-8.93181623731 күндөн
-8.93181623731 албаган
-8.93181623731 экөөбүз
-8.93181623731 түз
-8.93181623731 жолдон
-8.93181623731 канчалык
-8.93181623731 киргенде
-8.93181623731 тарап
-8.93181623731 учур
-8.93181623731 оозуна
-8.93181623731 аялына
-8.93181623731 тур
-8.93181623731 үнүн
-8.93181623731 улуу
-8.93181623731 ырды
-8.93181623731 бооруна
-8.93181623731 мырзанын
-8.93181623731 иштин
-8.93181623731 чоочун
-8.93181623731 жашырын
-8.93181623731 капсалаң
-8.93181623731 максат
-8.93181623731 биротоло
-8.93181623731 тил
-8.93181623731 алтын
-8.93181623731 келиндин
-8.93181623731 түбүнө
-8.93181623731 басты
-8.93181623731 анык
-8.93181623731 шайым
-8.93181623731 кубанычтуу
-8.93181623731 бүгүнкү
-8.93181623731 көбүрөөк
-8.93181623731 денеси
-8.93181623731 коет
-9.00592420946 көр
-9.00592420946 тамагын
-9.00592420946 анча
-9.00592420946 өлүп
-9.00592420946 барган
-9.00592420946 иштеген
-9.00592420946 эткен
-9.00592420946 арман
-9.00592420946 отурганын
-9.00592420946 окуй
-9.00592420946 катын
-9.00592420946 жаңылык
-9.00592420946 ыры
-9.00592420946 жайып
-9.00592420946 кирген
-9.00592420946 чырымдын
-9.00592420946 кайрып
-9.00592420946 үйрөнүп
-9.00592420946 келиптир
-9.00592420946 таба
-9.00592420946 карашы
-9.00592420946 эли
-9.00592420946 жетпей
-9.00592420946 сенден
-9.00592420946 жеңижок
-9.00592420946 малы
-9.00592420946 мурут
-9.00592420946 тамашаны
-9.00592420946 жылуу
-9.00592420946 нече
-9.00592420946 мыктыбек
-9.00592420946 жолдо
-9.00592420946 бирөөлөр
-9.00592420946 көрүнөт
-9.00592420946 зыйнат
-9.00592420946 жүргөнүн
-9.00592420946 байга
-9.00592420946 кайрылды
-9.00592420946 суроого
-9.00592420946 ичиндеги
-9.00592420946 оңой
-9.00592420946 бети
-9.00592420946 билүү
-9.00592420946 көйрөң
-9.00592420946 жантакпайдын
-9.00592420946 муңдуу
-9.00592420946 матай
-9.00592420946 окуудан
-9.00592420946 бергенде
-9.00592420946 төрт
-9.00592420946 кылуу
-9.00592420946 жиберип
-9.00592420946 жатканда
-9.00592420946 эшмамбет
-9.00592420946 соо
-9.00592420946 комузчулар
-9.00592420946 алышты
-9.00592420946 тамак
-9.00592420946 себеби
-9.00592420946 күлө
-9.00592420946 токтогулду
-9.00592420946 атаэнеси
-9.00592420946 төрдө
-9.00592420946 жумуш
-9.00592420946 жылкы
-9.00592420946 сизге
-9.00592420946 көрүнбөйт
-9.00592420946 аялын
-9.00592420946 током
-9.00592420946 жашын
-9.00592420946 эмнени
-9.00592420946 чындап
-9.00592420946 бетин
-9.00592420946 орун
-9.00592420946 тараптан
-9.00592420946 тобо
-9.00592420946 сөздөр
-9.08596691714 жактагы
-9.08596691714 атканча
-9.08596691714 суз
-9.08596691714 ыйлап
-9.08596691714 тыңшап
-9.08596691714 падыша
-9.08596691714 айлына
-9.08596691714 жата
-9.08596691714 батып
-9.08596691714 ара
-9.08596691714 болгондо
-9.08596691714 өңчөй
-9.08596691714 чыбык
-9.08596691714 ачуусу
-9.08596691714 абдыракманды
-9.08596691714 жатканын
-9.08596691714 куш
-9.08596691714 отургандардын
-9.08596691714 келдим
-9.08596691714 алыска
-9.08596691714 кимден
-9.08596691714 дей
-9.08596691714 деги
-9.08596691714 тиктейт
-9.08596691714 үйүнүн
-9.08596691714 ырчылар
-9.08596691714 болобу
-9.08596691714 эшиктен
-9.08596691714 оо
-9.08596691714 жасап
-9.08596691714 калыптыр
-9.08596691714 кар
-9.08596691714 коюшту
-9.08596691714 быйыл
-9.08596691714 сокону
-9.08596691714 жакасын
-9.08596691714 отурушат
-9.08596691714 байлап
-9.08596691714 баарынын
-9.08596691714 күүдөн
-9.08596691714 кадимкидей
-9.08596691714 байбичеси
-9.08596691714 тамашага
-9.08596691714 даяр
-9.08596691714 бирибирин
-9.08596691714 жазып
-9.08596691714 жагындагы
-9.08596691714 кудайбергендин
-9.08596691714 бош
-9.08596691714 байкаган
-9.08596691714 турмуштун
-9.08596691714 чалдын
-9.08596691714 берем
-9.08596691714 бурулкан
-9.08596691714 өнөрүн
-9.08596691714 ырын
-9.08596691714 көзүнөн
-9.08596691714 алууга
-9.08596691714 кадырын
-9.08596691714 арманда
-9.08596691714 седепти
-9.08596691714 көзүнүн
-9.08596691714 бергиле
-9.08596691714 тойкожо
-9.08596691714 күйөөсүнө
-9.08596691714 айтат
-9.08596691714 жаны
-9.08596691714 алганда
-9.08596691714 түшө
-9.08596691714 байкуш
-9.08596691714 жел
-9.08596691714 чечип
-9.08596691714 о
-9.08596691714 таттуу
-9.08596691714 айтыке
-9.08596691714 ортончу
-9.08596691714 ач
-9.08596691714 жетелеп
-9.08596691714 сөздүн
-9.08596691714 баарыдан
-9.08596691714 кайын
-9.17297829413 көптөн
-9.17297829413 эрте
-9.17297829413 ырдап
-9.17297829413 кеңеш
-9.17297829413 келгенсип
-9.17297829413 туюк
-9.17297829413 бирөөнүн
-9.17297829413 болбогон
-9.17297829413 чакырган
-9.17297829413 угулуп
-9.17297829413 биринин
-9.17297829413 шүгүр
-9.17297829413 сатып
-9.17297829413 таза
-9.17297829413 арга
-9.17297829413 кичине
-9.17297829413 малдын
-9.17297829413 калышат
-9.17297829413 аягы
-9.17297829413 дароо
-9.17297829413 ортосундагы
-9.17297829413 солдаттар
-9.17297829413 катарына
-9.17297829413 силердин
-9.17297829413 улан
-9.17297829413 жүрөк
-9.17297829413 коркунучтуу
-9.17297829413 калганына
-9.17297829413 сүйлөшүп
-9.17297829413 жөнү
-9.17297829413 мурунку
-9.17297829413 таанып
-9.17297829413 тогуз
-9.17297829413 энеси
-9.17297829413 айланып
-9.17297829413 жумшак
-9.17297829413 түшкөндө
-9.17297829413 боюн
-9.17297829413 күтпөгөн
-9.17297829413 кагып
-9.17297829413 кагылайын
-9.17297829413 байлар
-9.17297829413 көчүп
-9.17297829413 ушак
-9.17297829413 толуп
-9.17297829413 кабарын
-9.17297829413 субанга
-9.17297829413 ачты
-9.17297829413 немелер
-9.17297829413 салкын
-9.17297829413 сөзген
-9.17297829413 аппак
-9.17297829413 мунусу
-9.17297829413 кошулду
-9.17297829413 билинбей
-9.17297829413 эшиктин
-9.17297829413 тилек
-9.17297829413 кимди
-9.17297829413 өскөн
-9.17297829413 токой
-9.17297829413 ууру
-9.17297829413 бүттү
-9.17297829413 чаап
-9.17297829413 жеп
-9.17297829413 карып
-9.17297829413 тышкары
-9.17297829413 уйкусу
-9.17297829413 алдыда
-9.17297829413 боору
-9.17297829413 пайда
-9.17297829413 көрүшүп
-9.17297829413 кеңкол
-9.17297829413 ойлуу
-9.17297829413 карт
-9.17297829413 бирибири
-9.17297829413 терең
-9.17297829413 чайды
-9.17297829413 бүткөндөн
-9.17297829413 жерди
-9.17297829413 агасы
-9.17297829413 толгоп
-9.17297829413 күлкүсү
-9.17297829413 катып
-9.17297829413 кеткенден
-9.17297829413 сүйлөй
-9.17297829413 айла
-9.17297829413 көпкө
-9.17297829413 толгон
-9.17297829413 ишене
-9.17297829413 жүрөсүң
-9.17297829413 түрдүү
-9.17297829413 жигити
-9.17297829413 шыбырады
-9.17297829413 комузунун
-9.17297829413 кыла
-9.17297829413 үстүнөн
-9.17297829413 силерге
-9.17297829413 айтпай
-9.17297829413 акындын
-9.17297829413 ансыз
-9.17297829413 кире
-9.17297829413 атактуу
-9.17297829413 кесени
-9.17297829413 жеринде
-9.17297829413 барат
-9.17297829413 суусунун
-9.17297829413 токол
-9.17297829413 кереметтүү
-9.17297829413 бизди
-9.17297829413 иниси
-9.17297829413 тиричилик
-9.17297829413 бакырып
-9.17297829413 тап
-9.17297829413 адегенде
-9.17297829413 калдым
-9.17297829413 төз
-9.17297829413 түбүндө
-9.17297829413 болушуп
-9.17297829413 балдарды
-9.17297829413 сүйлөп
-9.17297829413 катар
-9.26828847393 таятасы
-9.26828847393 көрсөтүп
-9.26828847393 келиши
-9.26828847393 алчу
-9.26828847393 зар
-9.26828847393 көпчүлүгү
-9.26828847393 башканы
-9.26828847393 калык
-9.26828847393 сүйлөшө
-9.26828847393 армандуу
-9.26828847393 тыныбекке
-9.26828847393 бактылуу
-9.26828847393 жамынып
-9.26828847393 кадырлуу
-9.26828847393 аккан
-9.26828847393 дейм
-9.26828847393 мененки
-9.26828847393 уулжандын
-9.26828847393 аялдын
-9.26828847393 буйрук
-9.26828847393 комузу
-9.26828847393 тынч
-9.26828847393 караан
-9.26828847393 чети
-9.26828847393 илгери
-9.26828847393 убак
-9.26828847393 экинчиси
-9.26828847393 байдан
-9.26828847393 жерин
-9.26828847393 токтогулга
-9.26828847393 жокто
-9.26828847393 сол
-9.26828847393 сабыр
-9.26828847393 жаштар
-9.26828847393 кимдир
-9.26828847393 көрүштү
-9.26828847393 алдындагы
-9.26828847393 молдоке
-9.26828847393 конокко
-9.26828847393 артык
-9.26828847393 булардын
-9.26828847393 айрыкча
-9.26828847393 дейсиңби
-9.26828847393 эмесмин
-9.26828847393 баштап
-9.26828847393 тебетей
-9.26828847393 туюлду
-9.26828847393 күндүз
-9.26828847393 эт
-9.26828847393 экени
-9.26828847393 жагы
-9.26828847393 кайнаган
-9.26828847393 жөө
-9.26828847393 намыс
-9.26828847393 кудайдан
-9.26828847393 манаптары
-9.26828847393 бирибирине
-9.26828847393 атына
-9.26828847393 колукту
-9.26828847393 кайткан
-9.26828847393 суук
-9.26828847393 сыйра
-9.26828847393 жашоо
-9.26828847393 укту
-9.26828847393 досу
-9.26828847393 көрчү
-9.26828847393 күнүтүнү
-9.26828847393 кыйкырды
-9.26828847393 жакшылык
-9.26828847393 боромбай
-9.26828847393 бел
-9.26828847393 болушу
-9.26828847393 иштеп
-9.26828847393 жаңыдан
-9.26828847393 күрмөсүнүн
-9.26828847393 тургандар
-9.26828847393 кууп
-9.26828847393 бирине
-9.26828847393 учурашып
-9.26828847393 түшөт
-9.26828847393 жакындаганда
-9.26828847393 союп
-9.26828847393 талаада
-9.26828847393 терс
-9.26828847393 салган
-9.26828847393 кишиси
-9.26828847393 болдум
-9.26828847393 сылап
-9.26828847393 дөбөдө
-9.26828847393 айга
-9.26828847393 жарып
-9.26828847393 таппай
-9.26828847393 жүрөм
-9.26828847393 айылды
-9.26828847393 жантакбай
-9.26828847393 жашап
-9.26828847393 беришет
-9.26828847393 жанын
-9.26828847393 кымыз
-9.26828847393 куру
-9.26828847393 сейилкан
-9.26828847393 шадыбек
-9.26828847393 кетишти
-9.26828847393 сизди
-9.26828847393 көбүнчө
-9.26828847393 чогулган
-9.37364898959 секретары
-9.37364898959 меймандардын
-9.37364898959 бузурман
-9.37364898959 өнөрү
-9.37364898959 келер
-9.37364898959 судья
-9.37364898959 узакка
-9.37364898959 сөзүнүн
-9.37364898959 билермандар
-9.37364898959 ошондуктан
-9.37364898959 таяк
-9.37364898959 тийди
-9.37364898959 жолун
-9.37364898959 сууга
-9.37364898959 кеч
-9.37364898959 азырынча
-9.37364898959 окшогон
-9.37364898959 өзүбүз
-9.37364898959 кийиз
-9.37364898959 бака
-9.37364898959 биринсерин
-9.37364898959 карыялар
-9.37364898959 билсин
-9.37364898959 тургансып
-9.37364898959 бурулчанын
-9.37364898959 көрүшөт
-9.37364898959 кеткени
-9.37364898959 өткөрүп
-9.37364898959 жерине
-9.37364898959 токойду
-9.37364898959 апа
-9.37364898959 билишчү
-9.37364898959 каны
-9.37364898959 малга
-9.37364898959 камчысын
-9.37364898959 үйүр
-9.37364898959 жоргону
-9.37364898959 көрөйүн
-9.37364898959 чуркады
-9.37364898959 дегени
-9.37364898959 жоголуп
-9.37364898959 минген
-9.37364898959 эрдин
-9.37364898959 эринин
-9.37364898959 черткен
-9.37364898959 арыктын
-9.37364898959 адамдын
-9.37364898959 тиричиликке
-9.37364898959 этет
-9.37364898959 берсин
-9.37364898959 замандын
-9.37364898959 адатта
-9.37364898959 өзүңөр
-9.37364898959 урган
-9.37364898959 талаа
-9.37364898959 айтышкан
-9.37364898959 ача
-9.37364898959 келчү
-9.37364898959 баягыдай
-9.37364898959 бошоп
-9.37364898959 үйбүлөсү
-9.37364898959 жаштын
-9.37364898959 топко
-9.37364898959 эстеп
-9.37364898959 жеңин
-9.37364898959 бирэки
-9.37364898959 атасын
-9.37364898959 калдык
-9.37364898959 артист
-9.37364898959 тыныбекти
-9.37364898959 жүрүшкөн
-9.37364898959 күйөөсүн
-9.37364898959 каарына
-9.37364898959 арам
-9.37364898959 жапырт
-9.37364898959 көзүм
-9.37364898959 кубанган
-9.37364898959 кайнап
-9.37364898959 убара
-9.37364898959 аттарын
-9.37364898959 огонбай
-9.37364898959 дөңдө
-9.37364898959 арадан
-9.37364898959 коркуп
-9.37364898959 тийген
-9.37364898959 суусу
-9.37364898959 керегедеги
-9.37364898959 айтам
-9.37364898959 учурунда
-9.37364898959 өмүрдүн
-9.37364898959 чаптырып
-9.37364898959 изи
-9.37364898959 газетаны
-9.37364898959 кийимин
-9.37364898959 туугандар
-9.37364898959 болгондой
-9.37364898959 четинде
-9.37364898959 асыл
-9.37364898959 сүйөнүп
-9.37364898959 кечээ
-9.37364898959 ыраазымын
-9.37364898959 убакытты
-9.37364898959 кызды
-9.37364898959 кетишет
-9.37364898959 сыры
-9.37364898959 мынча
-9.37364898959 балдарга
-9.37364898959 салынган
-9.37364898959 иттин
-9.37364898959 курчап
-9.37364898959 чакырды
-9.37364898959 үмүтү
-9.37364898959 кыларын
-9.37364898959 сайма
-9.37364898959 туулган
-9.37364898959 көйнөкчөн
-9.37364898959 кичи
-9.37364898959 мурутун
-9.37364898959 бурду
-9.37364898959 аттарды
-9.37364898959 алышпады
-9.37364898959 чалкалап
-9.37364898959 элең
-9.37364898959 айлы
-9.37364898959 алгачкы
-9.37364898959 көрбөгөн
-9.37364898959 оёз
-9.37364898959 чертти
-9.37364898959 күндө
-9.37364898959 чатак
-9.37364898959 тегерегинде
-9.37364898959 күтүлбөгөн
-9.37364898959 чокту
-9.37364898959 өсүп
-9.37364898959 кадимки
-9.37364898959 акчаны
-9.37364898959 сүйкүмдүү
-9.37364898959 билбейт
-9.37364898959 чертет
-9.37364898959 сурнайдын
-9.37364898959 чочуп
-9.37364898959 салат
-9.37364898959 коюшуп
-9.37364898959 отургузуп
-9.37364898959 шаңдуу
-9.37364898959 албайм
-9.37364898959 көтөрдү
-9.37364898959 күлүштү
-9.37364898959 барарын
-9.37364898959 колунун
-9.37364898959 чачы
-9.37364898959 болбо
-9.37364898959 караган
-9.37364898959 сөздөрдү
-9.37364898959 куп
-9.37364898959 болбосун
-9.37364898959 алик
-9.37364898959 жаттап
-9.37364898959 ачууланды
-9.37364898959 баятан
-9.37364898959 колдон
-9.37364898959 жатышат
-9.37364898959 как
-9.37364898959 райымбектин
-9.37364898959 токтото
-9.37364898959 өнөр
-9.37364898959 эсенбектин
-9.37364898959 асман
-9.37364898959 ырчынын
-9.37364898959 калыбында
-9.37364898959 десем
-9.37364898959 үндөр
-9.37364898959 секретарь
-9.37364898959 сулуу
-9.37364898959 кемпир
-9.37364898959 айтканда
-9.37364898959 ээн
-9.37364898959 жолоочу
-9.37364898959 табылат
-9.37364898959 чок
-9.37364898959 кишилерге
-9.37364898959 жүзү
-9.37364898959 жеңе
-9.37364898959 талаага
-9.37364898959 байбиченин
-9.37364898959 уулум
-9.37364898959 устатынын
-9.37364898959 эшикте
-9.37364898959 келдиң
-9.37364898959 толо
-9.37364898959 султаналыны
-9.37364898959 карыянын
-9.49143202524 карашты
-9.49143202524 илинген
-9.49143202524 багы
-9.49143202524 там
-9.49143202524 карабай
-9.49143202524 ии
-9.49143202524 кыңгыратып
-9.49143202524 фрунзеге
-9.49143202524 барын
-9.49143202524 эмненин
-9.49143202524 жүрүшөт
-9.49143202524 тыным
-9.49143202524 жыйып
-9.49143202524 озунуп
-9.49143202524 адашып
-9.49143202524 жүгүртүп
-9.49143202524 чапты
-9.49143202524 айылдагылар
-9.49143202524 фрунзе
-9.49143202524 ич
-9.49143202524 чуу
-9.49143202524 боюна
-9.49143202524 бермек
-9.49143202524 нааразы
-9.49143202524 биринен
-9.49143202524 сураган
-9.49143202524 аргасыздан
-9.49143202524 чү
-9.49143202524 чөк
-9.49143202524 күтүү
-9.49143202524 ажыраган
-9.49143202524 карабастан
-9.49143202524 жашаган
-9.49143202524 комузчулардын
-9.49143202524 ашка
-9.49143202524 эркек
-9.49143202524 алабыз
-9.49143202524 бээни
-9.49143202524 карамолдо
-9.49143202524 зоотбек
-9.49143202524 дабышын
-9.49143202524 айланды
-9.49143202524 жашай
-9.49143202524 козголуп
-9.49143202524 мейманга
-9.49143202524 былк
-9.49143202524 жоругуна
-9.49143202524 каардуу
-9.49143202524 шек
-9.49143202524 бербейт
-9.49143202524 букаралар
-9.49143202524 баратып
-9.49143202524 күткөн
-9.49143202524 кошулган
-9.49143202524 жолку
-9.49143202524 падышанын
-9.49143202524 четине
-9.49143202524 буларды
-9.49143202524 ошончо
-9.49143202524 кожокенин
-9.49143202524 бойлуу
-9.49143202524 алдырып
-9.49143202524 кетментөбөдөн
-9.49143202524 табып
-9.49143202524 чыкканча
-9.49143202524 маңдай
-9.49143202524 сый
-9.49143202524 коңкогой
-9.49143202524 ачылып
-9.49143202524 аргасыз
-9.49143202524 жайында
-9.49143202524 кедейлер
-9.49143202524 таштын
-9.49143202524 аттуу
-9.49143202524 бээ
-9.49143202524 чөнтөгүнөн
-9.49143202524 той
-9.49143202524 чынында
-9.49143202524 чыкса
-9.49143202524 ачылды
-9.49143202524 карылыкка
-9.49143202524 башкалардын
-9.49143202524 жете
-9.49143202524 төзирээк
-9.49143202524 элдик
-9.49143202524 калгандары
-9.49143202524 куйругун
-9.49143202524 тегиз
-9.49143202524 жетпейт
-9.49143202524 билүүчү
-9.49143202524 маң
-9.49143202524 түш
-9.49143202524 тилеп
-9.49143202524 жыгач
-9.49143202524 ортого
-9.49143202524 атасына
-9.49143202524 кызматчы
-9.49143202524 ит
-9.49143202524 койсо
-9.49143202524 ташка
-9.49143202524 таңында
-9.49143202524 айылдар
-9.49143202524 белгисиз
-9.49143202524 жөнүндөгү
-9.49143202524 жүрдү
-9.49143202524 чыгарды
-9.49143202524 колдору
-9.49143202524 айтышты
-9.49143202524 капшытта
-9.49143202524 сактап
-9.49143202524 жылдын
-9.49143202524 айт
-9.49143202524 көрөт
-9.49143202524 жабыла
-9.49143202524 болбогондуктан
-9.49143202524 кылбай
-9.49143202524 айдап
-9.49143202524 чалып
-9.49143202524 сиздин
-9.49143202524 жоон
-9.49143202524 кайтарды
-9.49143202524 кыргызча
-9.49143202524 күтөт
-9.49143202524 кантейин
-9.49143202524 маал
-9.49143202524 топтон
-9.49143202524 калар
-9.49143202524 чыгышты
-9.49143202524 бой
-9.49143202524 анысын
-9.49143202524 кыймыл
-9.49143202524 болчу
-9.49143202524 созуп
-9.49143202524 турса
-9.49143202524 убагында
-9.49143202524 бойго
-9.49143202524 кайгылуу
-9.49143202524 таасир
-9.49143202524 түрлүү
-9.49143202524 тагдыры
-9.49143202524 ою
-9.49143202524 меймандын
-9.49143202524 дүнүйө
-9.49143202524 келгендей
-9.49143202524 бекеринен
-9.49143202524 бийлик
-9.49143202524 укмуш
-9.49143202524 өткөндөн
-9.49143202524 ырчыны
-9.49143202524 айдатып
-9.49143202524 берүү
-9.49143202524 түрмөгө
-9.49143202524 кер
-9.49143202524 оору
-9.49143202524 тебетейин
-9.49143202524 эшикти
-9.49143202524 кетиши
-9.49143202524 ээрчий
-9.49143202524 мойнуна
-9.49143202524 башындагы
-9.49143202524 шарапаты
-9.49143202524 жиберишти
-9.49143202524 шайтан
-9.49143202524 жеткенде
-9.49143202524 иним
-9.49143202524 ырдын
-9.49143202524 чыккандан
-9.49143202524 зарыл
-9.49143202524 терип
-9.49143202524 атым
-9.49143202524 кылса
-9.49143202524 турмушу
-9.49143202524 алип
-9.49143202524 жүгөрүнүн
-9.49143202524 көптү
-9.49143202524 курсагы
-9.49143202524 болмок
-9.49143202524 сабак
-9.49143202524 соккон
-9.49143202524 баракелде
-9.49143202524 жакында
-9.49143202524 тилеги
-9.49143202524 жак
-9.49143202524 туугандары
-9.49143202524 алам
-9.49143202524 ылдый
-9.49143202524 карай
-9.49143202524 жеңесинин
-9.49143202524 тың
-9.49143202524 жайылып
-9.49143202524 айтууга
-9.49143202524 эгинди
-9.49143202524 куда
-9.49143202524 уктап
-9.49143202524 байланып
-9.49143202524 адамдар
-9.49143202524 аябай
-9.49143202524 салмак
-9.49143202524 арасынан
-9.49143202524 экендиги
-9.49143202524 токтотту
-9.49143202524 кулап
-9.49143202524 алгыла
-9.49143202524 сур
-9.49143202524 так
-9.49143202524 кечип
-9.49143202524 шамал
-9.49143202524 кан
-9.49143202524 эрегишкен
-9.49143202524 каалаган
-9.49143202524 басылды
-9.49143202524 комузчуну
-9.49143202524 токойго
-9.49143202524 кетментөбө
-9.62496341787 ошолор
-9.62496341787 жаздап
-9.62496341787 билгенин
-9.62496341787 дыйкан
-9.62496341787 тартат
-9.62496341787 ишенет
-9.62496341787 мурду
-9.62496341787 орустар
-9.62496341787 бийлиги
-9.62496341787 кетүүгө
-9.62496341787 ошого
-9.62496341787 өңдүү
-9.62496341787 уй
-9.62496341787 керт
-9.62496341787 ажырап
-9.62496341787 токтогулдан
-9.62496341787 кубанычы
-9.62496341787 аяп
-9.62496341787 күбүрөп
-9.62496341787 аркы
-9.62496341787 топтун
-9.62496341787 этек
-9.62496341787 ачуулуу
-9.62496341787 жүрсө
-9.62496341787 каргаша
-9.62496341787 көрбөй
-9.62496341787 көрүнүшү
-9.62496341787 уккандан
-9.62496341787 алек
-9.62496341787 дөңгө
-9.62496341787 өкмөтү
-9.62496341787 кээси
-9.62496341787 билсе
-9.62496341787 кудая
-9.62496341787 кеңколдун
-9.62496341787 максаты
-9.62496341787 угат
-9.62496341787 атасынан
-9.62496341787 чоочуп
-9.62496341787 айтайын
-9.62496341787 дүйнөнүн
-9.62496341787 кишилерди
-9.62496341787 отурушуп
-9.62496341787 күбө
-9.62496341787 болгондуктан
-9.62496341787 ооруп
-9.62496341787 айлынан
-9.62496341787 кордук
-9.62496341787 түрүнүп
-9.62496341787 шулыин
-9.62496341787 көргүсү
-9.62496341787 даанышман
-9.62496341787 ийкеди
-9.62496341787 кадыресе
-9.62496341787 жымжырт
-9.62496341787 алыңыз
-9.62496341787 немени
-9.62496341787 айдыралы
-9.62496341787 жаныбекке
-9.62496341787 калк
-9.62496341787 кыжыры
-9.62496341787 болоюн
-9.62496341787 көкөй
-9.62496341787 болуштар
-9.62496341787 айтканын
-9.62496341787 кичүү
-9.62496341787 баалуу
-9.62496341787 маркум
-9.62496341787 түнкү
-9.62496341787 берүүгө
-9.62496341787 күчтүү
-9.62496341787 тапкан
-9.62496341787 чогуу
-9.62496341787 манаптын
-9.62496341787 жөнөгөндө
-9.62496341787 калам
-9.62496341787 жанкороз
-9.62496341787 жоголгон
-9.62496341787 тизгинин
-9.62496341787 келгенине
-9.62496341787 баласын
-9.62496341787 атайдан
-9.62496341787 оогон
-9.62496341787 көрдүм
-9.62496341787 кесип
-9.62496341787 акылы
-9.62496341787 жүз
-9.62496341787 келатат
-9.62496341787 кайтарып
-9.62496341787 карышкыр
-9.62496341787 баатырдын
-9.62496341787 сөзүнөн
-9.62496341787 өзүнөн
-9.62496341787 кокус
-9.62496341787 манастын
-9.62496341787 короо
-9.62496341787 жеткирип
-9.62496341787 кубаныч
-9.62496341787 коюшат
-9.62496341787 уккусу
-9.62496341787 төр
-9.62496341787 ойлоно
-9.62496341787 айлын
-9.62496341787 эшенкул
-9.62496341787 арбак
-9.62496341787 келинчеги
-9.62496341787 башканын
-9.62496341787 алардан
-9.62496341787 ишенимдүү
-9.62496341787 аттар
-9.62496341787 соконун
-9.62496341787 мол
-9.62496341787 жоругу
-9.62496341787 каранды
-9.62496341787 барбайт
-9.62496341787 келсин
-9.62496341787 башкаларга
-9.62496341787 эртеден
-9.62496341787 төшөктө
-9.62496341787 дүйнөдө
-9.62496341787 колхоз
-9.62496341787 муруттары
-9.62496341787 сагынган
-9.62496341787 ишти
-9.62496341787 аяк
-9.62496341787 кыл
-9.62496341787 тагдырына
-9.62496341787 түтүн
-9.62496341787 тарткан
-9.62496341787 коноктор
-9.62496341787 ыйык
-9.62496341787 көрсө
-9.62496341787 чайдан
-9.62496341787 көбү
-9.62496341787 жеңем
-9.62496341787 берчү
-9.62496341787 чертчү
-9.62496341787 жетет
-9.62496341787 чакыртып
-9.62496341787 жолоочулар
-9.62496341787 таптакыр
-9.62496341787 боюнда
-9.62496341787 жинди
-9.62496341787 жээни
-9.62496341787 алсыз
-9.62496341787 караңгы
-9.62496341787 нан
-9.62496341787 колдорун
-9.62496341787 келечеги
-9.62496341787 угушту
-9.62496341787 ошолордун
-9.62496341787 аягына
-9.62496341787 десең
-9.62496341787 үйдөгү
-9.62496341787 кашын
-9.62496341787 тоонун
-9.62496341787 бечара
-9.62496341787 тигилген
-9.62496341787 эмнесин
-9.62496341787 бийликтен
-9.62496341787 дөбөгө
-9.62496341787 күттү
-9.62496341787 жөнөштү
-9.62496341787 шарт
-9.62496341787 арсыкул
-9.62496341787 кесе
-9.62496341787 белгиси
-9.62496341787 көрүнбөй
-9.62496341787 эп
-9.62496341787 секирип
-9.62496341787 шарият
-9.62496341787 эси
-9.62496341787 кат
-9.62496341787 чачын
-9.62496341787 семиз
-9.62496341787 калдыбы
-9.62496341787 орусча
-9.62496341787 короонун
-9.62496341787 манаптарды
-9.62496341787 таята
-9.62496341787 өзгөрүлүп
-9.62496341787 маматка
-9.62496341787 кыштын
-9.62496341787 тарапта
-9.62496341787 башталган
-9.62496341787 кучакташып
-9.62496341787 колуктусу
-9.62496341787 чорду
-9.62496341787 бетине
-9.62496341787 азаптуу
-9.62496341787 кимдер
-9.62496341787 абдыракманга
-9.62496341787 айласы
-9.62496341787 калп
-9.62496341787 кече
-9.62496341787 айтчы
-9.62496341787 козголду
-9.62496341787 өмүрүн
-9.62496341787 учуру
-9.62496341787 кетчүдөй
-9.62496341787 махаббат
-9.62496341787 билимдүү
-9.62496341787 дили
-9.62496341787 окуучулар
-9.62496341787 ачуу
-9.62496341787 төрө
-9.62496341787 суусун
-9.62496341787 көнбөдү
-9.62496341787 акынды
-9.62496341787 алыстан
-9.62496341787 бүткөн
-9.62496341787 аялдар
-9.62496341787 тийгенде
-9.62496341787 калгансып
-9.62496341787 назик
-9.62496341787 кишиден
-9.62496341787 үчүнчү
-9.62496341787 тагдыр
-9.62496341787 тургандай
-9.62496341787 гөр
-9.62496341787 күчү
-9.62496341787 чыгарын
-9.62496341787 карабаш
-9.62496341787 качты
-9.62496341787 ичин
-9.62496341787 жердин
-9.62496341787 жанаша
-9.62496341787 адаты
-9.62496341787 эсимде
-9.62496341787 николай
-9.62496341787 тынчы
-9.62496341787 билем
-9.62496341787 кечки
-9.62496341787 тайып
-9.62496341787 берейин
-9.62496341787 ден
-9.62496341787 жорго
-9.62496341787 антип
-9.62496341787 күчүн
-9.62496341787 баратканда
-9.62496341787 шерменде
-9.62496341787 алышат
-9.62496341787 кыргыздар
-9.62496341787 кайрат
-9.62496341787 чөгөлөп
-9.62496341787 жаап
-9.62496341787 кармашып
-9.62496341787 тетири
-9.62496341787 казан
-9.62496341787 кабагы
-9.62496341787 түбүнөн
-9.62496341787 жантакпайды
-9.62496341787 алдыга
-9.62496341787 жылаңбаш
-9.62496341787 үстү
-9.62496341787 төбөсүнө
-9.62496341787 аксакалдын
-9.62496341787 коркот
-9.62496341787 кайтып
-9.62496341787 үндү
-9.62496341787 көпчүлүктүн
-9.62496341787 каткырып
-9.62496341787 кийинчерээк
-9.62496341787 терек
-9.62496341787 сөздөрүн
-9.62496341787 курман
-9.62496341787 өтөт
-9.62496341787 капысынан
-9.62496341787 бригадир
-9.62496341787 көрүү
-9.62496341787 күрмөчөн
-9.62496341787 чыбыкты
-9.62496341787 ракмат
-9.62496341787 кыңк
-9.62496341787 селт
-9.62496341787 туштуштан
-9.62496341787 кооз
-9.62496341787 белдүү
-9.62496341787 ээсинин
-9.62496341787 сурайт
-9.62496341787 жеринен
-9.62496341787 бөлүндү
-9.62496341787 күндүн
-9.62496341787 бардыр
-9.62496341787 жанагы
-9.62496341787 атчандар
-9.62496341787 чепкенин
-9.62496341787 дасторкон
-9.62496341787 эсенбекке
-9.62496341787 түнкүсүн
-9.62496341787 баштан
-9.62496341787 берсең
-9.62496341787 жайнаган
-9.62496341787 суусар
-9.62496341787 тууганы
-9.62496341787 көңүлсүз
-9.62496341787 кабыл
-9.62496341787 ушунча
-9.62496341787 баамдуу
-9.62496341787 жүрө
-9.7791140977 чымчык
-9.7791140977 калдың
-9.7791140977 балдарынын
-9.7791140977 минди
-9.7791140977 отурса
-9.7791140977 эркине
-9.7791140977 кудуңдап
-9.7791140977 жин
-9.7791140977 көрүнгөн
-9.7791140977 буттары
-9.7791140977 алакан
-9.7791140977 сөзим
-9.7791140977 аралаша
-9.7791140977 жообун
-9.7791140977 алгач
-9.7791140977 баскан
-9.7791140977 кобурашып
-9.7791140977 токо
-9.7791140977 турушат
-9.7791140977 оорусу
-9.7791140977 ийкеп
-9.7791140977 кырк
-9.7791140977 жем
-9.7791140977 эске
-9.7791140977 күмөн
-9.7791140977 жаккы
-9.7791140977 артында
-9.7791140977 оңдонуп
-9.7791140977 милиционер
-9.7791140977 кылууга
-9.7791140977 кыймылга
-9.7791140977 койдун
-9.7791140977 каптал
-9.7791140977 күрмөсүн
-9.7791140977 жылаңаяк
-9.7791140977 чөп
-9.7791140977 турмушту
-9.7791140977 чукул
-9.7791140977 алабы
-9.7791140977 көрпө
-9.7791140977 мутаке
-9.7791140977 булбул
-9.7791140977 жетим
-9.7791140977 болжоду
-9.7791140977 ийип
-9.7791140977 орустан
-9.7791140977 арага
-9.7791140977 кылмак
-9.7791140977 саан
-9.7791140977 нерседен
-9.7791140977 баласына
-9.7791140977 угушуп
-9.7791140977 олуяатага
-9.7791140977 жайнап
-9.7791140977 элине
-9.7791140977 өзүбүздүн
-9.7791140977 көккашат
-9.7791140977 карамолдонун
-9.7791140977 дейсиң
-9.7791140977 карашын
-9.7791140977 шакин
-9.7791140977 булак
-9.7791140977 учу
-9.7791140977 өнөрпоз
-9.7791140977 кыткылыктап
-9.7791140977 эрке
-9.7791140977 тунук
-9.7791140977 келбеген
-9.7791140977 кундуз
-9.7791140977 өзгөчөлүгү
-9.7791140977 көздөн
-9.7791140977 уруп
-9.7791140977 көрүүгө
-9.7791140977 үйүрү
-9.7791140977 жатышкан
-9.7791140977 билишкен
-9.7791140977 тиктешти
-9.7791140977 жигиттери
-9.7791140977 демин
-9.7791140977 калчу
-9.7791140977 алганы
-9.7791140977 жүрчү
-9.7791140977 кубат
-9.7791140977 манап
-9.7791140977 кимисинин
-9.7791140977 чертмек
-9.7791140977 жардамы
-9.7791140977 окуянын
-9.7791140977 камбаркан
-9.7791140977 сүйөп
-9.7791140977 угулган
-9.7791140977 угулганда
-9.7791140977 жолуна
-9.7791140977 намысына
-9.7791140977 болушкан
-9.7791140977 кыдырып
-9.7791140977 конуп
-9.7791140977 жаңырып
-9.7791140977 акыр
-9.7791140977 кайрыды
-9.7791140977 жакындап
-9.7791140977 шашып
-9.7791140977 кудайдын
-9.7791140977 тоону
-9.7791140977 күндөрдө
-9.7791140977 чолок
-9.7791140977 султаке
-9.7791140977 кургакчылык
-9.7791140977 үчөө
-9.7791140977 жалдырап
-9.7791140977 жылкынын
-9.7791140977 барабыз
-9.7791140977 айтышууну
-9.7791140977 айтасың
-9.7791140977 силерди
-9.7791140977 ордун
-9.7791140977 ичке
-9.7791140977 болбоду
-9.7791140977 тамашалуу
-9.7791140977 убакка
-9.7791140977 түшүрө
-9.7791140977 балачакасы
-9.7791140977 чык
-9.7791140977 калчудай
-9.7791140977 куудул
-9.7791140977 тийгенин
-9.7791140977 берүүдөн
-9.7791140977 маңдайынан
-9.7791140977 кызына
-9.7791140977 чыны
-9.7791140977 ачуусун
-9.7791140977 капа
-9.7791140977 малын
-9.7791140977 окууну
-9.7791140977 сакалдуу
-9.7791140977 күүлөрүнүн
-9.7791140977 эптеп
-9.7791140977 кызматынан
-9.7791140977 токолунун
-9.7791140977 токтолуп
-9.7791140977 жал
-9.7791140977 тектүү
-9.7791140977 тегин
-9.7791140977 түбү
-9.7791140977 эх
-9.7791140977 тамыр
-9.7791140977 дайынсыз
-9.7791140977 шайыр
-9.7791140977 оорулуу
-9.7791140977 олчойгон
-9.7791140977 келгендер
-9.7791140977 калбады
-9.7791140977 кечикпей
-9.7791140977 барбай
-9.7791140977 эсинде
-9.7791140977 суроону
-9.7791140977 жоругун
-9.7791140977 кабат
-9.7791140977 чак
-9.7791140977 оюнда
-9.7791140977 арт
-9.7791140977 забар
-9.7791140977 турасыңбы
-9.7791140977 жүрөктөрү
-9.7791140977 имиш
-9.7791140977 шилтеп
-9.7791140977 кестикбайдын
-9.7791140977 ченде
-9.7791140977 илинип
-9.7791140977 өлгөн
-9.7791140977 чакырат
-9.7791140977 кайдасың
-9.7791140977 кысып
-9.7791140977 өлүм
-9.7791140977 молдону
-9.7791140977 сөзсүз
-9.7791140977 сырттан
-9.7791140977 керегеге
-9.7791140977 кырка
-9.7791140977 чертүүгө
-9.7791140977 жылып
-9.7791140977 калгандай
-9.7791140977 көзек
-9.7791140977 молдого
-9.7791140977 билесиңби
-9.7791140977 ашкан
-9.7791140977 түрүп
-9.7791140977 көздөрүн
-9.7791140977 кайыш
-9.7791140977 билим
-9.7791140977 аралашып
-9.7791140977 шылдың
-9.7791140977 атаэнесинин
-9.7791140977 билинбейт
-9.7791140977 карыган
-9.7791140977 сарала
-9.7791140977 алдыңкы
-9.7791140977 ынак
-9.7791140977 кабарды
-9.7791140977 илгерки
-9.7791140977 аралжы
-9.7791140977 турам
-9.7791140977 серке
-9.7791140977 оттуу
-9.7791140977 мындайда
-9.7791140977 көйнөк
-9.7791140977 закон
-9.7791140977 ойной
-9.7791140977 сүрөп
-9.7791140977 акмак
-9.7791140977 кымбат
-9.7791140977 күйүп
-9.7791140977 уурулар
-9.7791140977 кыздар
-9.7791140977 топту
-9.7791140977 уста
-9.7791140977 чекир
-9.7791140977 аңгеме
-9.7791140977 жаагы
-9.7791140977 белин
-9.7791140977 табышмактуу
-9.7791140977 акча
-9.7791140977 акшыя
-9.7791140977 тилегин
-9.7791140977 барар
-9.7791140977 буулугуп
-9.7791140977 токтобой
-9.7791140977 капарына
-9.7791140977 көргөздү
-9.7791140977 заматта
-9.7791140977 тай
-9.7791140977 бирибиринен
-9.7791140977 өкүм
-9.7791140977 өх
-9.7791140977 утурлай
-9.7791140977 келдиби
-9.7791140977 жүрүшүн
-9.7791140977 тойматтын
-9.7791140977 алиги
-9.7791140977 мүчөсү
-9.7791140977 мусулман
-9.7791140977 жоробай
-9.7791140977 карайт
-9.7791140977 сүйлөшөлү
-9.7791140977 өлгөнү
-9.7791140977 баштайт
-9.7791140977 жалдын
-9.7791140977 огонбайдын
-9.7791140977 күүлөрдү
-9.7791140977 козу
-9.7791140977 кечтим
-9.7791140977 апам
-9.7791140977 суроосу
-9.7791140977 башта
-9.7791140977 болом
-9.7791140977 кайталап
-9.7791140977 сурарым
-9.7791140977 шумдук
-9.7791140977 түшүнүп
-9.7791140977 төгүлгөн
-9.7791140977 катарында
-9.7791140977 кылчактап
-9.7791140977 кызыган
-9.7791140977 көңүлгө
-9.7791140977 шашылып
-9.7791140977 атагы
-9.7791140977 болсом
-9.7791140977 келгени
-9.7791140977 аккыздын
-9.7791140977 кырына
-9.7791140977 ырдай
-9.7791140977 өздөрүн
-9.7791140977 жеңеке
-9.7791140977 тааныды
-9.7791140977 улагада
-9.7791140977 чогултуп
-9.7791140977 кыял
-9.7791140977 жыйнап
-9.7791140977 көзи
-9.7791140977 чычкан
-9.7791140977 аткара
-9.7791140977 жоо
-9.7791140977 үрөн
-9.7791140977 дүбүртү
-9.7791140977 кызга
-9.7791140977 байлык
-9.7791140977 болосуң
-9.7791140977 дуу
-9.7791140977 айымкандын
-9.7791140977 теминип
-9.7791140977 өзүңүз
-9.7791140977 калганы
-9.7791140977 кыя
-9.7791140977 колдо
-9.7791140977 кысты
-9.7791140977 жаныбектин
-9.7791140977 артисттердин
-9.7791140977 жүрөктү
-9.7791140977 жаштык
-9.7791140977 кызматка
-9.7791140977 атама
-9.7791140977 тарапты
-9.7791140977 желбегей
-9.7791140977 ачыгын
-9.7791140977 коюлду
-9.7791140977 кылышты
-9.7791140977 кемпири
-9.7791140977 аткаруу
-9.7791140977 советинин
-9.7791140977 болору
-9.7791140977 коштоп
-9.7791140977 аңгемени
-9.7791140977 мааниси
-9.7791140977 абышканы
-9.7791140977 экенине
-9.7791140977 арманым
-9.7791140977 урунду
-9.7791140977 жүрүшү
-9.7791140977 оттун
-9.7791140977 колхозго
-9.7791140977 акылга
-9.7791140977 уюн
-9.7791140977 аксакалдар
-9.7791140977 айылдык
-9.7791140977 уккандар
-9.7791140977 баратам
-9.7791140977 саламын
-9.7791140977 манаптардын
-9.7791140977 бурулуп
-9.7791140977 өздөрүнчө
-9.7791140977 кыялы
-9.7791140977 токтоно
-9.7791140977 качырып
-9.7791140977 болгонуна
-9.7791140977 аркылуу
-9.7791140977 кечке
-9.7791140977 жолду
-9.7791140977 ий
-9.7791140977 жүгүрүп
-9.7791140977 буруп
-9.7791140977 колуңду
-9.7791140977 үнсүз
-9.7791140977 токтотушуп
-9.7791140977 чайкады
-9.7791140977 казак
-9.7791140977 чыкканын
-9.7791140977 түшүндүрдү
-9.7791140977 найза
-9.7791140977 жазгы
-9.7791140977 кечирип
-9.7791140977 агасынын
-9.7791140977 досунун
-9.7791140977 пишпекке
-11.5708735669 коркпо
-11.5708735669 эшек
-11.5708735669 сагакөрсөтөм
-11.5708735669 күкүк
-11.5708735669 жарамазан
-11.5708735669 тососуңбу
-11.5708735669 турсаңчы
-11.5708735669 иче
-11.5708735669 тигине
-11.5708735669 бетим
-11.5708735669 кач
-11.5708735669 бийлегиле
-11.5708735669 
-11.5708735669 урият

\2-grams:
-2.30018344147 <UNK> <UNK>
-3.42423182766 <UNK> </s>
-3.87486590414 <s> <UNK>
-5.16495040028 менен <UNK>
-5.25523724695 да <UNK>
-5.31401809712 <UNK> да
-5.44546398325 <UNK> менен
-5.70497517874 эле </s>
-5.79874333819 <UNK> жана
-5.80213892719 <UNK> деп
-5.81583777155 жок </s>
-5.89847003613 <s> атай
-5.89847003613 деп <UNK>
-5.90598886855 <s> ал
-6.00507977119 <s> бирок
-6.0092551426 жана <UNK>
-6.01344802086 <UNK> жок
-6.02613318039 бир <UNK>
-6.05199669098 <UNK> эле
-6.18241378647 <UNK> үчүн
-6.18740132798 <UNK> бир
-6.25461007768 калды </s>
-6.33242710003 үчүн <UNK>
-6.36772488212 ал <UNK>
-6.39196849373 анын <UNK>
-6.42947288918 <s> бул
-6.44876609212 атай <UNK>
-6.48177238859 эмес </s>
-6.48850642077 эле <UNK>
-6.49528610775 баштады </s>
-6.50211207282 <s> анын
-6.50898495211 <UNK> болуп
-6.52287406427 гана <UNK>
-6.52287406427 аны <UNK>
-6.54407627192 <UNK> турган
-6.58044391609 <UNK> кийин
-6.71503407007 экен </s>
-6.71503407007 өз <UNK>
-6.75833087582 <UNK> гана
-6.7943708123 <UNK> же
-6.80358746741 <UNK> баштады
-6.81288986007 <s> бир
-6.81288986007 берди </s>
-6.82227960042 <UNK> бар
-6.92137050306 чоң <UNK>
-6.92137050306 <UNK> эмес
-6.93184180293 <UNK> экен
-6.93184180293 болуп <UNK>
-6.93184180293 <UNK> деген
-6.95311920138 алып <UNK>
-6.9970823248 <s> мен
-7.03137139828 <UNK> алып
-7.05490189569 өзү <UNK>
-7.05490189569 болду </s>
-7.05490189569 же <UNK>
-7.07899944727 ак <UNK>
-7.10369205986 <UNK> атай
-7.10369205986 <UNK> эмне
-7.11627084206 бар </s>
-7.12900986784 эмне үчүн
-7.15498535425 <UNK> деди
-7.168230581 калышты </s>
-7.168230581 <s> аны
-7.168230581 келди </s>
-7.18165360133 бирок <UNK>
-7.19525925338 <UNK> ал
-7.19525925338 <UNK> керек
-7.20905257552 <UNK> калган
-7.20905257552 кара <UNK>
-7.20905257552 <UNK> башка
-7.22303881749 башка <UNK>
-7.22303881749 деген <UNK>
-7.22303881749 <UNK> жакшы
-7.22303881749 <s> султаналы
-7.25161218993 мен <UNK>
-7.25161218993 жок <UNK>
-7.26621098936 <UNK> бери
-7.26621098936 чыкты </s>
-7.28102607514 турду </s>
-7.29606395251 <UNK> анын
-7.29606395251 кийин <UNK>
-7.31133142464 <UNK> калды
-7.31133142464 эмне <UNK>
-7.31133142464 <s> алар
-7.32683561117 эл <UNK>
-7.32683561117 керек </s>
-7.34258396814 алды </s>
-7.34258396814 бул <UNK>
-7.35858430949 койду </s>
-7.35858430949 албай <UNK>
-7.35858430949 түштү </s>
-7.37484483036 <UNK> киши
-7.37484483036 <UNK> кара
-7.37484483036 <UNK> эч
-7.37484483036 <s> эми
-7.37484483036 <UNK> аны
-7.39137413231 эки <UNK>
-7.39137413231 келип <UNK>
-7.39137413231 турган <UNK>
-7.39137413231 <s> токтогул
-7.42527568399 <UNK> албай
-7.42527568399 ага <UNK>
-7.4603670038 кетти </s>
-7.4783855093 <UNK> өз
-7.49673464797 көз <UNK>
-7.49673464797 <UNK> эки
-7.51542678098 ким <UNK>
-7.51542678098 <UNK> отурган
-7.53447497595 султаналы <UNK>
-7.53447497595 болсо да
-7.55389306181 жолу <UNK>
-7.55389306181 <UNK> өзү
-7.55389306181 <UNK> көз
-7.55389306181 менин <UNK>
-7.55389306181 <UNK> болсо
-7.5736956891 көзү <UNK>
-7.5736956891 го </s>
-7.5736956891 сөз <UNK>
-7.5736956891 бери <UNK>
-7.5736956891 <UNK> эл
-7.59389839642 <UNK> келип
-7.59389839642 жаңы <UNK>
-7.59389839642 көп <UNK>
-7.59389839642 <UNK> чоң
-7.61451768362 киши <UNK>
-7.63557109282 жакшы <UNK>
-7.63557109282 <s> азыр
-7.63557109282 башын <UNK>
-7.63557109282 <UNK> келген
-7.65707729804 алар <UNK>
-7.65707729804 эч ким
-7.65707729804 турган </s>
-7.65707729804 болсо <UNK>
-7.65707729804 албады </s>
-7.67905620476 эми <UNK>
-7.70152906061 <s> сен
-7.72451857884 күү <UNK>
-7.72451857884 <UNK> баары
-7.72451857884 жүрөгү <UNK>
-7.72451857884 ушул <UNK>
-7.74804907625 отурду </s>
-7.74804907625 <UNK> ак
-7.74804907625 <UNK> көп
-7.74804907625 <s> мына
-7.74804907625 экен деп
-7.74804907625 атайдын <UNK>
-7.74804907625 баш <UNK>
-7.74804907625 эмне үчүндүр
-7.74804907625 жер <UNK>
-7.74804907625 карады </s>
-7.74804907625 <s> мамат
-7.74804907625 <s> эл
-7.77214662783 <UNK> болгон
-7.77214662783 <UNK> султаналы
-7.77214662783 <UNK> отуруп
-7.79683924042 бетер <UNK>
-7.79683924042 келген <UNK>
-7.79683924042 <s> ушул
-7.79683924042 <UNK> окшоп
-7.79683924042 <UNK> ким
-7.79683924042 өзү да
-7.79683924042 күн <UNK>
-7.8221570484 <UNK> болду
-7.8221570484 <UNK> берди
-7.8221570484 кандай <UNK>
-7.84813253481 <UNK> жаткан
-7.84813253481 <UNK> койду
-7.84813253481 <UNK> дегенсип
-7.84813253481 кантип <UNK>
-7.84813253481 <s> мындай
-7.84813253481 <UNK> жигит
-7.84813253481 <UNK> жаңы
-7.84813253481 барып <UNK>
-7.84813253481 болот </s>
-7.87480078189 калган <UNK>
-7.87480078189 бала <UNK>
-7.87480078189 тыныбектин <UNK>
-7.87480078189 ушу <UNK>
-7.87480078189 чыгып <UNK>
-7.87480078189 <UNK> чейин
-7.90219975608 <UNK> түштү
-7.90219975608 <s> эмне
-7.90219975608 көңүлү <UNK>
-7.90219975608 <UNK> барып
-7.90219975608 сен <UNK>
-7.90219975608 тыныбек <UNK>
-7.90219975608 <UNK> мен
-7.90219975608 эч нерсе
-7.90219975608 үйгө <UNK>
-7.93037063304 мени <UNK>
-7.93037063304 <UNK> көрүп
-7.93037063304 <UNK> чыгып
-7.93037063304 жакка <UNK>
-7.95935816992 <UNK> карап
-7.95935816992 <s> балким
-7.95935816992 калган </s>
-7.95935816992 <s> эки
-7.95935816992 жигит <UNK>
-7.95935816992 <UNK> бул
-7.95935816992 жаш <UNK>
-7.95935816992 <UNK> улам
-7.95935816992 <s> тыныбек
-7.95935816992 <UNK> жүргөн
-7.95935816992 мамат <UNK>
-7.95935816992 <UNK> го
-7.98921113307 эски <UNK>
-7.98921113307 жөнүндө <UNK>
-7.98921113307 сөзүн <UNK>
-7.98921113307 <s> атайдын
-7.98921113307 <UNK> коюп
-7.98921113307 элге <UNK>
-7.98921113307 кыз <UNK>
-7.98921113307 азыр <UNK>
-8.01998279173 <s> бай
-8.01998279173 <UNK> көзү
-8.01998279173 кол <UNK>
-8.01998279173 кызыл <UNK>
-8.01998279173 ого бетер
-8.01998279173 <UNK> башын
-8.01998279173 <s> седеп
-8.01998279173 көрүп <UNK>
-8.01998279173 <s> субан
-8.05173149005 <s> алардын
-8.05173149005 <s> чоң
-8.05173149005 экенин <UNK>
-8.05173149005 <UNK> болбосо
-8.05173149005 нерсе <UNK>
-8.05173149005 <UNK> ушул
-8.05173149005 <s> мындан
-8.05173149005 дагы бир
-8.05173149005 керек эле
-8.05173149005 токтогул <UNK>
-8.05173149005 <UNK> келди
-8.05173149005 эмес <UNK>
-8.05173149005 үйүнө <UNK>
-8.05173149005 кош <UNK>
-8.08452131287 <UNK> элек
-8.08452131287 жерге <UNK>
-8.08452131287 <UNK> кетти
-8.08452131287 <UNK> тыныбек
-8.08452131287 <UNK> бири
-8.08452131287 мындан ары
-8.08452131287 <s> бу
-8.08452131287 го деп
-8.08452131287 <UNK> ар
-8.08452131287 баратты </s>
-8.08452131287 <UNK> кандай
-8.08452131287 <s> эгерде
-8.08452131287 көк <UNK>
-8.08452131287 <UNK> басып
-8.11842286455 <UNK> туруп
-8.11842286455 мындай <UNK>
-8.11842286455 <s> кызылбаш
-8.11842286455 <UNK> түшүп
-8.11842286455 <UNK> кишилер
-8.11842286455 <UNK> караганда
-8.11842286455 жаткан <UNK>
-8.11842286455 <UNK> кармап
-8.11842286455 үстүнө <UNK>
-8.11842286455 <UNK> жер
-8.15351418436 <s> ар
-8.15351418436 <s> бала
-8.15351418436 элдин <UNK>
-8.15351418436 чейин <UNK>
-8.15351418436 <UNK> ушу
-8.15351418436 ат <UNK>
-8.15351418436 <UNK> бирок
-8.15351418436 каякка <UNK>
-8.15351418436 көзүн <UNK>
-8.15351418436 <UNK> бала
-8.15351418436 <UNK> беле
-8.15351418436 баары <UNK>
-8.18988182853 жол <UNK>
-8.18988182853 <UNK> боз
-8.18988182853 отуруп <UNK>
-8.18988182853 көздөй <UNK>
-8.18988182853 <UNK> жалгыз
-8.18988182853 <UNK> чыккан
-8.18988182853 аны менен
-8.18988182853 <UNK> жөнүндө
-8.18988182853 дейт </s>
-8.18988182853 кудай <UNK>
-8.18988182853 <UNK> эми
-8.18988182853 болуш <UNK>
-8.18988182853 <UNK> дагы
-8.18988182853 айтып <UNK>
-8.18988182853 жооп <UNK>
-8.18988182853 <s> аккыз
-8.18988182853 алардын <UNK>
-8.18988182853 <UNK> тартып
-8.22762215651 <UNK> турду
-8.22762215651 <UNK> көздөй
-8.22762215651 болгон <UNK>
-8.22762215651 <UNK> кирип
-8.22762215651 экен <UNK>
-8.22762215651 <UNK> чыкты
-8.22762215651 <UNK> жаш
-8.22762215651 <UNK> айтып
-8.22762215651 чай <UNK>
-8.22762215651 деди атай
-8.22762215651 туруп <UNK>
-8.22762215651 кызылбаш <UNK>
-8.22762215651 <UNK> алды
-8.22762215651 <s> ага
-8.22762215651 мага <UNK>
-8.26684286966 аз <UNK>
-8.26684286966 өзүнүн <UNK>
-8.26684286966 сүйлөдү </s>
-8.26684286966 <s> ошону
-8.26684286966 кыргыз <UNK>
-8.26684286966 <s> кыз
-8.26684286966 <UNK> жооп
-8.26684286966 дегенсип <UNK>
-8.26684286966 <UNK> элдин
-8.26684286966 ушундай <UNK>
-8.26684286966 кайра <UNK>
-8.26684286966 <UNK> күү
-8.26684286966 кирди </s>
-8.26684286966 сенин <UNK>
-8.26684286966 <UNK> кызыл
-8.26684286966 ала <UNK>
-8.26684286966 окшоп <UNK>
-8.26684286966 отурат </s>
-8.26684286966 бири <UNK>
-8.30766486418 түшүндү </s>
-8.30766486418 <s> эгер
-8.30766486418 <UNK> болсун
-8.30766486418 ошону үчүн
-8.30766486418 качып <UNK>
-8.30766486418 кишилер <UNK>
-8.30766486418 <UNK> болот
-8.30766486418 бир топ
-8.30766486418 тоймат бий
-8.30766486418 дагы <UNK>
-8.30766486418 <s> тоймат
-8.30766486418 <UNK> ага
-8.30766486418 бир аз
-8.30766486418 баланын <UNK>
-8.30766486418 <UNK> кылып
-8.30766486418 жүргөн <UNK>
-8.30766486418 <s> жаш
-8.30766486418 катуу <UNK>
-8.30766486418 турат </s>
-8.30766486418 <UNK> дейт
-8.30766486418 кээде <UNK>
-8.3502244786 бир нерсе
-8.3502244786 <s> ооба
-8.3502244786 жалгыз <UNK>
-8.3502244786 <UNK> карады
-8.3502244786 <UNK> баш
-8.3502244786 көңүл <UNK>
-8.3502244786 бирок ал
-8.3502244786 ачык <UNK>
-8.3502244786 үйдүн <UNK>
-8.3502244786 өзүнө <UNK>
-8.3502244786 аялы <UNK>
-8.3502244786 <UNK> атайдын
-8.3502244786 атын <UNK>
-8.3502244786 <UNK> салып
-8.3502244786 <s> тыныбектин
-8.3502244786 жүрүп <UNK>
-8.3502244786 ушул </s>
-8.3502244786 жатат </s>
-8.3502244786 <UNK> кайра
-8.3502244786 калат </s>
-8.3502244786 өттү </s>
-8.3502244786 мал <UNK>
-8.39467624117 биринчи жолу
-8.39467624117 <s> мага
-8.39467624117 ошол <UNK>
-8.39467624117 <UNK> тиктеп
-8.39467624117 болуштун <UNK>
-8.39467624117 комуз <UNK>
-8.39467624117 кошо <UNK>
-8.39467624117 коюп <UNK>
-8.39467624117 <UNK> көргөн
-8.39467624117 <UNK> үстүнө
-8.39467624117 абышка <UNK>
-8.39467624117 анан <UNK>
-8.39467624117 күнү <UNK>
-8.39467624117 үй ээси
-8.39467624117 алдына <UNK>
-8.39467624117 <UNK> кол
-8.39467624117 <UNK> сөз
-8.39467624117 угулду </s>
-8.39467624117 <s> андан
-8.39467624117 боз <UNK>
-8.39467624117 кылды </s>
-8.39467624117 <UNK> билбей
-8.44119625681 <UNK> сен
-8.44119625681 <UNK> түгүл
-8.44119625681 <s> кайсы
-8.44119625681 <s> өзү
-8.44119625681 <UNK> үйүнө
-8.44119625681 ай <UNK>
-8.44119625681 <s> муну
-8.44119625681 <UNK> этти
-8.44119625681 түшүп <UNK>
-8.44119625681 эмнеге <UNK>
-8.44119625681 <UNK> калышты
-8.44119625681 көзгө <UNK>
-8.44119625681 <UNK> ачык
-8.44119625681 <s> менин
-8.44119625681 <s> кудай
-8.44119625681 элди <UNK>
-8.44119625681 келет </s>
-8.44119625681 <s> дагы
-8.44119625681 <s> ошондо
-8.44119625681 атай да
-8.44119625681 <UNK> уулу
-8.44119625681 өз алдынча
-8.44119625681 да жок
-8.44119625681 чыккан <UNK>
-8.44119625681 <UNK> кантип
-8.44119625681 <UNK> жүрүп
-8.48998642098 <s> жантакпай
-8.48998642098 <UNK> тура
-8.48998642098 <UNK> көк
-8.48998642098 абдыракман <UNK>
-8.48998642098 көрдү </s>
-8.48998642098 султаналы менен
-8.48998642098 деп ойлойт
-8.48998642098 <s> абышка
-8.48998642098 <UNK> алган
-8.48998642098 үчүндүр <UNK>
-8.48998642098 <UNK> таң
-8.48998642098 атай </s>
-8.48998642098 сөзди </s>
-8.48998642098 суу <UNK>
-8.48998642098 өзүм <UNK>
-8.48998642098 аларды <UNK>
-8.48998642098 отурушту </s>
-8.48998642098 ичи <UNK>
-8.48998642098 бир көзде
-8.48998642098 <UNK> десе
-8.48998642098 ордунан <UNK>
-8.48998642098 деп ойлоду
-8.48998642098 <s> анан
-8.48998642098 <UNK> дешип
-8.48998642098 көп </s>
-8.48998642098 гана эмес
-8.48998642098 үй <UNK>
-8.48998642098 комузун <UNK>
-8.48998642098 да </s>
-8.48998642098 салып <UNK>
-8.48998642098 <UNK> турат
-8.48998642098 <UNK> жаман
-8.48998642098 <UNK> эшикке
-8.48998642098 атайды <UNK>
-8.48998642098 жерден <UNK>
-8.48998642098 <UNK> кетип
-8.48998642098 качан <UNK>
-8.48998642098 бүгүн <UNK>
-8.48998642098 <s> балам
-8.54127971537 ичинде <UNK>
-8.54127971537 албайт </s>
-8.54127971537 жөнөдү </s>
-8.54127971537 ар бир
-8.54127971537 жагына <UNK>
-8.54127971537 кирип <UNK>
-8.54127971537 салды </s>
-8.54127971537 бир гана
-8.54127971537 <UNK> көрө
-8.54127971537 <UNK> кыз
-8.54127971537 субан <UNK>
-8.54127971537 <s> болуш
-8.54127971537 <UNK> ат
-8.54127971537 көрүндү </s>
-8.54127971537 <s> бүгүн
-8.54127971537 болбосо <UNK>
-8.54127971537 болгон </s>
-8.54127971537 <UNK> тоймат
-8.54127971537 <UNK> биринчи
-8.54127971537 сени <UNK>
-8.54127971537 чырым <UNK>
-8.54127971537 сыяктуу <UNK>
-8.54127971537 <s> келин
-8.54127971537 орус <UNK>
-8.54127971537 <UNK> бетер
-8.54127971537 тең <UNK>
-8.54127971537 <s> а
-8.54127971537 <UNK> экенин
-8.54127971537 <UNK> бет
-8.54127971537 комузду <UNK>
-8.54127971537 башына <UNK>
-8.54127971537 болучу </s>
-8.54127971537 <UNK> качып
-8.54127971537 <UNK> андан
-8.54127971537 үч <UNK>
-8.54127971537 баарын <UNK>
-8.54127971537 <s> султаналынын
-8.54127971537 да анын
-8.54127971537 эле деп
-8.54127971537 <UNK> ошол
-8.54127971537 атай менен
-8.54127971537 кандайдыр бир
-8.54127971537 эшикке чыгып
-8.54127971537 берет </s>
-8.54127971537 <UNK> түшкөн
-8.59534693664 колун <UNK>
-8.59534693664 <UNK> жатып
-8.59534693664 <s> мейман
-8.59534693664 <s> эсенбек
-8.59534693664 <s> чырым
-8.59534693664 сөздү <UNK>
-8.59534693664 кулак <UNK>
-8.59534693664 эч <UNK>
-8.59534693664 ким экенин
-8.59534693664 <s> ушу
-8.59534693664 <UNK> чай
-8.59534693664 <UNK> бойдон
-8.59534693664 келин <UNK>
-8.59534693664 бар <UNK>
-8.59534693664 седеп <UNK>
-8.59534693664 маматтын <UNK>
-8.59534693664 <UNK> сайын
-8.59534693664 <UNK> жараша
-8.59534693664 акыркы <UNK>
-8.59534693664 <s> булар
-8.59534693664 карап <UNK>
-8.59534693664 <UNK> барбы
-8.59534693664 эсенбек <UNK>
-8.59534693664 <UNK> албады
-8.59534693664 <UNK> ала
-8.59534693664 <s> эч
-8.59534693664 <UNK> деле
-8.59534693664 <s> жаныбек
-8.59534693664 байдын <UNK>
-8.59534693664 кайдан <UNK>
-8.59534693664 <s> алымбай
-8.59534693664 деле <UNK>
-8.59534693664 <s> аңгыча
-8.59534693664 жок эле
-8.59534693664 <UNK> берип
-8.59534693664 отурган <UNK>
-8.59534693664 деди <UNK>
-8.59534693664 ары <UNK>
-8.59534693664 жалгыз гана
-8.59534693664 кеп <UNK>
-8.59534693664 бу <UNK>
-8.59534693664 <UNK> келин
-8.65250535048 бир аздан
-8.65250535048 <s> башка
-8.65250535048 бар эле
-8.65250535048 <UNK> үн
-8.65250535048 басып <UNK>
-8.65250535048 жерде <UNK>
-8.65250535048 жакшы </s>
-8.65250535048 балам <UNK>
-8.65250535048 <s> ой
-8.65250535048 <UNK> болуш
-8.65250535048 кайсы <UNK>
-8.65250535048 берип <UNK>
-8.65250535048 беришти </s>
-8.65250535048 <UNK> токтогул
-8.65250535048 <UNK> алдында
-8.65250535048 ой <UNK>
-8.65250535048 кайрадан <UNK>
-8.65250535048 балким <UNK>
-8.65250535048 <s> ээ
-8.65250535048 <UNK> кызылбаш
-8.65250535048 <UNK> баарын
-8.65250535048 <s> мени
-8.65250535048 артына <UNK>
-8.65250535048 <s> ошол
-8.65250535048 келгенден кийин
-8.65250535048 <UNK> туура
-8.65250535048 <UNK> ордунан
-8.65250535048 жаман <UNK>
-8.65250535048 <s> кудайберген
-8.65250535048 <UNK> тең
-8.65250535048 болуу керек
-8.65250535048 аздан кийин
-8.65250535048 <UNK> баштаганда
-8.65250535048 биздин <UNK>
-8.65250535048 <UNK> баратты
-8.65250535048 <UNK> седеп
-8.65250535048 <UNK> жанына
-8.65250535048 эң мурун
-8.65250535048 <UNK> келгенде
-8.65250535048 билбей <UNK>
-8.65250535048 <UNK> айтор
-8.65250535048 <UNK> анан
-8.65250535048 <s> күн
-8.65250535048 таластын <UNK>
-8.65250535048 калып <UNK>
-8.65250535048 <UNK> сүйлөдү
-8.65250535048 турушту </s>
-8.65250535048 бет <UNK>
-8.65250535048 деген сөз
-8.71312997229 сөзгө <UNK>
-8.71312997229 келишти </s>
-8.71312997229 болбойт </s>
-8.71312997229 жайын <UNK>
-8.71312997229 <UNK> элге
-8.71312997229 менен кошо
-8.71312997229 <UNK> бай
-8.71312997229 <UNK> кеткен
-8.71312997229 султаналынын <UNK>
-8.71312997229 да бар
-8.71312997229 <s> үй
-8.71312997229 мурда <UNK>
-8.71312997229 өтө <UNK>
-8.71312997229 андан <UNK>
-8.71312997229 күмүш <UNK>
-8.71312997229 <UNK> сууруп
-8.71312997229 <s> аялы
-8.71312997229 <s> күү
-8.71312997229 менен гана
-8.71312997229 башталды </s>
-8.71312997229 комузчу <UNK>
-8.71312997229 билет </s>
-8.71312997229 сунду </s>
-8.71312997229 бер </s>
-8.71312997229 тартып <UNK>
-8.71312997229 <UNK> мамат
-8.71312997229 комуздун <UNK>
-8.71312997229 <UNK> мындай
-8.71312997229 да бир
-8.71312997229 айтты </s>
-8.71312997229 күлдү </s>
-8.71312997229 өзүн <UNK>
-8.71312997229 бирок анын
-8.71312997229 <s> атасы
-8.71312997229 кеткен </s>
-8.71312997229 алдында <UNK>
-8.71312997229 молдо <UNK>
-8.71312997229 ал эми
-8.71312997229 <s> абдыракман
-8.71312997229 ал да
-8.71312997229 талас <UNK>
-8.71312997229 <UNK> алдына
-8.71312997229 ойлоду </s>
-8.71312997229 отура берди
-8.71312997229 чыгат </s>
-8.71312997229 <UNK> байкап
-8.71312997229 <UNK> кээде
-8.71312997229 иреңи <UNK>
-8.71312997229 башы <UNK>
-8.71312997229 деди </s>
-8.71312997229 <UNK> бекен
-8.71312997229 боз үйдүн
-8.71312997229 баратат </s>
-8.77766849343 <UNK> этип
-8.77766849343 сайын <UNK>
-8.77766849343 сага <UNK>
-8.77766849343 <UNK> аз
-8.77766849343 келгенде <UNK>
-8.77766849343 ошондон кийин
-8.77766849343 <UNK> чыдабай
-8.77766849343 бурулду </s>
-8.77766849343 жатты </s>
-8.77766849343 менен </s>
-8.77766849343 <UNK> жол
-8.77766849343 түгүл <UNK>
-8.77766849343 <UNK> жанында
-8.77766849343 атайга <UNK>
-8.77766849343 <s> баланын
-8.77766849343 <s> уулжан
-8.77766849343 <UNK> каякка
-8.77766849343 колунан <UNK>
-8.77766849343 оозун <UNK>
-8.77766849343 күүгө <UNK>
-8.77766849343 <s> өз
-8.77766849343 гана </s>
-8.77766849343 кулагы <UNK>
-8.77766849343 бай <UNK>
-8.77766849343 <UNK> көтөрүп
-8.77766849343 бир жолу
-8.77766849343 <UNK> аккыз
-8.77766849343 <s> балдар
-8.77766849343 <UNK> колун
-8.77766849343 <UNK> келет
-8.77766849343 жөн эле
-8.77766849343 <s> биз
-8.77766849343 <UNK> чыга
-8.77766849343 <UNK> боюнча
-8.77766849343 чертип <UNK>
-8.77766849343 <UNK> баштаган
-8.77766849343 <s> мураталы
-8.77766849343 атасынын <UNK>
-8.77766849343 улам <UNK>
-8.77766849343 үйдөн <UNK>
-8.77766849343 <UNK> ичинде
-8.77766849343 <UNK> өтүп
-8.77766849343 <s> анткени
-8.77766849343 жактан <UNK>
-8.77766849343 атка <UNK>
-8.77766849343 <UNK> ичинен
-8.77766849343 кылып <UNK>
-8.77766849343 <UNK> жакын
-8.77766849343 <UNK> туш
-8.77766849343 таң <UNK>
-8.77766849343 менен да
-8.77766849343 бирде <UNK>
-8.77766849343 экен го
-8.77766849343 <s> шалтакбай
-8.77766849343 <s> райымбек
-8.77766849343 тиктеди </s>
-8.84666136492 <s> ошондон
-8.84666136492 мына <UNK>
-8.84666136492 кошуп <UNK>
-8.84666136492 <UNK> үнү
-8.84666136492 <UNK> койгон
-8.84666136492 <UNK> колуна
-8.84666136492 <UNK> азыр
-8.84666136492 башка </s>
-8.84666136492 <UNK> бийик
-8.84666136492 кулагын <UNK>
-8.84666136492 <s> седептин
-8.84666136492 <UNK> калып
-8.84666136492 <UNK> калат
-8.84666136492 <UNK> угуп
-8.84666136492 <UNK> арасында
-8.84666136492 <UNK> кой
-8.84666136492 <UNK> өзүнүн
-8.84666136492 бир маалда
-8.84666136492 өзүнчө <UNK>
-8.84666136492 чыгарып <UNK>
-8.84666136492 <UNK> мүмкүн
-8.84666136492 дем <UNK>
-8.84666136492 <UNK> жерге
-8.84666136492 алган <UNK>
-8.84666136492 анын үстүнө
-8.84666136492 элек </s>
-8.84666136492 <UNK> күн
-8.84666136492 <s> жаңы
-8.84666136492 таш <UNK>
-8.84666136492 <s> молдо
-8.84666136492 калың <UNK>
-8.84666136492 бутун <UNK>
-8.84666136492 дешип <UNK>
-8.84666136492 <UNK> таштап
-8.84666136492 тоймат <UNK>
-8.84666136492 <s> баары
-8.84666136492 <UNK> сөзүн
-8.84666136492 эч кимге
-8.84666136492 <s> комуз
-8.84666136492 <UNK> көзүн
-8.84666136492 бар экен
-8.84666136492 биринчи <UNK>
-8.84666136492 тиги <UNK>
-8.84666136492 <UNK> боло
-8.84666136492 киришти </s>
-8.84666136492 кийин гана
-8.84666136492 атай аны
-8.84666136492 <UNK> менин
-8.84666136492 кармап <UNK>
-8.84666136492 <UNK> көңүлү
-8.84666136492 ар ким
-8.84666136492 <UNK> турганда
-8.84666136492 <s> сага
-8.84666136492 өткөн <UNK>
-8.84666136492 <UNK> келе
-8.84666136492 да аны
-8.84666136492 жигиттин <UNK>
-8.84666136492 жанына <UNK>
-8.84666136492 <UNK> отура
-8.84666136492 <s> мамыр
-8.84666136492 <UNK> мурда
-8.84666136492 колуна <UNK>
-8.84666136492 <UNK> өздөрү
-8.84666136492 айыл <UNK>
-8.84666136492 ордунан туруп
-8.92076933707 <UNK> эсенбек
-8.92076933707 жантакпай <UNK>
-8.92076933707 <UNK> күч
-8.92076933707 <UNK> иреңи
-8.92076933707 бир нече
-8.92076933707 <s> байдын
-8.92076933707 <UNK> баланын
-8.92076933707 аттын <UNK>
-8.92076933707 көз карашы
-8.92076933707 мандаш урунуп
-8.92076933707 угулат </s>
-8.92076933707 иш <UNK>
-8.92076933707 азыркы <UNK>
-8.92076933707 <UNK> көрдү
-8.92076933707 <UNK> дабышы
-8.92076933707 беш <UNK>
-8.92076933707 болушту </s>
-8.92076933707 кыздын <UNK>
-8.92076933707 ар кайсы
-8.92076933707 тура калды
-8.92076933707 көзде <UNK>
-8.92076933707 бозо <UNK>
-8.92076933707 <UNK> катуу
-8.92076933707 ошондо гана
-8.92076933707 <s> мунун
-8.92076933707 <UNK> араң
-8.92076933707 эгерде <UNK>
-8.92076933707 күү </s>
-8.92076933707 <UNK> үч
-8.92076933707 сары <UNK>
-8.92076933707 <s> ушундай
-8.92076933707 көргөндө <UNK>
-8.92076933707 <UNK> ушундай
-8.92076933707 <UNK> көрүндү
-8.92076933707 <UNK> жактан
-8.92076933707 туура <UNK>
-8.92076933707 <s> ырас
-8.92076933707 кызылбаш менен
-8.92076933707 <UNK> үстүндө
-8.92076933707 субан менен
-8.92076933707 жагынан <UNK>
-8.92076933707 эки жагын
-8.92076933707 <s> элдин
-8.92076933707 кимге <UNK>
-8.92076933707 жүргөн </s>
-8.92076933707 <s> ак
-8.92076933707 жашы <UNK>
-8.92076933707 <s> жакшы
-8.92076933707 <UNK> ээ
-8.92076933707 <UNK> ай
-8.92076933707 мен да
-8.92076933707 мырза <UNK>
-8.92076933707 көргөн <UNK>
-8.92076933707 нерсени <UNK>
-8.92076933707 келген </s>
-8.92076933707 баштаган </s>
-8.92076933707 <UNK> калың
-8.92076933707 окшойт </s>
-8.92076933707 <UNK> белгилүү
-8.92076933707 байкады </s>
-8.92076933707 кудайберген <UNK>
-8.92076933707 айылдагы <UNK>
-8.92076933707 биз <UNK>
-8.92076933707 алышып <UNK>
-8.92076933707 <UNK> балам
-8.92076933707 <UNK> чырым
-8.92076933707 <UNK> мындан
-8.92076933707 <s> кээде
-8.92076933707 <UNK> билген
-8.92076933707 мурун <UNK>
-8.92076933707 алат </s>
-8.92076933707 <s> жалаң
-8.92076933707 <UNK> чыгарып
-8.92076933707 бирөө <UNK>
-8.92076933707 <UNK> элди
-8.92076933707 отуруп калды
-8.92076933707 <UNK> кылды
-8.92076933707 <UNK> мени
-8.92076933707 <s> кош
-8.92076933707 койгон </s>
-8.92076933707 <UNK> көргөндө
-8.92076933707 көрө <UNK>
-8.92076933707 элем </s>
-8.92076933707 тоо <UNK>
-8.92076933707 <s> ошентип
-8.92076933707 көрүнөт </s>
-9.00081204474 <s> атам
-9.00081204474 кабар <UNK>
-9.00081204474 жаныбек <UNK>
-9.00081204474 үнү <UNK>
-9.00081204474 күүнү <UNK>
-9.00081204474 экөө тең
-9.00081204474 мунун <UNK>
-9.00081204474 кийинки <UNK>
-9.00081204474 үн <UNK>
-9.00081204474 жай <UNK>
-9.00081204474 таң атканча
-9.00081204474 эгин <UNK>
-9.00081204474 экен деген
-9.00081204474 алышты </s>
-9.00081204474 аларга <UNK>
-9.00081204474 жетти </s>
-9.00081204474 караганда <UNK>
-9.00081204474 ошо <UNK>
-9.00081204474 <s> андай
-9.00081204474 чын <UNK>
-9.00081204474 канчалык <UNK>
-9.00081204474 кандайча <UNK>
-9.00081204474 иши <UNK>
-9.00081204474 <s> жигит
-9.00081204474 <UNK> бүт
-9.00081204474 <UNK> үйгө
-9.00081204474 үйдө <UNK>
-9.00081204474 таштап <UNK>
-9.00081204474 <UNK> тиктеди
-9.00081204474 оор <UNK>
-9.00081204474 ичинен <UNK>
-9.00081204474 акырында <UNK>
-9.00081204474 жакын <UNK>
-9.00081204474 <UNK> субан
-9.00081204474 сыр <UNK>
-9.00081204474 <UNK> алардын
-9.00081204474 <s> сени
-9.00081204474 <UNK> кошуп
-9.00081204474 бир ооз
-9.00081204474 <UNK> ого
-9.00081204474 <s> биздин
-9.00081204474 жүрөгүн <UNK>
-9.00081204474 баланы <UNK>
-9.00081204474 болгону менен
-9.00081204474 <s> акырында
-9.00081204474 балдар <UNK>
-9.00081204474 <s> боз
-9.00081204474 жашын <UNK>
-9.00081204474 көздөрү <UNK>
-9.00081204474 ыр <UNK>
-9.00081204474 <s> жер
-9.00081204474 анын сөзүн
-9.00081204474 элден <UNK>
-9.00081204474 жери <UNK>
-9.00081204474 <s> эмесе
-9.00081204474 ачып <UNK>
-9.00081204474 жиберди </s>
-9.00081204474 эч нерсени
-9.00081204474 атасы <UNK>
-9.00081204474 <UNK> кереги
-9.00081204474 <UNK> тыныбектин
-9.00081204474 <UNK> талас
-9.00081204474 элек болучу
-9.00081204474 <UNK> уккан
-9.00081204474 <UNK> күтүп
-9.00081204474 аккыз <UNK>
-9.00081204474 <UNK> болбойт
-9.00081204474 <UNK> баатыр
-9.00081204474 <UNK> жагынан
-9.00081204474 угуп <UNK>
-9.00081204474 өтүп <UNK>
-9.00081204474 тартты </s>
-9.00081204474 үчүн гана
-9.00081204474 жана анын
-9.00081204474 эмеспи </s>
-9.00081204474 <UNK> эски
-9.00081204474 коет </s>
-9.00081204474 <UNK> бирде
-9.00081204474 бойдон <UNK>
-9.00081204474 кичинекей <UNK>
-9.00081204474 <UNK> ойноп
-9.00081204474 <s> тиги
-9.00081204474 <UNK> билчү
-9.00081204474 <UNK> отурду
-9.00081204474 <s> абдыраман
-9.00081204474 эшикке <UNK>
-9.00081204474 <UNK> аларды
-9.00081204474 атай анын
-9.00081204474 кудайга <UNK>
-9.00081204474 ордунан турду
-9.00081204474 <UNK> салды
-9.00081204474 көңүлүн <UNK>
-9.00081204474 киши жок
-9.00081204474 <UNK> жүрөт
-9.00081204474 аны үчүн
-9.00081204474 болсун <UNK>
-9.00081204474 <UNK> чертип
-9.00081204474 <UNK> айыл
-9.00081204474 уулжан <UNK>
-9.00081204474 убакта <UNK>
-9.00081204474 үчүн да
-9.00081204474 <UNK> оозун
-9.00081204474 үйүн көздөй
-9.00081204474 <UNK> башында
-9.00081204474 <s> сенин
-9.00081204474 айтор <UNK>
-9.00081204474 <UNK> күлдү
-9.00081204474 этти </s>
-9.00081204474 <UNK> башына
-9.00081204474 <s> анатолий
-9.00081204474 бир күнү
-9.08782342173 басты </s>
-9.08782342173 уккан </s>
-9.08782342173 бет алды
-9.08782342173 эч качан
-9.08782342173 ооз <UNK>
-9.08782342173 <UNK> дем
-9.08782342173 да өз
-9.08782342173 кулагына <UNK>
-9.08782342173 <UNK> ой
-9.08782342173 <UNK> кыйын
-9.08782342173 <UNK> кулак
-9.08782342173 ийди </s>
-9.08782342173 аялынын <UNK>
-9.08782342173 <UNK> башы
-9.08782342173 жатып <UNK>
-9.08782342173 <UNK> ортосунда
-9.08782342173 дале <UNK>
-9.08782342173 деди да
-9.08782342173 алымбай <UNK>
-9.08782342173 кишинин <UNK>
-9.08782342173 <s> жалгыз
-9.08782342173 артынан <UNK>
-9.08782342173 сонун <UNK>
-9.08782342173 бирге <UNK>
-9.08782342173 <UNK> бозо
-9.08782342173 <UNK> келсе
-9.08782342173 тили <UNK>
-9.08782342173 ойго <UNK>
-9.08782342173 <UNK> кирди
-9.08782342173 турмуштун <UNK>
-9.08782342173 <s> мүмкүн
-9.08782342173 бир жагына
-9.08782342173 райымбек <UNK>
-9.08782342173 <UNK> кудай
-9.08782342173 бою <UNK>
-9.08782342173 деп ойлоп
-9.08782342173 эл менен
-9.08782342173 көзинде <UNK>
-9.08782342173 бирибири менен
-9.08782342173 <UNK> тоо
-9.08782342173 <UNK> жогору
-9.08782342173 ушул жерде
-9.08782342173 <UNK> күлүп
-9.08782342173 абдыракмандын <UNK>
-9.08782342173 алтын <UNK>
-9.08782342173 <UNK> көңүл
-9.08782342173 <s> жок
-9.08782342173 ачты </s>
-9.08782342173 <UNK> кайсы
-9.08782342173 башталат </s>
-9.08782342173 кең <UNK>
-9.08782342173 күйөөсүнүн <UNK>
-9.08782342173 баягы <UNK>
-9.08782342173 <UNK> абышка
-9.08782342173 <UNK> кор
-9.08782342173 өз ара
-9.08782342173 өздөрү да
-9.08782342173 <UNK> балдар
-9.08782342173 жогору <UNK>
-9.08782342173 отурушат </s>
-9.08782342173 <UNK> учуп
-9.08782342173 көтөрүп <UNK>
-9.08782342173 топ <UNK>
-9.08782342173 <UNK> комузчу
-9.08782342173 аттан <UNK>
-9.08782342173 <UNK> сени
-9.08782342173 <UNK> эсине
-9.08782342173 тура калып
-9.08782342173 экендигин <UNK>
-9.08782342173 бир катар
-9.08782342173 <UNK> жетпей
-9.08782342173 <s> ким
-9.08782342173 турмуш <UNK>
-9.08782342173 <UNK> ашып
-9.08782342173 деп ойлогон
-9.08782342173 <UNK> суу
-9.08782342173 <UNK> башталды
-9.08782342173 <s> ат
-9.08782342173 <UNK> ордуна
-9.08782342173 өзүң <UNK>
-9.08782342173 көзүнчө <UNK>
-9.08782342173 түшкөн <UNK>
-9.08782342173 <UNK> айткан
-9.08782342173 силер <UNK>
-9.08782342173 <UNK> молдо
-9.08782342173 <UNK> унутуп
-9.08782342173 кайда <UNK>
-9.08782342173 <UNK> кайда
-9.08782342173 <s> маматтын
-9.08782342173 бу жолу
-9.08782342173 <UNK> мал
-9.08782342173 <UNK> келаткан
-9.08782342173 ал бир
-9.08782342173 жүрөт </s>
-9.08782342173 комузга <UNK>
-9.08782342173 өзгөчө <UNK>
-9.08782342173 <UNK> ырчы
-9.08782342173 <UNK> сөздү
-9.08782342173 дешет </s>
-9.08782342173 <UNK> кийип
-9.08782342173 <UNK> дегендей
-9.08782342173 отурган </s>
-9.08782342173 келбейт </s>
-9.08782342173 боло <UNK>
-9.08782342173 айылдын <UNK>
-9.08782342173 бүткөндөн кийин
-9.08782342173 башын көтөрүп
-9.08782342173 бар экенин
-9.08782342173 тиктейт </s>
-9.18313360154 дегенсишип <UNK>
-9.18313360154 <UNK> элден
-9.18313360154 калыптыр </s>
-9.18313360154 көбүрөөк <UNK>
-9.18313360154 менден <UNK>
-9.18313360154 жалгыз өзү
-9.18313360154 <UNK> отурат
-9.18313360154 <UNK> оң
-9.18313360154 башка жакка
-9.18313360154 туюлду </s>
-9.18313360154 мамат менен
-9.18313360154 <s> бардыгы
-9.18313360154 <UNK> жакка
-9.18313360154 алар менен
-9.18313360154 <UNK> көрүнүп
-9.18313360154 <UNK> күүнү
-9.18313360154 <s> бектен
-9.18313360154 сыртынан <UNK>
-9.18313360154 колу менен
-9.18313360154 билбейм </s>
-9.18313360154 <s> ыр
-9.18313360154 түшкөн </s>
-9.18313360154 экен дегенсип
-9.18313360154 <UNK> райымбек
-9.18313360154 <s> чал
-9.18313360154 ыраазы болуп
-9.18313360154 <s> күйөөсү
-9.18313360154 <UNK> келбей
-9.18313360154 <s> аксакал
-9.18313360154 алган </s>
-9.18313360154 көз алдына
-9.18313360154 <UNK> бүтүп
-9.18313360154 <UNK> алар
-9.18313360154 султаналы </s>
-9.18313360154 кошулду </s>
-9.18313360154 үйгө кирип
-9.18313360154 турган экен
-9.18313360154 ичиндеги <UNK>
-9.18313360154 <UNK> салам
-9.18313360154 <UNK> сыяктуу
-9.18313360154 от <UNK>
-9.18313360154 <UNK> сага
-9.18313360154 деген ой
-9.18313360154 элек <UNK>
-9.18313360154 <UNK> угулат
-9.18313360154 кийин атай
-9.18313360154 өмүрүндө <UNK>
-9.18313360154 андай болсо
-9.18313360154 нерсеге <UNK>
-9.18313360154 келгенин <UNK>
-9.18313360154 <UNK> айтты
-9.18313360154 калган жок
-9.18313360154 көзүнө <UNK>
-9.18313360154 <UNK> көзгө
-9.18313360154 ушинтип <UNK>
-9.18313360154 мойнун <UNK>
-9.18313360154 кишини <UNK>
-9.18313360154 билчү </s>
-9.18313360154 <UNK> эткен
-9.18313360154 <UNK> берет
-9.18313360154 <s> абдыракмандын
-9.18313360154 <UNK> чечип
-9.18313360154 <UNK> кийген
-9.18313360154 <s> сиз
-9.18313360154 бурулча <UNK>
-9.18313360154 калдым </s>
-9.18313360154 акырын <UNK>
-9.18313360154 майда <UNK>
-9.18313360154 <s> акшайым
-9.18313360154 <s> кыздын
-9.18313360154 <UNK> кудайберген
-9.18313360154 бир жерге
-9.18313360154 колу <UNK>
-9.18313360154 сурады </s>
-9.18313360154 кесени <UNK>
-9.18313360154 <UNK> үй
-9.18313360154 болду <UNK>
-9.18313360154 <UNK> албайт
-9.18313360154 жанында <UNK>
-9.18313360154 <UNK> биз
-9.18313360154 үйү <UNK>
-9.18313360154 бети <UNK>
-9.18313360154 <UNK> суроо
-9.18313360154 <UNK> чыгат
-9.18313360154 андан көрө
-9.18313360154 жаңы гана
-9.18313360154 күүсүн <UNK>
-9.18313360154 алдынча <UNK>
-9.18313360154 менен иши
-9.18313360154 <UNK> кош
-9.18313360154 <UNK> атасы
-9.18313360154 ошондой <UNK>
-9.18313360154 султаналы да
-9.18313360154 <UNK> болуу
-9.18313360154 бул эмне
-9.18313360154 мамыр <UNK>
-9.18313360154 кала <UNK>
-9.18313360154 суроо <UNK>
-9.18313360154 <s> көп
-9.18313360154 минтип <UNK>
-9.18313360154 экинчи жолу
-9.18313360154 сакалын <UNK>
-9.18313360154 араң <UNK>
-9.18313360154 <UNK> убакыт
-9.18313360154 бекен деп
-9.18313360154 оокат <UNK>
-9.18313360154 минип <UNK>
-9.18313360154 ой менен
-9.18313360154 ал үчүн
-9.18313360154 деп жооп
-9.18313360154 байбиче <UNK>
-9.18313360154 седептин <UNK>
-9.18313360154 <UNK> отурганда
-9.18313360154 <UNK> себеби
-9.18313360154 <UNK> отурушту
-9.18313360154 <UNK> жайын
-9.18313360154 <s> кана
-9.18313360154 эмес эле
-9.18313360154 турганда <UNK>
-9.18313360154 <UNK> сенин
-9.18313360154 коюшту </s>
-9.18313360154 кайын <UNK>
-9.18313360154 <s> баягы
-9.18313360154 кеткен <UNK>
-9.18313360154 кээ бир
-9.18313360154 чыгар </s>
-9.18313360154 атайын <UNK>
-9.2884941172 эсине <UNK>
-9.2884941172 <UNK> калса
-9.2884941172 кой </s>
-9.2884941172 орто <UNK>
-9.2884941172 аксакал <UNK>
-9.2884941172 <UNK> болуштун
-9.2884941172 кор <UNK>
-9.2884941172 <UNK> үйдөн
-9.2884941172 <UNK> аттан
-9.2884941172 чындап <UNK>
-9.2884941172 <s> болбосо
-9.2884941172 анча <UNK>
-9.2884941172 <UNK> келбейт
-9.2884941172 эмне болду
-9.2884941172 <UNK> нечен
-9.2884941172 <s> ошо
-9.2884941172 ал турсун
-9.2884941172 ырас </s>
-9.2884941172 байкап <UNK>
-9.2884941172 <UNK> толуп
-9.2884941172 тарапка <UNK>
-9.2884941172 <UNK> бастырып
-9.2884941172 келсе <UNK>
-9.2884941172 <UNK> жай
-9.2884941172 <UNK> чакырып
-9.2884941172 <UNK> кылган
-9.2884941172 <s> атайды
-9.2884941172 падыша <UNK>
-9.2884941172 аралап <UNK>
-9.2884941172 айылдан <UNK>
-9.2884941172 билчү эмес
-9.2884941172 <UNK> эң
-9.2884941172 <UNK> түшүнө
-9.2884941172 отуруп калышты
-9.2884941172 темир комуз
-9.2884941172 <UNK> ооба
-9.2884941172 бүт <UNK>
-9.2884941172 <UNK> кайдан
-9.2884941172 арасында <UNK>
-9.2884941172 <UNK> өткөн
-9.2884941172 деди ал
-9.2884941172 мынчалык <UNK>
-9.2884941172 токтогулдун <UNK>
-9.2884941172 аманэсен <UNK>
-9.2884941172 ал өзү
-9.2884941172 <UNK> комуз
-9.2884941172 <UNK> көзүнө
-9.2884941172 ошондо <UNK>
-9.2884941172 кетип <UNK>
-9.2884941172 узун <UNK>
-9.2884941172 <UNK> үйдүн
-9.2884941172 токтой калды
-9.2884941172 <UNK> минип
-9.2884941172 бир нерсени
-9.2884941172 <UNK> ушунчалык
-9.2884941172 бизге <UNK>
-9.2884941172 үйүнөн <UNK>
-9.2884941172 ар <UNK>
-9.2884941172 нечен жолу
-9.2884941172 <UNK> балким
-9.2884941172 жалгыз үй
-9.2884941172 салам айтып
-9.2884941172 күүнүн <UNK>
-9.2884941172 таң калды
-9.2884941172 <s> үйдө
-9.2884941172 кой <UNK>
-9.2884941172 <s> каякка
-9.2884941172 кеткенден кийин
-9.2884941172 <UNK> болбой
-9.2884941172 анатолий федорович
-9.2884941172 көптөн бери
-9.2884941172 да жакшы
-9.2884941172 көрүнбөйт </s>
-9.2884941172 эртең мененки
-9.2884941172 эки көзү
-9.2884941172 силердин <UNK>
-9.2884941172 боз улан
-9.2884941172 мүмкүн эмес
-9.2884941172 бардыгы <UNK>
-9.2884941172 көрүштү </s>
-9.2884941172 ордунан тура
-9.2884941172 жаткан </s>
-9.2884941172 <UNK> сөзди
-9.2884941172 <UNK> кошулуп
-9.2884941172 <UNK> аялы
-9.2884941172 турган болду
-9.2884941172 <UNK> байдын
-9.2884941172 деп султаналы
-9.2884941172 кайсы бири
-9.2884941172 келишип <UNK>
-9.2884941172 <s> кара
-9.2884941172 <UNK> дабыш
-9.2884941172 эмне деген
-9.2884941172 кетишет </s>
-9.2884941172 султаналыга <UNK>
-9.2884941172 андан бетер
-9.2884941172 ырчы менен
-9.2884941172 баятан бери
-9.2884941172 <UNK> бөлүп
-9.2884941172 <s> кайран
-9.2884941172 киши да
-9.2884941172 абышка менен
-9.2884941172 <UNK> каршы
-9.2884941172 сөзү <UNK>
-9.2884941172 калышат </s>
-9.2884941172 ар кимиси
-9.2884941172 эмне деп
-9.2884941172 анын эмне
-9.2884941172 кетишти </s>
-9.2884941172 <UNK> ичи
-9.2884941172 <UNK> атайга
-9.2884941172 <UNK> толгон
-9.2884941172 да эч
-9.2884941172 канча <UNK>
-9.2884941172 алышкан </s>
-9.2884941172 тил <UNK>
-9.2884941172 калган экен
-9.2884941172 биротоло <UNK>
-9.2884941172 <UNK> колу
-9.2884941172 жооп берди
-9.2884941172 башка эч
-9.2884941172 бийик <UNK>
-9.2884941172 көңүлүнө <UNK>
-9.2884941172 ээси <UNK>
-9.2884941172 аш <UNK>
-9.2884941172 сиз <UNK>
-9.2884941172 <UNK> ыраазы
-9.2884941172 <s> ушуну
-9.2884941172 келаткан <UNK>
-9.2884941172 <s> эртең
-9.2884941172 <UNK> ачып
-9.2884941172 <UNK> кишинин
-9.2884941172 отурган экен
-9.2884941172 шалтакбай <UNK>
-9.2884941172 бөлүп <UNK>
-9.2884941172 <UNK> өзүнө
-9.2884941172 бий <UNK>
-9.2884941172 <UNK> турганын
-9.2884941172 <UNK> ойго
-9.2884941172 <UNK> киришти
-9.2884941172 келбей <UNK>
-9.2884941172 алды <UNK>
-9.2884941172 экөөбүз <UNK>
-9.2884941172 таттуу <UNK>
-9.2884941172 <s> адатта
-9.2884941172 <s> эски
-9.2884941172 бүттү </s>
-9.2884941172 болгонун <UNK>
-9.2884941172 <UNK> тамаша
-9.2884941172 кимдир бирөө
-9.2884941172 окуу <UNK>
-9.2884941172 петр федорович
-9.2884941172 <UNK> дей
-9.2884941172 <UNK> жолу
-9.2884941172 молдонун <UNK>
-9.2884941172 болуш менен
-9.2884941172 эл да
-9.2884941172 эмне кыларын
-9.2884941172 абдыраман <UNK>
-9.2884941172 <UNK> чал
-9.2884941172 <UNK> ырас
-9.40627715285 баласынын <UNK>
-9.40627715285 <s> айылдын
-9.40627715285 <UNK> кыздын
-9.40627715285 <UNK> сөзип
-9.40627715285 ооба <UNK>
-9.40627715285 кетти <UNK>
-9.40627715285 ошо бойдон
-9.40627715285 жолго <UNK>
-9.40627715285 тору <UNK>
-9.40627715285 алып келип
-9.40627715285 бийдин <UNK>
-9.40627715285 <s> таластын
-9.40627715285 <UNK> бүткүл
-9.40627715285 бир катары
-9.40627715285 көтөрдү </s>
-9.40627715285 таап <UNK>
-9.40627715285 бул кандай
-9.40627715285 сиздин <UNK>
-9.40627715285 <UNK> кызмат
-9.40627715285 аттарын <UNK>
-9.40627715285 кирип келди
-9.40627715285 турган атай
-9.40627715285 таласка <UNK>
-9.40627715285 жана башка
-9.40627715285 бербей <UNK>
-9.40627715285 <UNK> комузун
-9.40627715285 кийип <UNK>
-9.40627715285 жылдан бери
-9.40627715285 <UNK> сонун
-9.40627715285 чуркады </s>
-9.40627715285 <s> экөө
-9.40627715285 кийин да
-9.40627715285 <s> токтогулдун
-9.40627715285 бир убакта
-9.40627715285 мүмкүн </s>
-9.40627715285 аты <UNK>
-9.40627715285 <UNK> куру
-9.40627715285 <UNK> катып
-9.40627715285 келиптир </s>
-9.40627715285 <s> бет
-9.40627715285 сен да
-9.40627715285 баарыдан да
-9.40627715285 <s> турмуш
-9.40627715285 эмнени <UNK>
-9.40627715285 күндөн бери
-9.40627715285 <UNK> катары
-9.40627715285 <UNK> чуркап
-9.40627715285 бирок аны
-9.40627715285 болорун <UNK>
-9.40627715285 <UNK> коет
-9.40627715285 оозу <UNK>
-9.40627715285 <s> тууганбай
-9.40627715285 мурутун <UNK>
-9.40627715285 <UNK> алат
-9.40627715285 бирөөлөр <UNK>
-9.40627715285 жиберишти </s>
-9.40627715285 балдар менен
-9.40627715285 <s> ошондой
-9.40627715285 ишке <UNK>
-9.40627715285 черте баштады
-9.40627715285 <UNK> тийди
-9.40627715285 <UNK> өзгөчө
-9.40627715285 катары <UNK>
-9.40627715285 <s> иш
-9.40627715285 <UNK> дал
-9.40627715285 калды <UNK>
-9.40627715285 <UNK> окуп
-9.40627715285 <UNK> акыл
-9.40627715285 <s> мугалим
-9.40627715285 эч кимиси
-9.40627715285 ушул жерден
-9.40627715285 чыккан жок
-9.40627715285 <UNK> ата
-9.40627715285 чөк түшүп
-9.40627715285 <s> кестикбай
-9.40627715285 абдан <UNK>
-9.40627715285 <s> байбиче
-9.40627715285 <UNK> чыгар
-9.40627715285 бая күнү
-9.40627715285 <UNK> бардыгы
-9.40627715285 менен атайдын
-9.40627715285 алышпады </s>
-9.40627715285 <s> кандай
-9.40627715285 <UNK> бутун
-9.40627715285 <UNK> сары
-9.40627715285 жакасын <UNK>
-9.40627715285 колун сунду
-9.40627715285 атканча <UNK>
-9.40627715285 муну <UNK>
-9.40627715285 <UNK> колунан
-9.40627715285 куу <UNK>
-9.40627715285 <UNK> мыкты
-9.40627715285 укту </s>
-9.40627715285 <UNK> сөзген
-9.40627715285 билишчү </s>
-9.40627715285 <UNK> мураталы
-9.40627715285 төргө <UNK>
-9.40627715285 баары бир
-9.40627715285 <s> сөз
-9.40627715285 эле го
-9.40627715285 ошону <UNK>
-9.40627715285 <s> анысы
-9.40627715285 ойлогон </s>
-9.40627715285 атай деген
-9.40627715285 уйкусу <UNK>
-9.40627715285 <UNK> ушинтип
-9.40627715285 арасына <UNK>
-9.40627715285 <s> ырчы
-9.40627715285 жүрдү </s>
-9.40627715285 <s> үч
-9.40627715285 сырын <UNK>
-9.40627715285 отурган атай
-9.40627715285 тап <UNK>
-9.40627715285 жок деп
-9.40627715285 <s> силер
-9.40627715285 жанына келип
-9.40627715285 чертти </s>
-9.40627715285 келе <UNK>
-9.40627715285 <UNK> ажыраган
-9.40627715285 күлүштү </s>
-9.40627715285 <UNK> кишилердин
-9.40627715285 <s> качан
-9.40627715285 <UNK> кандайдыр
-9.40627715285 ойлоп <UNK>
-9.40627715285 ыр менен
-9.40627715285 <UNK> түбүнө
-9.40627715285 акын <UNK>
-9.40627715285 <s> мурда
-9.40627715285 бүгүнкү <UNK>
-9.40627715285 денеси <UNK>
-9.40627715285 күйдүм чок
-9.40627715285 <s> ай
-9.40627715285 <UNK> жери
-9.40627715285 оюн <UNK>
-9.40627715285 көргөн </s>
-9.40627715285 жооп кайтарды
-9.40627715285 тамаша <UNK>
-9.40627715285 <UNK> мага
-9.40627715285 өткөндөн кийин
-9.40627715285 чал <UNK>
-9.40627715285 <s> апасы
-9.40627715285 бир жагынан
-9.40627715285 дегенсип атай
-9.40627715285 деп койду
-9.40627715285 садыр <UNK>
-9.40627715285 <UNK> экинчи
-9.40627715285 жалпы <UNK>
-9.40627715285 <s> өмүрүндө
-9.40627715285 мени менен
-9.40627715285 <UNK> издеп
-9.40627715285 <s> отургандар
-9.40627715285 эртең менен
-9.40627715285 <s> садыр
-9.40627715285 <UNK> болгондо
-9.40627715285 окууга <UNK>
-9.40627715285 чакырды </s>
-9.40627715285 кылат </s>
-9.40627715285 <s> оо
-9.40627715285 атайдын жүрөгү
-9.40627715285 аз келгенсип
-9.40627715285 эки жигит
-9.40627715285 <UNK> төргө
-9.40627715285 <UNK> кыргыз
-9.40627715285 салкын <UNK>
-9.40627715285 алдын ала
-9.40627715285 ашып <UNK>
-9.40627715285 укканда <UNK>
-9.40627715285 <UNK> көр
-9.40627715285 тогуз <UNK>
-9.40627715285 <UNK> кеп
-9.40627715285 <UNK> качан
-9.40627715285 ара <UNK>
-9.40627715285 кишилердин <UNK>
-9.40627715285 дей түштү
-9.40627715285 тууган <UNK>
-9.40627715285 <s> жантакпайдын
-9.40627715285 кан <UNK>
-9.40627715285 жылы <UNK>
-9.40627715285 эс <UNK>
-9.40627715285 жүгөрүнүн <UNK>
-9.40627715285 бүткүл <UNK>
-9.40627715285 өрөөндүн <UNK>
-9.40627715285 <UNK> атын
-9.40627715285 кайсы жерде
-9.40627715285 <s> талас
-9.40627715285 <UNK> узун
-9.40627715285 <s> анда
-9.40627715285 <UNK> өзүм
-9.40627715285 <UNK> жүрөгү
-9.40627715285 менен бир
-9.40627715285 <UNK> неме
-9.40627715285 <UNK> эгин
-9.40627715285 он <UNK>
-9.40627715285 <UNK> аксакал
-9.40627715285 <UNK> атка
-9.40627715285 бир сыйра
-9.40627715285 <UNK> кое
-9.40627715285 жүрөм </s>
-9.40627715285 тийип <UNK>
-9.40627715285 бектен <UNK>
-9.40627715285 дешти </s>
-9.40627715285 эр <UNK>
-9.40627715285 үнүн <UNK>
-9.40627715285 кетментөбөгө <UNK>
-9.40627715285 жолдо <UNK>
-9.40627715285 атты <UNK>
-9.40627715285 дабышы <UNK>
-9.40627715285 <UNK> мамыр
-9.40627715285 деп сурады
-9.40627715285 туруп калды
-9.40627715285 басылды </s>
-9.40627715285 алды да
-9.40627715285 <UNK> оокат
-9.40627715285 бай менен
-9.40627715285 <UNK> кичинекей
-9.40627715285 <s> бая
-9.40627715285 карашты </s>
-9.40627715285 келдим </s>
-9.40627715285 <UNK> баштап
-9.40627715285 <UNK> аралап
-9.40627715285 <UNK> ошо
-9.40627715285 мураталы <UNK>
-9.40627715285 тосуп <UNK>
-9.40627715285 ээрчитип <UNK>
-9.40627715285 <UNK> биздин
-9.40627715285 ээ <UNK>
-9.40627715285 <UNK> ээрчитип
-9.40627715285 калса <UNK>
-9.40627715285 атынын башын
-9.53980854548 <s> үйдүн
-9.53980854548 ортосунда <UNK>
-9.53980854548 бурду </s>
-9.53980854548 күттү </s>
-9.53980854548 өмүр бою
-9.53980854548 <UNK> кошо
-9.53980854548 каарына <UNK>
-9.53980854548 <UNK> көңүлүн
-9.53980854548 <s> арадан
-9.53980854548 эч кимдин
-9.53980854548 да башка
-9.53980854548 баалуу <UNK>
-9.53980854548 боло турган
-9.53980854548 этип <UNK>
-9.53980854548 <s> эмнеси
-9.53980854548 беришет </s>
-9.53980854548 жакшы билүүчү
-9.53980854548 <UNK> аманэсен
-9.53980854548 <UNK> болобу
-9.53980854548 болуп калды
-9.53980854548 ар кандай
-9.53980854548 маалда <UNK>
-9.53980854548 ушуну менен
-9.53980854548 <UNK> кубанычтуу
-9.53980854548 <UNK> султаналынын
-9.53980854548 ичип <UNK>
-9.53980854548 турбайбы </s>
-9.53980854548 кандай экенин
-9.53980854548 бу киши
-9.53980854548 <UNK> коркуп
-9.53980854548 <s> акыры
-9.53980854548 <UNK> берген
-9.53980854548 <UNK> кеңкол
-9.53980854548 аягы <UNK>
-9.53980854548 <UNK> кармаган
-9.53980854548 экинчи <UNK>
-9.53980854548 тиктеп турду
-9.53980854548 кетет </s>
-9.53980854548 токтотту </s>
-9.53980854548 жөнөштү </s>
-9.53980854548 <UNK> кулагы
-9.53980854548 <UNK> канча
-9.53980854548 каякка барарын
-9.53980854548 <UNK> комузду
-9.53980854548 <UNK> жерден
-9.53980854548 биздин үйдө
-9.53980854548 <s> тойкожо
-9.53980854548 кудая шүгүр
-9.53980854548 жумшак <UNK>
-9.53980854548 жараша <UNK>
-9.53980854548 комузун алып
-9.53980854548 <UNK> кайрадан
-9.53980854548 <s> эшикке
-9.53980854548 жеңеси <UNK>
-9.53980854548 азырынча <UNK>
-9.53980854548 эркин <UNK>
-9.53980854548 жатышат </s>
-9.53980854548 бая эле
-9.53980854548 сууруп чыкты
-9.53980854548 калышкан </s>
-9.53980854548 анатолий <UNK>
-9.53980854548 <UNK> салынган
-9.53980854548 ортосундагы <UNK>
-9.53980854548 <UNK> келишти
-9.53980854548 арман <UNK>
-9.53980854548 чыкканда <UNK>
-9.53980854548 деп атай
-9.53980854548 айтышты </s>
-9.53980854548 <UNK> жазып
-9.53980854548 сайма <UNK>
-9.53980854548 <UNK> андай
-9.53980854548 күнгө чейин
-9.53980854548 түшүнө албай
-9.53980854548 жаш жигит
-9.53980854548 колуна алып
-9.53980854548 <UNK> бою
-9.53980854548 <UNK> оозу
-9.53980854548 да эл
-9.53980854548 <UNK> ылдый
-9.53980854548 оң <UNK>
-9.53980854548 түшөт </s>
-9.53980854548 <s> өзүнүн
-9.53980854548 болгон жок
-9.53980854548 <UNK> баласы
-9.53980854548 <UNK> адам
-9.53980854548 зуура <UNK>
-9.53980854548 көзүнүн <UNK>
-9.53980854548 соң <UNK>
-9.53980854548 сөзүнө <UNK>
-9.53980854548 бекен <UNK>
-9.53980854548 <s> эмнеге
-9.53980854548 <UNK> дешти
-9.53980854548 <UNK> айланды
-9.53980854548 <s> айыл
-9.53980854548 кап <UNK>
-9.53980854548 моюн <UNK>
-9.53980854548 сулуу <UNK>
-9.53980854548 <UNK> сыртынан
-9.53980854548 ошондой эле
-9.53980854548 <UNK> сунду
-9.53980854548 <UNK> кетет
-9.53980854548 күтөт </s>
-9.53980854548 жагында <UNK>
-9.53980854548 <UNK> түшөт
-9.53980854548 дегенде <UNK>
-9.53980854548 тараптан <UNK>
-9.53980854548 ала качып
-9.53980854548 ээ балам
-9.53980854548 <UNK> ач
-9.53980854548 <s> ошондуктан
-9.53980854548 деди султаналы
-9.53980854548 акыл <UNK>
-9.53980854548 <UNK> башкалар
-9.53980854548 колунун <UNK>
-9.53980854548 тийди </s>
-9.53980854548 ким билсин
-9.53980854548 <UNK> ошону
-9.53980854548 кимдин <UNK>
-9.53980854548 неме <UNK>
-9.53980854548 <UNK> иш
-9.53980854548 жигитке <UNK>
-9.53980854548 коюшат </s>
-9.53980854548 <UNK> так
-9.53980854548 <UNK> көрүнөт
-9.53980854548 <UNK> болор
-9.53980854548 көрүшөт </s>
-9.53980854548 барган сайын
-9.53980854548 кызы <UNK>
-9.53980854548 боюн <UNK>
-9.53980854548 мурда эле
-9.53980854548 айткан жок
-9.53980854548 <s> оторбай
-9.53980854548 кишилер да
-9.53980854548 ушул учурда
-9.53980854548 чыга <UNK>
-9.53980854548 катарына <UNK>
-9.53980854548 <s> чор
-9.53980854548 кедей <UNK>
-9.53980854548 зыйнат <UNK>
-9.53980854548 манастын <UNK>
-9.53980854548 башынан <UNK>
-9.53980854548 кадимкидей <UNK>
-9.53980854548 кишилер менен
-9.53980854548 койду да
-9.53980854548 <UNK> алдын
-9.53980854548 эмесмин </s>
-9.53980854548 <UNK> жаныбек
-9.53980854548 кызы менен
-9.53980854548 ал эмне
-9.53980854548 дүйнө <UNK>
-9.53980854548 уулу <UNK>
-9.53980854548 <UNK> тышкары
-9.53980854548 тамагын жасап
-9.53980854548 мындан башка
-9.53980854548 эч жакка
-9.53980854548 жанындагы <UNK>
-9.53980854548 <s> меймандар
-9.53980854548 <UNK> эмеспи
-9.53980854548 атай үчүн
-9.53980854548 <UNK> алдынан
-9.53980854548 а <UNK>
-9.53980854548 заман <UNK>
-9.53980854548 ошол </s>
-9.53980854548 кар <UNK>
-9.53980854548 <UNK> атайды
-9.53980854548 эмес экен
-9.53980854548 <UNK> таш
-9.53980854548 анысы аз
-9.53980854548 токтогул да
-9.53980854548 ачык </s>
-9.53980854548 күйөөсү <UNK>
-9.53980854548 мунусу <UNK>
-9.53980854548 аз </s>
-9.53980854548 <s> зуура
-9.53980854548 күч <UNK>
-9.53980854548 <UNK> дешет
-9.53980854548 чакырып <UNK>
-9.53980854548 <UNK> үйү
-9.53980854548 күүлөрүн <UNK>
-9.53980854548 жетпей <UNK>
-9.53980854548 кошулуп <UNK>
-9.53980854548 <UNK> анык
-9.53980854548 атка минип
-9.53980854548 өзү эле
-9.53980854548 <UNK> этет
-9.53980854548 күнүтүнү <UNK>
-9.53980854548 <s> бүгүнкү
-9.53980854548 малдын <UNK>
-9.53980854548 эми ал
-9.53980854548 манат байбиче
-9.53980854548 айланды </s>
-9.53980854548 <s> чай
-9.53980854548 <UNK> толук
-9.53980854548 чырымдын <UNK>
-9.53980854548 керек болсо
-9.53980854548 <s> молдонун
-9.53980854548 мейман <UNK>
-9.53980854548 <UNK> акырында
-9.53980854548 ачууланды </s>
-9.53980854548 деген суроо
-9.53980854548 өнөрүн <UNK>
-9.53980854548 жана аны
-9.53980854548 <s> баса
-9.53980854548 <UNK> жатат
-9.53980854548 <UNK> турмуш
-9.53980854548 баратканын <UNK>
-9.53980854548 <UNK> кылат
-9.53980854548 ден <UNK>
-9.53980854548 алгачкы <UNK>
-9.53980854548 <UNK> оор
