
\data\
ngram 1=238
ngram 2=278

\1-grams:
-2.71469474382 </s> -2.71469474382
-2.71469474382 <s> -2.68030482688
-3.91866754815 менен -3.91403629848
-4.32413265625 арыктын -4.32323249457
-4.32413265625 ушул -4.32323249457
-4.32413265625 бул -4.32010504871
-4.32413265625 кең -4.32115215658
-4.32413265625 талас -4.32010504871
-5.64143414589 чоң -5.64083420585
-5.64143414589 да -5.64083420585
-5.64143414589 жаткан -5.64853735535
-5.64143414589 бой -5.64083420585
-5.64143414589 бирде -5.64083420585
-5.64143414589 деп -5.64853735535
-5.64143414589 аталат -5.58357149393
-5.64143414589 жер -5.64083420585
-5.64143414589 калган -5.57271331726
-5.64143414589 көз -5.64083420585
-5.64143414589 жарып -5.64083420585
-5.64143414589 окшоп -5.62792442465
-5.64143414589 кара -5.64083420585
-5.64143414589 гана -5.64083420585
-7.75350091488 казандай -7.75320102869
-7.75350091488 баары -7.75320102869
-7.75350091488 окторулган -7.75320102869
-7.75350091488 ким -7.75320102869
-7.75350091488 токой -7.75007627301
-7.75350091488 эски -7.75320102869
-7.75350091488 жеринин -7.75320102869
-7.75350091488 күкүктөп -7.75320102869
-7.75350091488 атактуу -7.75320102869
-7.75350091488 агымына -7.75320102869
-7.75350091488 көлбүп -7.75320102869
-7.75350091488 көктүн -7.75320102869
-7.75350091488 алакандай -7.75320102869
-7.75350091488 ылай -7.75320102869
-7.75350091488 кирген -7.75320102869
-7.75350091488 агышы -7.75320102869
-7.75350091488 шылдырап -7.75320102869
-7.75350091488 өскөн -7.75320102869
-7.75350091488 боюндагы -7.75320102869
-7.75350091488 арстандын -7.75320102869
-7.75350091488 балким -7.74029682715
-7.75350091488 мейкин -7.75320102869
-7.75350091488 калса -7.75320102869
-7.75350091488 күбөсүнө -7.75007627301
-7.75350091488 мончокторуна -7.75320102869
-7.75350091488 кеңколдун -7.75320102869
-7.75350091488 жиберген -7.68511041158
-7.75350091488 алабармандап -7.75320102869
-7.75350091488 тынч -7.75007627301
-7.75350091488 мындай -7.75007627301
-7.75350091488 сыры -7.75320102869
-7.75350091488 калдыратып -7.75320102869
-7.75350091488 эле -7.75320102869
-7.75350091488 ээрчитип -7.75320102869
-7.75350091488 батышты -7.75320102869
-7.75350091488 экенин -7.75320102869
-7.75350091488 суусуну -7.75320102869
-7.75350091488 канып -7.75320102869
-7.75350091488 чымыраган -7.75320102869
-7.75350091488 майдамайда -7.75320102869
-7.75350091488 таштарды -7.75320102869
-7.75350091488 үмүтмобу -7.75320102869
-7.75350091488 кырка -7.75320102869
-7.75350091488 арык -7.75320102869
-7.75350091488 алынчу -7.75320102869
-7.75350091488 каттай -7.75320102869
-7.75350091488 теректерди -7.75320102869
-7.75350091488 кочкул -7.75320102869
-7.75350091488 теңселишет -7.68511041158
-7.75350091488 буурадай -7.75320102869
-7.75350091488 курчалган -7.74029682715
-7.75350091488 алгандай -7.75007627301
-7.75350091488 тиреше -7.75320102869
-7.75350091488 бурулган -7.68511041158
-7.75350091488 алышпай -7.75007627301
-7.75350091488 түшкөн -7.68511041158
-7.75350091488 сыймыктанышып -7.75320102869
-7.75350091488 сууну -7.75320102869
-7.75350091488 чуңкурлар -7.75320102869
-7.75350091488 болгондой -7.75007627301
-7.75350091488 өзөндү -7.75320102869
-7.75350091488 күрүлдөйт -7.68511041158
-7.75350091488 кадыресе -7.75320102869
-7.75350091488 жуук -7.75007627301
-7.75350091488 жайлар -7.75320102869
-7.75350091488 мол -7.75320102869
-7.75350091488 өрөөндүн -7.75320102869
-7.75350091488 өзү -7.75320102869
-7.75350091488 түнү -7.73356279497
-7.75350091488 ак -7.75320102869
-7.75350091488 учуру -7.75320102869
-7.75350091488 жашарган -7.75320102869
-7.75350091488 кыялды -7.75320102869
-7.75350091488 күңгөйтескей -7.75320102869
-7.75350091488 жаздымында -7.75320102869
-7.75350091488 агып -7.75007627301
-7.75350091488 жаңырып -7.75320102869
-7.75350091488 жалына -7.75007627301
-7.75350091488 айкөл -7.75320102869
-7.75350091488 кашаттын -7.75007627301
-7.75350091488 кай -7.75007627301
-7.75350091488 караганда -7.75320102869
-7.75350091488 теректер -7.75320102869
-7.75350091488 дүпүйүп -7.75320102869
-7.75350091488 чайырлуу -7.75320102869
-7.75350091488 айланганына -7.75320102869
-7.75350091488 мунун -7.75320102869
-7.75350091488 жерди -7.75007627301
-7.75350091488 ачылгандай -7.68511041158
-7.75350091488 таңга -7.75320102869
-7.75350091488 чаап -7.75007627301
-7.75350091488 шиленип -7.75320102869
-7.75350091488 жактагылар -7.75320102869
-7.75350091488 арыктардын -7.75320102869
-7.75350091488 бай -7.68511041158
-7.75350091488 кырынан -7.75320102869
-7.75350091488 суусунан -7.75320102869
-7.75350091488 тоолор -7.73356279497
-7.75350091488 жазып -7.75320102869
-7.75350091488 жүк -7.75320102869
-7.75350091488 тепкедей -7.75320102869
-7.75350091488 жайык -7.75320102869
-7.75350091488 далай -7.75320102869
-7.75350091488 бет -7.75320102869
-7.75350091488 жактары -7.75320102869
-7.75350091488 жада -7.75320102869
-7.75350091488 таш -7.75320102869
-7.75350091488 жатат -7.68511041158
-7.75350091488 эми -7.75320102869
-7.75350091488 күңгөй -7.75320102869
-7.75350091488 жаратылыштын -7.74029682715
-7.75350091488 өйүзбүйүздөгүлөр -7.75320102869
-7.75350091488 дүйнөдө -7.75320102869
-7.75350091488 азуусундай -7.75320102869
-7.75350091488 эске -7.75320102869
-7.75350091488 зарыктырган -7.75320102869
-7.75350091488 көккашат -7.75007627301
-7.75350091488 манастын -7.75320102869
-7.75350091488 аралаш -7.75320102869
-7.75350091488 ортосунда -7.75320102869
-7.75350091488 алдыга -7.75320102869
-7.75350091488 экенине -7.75320102869
-7.75350091488 дөңсөөнүн -7.75320102869
-7.75350091488 тарыхтын -7.75320102869
-7.75350091488 ага -7.75320102869
-7.75350091488 көпүрөлөр -7.75320102869
-7.75350091488 атырылып -7.75320102869
-7.75350091488 баатырдын -7.75320102869
-7.75350091488 тарапта -7.75320102869
-7.75350091488 ээлендирип -7.75320102869
-7.75350091488 көлчүктөргө -7.75320102869
-7.75350091488 түбү -7.73356279497
-7.75350091488 ал -7.75320102869
-7.75350091488 ажыдаардын -7.75320102869
-7.75350091488 калып -7.75320102869
-7.75350091488 элесин -7.75007627301
-7.75350091488 ташкындатып -7.75320102869
-7.75350091488 бирибири -7.73356279497
-7.75350091488 чытырман -7.75320102869
-7.75350091488 анткени -7.73356279497
-7.75350091488 бар -7.75320102869
-7.75350091488 чыккан -7.75320102869
-7.75350091488 айкындайт -7.68511041158
-7.75350091488 төгүп -7.75320102869
-7.75350091488 тасырайып -7.75320102869
-7.75350091488 тактайдай -7.75320102869
-7.75350091488 көрөңгөсүнүн -7.75320102869
-7.75350091488 мас -7.75320102869
-7.75350091488 болуп -7.75320102869
-7.75350091488 созулуп -7.75320102869
-7.75350091488 дарбазадай -7.75320102869
-7.75350091488 башка -7.75320102869
-7.75350091488 жуулуп -7.75320102869
-7.75350091488 кулак -7.75320102869
-7.75350091488 жамгыр -7.75320102869
-7.75350091488 чыгыштан -7.75320102869
-7.75350091488 тартат -7.68511041158
-7.75350091488 купуя -7.75320102869
-7.75350091488 сүрөп -7.75320102869
-7.75350091488 жерге -7.75320102869
-7.75350091488 эзелден -7.74029682715
-7.75350091488 тептегиз -7.75320102869
-7.75350091488 кызыл -7.75320102869
-7.75350091488 капкачан -7.75320102869
-7.75350091488 келгенде -7.75007627301
-7.75350091488 жабалактай -7.75320102869
-7.75350091488 оозундагы -7.75320102869
-7.75350091488 маңдайлаш -7.75320102869
-7.75350091488 алааматы -7.75320102869
-7.75350091488 какшып -7.75007627301
-7.75350091488 шаркырап -7.75007627301
-7.75350091488 каптагандай -7.75320102869
-7.75350091488 жаңы -7.75320102869
-7.75350091488 агызып -7.75320102869
-7.75350091488 го -7.68511041158
-7.75350091488 кумга -7.75320102869
-7.75350091488 барын -7.75320102869
-7.75350091488 чамынып -7.75320102869
-7.75350091488 биринсерин -7.75320102869
-7.75350091488 туура -7.74029682715
-7.75350091488 таштайт -7.68511041158
-7.75350091488 өткөн -7.75320102869
-7.75350091488 суусунун -7.75007627301
-7.75350091488 кеткен -7.68511041158
-7.75350091488 күчүнөн -7.68511041158
-7.75350091488 агындыларга -7.75320102869
-7.75350091488 башы -7.74029682715
-7.75350091488 тартып -7.75320102869
-7.75350091488 айылдан -7.75320102869
-7.75350091488 бойлой -7.75320102869
-7.75350091488 ойтоонун -7.75320102869
-7.75350091488 кубат -7.75320102869
-7.75350091488 көк -7.75320102869
-7.75350091488 күн -7.75320102869
-7.75350091488 агышына -7.75320102869
-7.75350091488 бүрчүктөрүн -7.75007627301
-7.75350091488 шектенет -7.74029682715
-7.75350091488 жылаажындуу -7.75320102869
-7.75350091488 арсак -7.75320102869
-7.75350091488 эпсиз -7.75320102869
-7.75350091488 нугу -7.75320102869
-7.75350091488 күмбөзү -7.75320102869
-7.75350091488 алдындагы -7.75320102869
-7.75350091488 билишпес -7.68511041158
-7.75350091488 жепирекей -7.75320102869
-7.75350091488 жомокко -7.75320102869
-7.75350091488 дарегин -7.75320102869
-7.75350091488 тарткан -7.75320102869
-7.75350091488 какырчикир -7.75320102869
-7.75350091488 салгылачы -7.68511041158
-7.75350091488 көздөй -7.75320102869
-7.75350091488 кайра -7.75320102869
-7.75350091488 анын -7.74029682715
-7.75350091488 суу -7.75320102869
-7.75350091488 өмүрлөрүнө -7.75320102869
-7.75350091488 аша -7.75320102869

\2-grams:
-4.54683460898 аталат </s>
-4.54683460898 деп аталат
-4.54683460898 жаткан чоң
-4.54683460898 кең талас
-4.54683460898 <s> бул
-8.95233359983 кубат алгандай
-8.95233359983 чытырман токой
-8.95233359983 каптагандай көлбүп
-8.95233359983 созулуп жатат
-8.95233359983 купуя сыры
-8.95233359983 экенин өзү
-8.95233359983 чыгыштан батышты
-8.95233359983 кадыресе жабалактай
-8.95233359983 бойлой өскөн
-8.95233359983 калган эски
-8.95233359983 шектенет ушул
-8.95233359983 күңгөй тарапта
-8.95233359983 көлбүп какшып
-8.95233359983 жиберген </s>
-8.95233359983 сүрөп барын
-8.95233359983 арыктардын нугу
-8.95233359983 жуулуп кеткен
-8.95233359983 кырынан аша
-8.95233359983 далай жерге
-8.95233359983 жаратылыштын ушул
-8.95233359983 суусунун бирде
-8.95233359983 жүк тактайдай
-8.95233359983 шиленип чуңкурлар
-8.95233359983 жазып кадыресе
-8.95233359983 батышты көздөй
-8.95233359983 эле айкындайт
-8.95233359983 казандай таштарды
-8.95233359983 түнү менен
-8.95233359983 <s> эми
-8.95233359983 кара жамгыр
-8.95233359983 майдамайда көлчүктөргө
-8.95233359983 кыялды окторулган
-8.95233359983 тептегиз болуп
-8.95233359983 алааматы тынч
-8.95233359983 жайык көккашат
-8.95233359983 курчалган кең
-8.95233359983 кочкул тартып
-8.95233359983 тасырайып созулуп
-8.95233359983 тиреше теңселишет
-8.95233359983 эзелден кең
-8.95233359983 чаап кара
-8.95233359983 бет маңдайлаш
-8.95233359983 каттай алышпай
-8.95233359983 жамгыр төгүп
-8.95233359983 атырылып агышы
-8.95233359983 арстандын жалына
-8.95233359983 канып кубат
-8.95233359983 талас жомокко
-8.95233359983 азуусундай арсак
-8.95233359983 келгенде гана
-8.95233359983 кулак салгылачы
-8.95233359983 күңгөйтескей жактары
-8.95233359983 чуңкурлар майдамайда
-8.95233359983 жаңырып кайра
-8.95233359983 дөңсөөнүн алдындагы
-8.95233359983 бүрчүктөрүн жарып
-8.95233359983 эпсиз күрүлдөйт
-8.95233359983 тарткан жепирекей
-8.95233359983 болуп кырка
-8.95233359983 суу каптагандай
-8.95233359983 өрөөндүн ортосунда
-8.95233359983 жеринин элесин
-8.95233359983 бирде алабармандап
-8.95233359983 мол го
-8.95233359983 менен каттай
-8.95233359983 <s> кыялды
-8.95233359983 какырчикир агындыларга
-8.95233359983 <s> анын
-8.95233359983 алдыга тартат
-8.95233359983 <s> кең
-8.95233359983 аралаш кумга
-8.95233359983 жашарган өмүрлөрүнө
-8.95233359983 агызып казандай
-8.95233359983 төгүп күн
-8.95233359983 какшып калган
-8.95233359983 алдындагы алакандай
-8.95233359983 <s> мындай
-8.95233359983 айкөл манастын
-8.95233359983 нугу ылай
-8.95233359983 шаркырап бирде
-8.95233359983 баары суу
-8.95233359983 суусунан бурулган
-8.95233359983 таңга жуук
-8.95233359983 менен кара
-8.95233359983 көк мончокторуна
-8.95233359983 бирибири менен
-8.95233359983 эске алынчу
-8.95233359983 <s> мунун
-8.95233359983 түшкөн </s>
-8.95233359983 мунун дарегин
-8.95233359983 билишпес </s>
-8.95233359983 жер эзелден
-8.95233359983 элесин көз
-8.95233359983 бар экенине
-8.95233359983 кайра жашарган
-8.95233359983 учуру келгенде
-8.95233359983 гана эске
-8.95233359983 кең мейкин
-8.95233359983 арсак тоолор
-8.95233359983 күн таңга
-8.95233359983 өзөндү ээлендирип
-8.95233359983 калса тепкедей
-8.95233359983 чайырлуу бүрчүктөрүн
-8.95233359983 аша чаап
-8.95233359983 дарбазадай кызыл
-8.95233359983 мас болгондой
-8.95233359983 жактагылар билишпес
-8.95233359983 атактуу кеңколдун
-8.95233359983 анткени менен
-8.95233359983 жаздымында калып
-8.95233359983 эми ал
-8.95233359983 тынч жаткан
-8.95233359983 <s> зарыктырган
-8.95233359983 кара кочкул
-8.95233359983 <s> арыктын
-8.95233359983 токой да
-8.95233359983 тартат </s>
-8.95233359983 алакандай жайык
-8.95233359983 тепкедей кашаттын
-8.95233359983 бой тиреше
-8.95233359983 жылаажындуу шылдырап
-8.95233359983 маңдайлаш күңгөй
-8.95233359983 го </s>
-8.95233359983 дүйнөдө мол
-8.95233359983 салгылачы </s>
-8.95233359983 гана ачылгандай
-8.95233359983 таш айкөл
-8.95233359983 мындай көз
-8.95233359983 ким шектенет
-8.95233359983 экенине ким
-8.95233359983 барын таштайт
-8.95233359983 өткөн арык
-8.95233359983 дүпүйүп баатырдын
-8.95233359983 кумга какырчикир
-8.95233359983 теректерди түбү
-8.95233359983 бой жазып
-8.95233359983 алгандай бой
-8.95233359983 жабалактай түшкөн
-8.95233359983 көз алдыга
-8.95233359983 жепирекей дөңсөөнүн
-8.95233359983 ортосунда күкүктөп
-8.95233359983 бул кай
-8.95233359983 күрүлдөйт </s>
-8.95233359983 шылдырап агышына
-8.95233359983 дарегин балким
-8.95233359983 үмүтмобу жүк
-8.95233359983 бул жер
-8.95233359983 көпүрөлөр капкачан
-8.95233359983 агындыларга шиленип
-8.95233359983 мейкин чыгыштан
-8.95233359983 арык суусунун
-8.95233359983 айланганына караганда
-8.95233359983 башка жактагылар
-8.95233359983 агышы көрөңгөсүнүн
-8.95233359983 ал кирген
-8.95233359983 ак теректер
-8.95233359983 жомокко бай
-8.95233359983 ачылгандай </s>
-8.95233359983 жалына окшоп
-8.95233359983 бул туура
-8.95233359983 кеңколдун оозундагы
-8.95233359983 чамынып теректерди
-8.95233359983 теңселишет </s>
-8.95233359983 кирген буурадай
-8.95233359983 айылдан башка
-8.95233359983 калган </s>
-8.95233359983 көздөй тасырайып
-8.95233359983 жарып өткөн
-8.95233359983 буурадай чамынып
-8.95233359983 агып жаткан
-8.95233359983 ажыдаардын азуусундай
-8.95233359983 сууну бойлой
-8.95233359983 тарапта атактуу
-8.95233359983 капкачан жуулуп
-8.95233359983 өскөн чытырман
-8.95233359983 караганда түнү
-8.95233359983 биринсерин көпүрөлөр
-8.95233359983 жарып чыккан
-8.95233359983 таштарды калдыратып
-8.95233359983 кызыл таш
-8.95233359983 жерге сүрөп
-8.95233359983 менен курчалган
-8.95233359983 ылай аралаш
-8.95233359983 көктүн суусуну
-8.95233359983 күкүктөп агып
-8.95233359983 бай </s>
-8.95233359983 арыктын боюндагы
-8.95233359983 арыктын кырынан
-8.95233359983 менен жаңы
-8.95233359983 агымына ээрчитип
-8.95233359983 калдыратып эпсиз
-8.95233359983 арыктын башы
-8.95233359983 ташкындатып жиберген
-8.95233359983 өйүзбүйүздөгүлөр бирибири
-8.95233359983 алынчу жайлар
-8.95233359983 ушул жерди
-8.95233359983 ээрчитип далай
-8.95233359983 сыймыктанышып жаңырып
-8.95233359983 кырка тарткан
-8.95233359983 тоолор менен
-8.95233359983 бирде жылаажындуу
-8.95233359983 ушул айылдан
-8.95233359983 жактары ажыдаардын
-8.95233359983 окторулган агымына
-8.95233359983 баатырдын жеринин
-8.95233359983 айкындайт </s>
-8.95233359983 күмбөзү тарыхтын
-8.95233359983 бурулган </s>
-8.95233359983 суусуну канып
-8.95233359983 ойтоонун баары
-8.95233359983 зарыктырган үмүтмобу
-8.95233359983 <s> өрөөндүн
-8.95233359983 көлчүктөргө айланганына
-8.95233359983 жайлар дүйнөдө
-8.95233359983 да купуя
-8.95233359983 <s> биринсерин
-8.95233359983 жада калса
-8.95233359983 чоң өзөндү
-8.95233359983 алышпай калган
-8.95233359983 өмүрлөрүнө мас
-8.95233359983 көккашат деп
-8.95233359983 сыры бар
-8.95233359983 чыккан көк
-8.95233359983 тарыхтын күбөсүнө
-8.95233359983 жаңы чымыраган
-8.95233359983 ага бет
-8.95233359983 күбөсүнө окшоп
-8.95233359983 калып учуру
-8.95233359983 жерди жарып
-8.95233359983 <s> анткени
-8.95233359983 окшоп дүпүйүп
-8.95233359983 талас суусунан
-8.95233359983 таштайт </s>
-8.95233359983 ушул алааматы
-8.95233359983 ээлендирип ташкындатып
-8.95233359983 башы талас
-8.95233359983 манастын күмбөзү
-8.95233359983 көз жаздымында
-8.95233359983 анын арыктын
-8.95233359983 эски арыктардын
-8.95233359983 боюндагы ак
-8.95233359983 туура арыктын
-8.95233359983 теректер чайырлуу
-8.95233359983 агышына кулак
-8.95233359983 өзү эле
-8.95233359983 менен агызып
-8.95233359983 жуук гана
-8.95233359983 да арстандын
-8.95233359983 кеткен </s>
-8.95233359983 <s> жада
-8.95233359983 <s> күңгөйтескей
-8.95233359983 талас деп
-8.95233359983 күчүнөн </s>
-8.95233359983 алабармандап шаркырап
-8.95233359983 жатат </s>
-8.95233359983 тартып атырылып
-8.95233359983 <s> ойтоонун
-8.95233359983 кай жер
-8.95233359983 <s> жаратылыштын
-8.95233359983 көрөңгөсүнүн күчүнөн
-8.95233359983 окшоп бул
-8.95233359983 болгондой бой
-8.95233359983 жер экенин
-8.95233359983 чоң сууну
-8.95233359983 оозундагы дарбазадай
-8.95233359983 <s> ага
-8.95233359983 мончокторуна сыймыктанышып
-8.95233359983 түбү менен
-8.95233359983 <s> өйүзбүйүздөгүлөр
-8.95233359983 чымыраган көктүн
-8.95233359983 кашаттын да
-8.95233359983 балким ушул
-8.95233359983 тактайдай тептегиз

\end\